ڑ ढ 0.0056306
ہ ढ 0.0213964
د ढ 0.0022523
ڈ ढ 0.5033784
ه ढ 0.4673423
ش च 0.0008106
ک च 0.0002702
و च 0.0005404
چ च 0.9902729
ج च 0.0008106
خ च 0.0002702
س च 0.0002702
ا च 0.0002702
ز च 0.0008106
گ च 0.0002702
پ च 0.0010808
ر च 0.0002702
NULL च 0.0037828
ص च 0.0002702
خ ख़ 1.0000000
و औ 0.5000000
ا औ 0.5000000
أ ् 0.0000820
ج ् 0.0000820
ہ ् 0.0028684
س ् 0.0000820
ذ ् 0.0000820
َ ् 0.0000820
ڈ ् 0.0263891
ٹ ् 0.0007376
ر ् 0.0012293
NULL ् 0.4323062
ز ् 0.0004098
ل ् 0.0000820
ن ् 0.0011474
خ ् 0.0005737
ا ् 0.0007376
ش ् 0.0815440
ه ् 0.1907884
غ ् 0.0000820
ت ् 0.2443862
و ् 0.0003278
چ ् 0.0000820
ك ् 0.0030323
د ् 0.0032782
ی ् 0.0092608
گ ् 0.0000820
ب ् 0.0000820
پ ् 0.0001639
ز ी 0.0002474
ف ी 0.0001237
ی ी 0.9977737
NULL ी 0.0006184
ش ी 0.0001237
ك ी 0.0002474
و ी 0.0002474
ک ी 0.0002474
ا ी 0.0003711
ن ं 0.9919549
ڑ ं 0.0004023
ہ ं 0.0002011
و ं 0.0004023
ت ं 0.0002011
م ं 0.0044248
NULL ं 0.0014079
ی ं 0.0008045
ب ं 0.0002011
ه ड 0.0034483
ڈ ड 0.9751724
ئ ड 0.0006897
ڑ ड 0.0117241
گ ड 0.0006897
ز ड 0.0006897
ی ड 0.0013793
د ड 0.0034483
ر ड 0.0027586
پ त 0.0001196
ف त 0.0001196
ی त 0.0008372
د त 0.0008372
چ त 0.0001196
ك त 0.0002392
غ त 0.0001196
ه त 0.0002392
ت त 0.9917474
ا त 0.0002392
ن त 0.0009568
ز त 0.0001196
ل त 0.0001196
NULL त 0.0019136
ط त 0.0001196
ر त 0.0003588
ٹ त 0.0011960
ّ त 0.0001196
س त 0.0002392
ج त 0.0002392
غ ृ 0.0019646
و ृ 0.0019646
ی ृ 0.0589391
ل ृ 0.0019646
د ृ 0.0019646
ر ृ 0.9332024
ہ थ 0.0775816
ه थ 0.4617442
ت थ 0.4601391
ك थ 0.0005350
ن ो 0.0005536
NULL ो 0.0002768
ف ो 0.0002768
ی ो 0.0016607
و ो 0.9969554
ه ो 0.0002768
ب ल 0.0002683
ف ल 0.0001342
ل ल 0.9924873
NULL ल 0.0057687
م ल 0.0001342
ک ल 0.0004025
و ल 0.0001342
س ल 0.0001342
ا ल 0.0001342
ن ल 0.0002683
ج ल 0.0001342
و ू 0.9969811
پ ू 0.0003774
ه ू 0.0003774
ؤ ू 0.0003774
ز ू 0.0003774
د ू 0.0003774
NULL ू 0.0011321
س ए 0.0051020
ا ए 0.4336735
ے ए 0.0102041
ئ ए 0.0612245
ی ए 0.4897959
و उ 0.0255754
ا उ 0.9744246
ی ठ 0.0004482
ڈ ठ 0.0004482
ه ठ 0.4679516
ت ठ 0.4500224
ٹ ठ 0.0035858
د ठ 0.0004482
ہ ठ 0.0770955
ف फ़ 1.0000000
ن ँ 1.0000000
ق क़ 0.5000000
ک क़ 0.5000000
NULL म 0.0017724
پ म 0.0001772
ب म 0.0005317
ن म 0.0058490
ا म 0.0001772
س म 0.0008862
ه म 0.0003545
ت म 0.0001772
م म 0.9900744
ی ै 1.0000000
NULL ऱ 0.1000000
ہ ऱ 0.2000000
ه ऱ 0.7000000
ا द 0.0002536
ن द 0.0002536
ت द 0.0005072
ڈ द 0.0007608
ك द 0.0002536
ٹ द 0.0002536
د द 0.9944205
ر द 0.0007608
NULL द 0.0025361
ہ ढ़ 0.0711514
ڑ ढ़ 0.4631307
ڈ ढ़ 0.0012937
ه ढ़ 0.4631307
و ढ़ 0.0012937
ا ध 0.0002470
د ध 0.4606076
ہ ध 0.0607557
خ ध 0.0002470
م ध 0.0002470
ت ध 0.0002470
ه ध 0.4776488
پ क 0.0001094
گ क 0.0015311
ص क 0.0001094
چ क 0.0004374
ك क 0.1835083
و क 0.0001094
غ क 0.0002187
م क 0.0001094
ه क 0.0019685
ک क 0.8042432
ش क 0.0002187
ا क 0.0002187
خ क 0.0012030
ق क 0.0010936
ز क 0.0001094
NULL क 0.0038276
ر क 0.0006562
ح क 0.0001094
ج क 0.0002187
ی ऐ 0.5000000
ا ऐ 0.4875000
آ ऐ 0.0125000
غ ब 0.0004514
ڈ ब 0.0004514
پ ब 0.0009027
ب ब 0.9963891
ی ब 0.0006770
NULL ब 0.0011284
ز ज़ 1.0000000
س ष 0.0082248
ا ष 0.0020562
خ ष 0.0027416
ک ष 0.0006854
ه ष 0.0020562
غ ष 0.0006854
ك ष 0.0006854
و ष 0.0013708
ش ष 0.9801234
ف ष 0.0006854
گ ष 0.0006854
NULL ु 0.5063639
ط ु 0.0001720
ر ु 0.0001720
ب ु 0.0003440
ی ु 0.0013760
ا ु 0.0001720
ہ ु 0.0400757
ك ु 0.0153079
ِ ु 0.0003440
ٹ ु 0.0146199
و ु 0.0827313
ت ु 0.0861713
ڈ ु 0.0043000
ه ु 0.2180943
ش ु 0.0297558
خ आ 0.0011933
آ आ 0.6992840
ا आ 0.2971360
و आ 0.0023866
ح ह 0.0007079
ہ ह 0.3308164
‌ ह 0.0002360
چ ह 0.0002360
‍ ह 0.0073148
ه ह 0.6583294
ڈ ह 0.0002360
NULL ह 0.0004719
ر ह 0.0014158
گ ह 0.0002360
خ व 0.0001656
ٹ व 0.0001656
ك व 0.0001656
و व 0.9930429
ت व 0.0003313
ه व 0.0016565
ش व 0.0001656
ئ व 0.0001656
د व 0.0001656
NULL व 0.0004969
ر व 0.0001656
ب व 0.0028160
ل व 0.0001656
ی व 0.0003313
چ ञ 0.0168067
ی ञ 0.1890756
ن ञ 0.7941176
ب भ 0.6400000
ه भ 0.3271795
َ भ 0.0003419
ع भ 0.0003419
ہ भ 0.0314530
خ भ 0.0003419
ج भ 0.0003419
ر ा 0.0000736
NULL ा 0.0004782
ز ा 0.0000736
أ ा 0.0000736
ڈ ा 0.0001103
آ ा 0.0001103
ی ा 0.0003310
گ ा 0.0000368
ا ा 0.9962483
ق ा 0.0000368
ن ा 0.0000736
خ ा 0.0001103
ه ा 0.0019126
و ा 0.0000736
ك ा 0.0001471
ش ा 0.0000736
ع ा 0.0000368
ب ड़ 0.0007654
ه ड़ 0.0007654
ڈ ड़ 0.0022962
ڑ ड़ 0.9881362
ر ड़ 0.0061232
ن ड़ 0.0003827
NULL ड़ 0.0015308
س ः 0.1911765
ج ः 0.0147059
خ ः 0.0147059
NULL ः 0.1470588
ه ः 0.5147059
ش ः 0.1176471
ه ८ 1.0000000
ه झ 0.4779206
ہ झ 0.0245947
ج झ 0.4974846
ہ े 0.0003305
ِ े 0.0029742
ک े 0.0003305
ه े 0.0003305
ئ े 0.0003305
ے े 0.0568407
NULL े 0.0009914
ی े 0.9375413
ل े 0.0003305
ٹ छ 0.0004365
و छ 0.0004365
چ छ 0.4565692
ه छ 0.5124400
س छ 0.0004365
ہ छ 0.0279354
ن छ 0.0004365
پ छ 0.0008730
ف छ 0.0004365
ا ई 0.0288408
ی ई 0.5058236
ئ ई 0.4653356
س र 0.0000744
ڑ र 0.0003721
ل र 0.0004465
ز र 0.0002232
ر र 0.9933031
NULL र 0.0022323
م र 0.0000744
غ र 0.0001488
ت र 0.0005209
ه र 0.0011906
ك र 0.0002232
و र 0.0002232
ئ र 0.0000744
ا र 0.0005209
ن र 0.0000744
ی र 0.0002976
پ स 0.0001300
ز स 0.0001300
ل स 0.0001300
ص स 0.0007799
NULL स 0.0019498
آ स 0.0001300
ک स 0.0002600
م स 0.0002600
چ स 0.0001300
ش स 0.0007799
س स 0.9949305
ا स 0.0001300
خ स 0.0002600
ا प 0.0001556
ن प 0.0001556
چ प 0.0001556
و प 0.0001556
ه प 0.0018671
ت प 0.0001556
ش प 0.0003112
NULL प 0.0018671
ب प 0.0010892
پ प 0.9923759
ی प 0.0001556
ف प 0.0015559
ی ॄ 0.2500000
ر ॄ 0.7500000
ر NULL 0.0045573
ل NULL 0.0006510
ڑ NULL 0.0019531
س NULL 0.0019531
ہ NULL 0.0123698
ٹ NULL 0.0032552
‍ NULL 0.0013021
ب NULL 0.0013021
پ NULL 0.0006510
ی NULL 0.0156250
ا NULL 0.0253906
ن NULL 0.0117188
چ NULL 0.0019531
ك NULL 0.0013021
ِ NULL 0.0032552
و NULL 0.0026042
م NULL 0.0006510
ت NULL 0.0019531
غ NULL 0.0006510
ک NULL 0.0019531
ه NULL 0.9036458
ش NULL 0.0013021
س श 0.0074673
خ श 0.0006223
پ श 0.0006223
ه श 0.0006223
ز श 0.0012446
ش श 0.9894213
خ ऋ 0.0357143
ر ऋ 0.9285714
گ ऋ 0.0357143
غ घ 0.0011013
پ घ 0.0022026
ه घ 0.0341410
گ घ 0.9328194
ہ घ 0.0286344
ن घ 0.0011013
ڈ ि 0.0007331
‍ ि 0.0016756
ٹ ि 0.0178029
ج ि 0.0001047
س ि 0.0004189
ہ ि 0.0154990
ل ि 0.0049220
ر ि 0.0003142
NULL ि 0.3892554
ئ ि 0.0002094
ش ि 0.0494293
م ि 0.0001047
ک ि 0.0001047
ت ि 0.1827416
ه ि 0.1709079
و ि 0.0001047
ك ि 0.0213635
ن ि 0.0001047
ی ि 0.1442036
ٹ ॢ 1.0000000
ی ण 0.0006906
ن ण 0.9979282
د ण 0.0006906
ا ण 0.0006906
ی ‍ 0.3333333
و ‍ 0.3333333
ه ‍ 0.3333333
ا ऊ 0.2713755
و ऊ 0.7100372
ٴ ऊ 0.0037175
ؤ ऊ 0.0148699
چ ज 0.0024289
ڎ ज 0.0003470
خ ज 0.0006940
ن ज 0.0003470
ج ज 0.9743234
ض ज 0.0006940
گ ज 0.0170021
ز ज 0.0017349
ی ज 0.0003470
NULL ज 0.0020819
ز इ 0.0116279
ل इ 0.0087209
ر इ 0.0261628
ط इ 0.0029070
ٴ इ 0.0058140
س इ 0.0058140
أ इ 0.0058140
ج इ 0.0058140
ب इ 0.0029070
ف इ 0.0029070
ی इ 0.1569767
گ इ 0.0058140
ص इ 0.0029070
د इ 0.0174419
ه इ 0.0058140
ک इ 0.0058140
ت इ 0.0058140
م इ 0.0290698
ِ इ 0.0116279
و इ 0.0261628
ئ इ 0.1308140
ع इ 0.0029070
ش इ 0.0174419
ا इ 0.4767442
ن इ 0.0145349
خ इ 0.0029070
ق इ 0.0087209
ٹ ़ 0.0967742
ڈ ़ 0.1935484
م ़ 0.0967742
ت ़ 0.0322581
ن ़ 0.0322581
ڑ ़ 0.1935484
ی ़ 0.0645161
NULL ़ 0.2903226
ه : 1.0000000
گ ङ 0.0094340
ن ङ 0.9716981
ہ ङ 0.0094340
ا ङ 0.0094340
ئ ौ 0.0008026
ی ौ 0.0008026
و ौ 0.9975923
ر ौ 0.0008026
ز ख 0.0002454
گ ख 0.0002454
خ ख 0.0041718
ہ ख 0.0439264
س ख 0.0007362
ا ख 0.0002454
ک ख 0.4714110
م ख 0.0002454
ه ख 0.4770552
و ख 0.0012270
ك ख 0.0004908
ر न 0.0001497
NULL न 0.0025441
ب न 0.0000748
ی न 0.0001497
ل न 0.0001497
گ न 0.0000748
ا न 0.0000748
ن न 0.9946124
ک न 0.0000748
م न 0.0002993
ه न 0.0008231
ت न 0.0004490
و न 0.0004490
ش न 0.0000748
و ओ 0.5405405
ا ओ 0.4594595
ک ग 0.0016770
غ ग 0.0011979
چ ग 0.0002396
ك ग 0.0002396
ج ग 0.0004792
ق ग 0.0004792
ڑ ग 0.0002396
گ ग 0.9935314
NULL ग 0.0016770
د ग 0.0002396
ؤ अ 0.0004065
ع अ 0.0004065
ت अ 0.0004065
و अ 0.0008130
أ अ 0.0044715
ا अ 0.9918699
پ अ 0.0008130
آ अ 0.0008130
ہ फ 0.0013316
ه फ 0.0079893
پ फ 0.9760320
ف फ 0.0146471
غ ग़ 1.0000000
NULL ट 0.0030701
ط ट 0.0002791
ر ट 0.0008373
ٹ ट 0.9824170
ِ ट 0.0005582
ت ट 0.0128384
ِ य 0.0002407
و य 0.0004813
م य 0.0002407
ه य 0.0353791
ش य 0.0009627
ئ य 0.0074609
ا य 0.0007220
ب य 0.0002407
گ य 0.0004813
ی य 0.9511432
ڈ य 0.0002407
ہ य 0.0009627
ج य 0.0004813
ز य 0.0002407
ے य 0.0004813
NULL य 0.0002407
