ढ ڑ 0.0016784
ढ ہ 0.0065767
ढ د 0.0003418
ढ ڈ 0.1996427
ढ ه 0.0214826
च ش 0.0006386
च ک 0.0001075
च و 0.0001388
च چ 0.7740232
च ج 0.0008073
च خ 0.0133333
च س 0.0001296
च ا 0.0000321
च ز 0.0588235
च گ 0.0001972
च پ 0.0005607
च ر 0.0000718
च NULL 0.0011432
च ص 0.1111111
ख़ خ 0.2666667
औ و 0.0040949
औ ا 0.0018916
् أ 0.0625000
् ج 0.0002691
् ہ 0.0121149
् س 0.0001296
् ذ 1.0000000
् َ 0.5000000
् ڈ 0.1438142
् ٹ 0.0023597
् ر 0.0010763
् NULL 0.4307529
् ز 0.0980392
् ل 0.0001340
् ن 0.0006978
् خ 0.0933333
् ا 0.0002885
् ش 0.2117923
् ه 0.1205094
् غ 0.0312500
् ت 0.1929098
् و 0.0002776
् چ 0.0002112
् ك 0.0182446
् د 0.0068353
् ی 0.0061051
् گ 0.0001972
् ب 0.0001581
् پ 0.0002803
ी ز 0.0392157
ी ف 0.0294118
ी ی 0.4358420
ी NULL 0.0004083
ी ش 0.0002129
ी ك 0.0009862
ी و 0.0001388
ी ک 0.0002151
ी ا 0.0000962
ं ن 0.2458379
ं ڑ 0.0006714
ं ہ 0.0003461
ं و 0.0001388
ं ت 0.0000647
ं م 0.0039042
ं NULL 0.0005716
ं ی 0.0002161
ं ب 0.0001581
ड ه 0.0002588
ड ڈ 0.6315319
ड ئ 0.0010707
ड ڑ 0.0057066
ड گ 0.0001972
ड ز 0.0196078
ड ی 0.0001081
ड د 0.0008544
ड ر 0.0002870
त پ 0.0001402
त ف 0.0294118
त ی 0.0003782
त د 0.0011962
त چ 0.0002112
त ك 0.0009862
त غ 0.0312500
त ه 0.0001035
त ت 0.5364213
त ا 0.0000641
त ن 0.0003988
त ز 0.0196078
त ل 0.0001340
त NULL 0.0013065
त ط 0.2500000
त ر 0.0002153
त ٹ 0.0026219
त ّ 1.0000000
त س 0.0002592
त ج 0.0005382
ृ غ 0.0312500
ृ و 0.0000694
ृ ی 0.0016208
ृ ل 0.0001340
ृ د 0.0001709
ृ ر 0.0340844
थ ہ 0.0501904
थ ه 0.0446734
थ ت 0.0556346
थ ك 0.0004931
ो ن 0.0000997
ो NULL 0.0000817
ो ف 0.0294118
ो ی 0.0003242
ो و 0.2500000
ो ه 0.0000518
ल ب 0.0003161
ल ف 0.0294118
ल ل 0.9912904
ल NULL 0.0035114
ल م 0.0001775
ल ک 0.0003226
ल و 0.0000694
ल س 0.0001296
ल ا 0.0000321
ल ن 0.0000997
ल ج 0.0002691
ू و 0.1833703
ू پ 0.0001402
ू ه 0.0000518
ू ؤ 0.1666667
ू ز 0.0196078
ू د 0.0001709
ू NULL 0.0002450
ए س 0.0001296
ए ا 0.0027251
ए ے 0.0113636
ए ئ 0.0128480
ए ی 0.0051867
उ و 0.0013881
उ ا 0.0244301
ठ ی 0.0000540
ठ ڈ 0.0004466
ठ ه 0.0540429
ठ ت 0.0649502
ठ ٹ 0.0020975
ठ د 0.0001709
ठ ہ 0.0595362
फ़ ف 0.1764706
ँ ن 0.0003988
क़ ق 0.0588235
क़ ک 0.0001075
म NULL 0.0008166
म پ 0.0001402
म ب 0.0004742
म ن 0.0016449
म ا 0.0000321
म س 0.0006480
म ه 0.0001035
म ت 0.0000647
म م 0.9913043
ै ی 0.0489492
ऱ NULL 0.0000817
ऱ ہ 0.0006923
ऱ ه 0.0003624
द ا 0.0000321
द ن 0.0000498
द ت 0.0001294
द ڈ 0.0013399
द ك 0.0004931
द ٹ 0.0002622
द د 0.6700273
द ر 0.0002153
द NULL 0.0008166
ढ़ ہ 0.0190377
ढ़ ڑ 0.1201746
ढ़ ڈ 0.0004466
ढ़ ه 0.0185319
ढ़ و 0.0000694
ध ا 0.0000321
ध د 0.3186945
ध ہ 0.0851506
ध خ 0.0133333
ध م 0.0001775
ध ت 0.0000647
ध ه 0.1001139
क پ 0.0001402
क گ 0.0027608
क ص 0.1111111
क چ 0.0008448
क ك 0.8274162
क و 0.0000694
क غ 0.0625000
क م 0.0001775
क ه 0.0009318
क ک 0.7907527
क ش 0.0004257
क ا 0.0000641
क خ 0.1466667
क ق 0.5882353
क ز 0.0196078
क NULL 0.0028581
क ر 0.0004305
क ح 0.2500000
क ج 0.0005382
ऐ ی 0.0021611
ऐ ا 0.0012504
ऐ آ 0.0016863
ब غ 0.0625000
ब ڈ 0.0008933
ब پ 0.0005607
ब ب 0.6978031
ब ی 0.0001621
ब NULL 0.0004083
ज़ ز 0.3529412
ष س 0.0015552
ष ا 0.0000962
ष خ 0.0533333
ष ک 0.0001075
ष ه 0.0001553
ष غ 0.0312500
ष ك 0.0004931
ष و 0.0001388
ष ش 0.3043848
ष ف 0.0294118
ष گ 0.0001972
ु NULL 0.2404050
ु ط 0.2500000
ु ر 0.0000718
ु ب 0.0003161
ु ی 0.0004322
ु ا 0.0000321
ु ہ 0.0806507
ु ك 0.0438856
ु ِ 0.0869565
ु ٹ 0.0222863
ु و 0.0333842
ु ت 0.0324104
ु ڈ 0.0111657
ु ه 0.0656383
ु ش 0.0368242
आ خ 0.0133333
आ آ 0.9881956
आ ا 0.0079831
आ و 0.0001388
ह ح 0.7500000
ह ہ 0.4852890
ह ‌ 1.0000000
ह چ 0.0002112
ह ‍ 0.6326531
ह ه 0.1444249
ह ڈ 0.0004466
ह NULL 0.0001633
ह ر 0.0004305
ह گ 0.0001972
व خ 0.0133333
व ٹ 0.0002622
व ك 0.0004931
व و 0.4160883
व ت 0.0001294
व ه 0.0005177
व ش 0.0002129
व ئ 0.0010707
व د 0.0001709
व NULL 0.0002450
व ر 0.0000718
व ب 0.0026869
व ل 0.0001340
व ی 0.0001081
ञ چ 0.0008448
ञ ی 0.0024312
ञ ن 0.0094208
भ ب 0.2958748
भ ه 0.0495393
भ َ 0.5000000
भ ع 0.2500000
भ ہ 0.0318449
भ خ 0.0133333
भ ج 0.0002691
ा ر 0.0001435
ा NULL 0.0010616
ा ز 0.0392157
ा أ 0.1250000
ा ڈ 0.0013399
ा آ 0.0050590
ा ی 0.0004862
ा گ 0.0001972
ा ا 0.8683915
ा ق 0.0588235
ा ن 0.0000997
ा خ 0.0400000
ा ه 0.0026918
ा و 0.0001388
ा ك 0.0019724
ा ش 0.0004257
ा ع 0.2500000
ड़ ب 0.0003161
ड़ ه 0.0001035
ड़ ڈ 0.0026798
ड़ ڑ 0.8667338
ड़ ر 0.0011481
ड़ ن 0.0000498
ड़ NULL 0.0003266
ः س 0.0016848
ः ج 0.0002691
ः خ 0.0133333
ः NULL 0.0008166
ः ه 0.0018118
ः ش 0.0017029
८ ه 0.0000518
झ ه 0.0442592
झ ہ 0.0152302
झ ج 0.2395048
े ہ 0.0003461
े ِ 0.3913043
े ک 0.0001075
े ه 0.0000518
े ئ 0.0010707
े ے 0.9772727
े NULL 0.0002450
े ی 0.1532768
े ل 0.0001340
छ ٹ 0.0002622
छ و 0.0000694
छ چ 0.2209081
छ ه 0.0607723
छ س 0.0001296
छ ہ 0.0221530
छ ن 0.0000498
छ پ 0.0002803
छ ف 0.0294118
ई ا 0.0016671
ई ی 0.0492733
ई ئ 0.8982869
र س 0.0001296
र ڑ 0.0016784
र ل 0.0008040
र ز 0.0588235
र ر 0.9578789
र NULL 0.0024498
र م 0.0001775
र غ 0.0625000
र ت 0.0004528
र ه 0.0008282
र ك 0.0014793
र و 0.0002082
र ئ 0.0010707
र ا 0.0002244
र ن 0.0000498
र ی 0.0002161
स پ 0.0001402
स ز 0.0196078
स ل 0.0001340
स ص 0.6666667
स NULL 0.0012249
स آ 0.0016863
स ک 0.0002151
स م 0.0003549
स چ 0.0002112
स ش 0.0012771
स س 0.9919647
स ا 0.0000321
स خ 0.0266667
प ا 0.0000321
प ن 0.0000498
प چ 0.0002112
प و 0.0000694
प ه 0.0006212
प ت 0.0000647
प ش 0.0004257
प NULL 0.0009799
प ب 0.0011064
प پ 0.8940286
प ی 0.0000540
प ف 0.2941176
ॄ ی 0.0000540
ॄ ر 0.0002153
NULL ر 0.0005023
NULL ل 0.0001340
NULL ڑ 0.0010070
NULL س 0.0003888
NULL ہ 0.0065767
NULL ٹ 0.0013110
NULL ‍ 0.0408163
NULL ب 0.0003161
NULL پ 0.0001402
NULL ی 0.0012967
NULL ا 0.0012504
NULL ن 0.0008972
NULL چ 0.0006336
NULL ك 0.0009862
NULL ِ 0.2173913
NULL و 0.0002776
NULL م 0.0001775
NULL ت 0.0001941
NULL غ 0.0312500
NULL ک 0.0003226
NULL ه 0.0718501
NULL ش 0.0004257
श س 0.0015552
श خ 0.0133333
श پ 0.0001402
श ه 0.0000518
श ز 0.0392157
श ش 0.3384419
ऋ خ 0.0133333
ऋ ر 0.0018657
ऋ گ 0.0001972
घ غ 0.0312500
घ پ 0.0002803
घ ه 0.0016047
घ گ 0.1670282
घ ہ 0.0089997
घ ن 0.0000498
ि ڈ 0.0031264
ि ‍ 0.3265306
ि ٹ 0.0445726
ि ج 0.0002691
ि س 0.0005184
ि ہ 0.0512288
ि ل 0.0062977
ि ر 0.0002153
ि NULL 0.3035277
ि ئ 0.0021413
ि ش 0.1004683
ि م 0.0001775
ि ک 0.0001075
ि ت 0.1128865
ि ه 0.0844808
ि و 0.0000694
ि ك 0.1005917
ि ن 0.0000498
ि ی 0.0743962
ॢ ٹ 0.0002622
ण ی 0.0000540
ण ن 0.0720267
ण د 0.0001709
ण ا 0.0000321
‍ ی 0.0000540
‍ و 0.0000694
‍ ه 0.0000518
ऊ ا 0.0023404
ऊ و 0.0132565
ऊ ٴ 0.3333333
ऊ ؤ 0.6666667
ज چ 0.0014784
ज ڎ 1.0000000
ज خ 0.0266667
ज ن 0.0000498
ज ج 0.7556512
ज ض 1.0000000
ज گ 0.0096628
ज ز 0.0980392
ज ی 0.0000540
ज NULL 0.0004900
इ ز 0.0784314
इ ل 0.0004020
इ ر 0.0006458
इ ط 0.2500000
इ ٴ 0.6666667
इ س 0.0002592
इ أ 0.1250000
इ ج 0.0005382
इ ب 0.0001581
इ ف 0.0294118
इ ی 0.0029175
इ گ 0.0003944
इ ص 0.1111111
इ د 0.0010253
इ ه 0.0001035
इ ک 0.0002151
इ ت 0.0001294
इ م 0.0017746
इ ِ 0.1739130
इ و 0.0006247
इ ئ 0.0481799
इ ع 0.2500000
इ ش 0.0012771
इ ا 0.0052579
इ ن 0.0002492
इ خ 0.0133333
इ ق 0.1764706
़ ٹ 0.0007866
़ ڈ 0.0026798
़ م 0.0005324
़ ت 0.0000647
़ ن 0.0000498
़ ڑ 0.0020141
़ ی 0.0001081
़ NULL 0.0007349
: ه 0.0000518
ङ گ 0.0001972
ङ ن 0.0051341
ङ ہ 0.0003461
ङ ا 0.0000321
ौ ئ 0.0010707
ौ ی 0.0000540
ौ و 0.0862715
ौ ر 0.0000718
ख ز 0.0196078
ख گ 0.0001972
ख خ 0.2266667
ख ہ 0.0619592
ख س 0.0003888
ख ا 0.0000321
ख ک 0.2065591
ख م 0.0001775
ख ه 0.1006315
ख و 0.0003470
ख ك 0.0009862
न ر 0.0001435
न NULL 0.0027764
न ب 0.0001581
न ی 0.0001081
न ل 0.0002680
न گ 0.0001972
न ا 0.0000321
न ن 0.6625461
न ک 0.0001075
न م 0.0007098
न ه 0.0005694
न ت 0.0003881
न و 0.0004164
न ش 0.0002129
ओ و 0.0083287
ओ ا 0.0032702
ग ک 0.0007527
ग غ 0.1562500
ग چ 0.0002112
ग ك 0.0004931
ग ج 0.0005382
ग ق 0.1176471
ग ڑ 0.0003357
ग گ 0.8177874
ग NULL 0.0005716
ग د 0.0001709
अ ؤ 0.1666667
अ ع 0.2500000
अ ت 0.0000647
अ و 0.0001388
अ أ 0.6875000
अ ا 0.0782277
अ پ 0.0002803
अ آ 0.0033727
फ ہ 0.0003461
फ ه 0.0003106
फ پ 0.1027474
फ ف 0.3235294
ग़ غ 0.4687500
ट NULL 0.0008983
ट ط 0.2500000
ट ر 0.0002153
ट ٹ 0.9229156
ट ِ 0.0869565
ट ت 0.0029758
य ِ 0.0434783
य و 0.0001388
य م 0.0001775
य ه 0.0076095
य ش 0.0008514
य ئ 0.0331906
य ا 0.0000962
य ب 0.0001581
य گ 0.0003944
य ی 0.2135177
य ڈ 0.0004466
य ہ 0.0013846
य ج 0.0005382
य ز 0.0196078
य ے 0.0113636
य NULL 0.0000817
