
\data\
ngram 1=43
ngram 2=1712
ngram 3=30712

\1-grams:
-0.6592533	</s>
-99	<s>	-4.858882
-2.365252	آ	0
-3.398492	ؤ	-2.529965
-2.087466	ئ	0
-1.005921	ا	0
-1.643442	ب	0
-1.510527	ت	0
-2.92215	ث	-3.005624
-1.901004	ج	0
-2.097901	ح	0
-2.301734	خ	0
-1.698502	د	0
-2.852269	ذ	-2.863223
-1.301813	ر	0
-2.255834	ز	0
-1.552174	س	0
-2.159847	ش	-1.087351
-2.327138	ص	-2.529048
-2.664111	ض	-3.230506
-2.482973	ط	-3.522814
-2.811168	ظ	-3.311342
-1.995882	ع	0
-2.792629	غ	-2.717034
-2.10712	ف	0
-2.107787	ق	-1.086968
-1.510519	ل	0
-1.422019	م	0
-1.408082	ن	0
-1.315286	و	0
-2.356209	ٹ	-2.624979
-1.911156	پ	-2.694098
-2.320381	چ	-1.102629
-2.714681	ڈ	-2.546343
-2.701837	ڑ	-2.790003
-4.408813	ژ	-3.373373
-1.285518	ک	0
-2.053357	گ	-2.674851
-1.710429	ں	-2.163526
-1.874955	ھ	-2.689999
-1.344282	ہ	0
-1.106383	ی	0
-1.403233	ے	0

\2-grams:
-1.750889	<s> آ	-0.3247538
-4.945099	<s> ؤ	-1.351272
-3.796112	<s> ئ	-0.978632
-0.8895291	<s> ا	0
-1.268061	<s> ب	-99
-1.380364	<s> ت	-0.06118107
-3.025289	<s> ث	-1.435759
-1.462349	<s> ج	-0.3010149
-1.829569	<s> ح	-0.73558
-1.889416	<s> خ	-1.255771
-1.526727	<s> د	-1.753786
-2.566946	<s> ذ	-3.530236
-1.663801	<s> ر	-1.096755
-2.221928	<s> ز	-1.388576
-1.298011	<s> س	-0.7771134
-1.914558	<s> ش	0.04527283
-2.045755	<s> ص	-0.7089586
-2.729075	<s> ض	-2.224525
-2.153076	<s> ط	-1.795444
-3.088948	<s> ظ	-1.085079
-1.74432	<s> ع	-1.171867
-2.489281	<s> غ	-1.444535
-1.93275	<s> ف	0
-1.989085	<s> ق	-0.8391223
-1.64196	<s> ل	-0.2605095
-1.084429	<s> م	0
-1.397239	<s> ن	0
-1.544315	<s> و	0
-2.527131	<s> ٹ	-1.39982
-1.433099	<s> پ	-0.05182981
-1.968767	<s> چ	-0.8128662
-2.437188	<s> ڈ	-1.973636
-4.958499	<s> ڑ	-0.6827154
-4.865154	<s> ژ	-1.73199
-0.7695512	<s> ک	0
-1.744382	<s> گ	-1.160046
-3.846152	<s> ں	-1.064506
-2.597515	<s> ھ	-0.9667659
-1.135923	<s> ہ	-0.9842758
-1.768617	<s> ی	0
-3.026173	<s> ے	-0.2995691
-1.653363	آ </s>
-3.654303	آ آ	-1.842282
-2.293744	آ ؤ	-2.227203
-1.059773	آ ئ	-1.673622
-3.628237	آ ا	-1.023145
-1.430141	آ ب	-3.695249
-1.386921	آ ت	-3.162474
-2.626134	آ ث	-3.241702
-1.271104	آ ج	-3.336899
-3.959833	آ ح	-1.742506
-1.469172	آ خ	-3.641502
-1.629109	آ د	-3.016761
-3.162027	آ ذ	-2.258038
-1.492626	آ ر	-2.892234
-1.56627	آ ز	-3.615512
-1.519755	آ س	-2.909456
-2.395891	آ ش	-3.103327
-2.312287	آ ص	-3.052653
-4.377833	آ ض	-0.9400889
-5.163953	آ ط	-0.758148
-5.516136	آ ظ	-0.2850909
-3.785757	آ ع	-1.32055
-2.009698	آ غ	-3.925673
-1.665826	آ ف	-2.900589
-2.585186	آ ق	-3.187205
-1.621958	آ ل	-2.901834
-1.437914	آ م	-3.449337
-1.006134	آ ن	-3.417208
-1.725007	آ و	-3.414083
-2.069598	آ ٹ	-2.888516
-0.5756951	آ پ	-2.220792
-2.875903	آ چ	-2.119172
-2.895739	آ ڈ	-2.355793
-2.841504	آ ڑ	-2.3912
-4.599682	آ ژ	-1.115017
-2.18128	آ ک	-2.150038
-1.432965	آ گ	-2.502656
-2.930111	آ ں	-0.6879321
-3.161067	آ ھ	-2.103766
-2.075975	آ ہ	-2.029508
-1.306265	آ ی	-3.280292
-3.006933	آ ے	-0.6296122
-0.563572	ؤ </s>
-3.669985	ؤ آ	-0.7786881
-3.385988	ؤ ؤ	-1.301362
-3.321531	ؤ ئ	-0.4822759
-2.057609	ؤ ا	-1.533852
-2.938831	ؤ ب	-1.064141
-2.192864	ؤ ت	-1.580841
-2.077211	ؤ ث	-3.836539
-2.85451	ؤ ج	-1.268105
-3.687019	ؤ ح	-1.293679
-2.579809	ؤ خ	-1.918895
-1.599663	ؤ د	-3.384364
-2.699352	ؤ ذ	-3.223269
-1.723987	ؤ ر	-2.64761
-1.796933	ؤ ز	-2.055218
-1.430975	ؤ س	-2.661322
-3.377388	ؤ ش	-0.8282456
-3.783929	ؤ ص	-1.085553
-4.587412	ؤ ض	-0.4138966
-2.961107	ؤ ط	-1.961582
-3.704747	ؤ ع	-1.28847
-4.587412	ؤ غ	-0.472263
-2.181869	ؤ ف	-2.334295
-2.166404	ؤ ق	-2.826878
-1.693847	ؤ ل	-2.293535
-1.507697	ؤ م	-2.25231
-0.8349535	ؤ ن	-2.399845
-2.263445	ؤ و	-2.115494
-1.503009	ؤ ٹ	-2.98436
-3.187331	ؤ پ	-1.457491
-2.908867	ؤ چ	-1.268103
-2.171145	ؤ ڈ	-1.948953
-4.005777	ؤ ڑ	-0.6370768
-4.372227	ؤ ژ	-0.7491951
-2.389477	ؤ ک	-1.666166
-2.46691	ؤ گ	-1.874383
-0.4939497	ؤ ں	-1.497947
-4.130716	ؤ ھ	-1.896955
-2.531075	ؤ ہ	-1.379459
-2.207587	ؤ ی	-1.509608
-2.723231	ؤ ے	-0.9058095
-2.020848	ئ </s>
-5.683249	ئ آ	-0.6578068
-6.39598	ئ ؤ
-4.067601	ئ ئ	-0.8106019
-3.399907	ئ ا	-1.60529
-2.180132	ئ ب	-2.307705
-2.806254	ئ ت	-1.680849
-3.8325	ئ ث	-2.265798
-2.40303	ئ ج	-2.735763
-3.291152	ئ ح	-2.263265
-3.371085	ئ خ	-2.51224
-1.674805	ئ د	-1.53684
-3.987741	ئ ذ	-1.37045
-1.500061	ئ ر	-2.347684
-1.931521	ئ ز	-2.48146
-2.415023	ئ س	-1.907014
-1.964536	ئ ش	-2.738692
-3.628825	ئ ص	-2.387117
-2.853529	ئ ض	-2.672274
-2.921036	ئ ط	-2.928586
-5.282037	ئ ظ	-1.031272
-2.032707	ئ ع	-3.249166
-5.165532	ئ غ	-0.8828608
-2.675987	ئ ف	-2.296651
-2.309265	ئ ق	-2.888881
-1.368264	ئ ل	-3.251788
-1.71873	ئ م	-2.972583
-1.542483	ئ ن	-3.116528
-2.405331	ئ و	-1.920942
-1.95228	ئ ٹ	-1.720086
-2.864885	ئ پ	-2.741306
-3.412354	ئ چ	-1.757292
-3.246146	ئ ڈ	-1.652096
-5.073761	ئ ڑ	-0.9440345
-5.683249	ئ ژ	-0.198717
-2.737206	ئ ک	-1.709329
-3.793921	ئ گ	-1.941476
-3.265969	ئ ں	0.0004134178
-4.097127	ئ ھ	-1.779903
-2.938401	ئ ہ	-2.308522
-0.3779399	ئ ی	-2.961955
-0.4587777	ئ ے	-1.259123
-0.7078022	ا </s>
-3.74966	ا آ	-0.8479791
-2.50581	ا ؤ	-2.693196
-1.387486	ا ئ	0
-2.683555	ا ا	-0.1127033
-1.526442	ا ب	-0.3347392
-1.327097	ا ت	0
-2.72627	ا ث	-1.209036
-2.126099	ا ج	-1.103929
-1.988111	ا ح	-1.164614
-2.301739	ا خ	-1.124941
-1.564993	ا د	0.05112791
-3.102833	ا ذ	-0.1951056
-1.197894	ا ر	0
-1.963654	ا ز	-0.3436337
-1.197597	ا س	-1.190238
-2.250635	ا ش	-1.264905
-2.186067	ا ص	-1.497208
-2.440004	ا ض	-0.7495754
-2.614049	ا ط	-1.743387
-2.639465	ا ظ	-0.9238906
-2.014733	ا ع	-1.386237
-2.835003	ا غ	-1.035367
-1.844225	ا ف	-1.047531
-1.956313	ا ق	-1.177318
-1.111527	ا ل	0
-1.276655	ا م	0
-0.9716302	ا ن	0
-1.198322	ا و	-99
-2.530824	ا ٹ	-1.769644
-1.750424	ا پ	-1.561615
-2.474872	ا چ	-1.295473
-3.386951	ا ڈ	-2.50873
-2.720944	ا ڑ	-1.321341
-4.681646	ا ژ	-1.03482
-1.722679	ا ک	-1.104918
-2.090594	ا گ	-1.725809
-1.902618	ا ں	-0.3275557
-3.065638	ا ھ	-1.411118
-1.618598	ا ہ	-1.43325
-1.393809	ا ی	0
-2.724457	ا ے	-1.020779
-0.7612559	ب </s>
-3.780063	ب آ	-1.670197
-5.177247	ب ؤ	-0.4323888
-2.975731	ب ئ	-2.262759
-0.816912	ب ا	-0.7380481
-2.71067	ب ب	-1.461991
-1.55912	ب ت	-2.543617
-4.008775	ب ث	-1.643716
-2.129989	ب ج	-2.213147
-2.013632	ب ح	-2.084535
-2.289104	ب خ	-1.992867
-1.650731	ب د	-2.522957
-3.063812	ب ذ	-1.737891
-1.237067	ب ر	0
-2.484151	ب ز	-2.260506
-2.072263	ب س	-2.590454
-2.620473	ب ش	-2.495363
-2.345656	ب ص	-2.841967
-2.784283	ب ض	-3.050914
-2.345697	ب ط	-0.5641646
-3.260221	ب ظ	-2.438999
-1.565859	ب ع	-2.704775
-2.30537	ب غ	-2.273547
-4.053254	ب ف	-1.31379
-1.833543	ب ق	-2.541277
-1.372665	ب ل	-2.988311
-2.614231	ب م	-1.586922
-1.221725	ب ن	-2.443047
-1.46035	ب و	0
-2.689003	ب ٹ	-1.426486
-3.624632	ب پ	-1.075194
-1.922962	ب چ	-2.621881
-3.893553	ب ڈ	-1.164212
-1.691782	ب ڑ	-2.659593
-6.061854	ب ژ	-0.5073966
-1.988624	ب ک	-2.063342
-2.921293	ب گ	-2.562114
-5.158764	ب ں	0.04537928
-0.8782348	ب ھ	-1.232666
-1.265717	ب ہ	-1.719232
-1.099303	ب ی	-1.655876
-1.796611	ب ے	-0.5717506
-0.5483238	ت </s>
-4.587314	ت آ	-1.181752
-4.510523	ت ؤ	-1.363072
-3.741706	ت ئ	-1.822674
-0.8879145	ت ا	0
-1.842307	ت ب	-2.71055
-3.003225	ت ت	-1.456024
-3.624032	ت ث	-1.889377
-2.22751	ت ج	-2.057896
-1.739006	ت ح	-1.372472
-2.283478	ت خ	-2.94006
-2.3081	ت د	-2.432092
-2.938934	ت ذ	-2.507862
-1.505027	ت ر	-1.769784
-3.357391	ت ز	-2.505981
-2.564138	ت س	-2.203856
-2.349454	ت ش	-2.150857
-2.172692	ت ص	-3.178501
-3.247254	ت ض	-1.881671
-3.499872	ت ط	-2.785613
-2.492052	ت ظ	-3.286599
-1.473493	ت ع	-1.381837
-3.169532	ت غ	-1.716167
-2.195595	ت ف	-2.978176
-1.933701	ت ق	-2.372829
-1.852505	ت ل	-3.362819
-1.542954	ت م	-2.492974
-1.745718	ت ن	-3.599427
-1.08311	ت و	-1.366663
-5.160007	ت ٹ	-0.2987062
-3.713327	ت پ	-0.9002171
-5.160007	ت چ	-0.7015966
-5.481559	ت ڈ	-1.894208
-3.594341	ت ڑ	-2.74451
-6.370861	ت ژ	-0.5936412
-1.708516	ت ک	-0.9428096
-2.640583	ت گ	-2.827998
-4.782589	ت ں	0.3238019
-1.022299	ت ھ	-2.062187
-1.68281	ت ہ	-1.492611
-1.083227	ت ی	-0.9070415
-1.152241	ت ے	-1.082998
-0.5170027	ث </s>
-4.02982	ث آ	-1.499777
-5.260269	ث ؤ	-0.4634149
-4.658209	ث ئ	-0.365178
-0.7542179	ث ا	-3.722012
-1.355148	ث ب	-3.009321
-2.063403	ث ت	-2.919051
-4.415171	ث ث	-1.116885
-4.042786	ث ج	-0.5738276
-4.02982	ث ح	-0.9980444
-4.482118	ث خ	-0.9700364
-3.611909	ث د	-2.396251
-0.7135047	ث ر	-1.878208
-4.707957	ث ز	-0.1933407
-4.042786	ث س	-1.15566
-3.981516	ث ش	-1.110602
-3.735224	ث ص	-1.691043
-5.260269	ث ض	-0.4698533
-5.561299	ث ظ
-3.172133	ث ع	-2.101884
-4.260269	ث غ	-1.223578
-3.710041	ث ف	-1.689607
-1.658264	ث ق	-2.882794
-1.372343	ث ل	-3.09487
-1.360722	ث م	-2.562862
-1.625641	ث ن	-2.959206
-1.601686	ث و	-2.752542
-5.561299	ث ٹ
-3.981516	ث پ	-0.9633197
-5.561299	ث چ
-5.561299	ث ڈ
-4.658209	ث ڑ	-0.2632135
-3.289458	ث ک	-1.130515
-4.959239	ث گ	-0.2325598
-4.848567	ث ں	0.8328923
-3.692068	ث ھ	-1.150529
-1.849155	ث ہ	-1.844256
-1.041629	ث ی	-2.586618
-2.041603	ث ے	-1.575334
-1.173415	ج </s>
-4.315272	ج آ	-1.149439
-5.220716	ج ؤ	-0.9446387
-2.4847	ج ئ	-4.093013
-0.601985	ج ا	-3.275511
-1.265513	ج ب	-3.319248
-1.978239	ج ت	-2.689514
-4.357134	ج ث	-1.772804
-2.854658	ج ج	-2.327613
-3.03246	ج ح	-2.329766
-5.220716	ج خ	-0.8962046
-1.732208	ج د	-1.897341
-2.397128	ج ذ	-2.939607
-1.621065	ج ر	-2.512269
-2.03521	ج ز	-2.215248
-1.201442	ج س	-3.426267
-3.140748	ج ش	-1.909237
-3.553872	ج ص	-0.8657062
-4.919685	ج ض	-1.101823
-6.281414	ج ط
-5.406352	ج ظ	-0.9840849
-2.376752	ج ع	-2.594481
-3.342894	ج غ	-2.934083
-3.445406	ج ف	-1.715468
-5.026141	ج ق	-1.274081
-1.620633	ج ل	-3.016683
-1.400986	ج م	-3.871888
-1.192996	ج ن	-3.559968
-0.8404823	ج و	-1.395226
-2.941763	ج ٹ	-1.629323
-3.449863	ج پ	-1.499952
-4.211376	ج چ	-1.6859
-4.09957	ج ڈ	-2.859037
-2.770466	ج ڑ	-2.310291
-6.582443	ج ژ
-2.701059	ج ک	-1.470127
-1.972732	ج گ	-3.554075
-4.858168	ج ں	-0.1213502
-1.191425	ج ھ	-2.081705
-1.242581	ج ہ	-2.53094
-1.155617	ج ی	-2.905651
-2.08744	ج ے	-1.277506
-0.894411	ح </s>
-4.309999	ح آ	-2.715304
-5.482456	ح ؤ	-0.8992698
-4.061263	ح ئ	-1.371072
-0.8553908	ح ا	-2.812818
-1.240508	ح ب	-3.671765
-1.382012	ح ت	-2.826436
-2.148153	ح ث	-2.630134
-1.994416	ح ج	-2.902597
-3.959034	ح ح	-1.954814
-4.732333	ح خ	-1.350615
-1.259395	ح د	-2.190345
-2.757157	ح ذ	-2.971168
-1.271492	ح ر	-2.977264
-2.650186	ح ز	-2.59505
-1.35125	ح س	-3.665331
-2.526588	ح ش	-2.48846
-1.664172	ح ص	-2.969417
-1.308578	ح ض	-3.332866
-3.098416	ح ط	-1.589589
-2.549538	ح ظ	-2.587482
-4.614694	ح ع	-1.351589
-5.482456	ح غ	-0.3965273
-1.693201	ح ف	-3.139835
-1.246517	ح ق	-2.439579
-1.610205	ح ل	-3.433094
-1.012453	ح م	-3.247623
-1.932197	ح ن	-2.779727
-1.521236	ح و	-3.519672
-5.306365	ح ٹ	-0.5448955
-4.299186	ح پ	-1.510285
-4.732333	ح چ	-0.7937273
-5.084516	ح ڈ	-0.3837952
-5.482456	ح ڑ	-0.4986106
-6.385546	ح ژ
-1.150371	ح ک	-3.383869
-4.841478	ح گ	-2.353986
-5.344153	ح ں	0.5485017
-4.451047	ح ھ	-0.839614
-1.936917	ح ہ	-2.278129
-1.247395	ح ی	-2.913718
-2.600786	ح ے	-1.235179
-1.275249	خ </s>
-4.342864	خ آ	-1.215599
-4.3009	خ ؤ	-1.48919
-4.306652	خ ئ	-1.058042
-0.7814914	خ ا	-3.21302
-1.434061	خ ب	-3.551325
-0.936023	خ ت	-3.813618
-4.217926	خ ث	-1.582286
-3.8513	خ ج	-1.572901
-5.278623	خ ح	-0.2206219
-4.75035	خ خ	-1.320453
-1.275378	خ د	-3.162595
-2.444759	خ ذ	-1.791987
-1.152265	خ ر	-2.656773
-2.358957	خ ز	-2.313696
-2.538359	خ س	-2.256349
-1.986284	خ ش	-1.873198
-1.236525	خ ص	-2.485944
-2.930318	خ ض	-1.967935
-1.432836	خ ط	-2.82562
-4.457438	خ ظ	-2.202641
-3.985814	خ ع	-1.546129
-5.579653	خ غ	-0.5009485
-2.159161	خ ف	-2.814991
-4.53826	خ ق	-1.124252
-0.993322	خ ل	-3.650204
-1.880835	خ م	-2.631439
-2.326861	خ ن	-2.157872
-0.731706	خ و	-3.051533
-3.467384	خ ٹ	-1.725439
-4.568929	خ پ	-1.362613
-3.405012	خ چ	-1.811853
-5.880683	خ ڈ
-5.005622	خ ڑ	-0.739651
-5.880683	خ ژ
-4.16468	خ ک	-0.8812594
-4.382373	خ گ	-1.415798
-5.468981	خ ں	0.8346967
-4.46571	خ ھ	-1.01495
-2.583142	خ ہ	-2.396817
-1.146456	خ ی	-3.07667
-3.068104	خ ے	-0.7566559
-0.6122118	د </s>
-3.527027	د آ	-0.9024194
-4.146456	د ؤ	-1.630556
-2.850397	د ئ	-3.625925
-0.9139842	د ا	-99
-2.185335	د ب	-1.531843
-1.906429	د ت	-2.34006
-2.6955	د ث	-2.687138
-2.967446	د ج	-2.013105
-3.316303	د ح	-1.246353
-3.002975	د خ	-1.946073
-2.110158	د د	-1.621484
-4.608854	د ذ	-0.856076
-1.211972	د ر	-99
-3.772952	د ز	-0.9717633
-1.922385	د س	-2.122137
-2.157928	د ش	-2.744668
-3.586838	د ص	-2.044562
-4.235942	د ض	-1.484697
-4.440553	د ط	-1.464227
-3.925807	د ظ	-2.670375
-1.907753	د ع	-2.729714
-3.62268	د غ	-2.720069
-2.206192	د ف	-2.556158
-2.584177	د ق	-2.151644
-1.574739	د ل	-2.880904
-1.731414	د م	-0.698637
-1.492634	د ن	-2.262534
-0.9955658	د و	0
-4.345613	د ٹ	-1.217923
-3.48828	د پ	-0.8145452
-4.112848	د چ	-1.44
-4.594614	د ڈ	-0.6310499
-3.833122	د ڑ	-1.684333
-5.506192	د ژ	-0.8601816
-2.049155	د ک	-1.918362
-1.801626	د گ	-3.064671
-4.654612	د ں	-0.03190327
-1.616949	د ھ	-0.6598516
-1.220603	د ہ	-1.631165
-0.7210869	د ی	0
-1.692253	د ے	-1.509975
-1.272484	ذ </s>
-3.581962	ذ آ	-1.655088
-5.133633	ذ ؤ	-0.5993589
-3.915177	ذ ئ	-0.768461
-0.6744881	ذ ا	-2.913336
-1.271572	ذ ب	-3.414687
-2.286198	ذ ت	-1.834337
-5.33015	ذ ث	-0.3837702
-4.30896	ذ ج	-0.9972651
-3.92361	ذ ح	-1.435493
-2.089601	ذ خ	-3.064402
-3.080951	ذ د	-1.558029
-4.154058	ذ ذ	-1.405866
-0.7511498	ذ ر	-3.822019
-4.051396	ذ ز	-1.019854
-3.997711	ذ س	-1.216689
-1.956962	ذ ش	-2.989848
-4.676938	ذ ص	-0.8906209
-4.853029	ذ ط	-0.8018219
-4.777838	ذ ظ	-0.8871509
-3.578101	ذ ع	-1.091406
-4.853029	ذ غ	-1.724367
-2.12265	ذ ف	-2.867335
-3.421665	ذ ق	-1.902349
-1.737807	ذ ل	-2.723288
-1.192448	ذ م	-3.144574
-2.201428	ذ ن	-2.190904
-1.496684	ذ و	-2.382386
-5.133633	ذ ٹ	-0.4654496
-3.366362	ذ پ	-1.39474
-4.777838	ذ چ	-0.9316394
-5.02912	ذ ڈ	-0.1964277
-5.33015	ذ ڑ	-0.4098402
-0.981057	ذ ک	-2.911176
-4.288757	ذ گ	-1.068046
-5.133633	ذ ں	1.008984
-2.201266	ذ ھ	-2.097623
-0.8868086	ذ ہ	-2.530456
-0.9679785	ذ ی	-2.541545
-3.273245	ذ ے	-0.3863953
-0.4280972	ر </s>
-2.279457	ر آ	-1.877954
-3.974808	ر ؤ	-1.69052
-3.093038	ر ئ	-2.890691
-1.078705	ر ا	0
-1.885581	ر ب	-1.398026
-1.344436	ر ت	-0.9418588
-3.261302	ر ث	-0.429374
-2.048843	ر ج	-0.8024383
-1.790315	ر ح	-3.124653
-2.50257	ر خ	-2.900972
-1.627931	ر د	-1.630458
-4.156738	ر ذ	-0.8246323
-2.439876	ر ر	-1.149758
-2.340857	ر ز	-0.6763911
-1.752039	ر س	-1.121443
-2.305844	ر ش	-1.961241
-2.787078	ر ص	-1.599573
-2.144037	ر ض	-1.015342
-2.779648	ر ط	-2.114083
-4.40566	ر ظ	-1.782591
-2.663147	ر ع	-0.172502
-3.017728	ر غ	-0.9892931
-1.747885	ر ف	-3.701472
-2.198689	ر ق	-1.509164
-2.340481	ر ل	-1.614013
-1.642772	ر م	-0.98839
-1.506179	ر ن	-1.621802
-1.225262	ر و	0
-2.17767	ر ٹ	-2.286426
-2.318407	ر پ	-1.623564
-2.49166	ر چ	-1.046797
-2.54608	ر ڈ	-1.466444
-4.43656	ر ڑ	-1.140168
-3.722393	ر ژ	-2.187296
-1.528519	ر ک	-0.7553625
-2.465189	ر گ	-1.41315
-4.367387	ر ں	-0.5077858
-2.80784	ر ھ	-2.287308
-1.343157	ر ہ	-0.988359
-0.9555368	ر ی	-99
-1.50482	ر ے	-1.146709
-0.5739391	ز </s>
-3.595155	ز آ	-1.071913
-4.120403	ز ؤ	-1.05622
-2.56175	ز ئ	-2.277144
-0.8352165	ز ا	-0.7103915
-1.463407	ز ب	-3.036776
-1.74182	ز ت	-2.650984
-4.683545	ز ث	-0.7262745
-3.210997	ز ج	-1.177796
-2.923122	ز ح	-2.781888
-2.000343	ز خ	-2.654219
-1.743826	ز د	-2.976758
-4.765214	ز ذ	-1.167563
-1.425174	ز ر	-2.137683
-2.693587	ز ز	-2.178295
-2.942506	ز س	-0.9471414
-1.822642	ز ش	-2.486626
-4.144827	ز ص	-0.8973031
-4.341122	ز ض	-1.383259
-4.48725	ز ط	-1.140856
-4.847402	ز ظ	-1.241635
-2.327738	ز ع	-2.145106
-3.97964	ز غ	-1.785782
-3.206837	ز ف	-1.385048
-2.583864	ز ق	-1.958796
-1.633507	ز ل	-2.898091
-1.197272	ز م	-2.823305
-1.231465	ز ن	-2.662149
-1.390447	ز و	-2.656169
-3.060591	ز ٹ	-2.290873
-2.744453	ز پ	-1.540812
-3.464185	ز چ	-1.803062
-3.551834	ز ڈ	-0.99915
-5.18622	ز ڑ	-0.9867488
-5.730066	ز ژ	-0.4764625
-1.99599	ز ک	-2.555023
-2.304213	ز گ	-2.594609
-4.245341	ز ں	-0.4293497
-2.961146	ز ھ	-2.057338
-1.437292	ز ہ	-1.615906
-0.7329434	ز ی	-2.879398
-1.976486	ز ے	-2.43536
-0.6688653	س </s>
-4.464406	س آ	-1.195822
-4.296796	س ؤ	-1.667792
-2.466069	س ئ	-2.980411
-1.008982	س ا	0
-1.650695	س ب	-3.580801
-1.12583	س ت	0
-5.630243	س ث	-0.8898143
-2.426789	س ج	-2.616193
-3.093874	س ح	-2.514721
-2.498946	س خ	-2.814833
-2.658736	س د	-1.856592
-5.852092	س ذ	-0.8913487
-1.392236	س ر	-1.977411
-2.535423	س ز	-2.273555
-2.636389	س س	-2.301974
-4.504762	س ش	-1.355281
-5.297805	س ص	-0.541966
-6.630243	س ض
-2.293054	س ط	-2.427367
-5.363072	س ظ	-1.347343
-2.366844	س ع	-3.138808
-5.012196	س غ	-1.34451
-2.197298	س ف	-4.103814
-3.169346	س ق	-2.281421
-1.17111	س ل	-3.303916
-1.543747	س م	-3.184078
-1.563454	س ن	-3.529926
-1.376796	س و	-2.906613
-1.772622	س ٹ	-1.641431
-2.103736	س پ	-2.332098
-2.661037	س چ	-2.630661
-3.690225	س ڈ	-1.609032
-2.968809	س ڑ	-2.338291
-6.931273	س ژ
-1.392835	س ک	-2.613316
-3.281258	س گ	-1.779834
-4.778985	س ں	-0.2385396
-4.05046	س ھ	-1.197638
-2.330998	س ہ	-3.165759
-1.035779	س ی	-2.462054
-0.7365325	س ے	-0.08092022
-0.866345	ش </s>
-3.956245	ش آ	-2.012181
-5.044848	ش ؤ	-1.030876
-2.675534	ش ئ	-2.676862
-0.7938761	ش ا	-3.374413
-1.908278	ش ب	-3.221838
-1.202672	ش ت	-2.780935
-5.61087	ش ث	-0.5264909
-2.75493	ش ج	-2.567621
-2.854811	ش ح	-2.511989
-1.560653	ش خ	-3.170389
-1.627656	ش د	-2.77595
-4.090605	ش ذ	-1.854308
-0.9356709	ش ر	-2.75417
-3.817096	ش ز	-1.610523
-2.732092	ش س	-1.984943
-1.651984	ش ش	-3.372412
-4.908628	ش ص	-0.5378051
-5.826055	ش ض
-3.712941	ش ط	-1.63642
-5.721541	ش ظ	-0.5622609
-1.673624	ش ع	-3.339665
-2.74279	ش غ	-2.964914
-2.124313	ش ف	-2.784795
-2.103075	ش ق	-2.376693
-2.340336	ش ل	-2.378758
-1.31421	ش م	-3.541936
-1.171218	ش ن	-2.113734
-1.444316	ش و	-3.03273
-3.051296	ش ٹ	-3.027969
-2.714007	ش پ	-2.174795
-5.001382	ش چ	-0.6787322
-4.575413	ش ڈ	-0.7315943
-4.484752	ش ڑ	-1.14291
-1.16044	ش ک	-2.839016
-2.557709	ش گ	-2.369656
-4.460279	ش ں	-0.1649191
-2.889352	ش ھ	-2.541906
-1.167983	ش ہ	-2.928661
-1.056517	ش ی	-2.272245
-2.347802	ش ے	-1.262154
-1.057276	ص </s>
-4.160676	ص آ	-1.462825
-4.813889	ص ؤ	-0.9555168
-4.512858	ص ئ	-1.104513
-0.8656021	ص ا	-3.437202
-1.572138	ص ب	-3.16228
-2.406343	ص ت	-3.593391
-3.859646	ص ج	-1.50103
-1.222652	ص ح	-3.510429
-3.733065	ص خ	-1.2982
-1.071227	ص د	-2.258416
-5.202068	ص ذ	-0.6293804
-0.9496039	ص ر	-3.024474
-5.554251	ص ز	-0.2829862
-4.432035	ص س	-0.8730383
-4.952191	ص ش	-2.060222
-3.080035	ص ص	-2.594552
-5.202068	ص ض	-0.8986447
-2.133842	ص ط	-2.234049
-5.443579	ص ظ	-0.7584341
-3.084429	ص ع	-2.098533
-2.254962	ص غ	-3.391122
-1.45828	ص ف	-3.16643
-4.287079	ص ق	-0.9502684
-0.7561929	ص ل	-3.646253
-2.399751	ص م	-2.796852
-1.837184	ص ن	-3.390297
-0.8473648	ص و	-3.642011
-5.658764	ص ٹ
-4.758371	ص پ	-0.8568524
-6.156311	ص چ
-5.658764	ص ڈ
-4.877557	ص ڑ	-1.109921
-3.731429	ص ک	-2.445476
-5.443579	ص گ	-0.5939879
-5.658764	ص ں	1.008984
-3.813888	ص ھ	-1.829877
-1.475486	ص ہ	-2.730682
-1.252695	ص ی	-2.933632
-1.896287	ص ے	-1.571561
-0.7458322	ض </s>
-3.874855	ض آ	-2.029413
-4.67321	ض ؤ	-0.7064148
-3.999794	ض ئ	-1.639263
-0.8681267	ض ا	-2.605532
-1.689616	ض ب	-2.827307
-2.720348	ض ت	-2.590244
-4.15658	ض ج	-0.9862059
-1.423435	ض ح	-2.971845
-3.284044	ض خ	-2.113327
-2.26159	ض د	-2.672997
-0.5376593	ض ر	-3.269456
-4.916248	ض ز	-0.2562866
-4.439126	ض س	-0.9568624
-4.740157	ض ش	-0.4346168
-4.777945	ض ص	-0.2582751
-4.327976	ض ض	-1.091658
-2.44459	ض ط	-3.18225
-4.819338	ض ظ	-0.6989589
-1.780003	ض ع	-3.008939
-3.629006	ض غ	-1.586848
-4.217278	ض ف	-1.127285
-4.965996	ض ق	-0.2094468
-1.392112	ض ل	-3.009582
-1.45646	ض م	-2.954058
-3.325183	ض ن	-1.358563
-1.106924	ض و	-2.979525
-5.041187	ض پ	-0.3563866
-5.518308	ض چ
-5.819338	ض ڈ
-4.643247	ض ڑ	-1.167429
-3.383175	ض ک	-1.7569
-2.747824	ض گ	-2.387182
-5.321791	ض ں	1.008984
-3.522673	ض ھ	-1.806838
-1.634022	ض ہ	-2.311363
-0.9202291	ض ی	-2.977429
-2.101584	ض ے	-0.9482584
-1.045501	ط </s>
-4.444174	ط آ	-1.056574
-5.398416	ط ؤ	-0.2997496
-3.418413	ط ئ	-1.810133
-0.675554	ط ا	-3.493979
-1.407013	ط ب	-3.065479
-3.124258	ط ت	-2.127564
-4.745203	ط ج	-0.7519896
-1.801902	ط ح	-3.434234
-3.82729	ط خ	-1.776577
-4.523355	ط د	-0.672084
-0.5261011	ط ر	-3.062353
-4.796356	ط ز	-0.6233089
-3.095761	ط س	-1.84046
-3.397332	ط ش	-2.056541
-5.398416	ط ص	-0.274209
-4.301506	ط ط	-0.9408057
-1.89208	ط ع	-3.007629
-3.223775	ط غ	-2.072573
-1.924966	ط ف	-2.749162
-2.49087	ط ق	-3.796086
-1.124097	ط ل	-3.598843
-1.8779	ط م	-3.180461
-1.592728	ط ن	-3.075753
-0.9797835	ط و	-3.773861
-4.585503	ط پ	-0.5861591
-6.000476	ط چ
-5.502929	ط ڈ
-4.260113	ط ک	-1.838315
-3.70601	ط گ	-1.809273
-5.699446	ط ں	1.133922
-3.325615	ط ھ	-1.274012
-1.573867	ط ہ	-2.412841
-1.308723	ط ی	-2.86022
-1.705591	ط ے	-2.058936
-0.7611081	ظ </s>
-4.019069	ظ آ	-1.458554
-5.672282	ظ ؤ
-5.070222	ظ ئ	-0.5881066
-0.6494576	ظ ا	-3.545238
-2.965564	ظ ب	-1.974803
-1.615682	ظ ت	-3.707777
-5.174735	ظ ث	-0.4709308
-4.718039	ظ ج	-0.2446188
-4.19516	ظ ح	-1.658307
-4.95955	ظ خ	-0.580628
-4.89413	ظ د	-0.4716849
-5.672282	ظ ذ
-0.6457321	ظ ر	-3.291294
-4.718039	ظ ز	-0.2623581
-4.153768	ظ س	-0.7243963
-5.070222	ظ ش	-0.2794363
-5.174735	ظ ص
-5.672282	ظ ض
-4.95955	ظ ط	-0.6099999
-4.89413	ظ ظ	-0.8269779
-3.948006	ظ ع	-2.14684
-4.593101	ظ غ	-0.9894335
-1.933263	ظ ف	-3.255119
-4.393528	ظ ق	-0.809935
-1.443266	ظ ل	-3.198017
-0.9709815	ظ م	-3.52124
-2.420644	ظ ن	-2.532132
-1.59097	ظ و	-3.492133
-5.174735	ظ پ	-0.5577682
-4.81894	ظ ڈ	-0.8972657
-5.070222	ظ ڑ	-0.7019459
-3.780187	ظ ک	-1.27448
-5.371252	ظ گ
-5.070222	ظ ں	0.8475154
-2.902904	ظ ھ	-2.345745
-1.11433	ظ ہ	-3.489186
-1.057659	ظ ی	-3.800187
-3.18656	ظ ے	-0.5787914
-1.056706	ع </s>
-4.204264	ع آ	-1.341058
-5.774833	ع ؤ	-0.6067363
-4.357231	ع ئ	-0.8730362
-0.8847108	ع ا	-3.104596
-1.467655	ع ب	-3.557263
-1.348067	ع ت	-2.508047
-2.084942	ع ث	-2.619775
-2.116017	ع ج	-2.966548
-4.885505	ع ح	-1.33006
-5.487565	ع خ	-0.461393
-1.109792	ع د	-1.744366
-2.3014	ع ذ	-3.340151
-1.304973	ع ر	-2.608533
-1.855776	ع ز	-3.629855
-2.660972	ع س	-2.469369
-2.276605	ع ش	-3.023216
-2.17063	ع ص	-3.286993
-1.999212	ع ض	-2.552222
-2.111517	ع ط	-2.454022
-1.75505	ع ظ	-3.900972
-4.8965	ع ع	-1.054834
-5.408383	ع غ	-0.4603491
-2.379643	ع ف	-2.848846
-1.777981	ع ق	-3.232055
-0.6984094	ع ل	-3.674112
-1.116002	ع م	-3.774263
-1.349404	ع ن	-3.435423
-1.288787	ع و	-3.784663
-5.487565	ع ٹ	-0.5623596
-5.165346	ع پ	-1.545425
-5.446172	ع چ	-0.834131
-6.186535	ع ڈ
-5.584475	ع ڑ	-0.8841974
-5.990018	ع ژ	-0.3881469
-2.484665	ع ک	-2.464512
-5.283445	ع گ	-0.629796
-5.885505	ع ں	1.008984
-3.637532	ع ھ	-2.634215
-1.478059	ع ہ	-3.909088
-1.300866	ع ی	-3.546327
-1.976752	ع ے	-1.697879
-1.103041	غ </s>
-3.974816	غ آ	-1.567042
-4.736577	غ ؤ	-1.753982
-4.172306	غ ئ	-0.8663328
-0.737461	غ ا	-2.917292
-2.148617	غ ب	-2.530437
-2.100089	غ ت	-2.61122
-4.243661	غ ث	-1.020731
-4.736577	غ ج	-0.9519476
-4.78773	غ ح	-0.5952102
-5.69082	غ خ
-1.90849	غ د	-2.753852
-1.861323	غ ذ	-2.427264
-0.9673064	غ ر	-3.04864
-1.515743	غ ز	-3.351369
-2.31406	غ س	-2.246235
-3.249911	غ ش	-1.75237
-1.827318	غ ص	-3.221102
-2.019739	غ ض	-1.815444
-3.336711	غ ط	-1.308429
-4.29288	غ ظ	-1.305527
-4.78773	غ ع	-0.2146201
-5.193273	غ غ	-0.4275745
-1.698531	غ ف	-2.81382
-4.310608	غ ق	-0.7686056
-0.9255982	غ ل	-2.732038
-1.30618	غ م	-3.268854
-1.819772	غ ن	-2.331574
-1.255517	غ و	-3.275869
-3.983249	غ ٹ	-1.363148
-3.891479	غ پ	-1.343946
-4.29288	غ چ	-0.8094277
-4.460371	غ ڑ	-0.6337051
-4.228422	غ ک	-0.4987405
-4.649427	غ گ	-0.9187441
-5.69082	غ ں
-4.544692	غ ھ	-1.036005
-2.135362	غ ہ	-2.526068
-0.5878031	غ ی	-3.004107
-2.521145	غ ے	-0.8270358
-0.6099666	ف </s>
-4.265738	ف آ	-1.209332
-4.723115	ف ؤ	-1.169541
-3.706082	ف ئ	-1.94502
-0.9590302	ف ا	-2.738564
-3.447932	ف ب	-1.091235
-1.198047	ف ت	-2.617649
-4.331005	ف ث	-1.309126
-2.91769	ف ج	-2.320135
-2.143713	ف ح	-3.368865
-2.607024	ف خ	-2.658137
-2.540067	ف د	-2.269745
-2.700916	ف ذ	-2.709009
-0.7704333	ف ر	-1.833612
-2.572734	ف ز	-2.653195
-1.614332	ف س	-2.035589
-2.904742	ف ش	-2.71761
-2.030797	ف ص	-2.135808
-1.897602	ف ض	-2.818044
-2.360716	ف ط	-1.828654
-1.746164	ف ظ	-2.264566
-1.82202	ف ع	-3.003869
-1.911183	ف غ	-3.725551
-3.336517	ف ف	-2.004548
-1.735598	ف ق	-1.801558
-1.52238	ف ل	-3.012871
-3.171394	ف م	-1.68937
-1.999878	ف ن	-1.855094
-1.20171	ف و	-2.809591
-2.100717	ف ٹ	-2.376666
-4.753078	ف پ	-1.095869
-4.996116	ف چ	-2.126878
-4.576987	ف ڈ	-1.041398
-4.857813	ف ڑ	-1.292109
-4.961354	ف ژ	-0.9918755
-1.893811	ف ک	-2.859147
-3.504171	ف گ	-2.219105
-5.376328	ف ں	0.6274406
-3.254112	ف ھ	-1.343173
-1.566788	ف ہ	-2.103419
-0.9217768	ف ی	-99
-2.353199	ف ے	-1.188014
-0.7852982	ق </s>
-4.530564	ق آ	-0.8808515
-6.375662	ق ؤ
-4.421419	ق ئ	-0.8387442
-0.8279018	ق ا	-2.625772
-1.309552	ق ب	-3.404873
-1.030916	ق ت	-3.261892
-4.8843	ق ث	-1.792542
-4.703564	ق ج	-0.8325624
-3.273571	ق ح	-2.02157
-5.199571	ق خ	-0.8489884
-1.309716	ق د	-2.723857
-2.908202	ق ذ	-2.763679
-1.05983	ق ر	-3.608442
-3.430686	ق ز	-3.345692
-1.647267	ق س	-3.688855
-2.599615	ق ش	-2.418032
-1.600445	ق ص	-2.517444
-2.790088	ق ض	-2.427544
-1.972507	ق ط	-1.261061
-4.211309	ق ظ	-1.554917
-1.43287	ق ع	-3.263483
-5.52232	ق غ	-0.01633108
-2.117983	ق ف	-2.902186
-2.917477	ق ق	-2.157583
-1.395295	ق ل	-3.302454
-2.056639	ق م	-2.280904
-2.608283	ق ن	-1.991295
-1.128246	ق و	-3.554679
-5.375662	ق ٹ	-0.464949
-4.461848	ق پ	-1.489848
-4.431179	ق چ	-1.659577
-5.52232	ق ڈ	-0.2150818
-5.66293	ق ڑ	-0.7775628
-3.724384	ق ک	-1.264222
-4.8843	ق گ	-0.8503928
-5.261718	ق ں	0.5648668
-3.645688	ق ھ	-1.685913
-1.525518	ق ہ	-2.054707
-0.8972194	ق ی	-3.335447
-1.803697	ق ے	-1.82581
-0.7193773	ل </s>
-3.283353	ل آ	-1.89742
-4.862338	ل ؤ	-1.196777
-1.664673	ل ئ	-3.56475
-0.8519996	ل ا	0
-1.813649	ل ب	-3.196373
-1.751143	ل ت	-2.648949
-3.442344	ل ث	-0.5183098
-2.571613	ل ج	-2.156515
-2.070251	ل ح	-1.388881
-2.801347	ل خ	-0.6967995
-2.037103	ل د	-1.529424
-2.906229	ل ذ	-3.311262
-2.215934	ل ر	-1.920927
-2.288011	ل ز	-2.605097
-1.785607	ل س	-2.108224
-2.633437	ل ش	-2.185335
-2.72395	ل ص	-1.723945
-3.910722	ل ض	-2.206685
-2.208333	ل ط	-1.891305
-3.758879	ل ظ	-0.05786824
-2.143167	ل ع	-0.913857
-2.781561	ل غ	-1.948325
-1.877002	ل ف	-1.848955
-1.883892	ل ق	-1.250418
-1.370544	ل ل	-3.054219
-1.302961	ل م	-1.803154
-1.847932	ل ن	-2.128602
-1.240234	ل و	0
-2.576101	ل ٹ	-1.853056
-2.920888	ل پ	-1.782035
-2.768184	ل چ	-1.950038
-2.745813	ل ڈ	-1.875203
-2.371988	ل ڑ	-1.684334
-6.119586	ل ژ	-0.1897226
-1.409342	ل ک	-0.6922469
-1.778888	ل گ	-2.702029
-5.22474	ل ں	0.1638856
-3.139398	ل ھ	-1.786827
-1.156056	ل ہ	-0.8052773
-0.7808169	ل ی	0
-1.311893	ل ے	-1.107237
-0.7158748	م </s>
-3.766301	م آ	-1.639644
-3.117488	م ؤ	-2.84492
-3.091267	م ئ	-2.36229
-0.9373107	م ا	0
-1.933252	م ب	-2.509634
-1.476309	م ت	-1.759935
-2.465216	م ث	-2.635266
-1.652303	م ج	-2.615197
-1.665824	م ح	-2.962978
-2.093108	م خ	-1.7117
-1.698043	م د	-1.748414
-2.239037	م ذ	-3.515756
-1.443054	م ر	-1.742432
-2.16205	م ز	-1.514603
-1.593451	م س	-0.9892445
-1.92119	م ش	-2.546825
-2.325813	م ص	-1.389959
-2.490033	م ض	-1.91737
-2.034103	م ط	-3.242055
-2.718946	م ظ	-3.184065
-1.594639	م ع	-1.166952
-2.558114	م غ	-1.297383
-2.392865	م ف	-3.039211
-1.898296	م ق	-1.84238
-1.350832	م ل	-2.690768
-2.18845	م م	-1.97164
-1.397905	م ن	-99
-1.444185	م و	0
-2.805023	م ٹ	-1.685511
-2.446657	م پ	-2.51115
-3.096885	م چ	-2.266217
-3.67173	م ڈ	-1.175412
-3.775196	م ڑ	-0.7396955
-4.496762	م ژ	-2.040328
-2.004355	م ک	-0.8330846
-2.157243	م گ	-3.681212
-4.278955	م ں	0.136914
-3.106125	م ھ	-1.978176
-1.635045	م ہ	-2.020961
-0.613929	م ی	0
-2.655979	م ے	-1.245544
-0.5954309	ن </s>
-4.340565	ن آ	-1.031445
-4.335002	ن ؤ	-1.789148
-2.437365	ن ئ	-3.050957
-1.009232	ن ا	-0.7814479
-2.016499	ن ب	-3.112804
-1.664856	ن ت	-2.264382
-3.461629	ن ث	-2.101166
-2.08038	ن ج	-1.657129
-2.842217	ن ح	-1.445854
-3.107537	ن خ	-0.8438067
-1.338138	ن د	0.06546688
-3.28748	ن ذ	-2.684103
-2.414045	ن ر	-2.242848
-2.409634	ن ز	-3.484319
-1.637702	ن س	-0.5916109
-2.284433	ن ش	-2.827758
-2.239104	ن ص	-2.627303
-4.002748	ن ض	-1.166881
-3.313212	ن ط	-2.091478
-1.862539	ن ظ	-1.958428
-2.341318	ن ع	-2.440096
-3.789358	ن غ	-1.888257
-2.234839	ن ف	-2.995799
-2.185621	ن ق	-1.842438
-2.620094	ن ل	-2.774431
-1.978984	ن م	-2.842441
-2.326898	ن ن	-2.384788
-1.451365	ن و	-2.425678
-1.918223	ن ٹ	-1.933865
-3.089983	ن پ	-1.754163
-2.005117	ن چ	-2.824506
-2.027219	ن ڈ	-0.8319521
-4.09219	ن ڑ	-0.8173885
-3.752526	ن ژ	-2.564707
-1.627609	ن ک	-1.106622
-1.602628	ن گ	-0.675952
-4.978455	ن ں	0.4830588
-2.55576	ن ھ	-1.409903
-1.013435	ن ہ	-2.835968
-1.059984	ن ی	0
-0.7903084	ن ے	-0.5671325
-0.7076688	و </s>
-2.934176	و آ	-1.153676
-3.369303	و ؤ	-2.192526
-1.537557	و ئ	-3.450724
-1.034295	و ا	0
-1.869277	و ب	-0.2393827
-1.621394	و ت	0.181457
-2.973702	و ث	-0.9119725
-1.655916	و ج	-1.451301
-2.453848	و ح	-2.451904
-2.96377	و خ	-0.7749491
-1.68426	و د	0.02192354
-3.419973	و ذ	-1.358046
-0.7553966	و ر	0
-1.9548	و ز	-0.6083632
-1.54056	و س	-1.158139
-1.917153	و ش	-0.9019058
-2.387434	و ص	-1.211326
-2.527044	و ض	-1.574904
-2.607418	و ط	-2.025276
-2.929312	و ظ	-2.670493
-2.069476	و ع	-0.5073934
-2.631843	و غ	-1.005302
-2.156362	و ف	-2.812814
-1.831507	و ق	-0.9868536
-1.492358	و ل	-2.13829
-1.658478	و م	-1.231839
-1.384492	و ن	-99
-2.649397	و و	-1.17479
-2.006629	و ٹ	-0.8119836
-2.32338	و پ	-0.9766073
-2.19249	و چ	-1.266758
-2.619956	و ڈ	-0.7117944
-2.198801	و ڑ	-1.727695
-4.04529	و ژ	-1.695599
-2.069254	و ک	-0.511749
-1.676539	و گ	-1.009547
-0.9823941	و ں	-0.0941987
-3.072992	و ھ	-1.634044
-1.428873	و ہ	-0.6743736
-1.641843	و ی	0
-2.770047	و ے	-1.242945
-0.5688167	ٹ </s>
-4.158757	ٹ آ	-1.000016
-4.50399	ٹ ؤ	-0.978897
-3.754328	ٹ ئ	-0.8322446
-1.163849	ٹ ا	-2.886476
-3.107708	ٹ ب	-1.738295
-2.395168	ٹ ت	-2.404911
-5.629693	ٹ ث	-0.4446152
-3.363811	ٹ ج	-1.431683
-4.246426	ٹ ح	-1.101957
-3.154112	ٹ خ	-2.507183
-4.023436	ٹ د	-0.906625
-0.8167927	ٹ ر	-1.677972
-2.952018	ٹ ز	-1.913447
-1.587348	ٹ س	-2.206522
-3.051693	ٹ ش	-3.477982
-4.7293	ٹ ص	-0.7002655
-5.349088	ٹ ض	-0.6708472
-5.273898	ٹ ط	-0.7474847
-5.22415	ٹ ظ	-0.8440192
-4.848486	ٹ ع	-0.417789
-5.273898	ٹ غ	-0.5922144
-3.570937	ٹ ف	-1.634709
-4.784817	ٹ ق	-1.306803
-1.882023	ٹ ل	-2.572018
-1.819572	ٹ م	-2.761564
-1.477798	ٹ ن	-2.481769
-1.247158	ٹ و	-2.04322
-3.112299	ٹ ٹ	-1.571601
-2.757282	ٹ پ	-2.347099
-3.705636	ٹ چ	-1.370329
-2.724978	ٹ ڈ	-1.942378
-3.6009	ٹ ڑ	-1.604307
-1.662512	ٹ ک	-1.73649
-3.31768	ٹ گ	-1.628867
-4.608726	ٹ ں	0.07956469
-0.9521077	ٹ ھ	-2.422843
-2.138859	ٹ ہ	-1.402958
-0.7435499	ٹ ی	-2.503053
-1.525701	ٹ ے	-1.59364
-0.9506477	پ </s>
-5.71895	پ آ	-0.2034414
-5.458349	پ ؤ	-0.8120912
-3.178717	پ ئ	-1.921371
-0.8791319	پ ا	-3.698762
-2.939228	پ ب	-2.407348
-1.876102	پ ت	-3.230664
-5.970232	پ ث	-0.508709
-3.632773	پ ج	-1.756346
-4.938824	پ ح	-1.260594
-2.798799	پ خ	-3.123363
-3.507086	پ د	-1.782298
-2.876986	پ ذ	-3.525101
-0.6231679	پ ر	-1.900948
-3.646465	پ ز	-1.482838
-1.605334	پ س	-2.908802
-2.340593	پ ش	-2.773759
-4.970232	پ ص	-1.465499
-6.271262	پ ض
-3.770203	پ ط	-2.571191
-4.739783	پ ع	-0.7567165
-4.856289	پ غ	-1.157408
-5.004091	پ ف	-0.6287881
-4.174352	پ ق	-2.154034
-1.898231	پ ل	-2.688425
-3.15036	پ م	-2.373932
-0.8912701	پ ن	-3.956115
-1.259563	پ و	-3.537023
-2.248422	پ ٹ	-1.503415
-3.811116	پ پ	-0.9577364
-2.274247	پ چ	-2.140288
-3.306296	پ ڈ	-1.758646
-1.46181	پ ڑ	-2.066532
-4.319439	پ ژ	-2.058778
-1.902892	پ ک	-2.293074
-3.113051	پ گ	-2.257576
-4.493111	پ ں	-0.1352021
-1.325164	پ ھ	-2.974917
-1.200384	پ ہ	-2.689259
-1.013418	پ ی	-3.111915
-2.247948	پ ے	-1.003883
-1.101385	چ </s>
-5.163067	چ آ	-0.9407421
-5.016939	چ ؤ	-0.9868308
-3.126438	چ ئ	-2.922365
-0.7106075	چ ا	-3.162335
-2.999012	چ ب	-3.324892
-2.060977	چ ت	-2.940327
-5.259977	چ ث	-0.7967978
-4.288006	چ ج	-1.114369
-4.26544	چ ح	-1.566164
-4.129643	چ خ	-1.230858
-3.372782	چ د	-1.487122
-5.309725	چ ذ	-0.527486
-1.768108	چ ر	-3.600365
-3.206419	چ ز	-1.630753
-1.927211	چ س	-2.838759
-2.34729	چ ش	-3.024743
-5.309725	چ ص	-0.4602205
-5.561007	چ ض	-0.1523117
-5.862037	چ ط
-5.66552	چ ظ	-0.3944497
-4.884314	چ ع	-0.9825406
-3.256732	چ غ	-2.344277
-4.986976	چ ف	-1.088619
-4.288006	چ ق	-1.046579
-1.203239	چ ل	-3.622781
-2.150398	چ م	-4.027565
-1.300209	چ ن	-3.36449
-1.20489	چ و	-3.081828
-2.607489	چ ٹ	-2.298286
-2.112726	چ پ	-2.171274
-2.687977	چ چ	-2.562175
-4.106162	چ ڈ	-1.430012
-2.075321	چ ڑ	-1.547664
-1.306683	چ ک	-2.400442
-3.410251	چ گ	-1.72749
-5.66552	چ ں	1.133922
-0.6040192	چ ھ	-2.450063
-1.397145	چ ہ	-1.69625
-0.9717698	چ ی	-3.235442
-1.493704	چ ے	-1.04279
-0.6694952	ڈ </s>
-3.54866	ڈ آ	-1.25393
-4.188985	ڈ ؤ	-1.00312
-2.950542	ڈ ئ	-1.471255
-0.7000927	ڈ ا	-3.298228
-2.04737	ڈ ب	-2.15759
-2.517617	ڈ ت	-1.918978
-5.271222	ڈ ث	-0.4446152
-3.01826	ڈ ج	-1.682343
-4.177704	ڈ ح	-0.9390447
-4.727376	ڈ خ	-0.2959037
-3.564648	ڈ د	-0.9414051
-4.1353	ڈ ذ	-1.499759
-1.012003	ڈ ر	-1.723205
-1.870592	ڈ ز	-1.729788
-1.84729	ڈ س	-1.664143
-2.387834	ڈ ش	-2.097171
-4.814526	ڈ ص	-0.8904005
-5.271222	ڈ ض	-0.5930931
-5.271222	ڈ ط
-4.490015	ڈ ع	-0.7205157
-4.337405	ڈ غ	-1.343566
-2.703189	ڈ ف	-2.164391
-4.2247	ڈ ق	-1.427299
-1.789903	ڈ ل	-3.074623
-2.026672	ڈ م	-2.124436
-1.517836	ڈ ن	-2.94537
-1.223486	ڈ و	-3.425125
-2.239081	ڈ ٹ	-2.087984
-2.142017	ڈ پ	-2.741151
-3.39402	ڈ چ	-2.051709
-2.933712	ڈ ڈ	-1.207478
-4.388557	ڈ ڑ	-0.8239509
-5.467738	ڈ ژ	-0.4539895
-1.87545	ڈ ک	-2.261505
-2.161957	ڈ گ	-2.952858
-4.990617	ڈ ں	-0.1681936
-1.402028	ڈ ھ	-1.948693
-2.21006	ڈ ہ	-1.642057
-0.6507451	ڈ ی	-3.086257
-1.686881	ڈ ے	-1.487043
-0.878756	ڑ </s>
-3.756307	ڑ آ	-1.326994
-5.480583	ڑ ؤ
-3.173086	ڑ ئ	-1.657555
-0.8430978	ڑ ا	-0.2571011
-2.868329	ڑ ب	-2.194877
-1.38969	ڑ ت	-2.886324
-2.862011	ڑ ج	-2.45869
-3.82737	ڑ ح	-1.164957
-3.92428	ڑ خ	-1.484415
-2.596354	ڑ د	-1.928711
-4.74022	ڑ ذ	-0.861021
-2.876356	ڑ ر	-1.539096
-3.955538	ڑ ز	-0.9258157
-2.941506	ڑ س	-1.754487
-4.290251	ڑ ش	-0.8540179
-4.781612	ڑ ص	-0.977771
-3.744186	ڑ ض	-2.023419
-4.92827	ڑ ط	-0.8503875
-4.319214	ڑ ع	-1.373865
-4.878522	ڑ غ	-0.1030085
-4.148144	ڑ ف	-0.9228934
-4.92827	ڑ ق	-0.3949301
-2.986428	ڑ ل	-2.260847
-3.332906	ڑ م	-1.115971
-1.57344	ڑ ن	-2.488151
-1.395274	ڑ و	-2.767439
-3.878522	ڑ ٹ	-0.8641306
-2.165242	ڑ پ	-1.751704
-3.286068	ڑ چ	-1.833982
-3.955538	ڑ ڈ	-1.364402
-3.756307	ڑ ڑ	-2.796159
-1.210393	ڑ ک	-3.299677
-2.724327	ڑ گ	-2.11517
-4.100371	ڑ ں	0.2308323
-0.6763851	ڑ ھ	-2.980248
-2.023079	ڑ ہ	-1.68892
-0.7439072	ڑ ی	-3.063801
-0.8734224	ڑ ے	-1.341643
-1.285089	ژ </s>
-3.77364	ژ ئ	-0.2414084
-0.7322475	ژ ا	-2.266551
-3.033278	ژ ب	-1.87984
-2.819398	ژ ت	-0.6005223
-4.07467	ژ ث
-4.07467	ژ ج
-2.819398	ژ خ	-1.227624
-1.328815	ژ د	-2.232321
-1.730278	ژ ر	-1.258079
-3.77364	ژ ز
-3.577123	ژ س	-0.4591785
-3.361938	ژ ش	-0.6001802
-3.77364	ژ ظ	-0.4280165
-3.577123	ژ ع	-0.579775
-3.221328	ژ ل	-0.2964935
-1.887149	ژ م	-1.518217
-0.2287044	ژ ن	-2.700205
-1.338274	ژ و	-1.90705
-4.07467	ژ پ
-3.033278	ژ ڈ	-1.033909
-2.229572	ژ ڑ	-1.822925
-2.518368	ژ ک	-1.365651
-2.326482	ژ گ	-1.640662
-3.361938	ژ ں	0.8328923
-2.732248	ژ ھ	-0.7660089
-2.350394	ژ ہ	-0.930117
-1.716735	ژ ی	-1.771813
-2.960727	ژ ے	0.3616469
-1.134352	ک </s>
-5.248539	ک آ	-1.064302
-5.211158	ک ؤ	-1.064229
-2.421606	ک ئ	-3.757154
-0.9602093	ک ا	-0.7779837
-2.274261	ک ب	-3.251238
-1.689638	ک ت	-3.007228
-2.716544	ک ث	-3.23207
-3.416461	ک ج	-1.763738
-4.434501	ک ح	-1.514103
-5.090719	ک خ	-1.205199
-3.404838	ک د	-1.964211
-3.694411	ک ذ	-2.481875
-0.9579723	ک ر	-1.737793
-2.926901	ک ز	-2.155056
-1.548454	ک س	-2.96095
-2.277681	ک ش	-3.404047
-5.234141	ک ص	-0.9860941
-6.118748	ک ض	-0.6487194
-4.378386	ک ط	-2.147212
-5.59587	ک ظ	-2.002109
-3.190352	ک ع	-2.585196
-5.855507	ک غ	-0.6071545
-2.850229	ک ف	-2.578262
-5.465536	ک ق	-0.8591537
-1.873857	ک ل	-2.925516
-1.710343	ک م	-3.222302
-1.755473	ک ن	-3.065974
-1.004672	ک و	0
-2.236015	ک ٹ	-1.561534
-2.940371	ک پ	-1.993394
-2.036657	ک چ	-3.1264
-4.470388	ک ڈ	-1.53226
-2.699674	ک ڑ	-1.195274
-5.129744	ک ژ	-0.3777794
-4.129744	ک ک	-0.6755873
-5.027668	ک گ	-1.191165
-4.890433	ک ں	-0.3954226
-1.417683	ک ھ	-2.299548
-1.004342	ک ہ	-0.9164095
-0.7522768	ک ی	-1.902224
-0.8075716	ک ے	-0.3549666
-0.9518628	گ </s>
-4.714088	گ آ	-0.6831486
-4.982934	گ ؤ	-0.284176
-1.112749	گ ئ	-3.775296
-0.8360682	گ ا	-2.57074
-3.578833	گ ب	-1.433316
-1.897515	گ ت	-3.347571
-5.254	گ ث	-1.08274
-2.770461	گ ج	-2.938107
-5.151338	گ ح	-0.6277104
-4.850308	گ خ	-0.9652615
-2.654044	گ د	-2.201254
-2.301272	گ ذ	-3.276699
-0.7618659	گ ر	-1.624304
-1.615964	گ ز	-3.278278
-2.360423	گ س	-2.225929
-2.975704	گ ش	-2.213315
-5.65194	گ ص	-0.7201585
-6.129062	گ ض	-0.328403
-5.932545	گ ط	-0.4653784
-5.015118	گ ع	-0.2297595
-5.430091	گ غ	-0.9098284
-2.291568	گ ف	-2.868275
-5.174819	گ ق	-0.4380423
-1.582155	گ ل	-2.887185
-2.147945	گ م	-2.868742
-1.640694	گ ن	-2.919551
-1.133951	گ و	-3.435474
-2.519521	گ ٹ	-2.509022
-3.090243	گ پ	-2.491202
-3.475367	گ چ	-1.819981
-3.139834	گ ڈ	-1.601572
-2.281581	گ ڑ	-1.258518
-4.485609	گ ژ	-1.900331
-4.107872	گ ک	-0.6233226
-4.354545	گ گ	-1.456307
-4.967693	گ ں	0.134226
-1.376088	گ ھ	-2.02516
-1.715552	گ ہ	-1.900122
-0.7630226	گ ی	-1.516673
-1.209071	گ ے	-0.2806749
-0.01076746	ں </s>
-3.145551	ں آ	-1.110107
-6.060287	ں ئ	-0.7593689
-2.350462	ں ا	-2.614594
-2.93562	ں ب	-1.324278
-3.035986	ں ت	-1.607992
-5.100921	ں ث	-1.067408
-2.882542	ں ج	-1.535262
-3.561365	ں ح	-1.199321
-3.61526	ں خ	-1.039508
-3.25741	ں د	-1.740196
-4.328974	ں ذ	-1.611933
-3.478773	ں ر	-1.30268
-3.993423	ں ز	-1.723264
-3.042237	ں س	-1.465093
-3.605111	ں ش	-1.699686
-3.865608	ں ص	-1.417195
-4.596928	ں ض	-1.505415
-4.303197	ں ط	-1.385936
-4.8335	ں ظ	-1.520315
-3.604227	ں ع	0.168998
-4.067155	ں غ	-1.921974
-3.733209	ں ف	-1.395677
-3.786695	ں ق	-1.529606
-3.194609	ں ل	-2.062625
-2.731429	ں م	-1.689539
-2.887828	ں ن	-2.254178
-3.242563	ں و	-1.978003
-4.250575	ں ٹ	-0.9033301
-3.043692	ں پ	-1.983942
-3.574637	ں چ	-1.424968
-3.963459	ں ڈ	-1.386861
-6.773019	ں ڑ
-2.451255	ں ک	-0.7321417
-3.113959	ں گ	-1.741866
-4.025608	ں ں	-0.8328667
-4.438565	ں ھ	-0.8436495
-2.886134	ں ہ	-1.761018
-3.089342	ں ی	-2.080834
-4.349773	ں ے	-0.2676605
-0.8276122	ھ </s>
-4.370447	ھ آ	-1.049572
-4.757235	ھ ؤ	-1.092483
-2.707307	ھ ئ	-2.80758
-0.7166708	ھ ا	-0.7316122
-2.719528	ھ ب	-2.364973
-1.511246	ھ ت	-3.796536
-5.404373	ھ ث	-0.967572
-2.824589	ھ ج	-1.842043
-5.228282	ھ ح	-0.7887476
-5.286274	ھ خ	-1.066596
-2.692777	ھ د	-3.416504
-3.107845	ھ ذ	-2.519617
-1.15413	ھ ر	-1.733348
-3.684214	ھ ز	-2.449583
-2.862482	ھ س	-2.265701
-3.368693	ھ ش	-2.080868
-4.955281	ھ ص	-1.101926
-4.788949	ھ ض	-1.413086
-5.286274	ھ ط	-0.2948178
-5.006433	ھ ع	-0.7566193
-5.830342	ھ غ	-0.7749596
-4.017428	ھ ف	-1.260587
-4.196873	ھ ق	-1.617436
-1.729937	ھ ل	-3.500834
-1.927551	ھ م	-2.603896
-1.431485	ھ ن	-3.595668
-1.153423	ھ و	-99
-2.061309	ھ ٹ	-2.52103
-2.429976	ھ پ	-2.350837
-3.430668	ھ چ	-1.54059
-3.614616	ھ ڈ	-1.342271
-1.992406	ھ ڑ	-1.337229
-6.608493	ھ ژ
-2.305513	ھ ک	-1.832112
-2.640197	ھ گ	-2.645555
-4.673995	ھ ں	-0.2524949
-3.566706	ھ ھ	-1.837198
-2.547191	ھ ہ	-1.685165
-0.557709	ھ ی	-1.564818
-1.001234	ھ ے	0.1208272
-0.412722	ہ </s>
-4.472648	ہ آ	-1.462301
-4.585282	ہ ؤ	-1.851843
-2.774746	ہ ئ	-2.818557
-1.237448	ہ ا	0
-2.493184	ہ ب	-2.211494
-1.618838	ہ ت	-3.094165
-5.05638	ہ ث	-1.490441
-2.932771	ہ ج	-2.116131
-4.396441	ہ ح	-1.339173
-4.703003	ہ خ	-1.031628
-2.15175	ہ د	-1.185543
-2.663465	ہ ذ	-2.766803
-1.591553	ہ ر	-99
-2.525007	ہ ز	-3.081499
-2.866466	ہ س	-3.244365
-2.515049	ہ ش	-2.691222
-4.742966	ہ ص	-0.9865488
-4.031956	ہ ض	-2.138257
-5.194683	ہ ط	-0.6450245
-5.838136	ہ ظ	-0.5025122
-4.502677	ہ ع	-2.826541
-5.264104	ہ غ	-1.20409
-3.04669	ہ ف	-2.323727
-3.862244	ہ ق	-1.344604
-1.783672	ہ ل	-3.666348
-1.440878	ہ م	-2.013963
-1.717606	ہ ن	-2.965497
-0.9477467	ہ و	-1.443665
-2.914374	ہ ٹ	-1.644408
-4.072467	ہ پ	-0.1681983
-3.178219	ہ چ	-2.067534
-3.762406	ہ ڈ	-2.956802
-3.49188	ہ ڑ	-1.110127
-6.361014	ہ ژ	-1.778835
-3.28105	ہ ک	-1.1203
-3.796546	ہ گ	-1.758651
-4.01012	ہ ں	0.0122633
-4.515916	ہ ھ	-0.9519576
-2.651236	ہ ہ	-1.703199
-0.8218489	ہ ی	0
-0.8508334	ہ ے	-0.1928425
-0.4308754	ی </s>
-4.244804	ی آ	-1.17005
-4.473974	ی ؤ	-1.861865
-2.574543	ی ئ	-2.759478
-1.032141	ی ا	0
-2.131734	ی ب	-0.1868005
-1.73651	ی ت	-2.848494
-2.472181	ی ث	-0.9977844
-2.335237	ی ج	-1.492991
-2.488553	ی ح	-0.4628787
-2.560028	ی خ	-1.320518
-1.754343	ی د	-1.221882
-3.923746	ی ذ	-1.449717
-1.494843	ی ر	-99
-2.121869	ی ز	-0.5604033
-1.68511	ی س	-1.171798
-2.023382	ی ش	-1.774157
-2.668975	ی ص	-1.772179
-3.071283	ی ض	-1.945618
-3.288184	ی ط	-1.78098
-3.893334	ی ظ	-0.6341021
-2.255921	ی ع	-2.436379
-2.888302	ی غ	-1.365143
-2.286245	ی ف	-3.455964
-2.133225	ی ق	-0.6622872
-1.773747	ی ل	-2.663182
-1.806127	ی م	-0.7718301
-1.428265	ی ن	0
-1.612821	ی و	-2.531366
-2.055049	ی ٹ	-0.9030786
-2.932707	ی پ	-1.117502
-2.599195	ی چ	-1.823245
-2.373698	ی ڈ	-0.9450953
-3.185361	ی ڑ	-1.268554
-3.884304	ی ژ	-2.351565
-1.315038	ی ک	-0.1167145
-2.489345	ی گ	-1.00464
-0.7796935	ی ں	-0.125226
-3.481752	ی ھ	-1.548205
-1.380878	ی ہ	-1.043298
-3.326723	ی ی	-1.026178
-1.932996	ی ے	-0.4944878
-0.01370387	ے </s>
-3.252522	ے آ	-1.206791
-5.575064	ے ؤ	-0.8848147
-4.286424	ے ئ	-1.616509
-2.300185	ے ا	-0.09758234
-2.86331	ے ب	-1.540926
-2.937231	ے ت	-2.034566
-4.595914	ے ث	-1.323808
-2.891258	ے ج	-1.219018
-3.326555	ے ح	-1.222611
-3.378733	ے خ	-1.191333
-3.048039	ے د	-2.038374
-4.043585	ے ذ	-2.495841
-3.243954	ے ر	-2.154873
-3.737989	ے ز	-1.582377
-2.943843	ے س	-1.785444
-3.458934	ے ش	-1.298716
-3.623697	ے ص	-1.536998
-4.35024	ے ض	-0.9238569
-4.09121	ے ط	-1.260805
-4.644052	ے ظ	-1.902375
-3.291481	ے ع	-0.3860874
-3.989956	ے غ	-1.323969
-3.618416	ے ف	-1.425445
-3.532686	ے ق	-1.367789
-2.803041	ے ل	-3.31005
-2.619362	ے م	-1.361457
-3.097175	ے ن	-0.8065507
-2.999408	ے و	-1.253033
-3.908781	ے ٹ	-1.570881
-3.11024	ے پ	-1.2646
-3.489261	ے چ	-1.774879
-3.966605	ے ڈ	-1.294383
-5.316786	ے ڑ	-1.825736
-5.427002	ے ژ	-2.140763
-2.536829	ے ک	-1.185399
-3.039217	ے گ	-0.7189662
-3.243321	ے ں	-0.4449813
-4.581904	ے ھ	-1.044824
-2.779967	ے ہ	-1.432237
-3.156194	ے ی	-1.927273
-2.685115	ے ے	-1.053212

\3-grams:
-1.655686	<s> آ </s>
-4.209985	<s> آ آ
-2.261331	<s> آ ؤ
-1.028079	<s> آ ئ
-4.060471	<s> آ ا
-1.45434	<s> آ ب
-1.359179	<s> آ ت
-2.616335	<s> آ ث
-1.241566	<s> آ ج
-4.133789	<s> آ ح
-1.478948	<s> آ خ
-1.59568	<s> آ د
-3.129813	<s> آ ذ
-1.464857	<s> آ ر
-1.535136	<s> آ ز
-1.498767	<s> آ س
-2.388731	<s> آ ش
-2.290549	<s> آ ص
-4.471248	<s> آ ض
-5.456503	<s> آ ظ
-3.885787	<s> آ ع
-1.978976	<s> آ غ
-1.628358	<s> آ ف
-2.549691	<s> آ ق
-1.797467	<s> آ ل
-1.488988	<s> آ م
-1.230168	<s> آ ن
-1.698028	<s> آ و
-2.037798	<s> آ ٹ
-0.5424398	<s> آ پ
-2.840312	<s> آ چ
-2.862454	<s> آ ڈ
-2.800075	<s> آ ڑ
-4.554794	<s> آ ژ
-2.147635	<s> آ ک
-1.398998	<s> آ گ
-3.222661	<s> آ ں
-3.129813	<s> آ ھ
-2.041899	<s> آ ہ
-1.275846	<s> آ ی
-2.97605	<s> آ ے
-1.20862	آ آ </s>
-0.1416737	آ آ آ
-1.764923	آ آ ئ
-1.847089	آ آ خ
-1.847089	آ آ م
-1.986772	آ آ ن
-1.141674	آ آ پ
-1.764923	آ آ ک
-1.626076	آ آ ہ
-1.384712	آ آ ے
-0.2388821	ؤ آ </s>
-0.5698753	ؤ آ ج
-0.39794	ئ آ ت
-0.39794	ئ آ ی
-2.055931	ا آ </s>
-3.111225	ا آ ؤ
-1.418399	ا آ ئ
-3.426999	ا آ ا
-1.768988	ا آ ب
-1.715192	ا آ ت
-2.824939	ا آ ث
-1.129238	ا آ ج
-1.212155	ا آ خ
-1.610758	ا آ د
-1.57881	ا آ ر
-1.732394	ا آ ز
-0.8725098	ا آ س
-1.40581	ا آ ش
-2.347818	ا آ ص
-1.283984	ا آ غ
-2.236667	ا آ ف
-2.686636	ا آ ق
-2.280871	ا آ ل
-1.698645	ا آ م
-1.101689	ا آ ن
-1.549052	ا آ و
-1.972154	ا آ ٹ
-0.5906748	ا آ پ
-3.426999	ا آ چ
-3.029059	ا آ ڈ
-3.250908	ا آ ڑ
-2.890212	ا آ ک
-1.764241	ا آ گ
-2.890212	ا آ ں
-2.686636	ا آ ھ
-1.972154	ا آ ہ
-1.442472	ا آ ی
-3.111225	ا آ ے
-1.038753	ب آ </s>
-1.913814	ب آ ؤ
-1.56858	ب آ ئ
-2.758912	ب آ ا
-2.214844	ب آ ب
-2.360972	ب آ ت
-2.582821	ب آ ث
-2.360972	ب آ ج
-2.582821	ب آ خ
-2.443138	ب آ د
-2.582821	ب آ ذ
-1.26755	ب آ ر
-2.105699	ب آ ز
-0.3414402	ب آ س
-2.582821	ب آ ش
-2.360972	ب آ ص
-1.698214	ب آ ل
-2.105699	ب آ ن
-1.214844	ب آ و
-2.222125	ب آ ٹ
-1.378701	ب آ پ
-2.758912	ب آ ہ
-0.7545905	ب آ ی
-0.6297314	ت آ </s>
-1.130334	ت آ ئ
-1.547789	ت آ ب
-1.482516	ت آ ث
-1.482516	ت آ ج
-1.686636	ت آ خ
-1.686636	ت آ د
-1.547789	ت آ ز
-1.540508	ت آ س
-1.482516	ت آ ل
-1.482516	ت آ م
-1.385606	ت آ ن
-0.908485	ت آ پ
-2.084576	ت آ ک
-0.607455	ت آ ی
-1.230449	ث آ ئ
-0.3553877	ث آ ب
-0.9146748	ث آ د
-1.230449	ث آ ز
-0.5314789	ث آ ل
-0.233748	ج آ </s>
-1.09108	ج آ ؤ
-0.8692317	ج آ ئ
-1.650368	ج آ ز
-1.18799	ج آ ن
-1.422074	ج آ و
-1.650368	ج آ پ
-1.650368	ج آ ی
-1.778151	ح آ </s>
-1.234083	ح آ ب
-1.241364	ح آ ت
-0.6478175	ح آ ج
-1.60206	ح آ ر
-1.241364	ح آ ص
-1.037789	ح آ ض
-1.778151	ح آ ف
-1.462377	ح آ ق
-1.124939	ح آ ل
-1.234083	ح آ م
-0.5740313	ح آ پ
-1.778151	ح آ ی
-0.8388491	خ آ ئ
-1.537819	خ آ ت
-1.139879	خ آ د
-1.222045	خ آ ر
-0.5600955	خ آ ص
-1.222045	خ آ ط
-1.001032	خ آ م
-0.6627578	خ آ ن
-1.655859	د آ </s>
-2.081827	د آ ؤ
-1.349433	د آ ئ
-0.6377824	د آ ب
-1.50973	د آ ت
-1.308528	د آ ج
-2.178737	د آ خ
-1.896191	د آ د
-1.558948	د آ ر
-0.9315826	د آ ز
-2.41282	د آ س
-2.641114	د آ ش
-1.826555	د آ ص
-2.02747	د آ ع
-2.143975	د آ غ
-1.604706	د آ ف
-1.896191	د آ ل
-1.780797	د آ م
-1.487066	د آ ن
-0.933636	د آ و
-2.41282	د آ ٹ
-0.9115655	د آ پ
-2.956888	د آ ک
-1.567722	د آ گ
-2.641114	د آ ں
-2.303676	د آ ہ
-1.333639	د آ ی
-0.7269987	ذ آ </s>
-1.007825	ذ آ ئ
-1.572097	ذ آ ا
-1.432414	ذ آ د
-0.243038	ذ آ ر
-1.211401	ذ آ م
-2.230079	ر آ </s>
-3.455019	ر آ ؤ
-1.916751	ر آ ئ
-4.425056	ر آ ا
-1.203989	ر آ ب
-1.824446	ر آ ت
-3.487204	ر آ ث
-2.205821	ر آ ج
-3.902177	ر آ ح
-2.386303	ر آ خ
-2.67429	ر آ د
-2.43383	ر آ ر
-2.596826	ر آ ز
-2.504237	ر آ س
-2.709052	ر آ ش
-2.698057	ر آ ص
-4.601147	ر آ ض
-3.322393	ر آ ع
-3.268708	ر آ غ
-2.915405	ر آ ف
-3.425056	ر آ ق
-2.644498	ر آ ل
-1.019482	ر آ م
-0.1377842	ر آ ن
-2.447332	ر آ و
-2.860784	ر آ ٹ
-1.607711	ر آ پ
-3.698057	ر آ چ
-3.999087	ر آ ڈ
-4.601147	ر آ ڑ
-3.138749	ر آ ک
-2.559754	ر آ گ
-2.015686	ر آ ں
-4.203207	ر آ ھ
-2.983099	ر آ ہ
-2.31559	ر آ ی
-3.646904	ر آ ے
-1.486329	ز آ </s>
-1.252246	ز آ ؤ
-0.8616053	ز آ ئ
-1.030397	ز آ ب
-1.428337	ز آ ت
-1.428337	ز آ ج
-1.456366	ز آ ر
-1.428337	ز آ س
-2.331427	ز آ ش
-1.632457	ز آ غ
-1.353704	ز آ ف
-2.155336	ز آ ل
-2.331427	ز آ م
-0.7239723	ز آ ن
-1.787359	ز آ و
-2.155336	ز آ ٹ
-0.8765824	ز آ پ
-1.678215	ز آ ک
-1.591065	ز آ گ
-1.632457	ز آ ں
-1.591065	ز آ ی
-0.5223849	س آ </s>
-2.165838	س آ ؤ
-0.5323692	س آ ئ
-1.767898	س آ ت
-2.165838	س آ خ
-1.563778	س آ ر
-1.262748	س آ ف
-1.767898	س آ ق
-1.850064	س آ ن
-1.563778	س آ و
-2.165838	س آ ٹ
-0.9105651	س آ پ
-1.850064	س آ ک
-1.144648	س آ ی
-0.2120199	ش آ </s>
-2.066326	ش آ ؤ
-0.8759942	ش آ ئ
-0.8902346	ش آ ا
-1.529539	ش آ ت
-1.668386	ش آ ط
-1.413113	ش آ م
-1.890235	ش آ پ
-2.066326	ش آ ی
-0.5642715	ص آ </s>
-1.296665	ص آ ئ
-1.694605	ص آ ب
-1.694605	ص آ ت
-0.6339074	ص آ ح
-1.092545	ص آ د
-1.150537	ص آ ر
-1.041393	ص آ ف
-1.150537	ص آ ن
-1.694605	ص آ ھ
-1.296665	ص آ ی
-0.64836	ض آ </s>
-1.111573	ض آ ئ
-1.64836	ض آ ت
-1.472269	ض آ ر
-1.111573	ض آ ف
-0.4179111	ض آ ل
-1.111573	ض آ م
-1.472269	ض آ پ
-1.472269	ض آ ھ
-1.472269	ض آ ی
-0.30103	ط آ ئ
-0.5563025	ط آ ف
-0.9394984	ط آ م
-1.255273	ط آ پ
-0.9542425	ظ آ ئ
-1.176091	ظ آ ا
-0.4490925	ظ آ ر
-1.352183	ظ آ ل
-0.69897	ظ آ م
-1.352183	ظ آ ن
-0.8153954	ظ آ ہ
-0.7781513	ع آ </s>
-0.9822713	ع آ ئ
-1.584331	ع آ س
-1.584331	ع آ ص
-1.982271	ع آ ک
-0.2005159	ع آ ی
-0.6450946	غ آ </s>
-0.7700334	غ آ ئ
-1.247155	غ آ ر
-0.5781478	غ آ ز
-1.025306	غ آ م
-0.7700334	غ آ ن
-0.8095597	ف آ </s>
-1.265492	ف آ ئ
-0.9064697	ف آ ت
-1.633469	ف آ ث
-1.493786	ف آ ج
-1.633469	ف آ خ
-1.80956	ف آ ذ
-1.272773	ف آ ز
-0.7303784	ف آ م
-1.633469	ف آ ن
-1.272773	ف آ و
-1.80956	ف آ پ
-0.6481917	ف آ ی
-0.6690068	ق آ </s>
-0.6146491	ق آ ئ
-1.367977	ق آ ب
-1.367977	ق آ خ
-1.544068	ق آ د
-1.544068	ق آ س
-1.367977	ق آ ص
-1.146128	ق آ ف
-0.7659168	ق آ ن
-1.367977	ق آ پ
-1.544068	ق آ ی
-1.113234	ل آ </s>
-3.072771	ل آ آ
-3.388545	ل آ ؤ
-1.648183	ل آ ئ
-2.689575	ل آ ا
-1.949213	ل آ ب
-2.990605	ل آ ت
-1.572304	ل آ ث
-2.648183	ل آ ج
-2.434303	ل آ ح
-0.1795667	ل آ خ
-1.883395	ل آ د
-2.648183	ل آ ذ
-1.585771	ل آ ر
-1.990605	ل آ ز
-2.735333	ل آ س
-2.485455	ل آ ص
-2.347152	ل آ ف
-2.121373	ل آ ل
-2.227177	ل آ م
-1.911424	ل آ ن
-1.814514	ل آ و
-2.851758	ل آ ٹ
-1.721092	ل آ پ
-2.434303	ل آ ک
-2.990605	ل آ گ
-1.199617	ل آ ی
-0.7473524	م آ </s>
-2.818006	م آ ؤ
-1.278094	م آ ئ
-1.897187	م آ ا
-0.3275791	م آ ب
-2.994097	م آ ت
-2.340885	م آ ث
-2.450029	م آ ج
-0.7995827	م آ خ
-2.392037	م آ د
-2.181184	م آ ر
-2.818006	م آ س
-2.818006	م آ ش
-2.596157	م آ ع
-2.818006	م آ ف
-1.475583	م آ ل
-2.596157	م آ م
-1.972908	م آ ن
-2.994097	م آ و
-1.509797	م آ پ
-2.994097	م آ گ
-2.596157	م آ ں
-2.818006	م آ ہ
-1.880154	م آ ی
-0.5674825	ن آ </s>
-2.03583	ن آ ؤ
-1.02723	ن آ ئ
-0.7903172	ن آ ا
-2.257679	ن آ ب
-1.504351	ن آ ج
-2.43377	ن آ خ
-2.03583	ن آ د
-1.588672	ن آ ر
-1.7348	ن آ ز
-2.03583	ن آ س
-2.257679	ن آ ص
-2.257679	ن آ ف
-1.7348	ن آ ل
-1.178497	ن آ م
-1.392377	ن آ ن
-2.257679	ن آ و
-1.22965	ن آ پ
-2.43377	ن آ ک
-2.117996	ن آ گ
-2.43377	ن آ ہ
-0.8597386	ن آ ی
-1.935132	و آ </s>
-3.279743	و آ ؤ
-1.780667	و آ ئ
-3.192593	و آ ا
-1.5656	و آ ب
-1.893541	و آ ت
-2.631926	و آ ث
-1.909703	و آ ج
-3.756864	و آ ح
-1.550938	و آ خ
-2.094106	و آ د
-1.662277	و آ ر
-1.935132	و آ ز
-1.768603	و آ س
-2.654202	و آ ش
-3.087857	و آ ص
-3.154804	و آ غ
-2.715472	و آ ف
-3.192593	و آ ق
-0.1573086	و آ ل
-2.046465	و آ م
-1.819012	و آ ن
-2.3255	و آ و
-2.853774	و آ ٹ
-1.166543	و آ پ
-3.154804	و آ ڈ
-3.932956	و آ ڑ
-3.330895	و آ ک
-1.738441	و آ گ
-3.154804	و آ ں
-2.771587	و آ ہ
-2.20868	و آ ی
-0.764363	ٹ آ </s>
-1.123385	ٹ آ ؤ
-0.8223549	ٹ آ ئ
-0.9270903	ٹ آ ب
-1.065393	ٹ آ س
-1.269513	ٹ آ ف
-1.065393	ٹ آ ل
-1.667453	ٹ آ م
-1.130666	ٹ آ ن
-0.968483	ٹ آ پ
-1.667453	ٹ آ گ
-0.3679768	پ آ ئ
-0.5228788	چ آ ئ
-0.69897	چ آ د
-0.69897	چ آ ٹ
-0.69897	چ آ ہ
-1.382291	ڈ آ </s>
-1.37501	ڈ آ ؤ
-0.8398969	ڈ آ ئ
-1.742987	ڈ آ ت
-1.015988	ڈ آ ر
-0.6180481	ڈ آ ف
-1.178715	ڈ آ ل
-1.015988	ڈ آ ن
-1.521138	ڈ آ ٹ
-0.9896592	ڈ آ پ
-1.919078	ڈ آ ڈ
-1.220108	ڈ آ ک
-1.521138	ڈ آ ی
-0.3918374	ڑ آ </s>
-0.7030866	ڑ آ ئ
-1.724276	ڑ آ ت
-1.724276	ڑ آ س
-1.548185	ڑ آ م
-1.187489	ڑ آ ن
-1.408502	ڑ آ پ
-1.408502	ڑ آ ھ
-0.7700334	ڑ آ ی
-1.0463	ک آ </s>
-1.111573	ک آ ئ
-1.472269	ک آ ب
-1.472269	ک آ ج
-1.472269	ک آ خ
-1.472269	ک آ د
-1.472269	ک آ ز
-1.472269	ک آ س
-0.4722688	ک آ ف
-1.0463	ک آ ن
-1.111573	ک آ پ
-0.9951475	ک آ ہ
-0.4607309	گ آ </s>
-0.8781862	گ آ ئ
-1.099199	گ آ ج
-1.414973	گ آ م
-1.238882	گ آ ن
-1.414973	گ آ و
-0.8781862	گ آ پ
-1.238882	گ آ گ
-1.414973	گ آ ے
-1.283076	ں آ </s>
-2.627468	ں آ ؤ
-1.030871	ں آ ئ
-2.004219	ں آ ب
-1.093442	ں آ ت
-1.034182	ں آ ج
-1.460151	ں آ خ
-2.059267	ں آ د
-1.527098	ں آ ر
-1.807924	ں آ ز
-1.682986	ں آ س
-2.673226	ں آ ص
-2.78237	ں آ غ
-2.0834	ں آ ف
-2.247257	ں آ ل
-1.451377	ں آ م
-1.335212	ں آ ن
-2.451377	ں آ و
-2.108954	ں آ ٹ
-0.4343437	ں آ پ
-2.451377	ں آ چ
-2.627468	ں آ ڈ
-3.150347	ں آ ڑ
-2.059267	ں آ ک
-1.668427	ں آ گ
-2.928498	ں آ ں
-2.247257	ں آ ہ
-1.431569	ں آ ی
-0.1552607	ھ آ </s>
-1.091918	ھ آ ئ
-1.621242	ھ آ ل
-1.238046	ھ آ ن
-1.937016	ھ آ ٹ
-1.392948	ھ آ پ
-1.334956	ھ آ ی
-1.30479	ہ آ </s>
-1.324095	ہ آ ئ
-1.666518	ہ آ ا
-1.82142	ہ آ ب
-2.365488	ہ آ ت
-1.411245	ہ آ ج
-1.763428	ہ آ خ
-1.666518	ہ آ د
-1.552575	ہ آ ر
-1.436069	ہ آ ز
-2.365488	ہ آ س
-1.967548	ہ آ غ
-2.365488	ہ آ ل
-1.462398	ہ آ م
-1.712276	ہ آ ن
-2.189397	ہ آ و
-2.189397	ہ آ ٹ
-0.4543304	ہ آ پ
-1.82142	ہ آ گ
-1.552575	ہ آ ں
-0.6251253	ہ آ ی
-0.9254338	ی آ </s>
-2.178017	ی آ ؤ
-0.7413246	ی آ ئ
-1.92814	ی آ ا
-1.901811	ی آ ب
-2.22917	ی آ ت
-1.049474	ی آ ج
-1.332919	ی آ خ
-1.770532	ی آ د
-1.141034	ی آ ر
-1.5302	ی آ ز
-1.770532	ی آ س
-2.83123	ی آ ش
-2.515455	ی آ ص
-2.018316	ی آ غ
-2.655138	ی آ ف
-2.294442	ی آ ل
-1.83123	ی آ م
-1.479047	ی آ ن
-1.770532	ی آ و
-2.287162	ی آ ٹ
-0.6230572	ی آ پ
-2.287162	ی آ ک
-1.789837	ی آ گ
-2.294442	ی آ ں
-2.090867	ی آ ہ
-1.575957	ی آ ی
-2.095299	ے آ </s>
-2.380534	ے آ ؤ
-1.126989	ے آ ئ
-2.071817	ے آ ب
-1.924602	ے آ ت
-2.748511	ے آ ث
-1.048818	ے آ ج
-1.319836	ے آ خ
-1.637361	ے آ د
-3.128722	ے آ ذ
-1.579719	ے آ ر
-1.607584	ے آ ز
-1.631793	ے آ س
-2.57242	ے آ ش
-2.296213	ے آ ص
-2.380534	ے آ غ
-2.0353	ے آ ف
-2.924602	ے آ ق
-2.103416	ے آ ل
-0.7434736	ے آ م
-1.339142	ے آ ن
-2.146451	ے آ و
-2.0353	ے آ ٹ
-0.5354362	ے آ پ
-3.350571	ے آ چ
-2.989875	ے آ ڈ
-3.350571	ے آ ڑ
-2.146451	ے آ ک
-1.251351	ے آ گ
-2.396328	ے آ ہ
-1.666324	ے آ ی
-3.350571	ے آ ے
-0.2737908	<s> ؤ </s>
-2.578066	<s> ؤ ئ
-1.623823	<s> ؤ ا
-2.262292	<s> ؤ ت
-2.041279	<s> ؤ ج
-2.041279	<s> ؤ د
-2.401975	<s> ؤ ر
-2.401975	<s> ؤ ز
-1.703005	<s> ؤ س
-2.401975	<s> ؤ ش
-2.578066	<s> ؤ ض
-2.578066	<s> ؤ ف
-2.401975	<s> ؤ ل
-1.924853	<s> ؤ م
-1.335028	<s> ؤ ن
-2.262292	<s> ؤ و
-2.180126	<s> ؤ پ
-2.578066	<s> ؤ ڈ
-1.360582	<s> ؤ ک
-2.401975	<s> ؤ گ
-0.6460997	<s> ؤ ں
-1.976006	<s> ؤ ہ
-1.765153	<s> ؤ ی
-0.465375	آ ؤ </s>
-2.594002	آ ؤ ا
-2.783059	آ ؤ ب
-2.783059	آ ؤ ت
-3.523421	آ ؤ ج
-2.986634	آ ؤ ح
-3.34733	آ ؤ د
-3.34733	آ ؤ ر
-3.34733	آ ؤ س
-3.523421	آ ؤ ع
-3.523421	آ ؤ ل
-2.74527	آ ؤ م
-1.937961	آ ؤ ن
-2.44424	آ ؤ و
-0.2797633	آ ؤ ٹ
-3.125481	آ ؤ پ
-3.125481	آ ؤ چ
-3.34733	آ ؤ ڈ
-2.523421	آ ؤ ک
-2.462723	آ ؤ گ
-1.027184	آ ؤ ں
-2.426511	آ ؤ ہ
-0.4685211	ؤ ؤ </s>
-0.30103	ؤ ؤ ؤ
-1.39794	ؤ ؤ و
-1	ؤ ؤ ں
-0.5008211	ا ؤ </s>
-3.573776	ا ؤ آ
-3.892535	ا ؤ ؤ
-3.453202	ا ؤ ئ
-2.228207	ا ؤ ا
-2.976081	ا ؤ ب
-2.221208	ا ؤ ت
-3.003233	ا ؤ ج
-4.017474	ا ؤ ح
-3.825588	ا ؤ خ
-1.509768	ا ؤ د
-3.068626	ا ؤ ر
-1.687737	ا ؤ ز
-1.342511	ا ؤ س
-3.629294	ا ؤ ش
-3.767596	ا ؤ ص
-4.494595	ا ؤ ط
-3.892535	ا ؤ ع
-3.132867	ا ؤ ف
-4.133899	ا ؤ ق
-1.799698	ا ؤ ل
-2.888931	ا ؤ م
-0.7329429	ا ؤ ن
-2.66422	ا ؤ و
-2.4975	ا ؤ ٹ
-3.145642	ا ؤ پ
-2.810349	ا ؤ چ
-2.065921	ا ؤ ڈ
-3.930324	ا ؤ ڑ
-4.354912	ا ؤ ژ
-2.540353	ا ؤ ک
-2.387385	ا ؤ گ
-0.4691664	ا ؤ ں
-4.126618	ا ؤ ھ
-2.51993	ا ؤ ہ
-3.358932	ا ؤ ی
-2.746407	ا ؤ ے
-0.7085153	ب ؤ </s>
-0.5835766	ب ؤ ا
-1.361728	ب ؤ س
-1.361728	ب ؤ ن
-1.361728	ب ؤ ٹ
-1.185637	ب ؤ ں
-0.5488145	ب ؤ ی
-2.161368	ت ؤ </s>
-1	ت ؤ ا
-1.462398	ت ؤ ت
-1.763428	ت ؤ خ
-1.985277	ت ؤ د
-1.462398	ت ؤ ذ
-1.845594	ت ؤ ف
-2.161368	ت ؤ ق
-0.2168853	ت ؤ م
-1.383217	ت ؤ و
-2.161368	ت ؤ ک
-0.9710363	ت ؤ ں
-0.1760913	ث ؤ م
-0.6627578	ج ؤ </s>
-0.2825466	ج ؤ ا
-0.7449237	ج ؤ و
-0.05799195	ح ؤ ا
-1.035716	خ ؤ ا
-0.6766936	خ ؤ ب
-0.7047223	خ ؤ د
-0.4828736	خ ؤ ش
-1.579784	خ ؤ ف
-0.9265711	خ ؤ ن
-0.8912985	د ؤ </s>
-2.338456	د ؤ ؤ
-2.338456	د ؤ ئ
-1.940516	د ؤ ا
-2.338456	د ؤ د
-1.794388	د ؤ ر
-2.022682	د ؤ ز
-1.108008	د ؤ س
-2.162365	د ؤ ل
-1.493358	د ؤ م
-1.801669	د ؤ ن
-0.5980938	د ؤ و
-2.338456	د ؤ پ
-0.3676449	د ؤ ں
-0.1249387	ذ ؤ ی
-1.173402	ر ؤ </s>
-2.165433	ر ؤ ئ
-2.002706	ر ؤ ا
-2.729705	ر ؤ ت
-2.590022	ر ؤ ز
-1.361728	ر ؤ س
-0.3794566	ر ؤ ف
-2.729705	ر ؤ ل
-1.525585	ر ؤ ن
-1.229102	ر ؤ و
-2.590022	ر ؤ ک
-1.400646	ر ؤ ں
-2.060698	ر ؤ ہ
-0.5219805	ر ؤ ی
-2.252583	ر ؤ ے
-1.490406	ز ؤ </s>
-1.262112	ز ؤ ن
-0.4637573	ز ؤ و
-0.2621119	ز ؤ ں
-1.458386	س ؤ </s>
-0.7479866	س ؤ ا
-2.333447	س ؤ خ
-0.5073725	س ؤ ر
-0.4914625	س ؤ ل
-2.017673	س ؤ ن
-1.032417	س ؤ و
-1.789379	س ؤ ں
-1.593085	س ؤ ہ
-0.8239087	ش ؤ ا
-1	ش ؤ د
-0.6842259	ش ؤ م
-0.8239087	ش ؤ ن
-0.60206	ش ؤ و
-1	ش ؤ ں
-0.8653014	ص ؤ ص
-0.3881802	ص ؤ ف
-0.8653014	ص ؤ ل
-1.041393	ص ؤ ن
-0.8653014	ص ؤ ی
-0.447158	ض ؤ </s>
-0.30103	ض ؤ ع
-0.30103	ط ؤ ہ
-0.30103	ع ؤ و
-0.4771213	ع ؤ ں
-0.5228788	غ ؤ ر
-0.1621828	غ ؤ ں
-1.036408	ف ؤ </s>
-0.7501225	ف ؤ ؤ
-0.2552725	ف ؤ ا
-1.036408	ف ؤ ن
-1.352183	ف ؤ و
-0.6634317	ل ؤ </s>
-1.633469	ل ؤ ؤ
-1.11059	ل ؤ ا
-1.633469	ل ؤ ت
-0.768167	ل ؤ ل
-1.031408	ل ؤ و
-1.633469	ل ؤ ڈ
-0.7488618	ل ؤ ں
-1.493786	ل ؤ ہ
-0.8553172	ل ؤ ی
-2.364156	م ؤ </s>
-2.195751	م ؤ ا
-3.327135	م ؤ ب
-2.300487	م ؤ ت
-0.9404789	م ؤ ث
-2.137759	م ؤ ج
-2.943939	م ؤ ح
-1.540819	م ؤ خ
-1.966216	م ؤ د
-1.683868	م ؤ ذ
-0.6455231	م ؤ ر
-1.875754	م ؤ س
-1.890861	م ؤ ط
-3.244969	م ؤ ف
-1.032782	م ؤ ق
-1.152249	م ؤ ل
-0.4647962	م ؤ م
-1.840136	م ؤ ن
-2.563728	م ؤ و
-1.764963	م ؤ ک
-2.188065	م ؤ ی
-0.1426675	ن ؤ </s>
-2.439333	ن ؤ ا
-1.740363	ن ؤ ت
-2.123559	ن ؤ خ
-2.439333	ن ؤ ط
-2.439333	ن ؤ غ
-2.439333	ن ؤ ل
-1.068265	ن ؤ م
-1.661181	ن ؤ و
-2.041393	ن ؤ ک
-1.439333	ن ؤ ں
-1.08715	ن ؤ ی
-1.691717	و ؤ </s>
-2.321805	و ؤ ا
-2.953829	و ؤ ت
-2.476707	و ؤ د
-2.307565	و ؤ ر
-3.182123	و ؤ ز
-2.96111	و ؤ س
-2.622835	و ؤ ط
-3.497897	و ؤ ع
-2.684983	و ؤ ف
-2.96111	و ؤ ق
-3.182123	و ؤ ل
-2.953829	و ؤ م
-2.035499	و ؤ ن
-2.267448	و ؤ و
-2.953829	و ؤ ٹ
-3.099957	و ؤ ڈ
-3.321805	و ؤ گ
-0.03095502	و ؤ ں
-3.497897	و ؤ ہ
-2.418715	و ؤ ی
-2.437199	و ؤ ے
-0.6690068	ٹ ؤ </s>
-0.7854321	ٹ ؤ ب
-0.2615215	ٹ ؤ ر
-0.07255067	پ ؤ ے
-0.5592871	چ ؤ </s>
-0.69897	چ ؤ ل
-0.8750613	چ ؤ ن
-0.4771213	چ ؤ ہ
-0.9629795	ڈ ؤ ا
-0.1818436	ڈ ؤ ن
-0.7419664	ڈ ؤ ں
-1.287802	ک ؤ </s>
-1.685742	ک ؤ ئ
-1.083682	ک ؤ ا
-0.6857417	ک ؤ ن
-0.7563228	ک ؤ و
-0.644349	ک ؤ ں
-0.6645525	ک ؤ ی
-0.3332147	گ ؤ </s>
-0.8303539	گ ؤ ن
-0.9700368	گ ؤ ک
-0.8303539	گ ؤ ں
-1.013441	ھ ؤ </s>
-1.374137	ھ ؤ ا
-1.374137	ھ ؤ ر
-0.2601937	ھ ؤ ل
-1.374137	ھ ؤ و
-1.234454	ھ ؤ ں
-1.550228	ھ ؤ ی
-0.9481683	ھ ؤ ے
-0.7992196	ہ ؤ </s>
-1.856124	ہ ؤ ئ
-0.3509745	ہ ؤ ا
-1.513702	ہ ؤ ر
-0.5913066	ہ ؤ ل
-2.077973	ہ ؤ ن
-2.254065	ہ ؤ و
-2.254065	ہ ؤ ں
-1.299822	ہ ؤ ی
-1.652004	ہ ؤ ے
-1.312025	ی ؤ </s>
-2.057992	ی ؤ ا
-0.80618	ی ؤ ت
-2	ی ؤ ث
-2.425969	ی ؤ ج
-1.279841	ی ؤ خ
-1.861697	ی ؤ د
-1.20412	ی ؤ ذ
-2.425969	ی ؤ ر
-1.541362	ی ؤ ف
-1.69897	ی ؤ ل
-0.3360636	ی ؤ م
-1.789147	ی ؤ ن
-1.948848	ی ؤ و
-2.425969	ی ؤ ٹ
-2.286286	ی ؤ ک
-1.103749	ی ؤ ں
-2.60206	ی ؤ ہ
-1.948848	ی ؤ ی
-1.20412	ے ؤ </s>
-0.1627273	ے ؤ ل
-1.20412	ے ؤ ن
-0.80618	ے ؤ ں
-1.064295	<s> ئ </s>
-2.365325	<s> ئ ئ
-2.320513	<s> ئ ا
-2.295689	<s> ئ ب
-2.329113	<s> ئ ت
-3.727053	<s> ئ ث
-2.596719	<s> ئ ج
-2.851992	<s> ئ ح
-3.182985	<s> ئ خ
-1.857821	<s> ئ د
-2.023762	<s> ئ ر
-1.860766	<s> ئ ز
-2.705864	<s> ئ س
-1.934661	<s> ئ ش
-3.727053	<s> ئ ص
-3.124993	<s> ئ ض
-3.182985	<s> ئ ط
-2.31208	<s> ئ ع
-2.98669	<s> ئ ف
-2.565685	<s> ئ ق
-1.623249	<s> ئ ل
-1.795087	<s> ئ م
-1.593514	<s> ئ ن
-1.994659	<s> ئ و
-2.202008	<s> ئ ٹ
-3.07384	<s> ئ پ
-2.346842	<s> ئ ک
-2.249932	<s> ئ ھ
-2.394614	<s> ئ ہ
-0.3538651	<s> ئ ی
-0.5382651	<s> ئ ے
-2.00343	آ ئ </s>
-3.779672	آ ئ ئ
-4.757396	آ ئ ا
-3.405214	آ ئ ب
-3.266034	آ ئ ت
-4.213328	آ ئ ث
-4.757396	آ ئ ج
-4.155336	آ ئ ح
-3.225917	آ ئ خ
-3.177613	آ ئ د
-2.082076	آ ئ ر
-3.099385	آ ئ ز
-2.306378	آ ئ س
-4.359456	آ ئ ش
-4.757396	آ ئ ض
-4.017034	آ ئ ط
-4.757396	آ ئ ع
-4.581305	آ ئ غ
-3.803154	آ ئ ف
-3.912298	آ ئ ق
-2.134147	آ ئ ل
-1.959782	آ ئ م
-1.152091	آ ئ ن
-2.628674	آ ئ و
-2.612822	آ ئ ٹ
-3.273096	آ ئ پ
-4.441622	آ ئ چ
-3.280275	آ ئ ڈ
-2.857029	آ ئ ک
-4.058426	آ ئ گ
-4.359456	آ ئ ں
-3.854306	آ ئ ھ
-3.678215	آ ئ ہ
-0.2446983	آ ئ ی
-0.5124636	آ ئ ے
-0.9256108	ؤ ئ ر
-0.9256108	ؤ ئ ن
-1.064458	ؤ ئ و
-0.7220353	ؤ ئ ی
-0.365488	ؤ ئ ے
-0.3461084	ئ ئ </s>
-1.62941	ئ ئ ر
-1.374137	ئ ئ ز
-2.02735	ئ ئ ق
-1.32838	ئ ئ م
-1.152288	ئ ئ ن
-2.02735	ئ ئ و
-1.851258	ئ ئ ک
-1.851258	ئ ئ گ
-1.42529	ئ ئ ں
-0.8659816	ئ ئ ی
-0.8970158	ئ ئ ے
-2.226183	ا ئ </s>
-5.612919	ا ئ آ
-4.112317	ا ئ ئ
-4.226718	ا ئ ا
-1.880151	ا ئ ب
-2.709829	ا ئ ت
-3.633675	ا ئ ث
-2.104929	ا ئ ج
-2.994523	ا ئ ح
-3.097487	ا ئ خ
-1.371796	ا ئ د
-4.140651	ا ئ ذ
-1.486452	ا ئ ر
-1.639099	ا ئ ز
-2.206947	ا ئ س
-1.66189	ا ئ ش
-3.325865	ا ئ ص
-2.549962	ا ئ ض
-2.619336	ا ئ ط
-4.976097	ا ئ ظ
-1.729107	ا ئ ع
-4.943913	ا ئ غ
-2.375376	ا ئ ف
-2.006037	ا ئ ق
-1.214974	ا ئ ل
-1.438801	ا ئ م
-1.338854	ا ئ ن
-2.221925	ا ئ و
-1.723487	ا ئ ٹ
-2.572845	ا ئ پ
-3.477257	ا ئ چ
-2.980125	ا ئ ڈ
-4.789011	ا ئ ڑ
-5.789011	ا ئ ژ
-2.578425	ا ئ ک
-3.575493	ا ئ گ
-4.014494	ا ئ ں
-4.112317	ا ئ ھ
-3.544734	ا ئ ہ
-0.4036189	ا ئ ی
-0.6308216	ا ئ ے
-1.699921	ب ئ </s>
-3.165304	ب ئ ا
-3.24747	ب ئ ت
-3.387152	ب ئ ث
-2.078944	ب ئ ر
-1.877502	ب ئ س
-2.785092	ب ئ ل
-2.307971	ب ئ ن
-2.43291	ب ئ و
-3.019176	ب ئ ٹ
-2.139998	ب ئ ک
-2.75033	ب ئ ھ
-2.108399	ب ئ ہ
-0.03426276	ب ئ ی
-2.387152	ب ئ ے
-1.317401	ت ئ </s>
-2.614411	ت ئ ا
-2.930185	ت ئ د
-1.833275	ت ئ ذ
-2.930185	ت ئ ص
-2.614411	ت ئ ل
-2.532245	ت ئ م
-2.532245	ت ئ ن
-2.930185	ت ئ و
-2.231215	ت ئ ہ
-0.04680716	ت ئ ی
-1.754093	ت ئ ے
-0.4259687	ث ئ ت
-0.4259687	ث ئ ی
-3.05635	ج ئ </s>
-3.259926	ج ئ ئ
-3.620622	ج ئ ا
-3.398773	ج ئ ب
-2.060317	ج ئ ت
-3.252645	ج ئ ر
-3.796713	ج ئ ز
-3.796713	ج ئ س
-2.606381	ج ئ م
-2.298403	ج ئ ن
-3.398773	ج ئ و
-3.620622	ج ئ ھ
-1.645957	ج ئ ہ
-1.105632	ج ئ ی
-0.05591629	ج ئ ے
-0.6430412	ح ئ </s>
-1.625312	ح ئ ہ
-0.139591	ح ئ ی
-1.847161	ح ئ ے
-0.3187588	خ ئ </s>
-1.574031	خ ئ ل
-1.574031	خ ئ ن
-0.3836996	خ ئ ی
-1.39794	خ ئ ے
-1.241702	د ئ </s>
-3.096732	د ئ ا
-3.235579	د ئ ب
-3.457428	د ئ ت
-3.031459	د ئ د
-3.089451	د ئ ش
-2.855368	د ئ ل
-3.457428	د ئ م
-2.271791	د ئ و
-3.096732	د ئ ک
-1.598089	د ئ ہ
-0.2587706	د ئ ی
-0.4498222	د ئ ے
-0.3542755	ذ ئ ب
-0.4149733	ذ ئ ہ
-1.414973	ذ ئ ی
-1.017033	ذ ئ ے
-1.673623	ر ئ </s>
-2.611475	ر ئ ا
-3.471793	ر ئ ب
-2.532294	ر ئ ت
-3.787567	ر ئ ج
-1.803039	ر ئ ر
-3.787567	ر ئ ز
-2.557118	ر ئ س
-3.088597	ر ئ ش
-3.471793	ر ئ ض
-3.047204	ر ئ ط
-2.348234	ر ئ ع
-3.611475	ر ئ ف
-2.690657	ر ئ ل
-2.626199	ر ئ م
-2.149077	ر ئ ن
-2.129555	ر ئ و
-2.884477	ر ئ ٹ
-3.471793	ر ئ پ
-3.471793	ر ئ چ
-3.611475	ر ئ ڈ
-2.746174	ر ئ ک
-1.144608	ر ئ ہ
-0.1153303	ر ئ ی
-1.065344	ر ئ ے
-1.731364	ز ئ </s>
-3.049058	ز ئ ئ
-3.364832	ز ئ ب
-2.820764	ز ئ د
-2.820764	ز ئ ر
-2.762772	ز ئ ز
-3.188741	ز ئ ل
-2.188741	ز ئ ن
-2.218704	ز ئ و
-2.966892	ز ئ ھ
-2.218704	ز ئ ہ
-0.02597756	ز ئ ی
-1.89501	ز ئ ے
-2.766234	س ئ </s>
-3.142985	س ئ ا
-3.8484	س ئ ت
-4.164175	س ئ ز
-3.627387	س ئ س
-0.009841681	س ئ ل
-4.164175	س ئ م
-3.261084	س ئ ن
-2.079598	س ئ و
-3.988083	س ئ ٹ
-3.510962	س ئ ک
-4.164175	س ئ گ
-2.709329	س ئ ہ
-2.134791	س ئ ی
-3.142985	س ئ ے
-1.576185	ش ئ </s>
-3.347037	ش ئ ئ
-1.383249	ش ئ ت
-0.8232906	ش ئ ر
-2.347037	ش ئ س
-3.031263	ش ئ ع
-3.031263	ش ئ ل
-2.233094	ش ئ ن
-2.693825	ش ئ و
-2.81025	ش ئ ٹ
-2.142917	ش ئ ہ
-0.2107923	ش ئ ی
-0.8452934	ش ئ ے
-1.026649	ص ئ م
-1.342423	ص ئ و
-0.152091	ص ئ ہ
-1.026649	ص ئ ی
-1.342423	ص ئ ے
-1.120574	ض ئ </s>
-1.20274	ض ئ ض
-0.2632414	ض ئ ہ
-0.5185139	ض ئ ی
-1.281033	ط ئ </s>
-1.736965	ط ئ ا
-2.104942	ط ئ ت
-1.351614	ط ئ م
-1.582063	ط ئ ن
-1.678973	ط ئ و
-0.4816928	ط ئ ہ
-1.025761	ط ئ ی
-0.3945426	ط ئ ے
-0.1249387	ظ ئ ر
-0.4060579	ع ئ </s>
-1.829304	ع ئ ت
-1.176091	ع ئ ہ
-0.5070845	ع ئ ی
-0.7323937	ع ئ ے
-1.217484	غ ئ </s>
-1.217484	غ ئ ہ
-0.1567861	غ ئ ی
-0.819544	غ ئ ے
-1.308518	ف ئ </s>
-2.053442	ف ئ ا
-1.007488	ف ئ ت
-1.193125	ف ئ د
-0.7951846	ف ئ ر
-1.716003	ف ئ و
-2.193125	ف ئ ک
-1.591065	ف ئ ہ
-0.2620059	ف ئ ی
-1.716003	ف ئ ے
-0.8402991	ق ئ </s>
-1.477121	ق ئ ت
-1.337438	ق ئ ک
-0.5925147	ق ئ ہ
-0.5228788	ق ئ ی
-0.7237936	ق ئ ے
-3.262932	ل ئ </s>
-4.052982	ل ئ ا
-5.007225	ل ئ ب
-3.740053	ل ئ ت
-4.463157	ل ئ ج
-2.919089	ل ئ ر
-4.229074	ل ئ س
-5.007225	ل ئ ق
-3.789741	ل ئ ل
-3.928044	ل ئ م
-3.062742	ل ئ ن
-4.052982	ل ئ و
-5.007225	ل ئ ڈ
-2.456996	ل ئ ک
-5.007225	ل ئ گ
-4.831133	ل ئ ں
-3.020453	ل ئ ہ
-1.672068	ل ئ ی
-0.01284611	ل ئ ے
-1.79407	م ئ </s>
-3.49304	م ئ ا
-2.307403	م ئ ت
-3.015918	م ئ ج
-1.85289	م ئ ذ
-1.662665	م ئ ر
-3.132344	م ئ ز
-3.067071	م ئ س
-3.669131	م ئ ع
-2.89098	م ئ ل
-3.49304	م ئ م
-0.6076784	م ئ ن
-1.700648	م ئ و
-3.49304	م ئ ٹ
-3.49304	م ئ ک
-3.125063	م ئ ں
-2.100929	م ئ ہ
-0.1887645	م ئ ی
-1.830282	م ئ ے
-1.883651	ن ئ </s>
-3.683757	ن ئ ئ
-3.73491	ن ئ ا
-4.021196	ن ئ ت
-3.596607	ن ئ د
-3.792902	ن ئ ذ
-0.9605753	ن ئ ر
-3.93903	ن ئ ز
-2.799151	ن ئ س
-3.33697	ن ئ ل
-3.206636	ن ئ م
-3.223027	ن ئ ن
-2.786741	ن ئ و
-3.683757	ن ئ ٹ
-3.407551	ن ئ ک
-4.021196	ن ئ گ
-3.160878	ن ئ ہ
-0.3409399	ن ئ ی
-0.3830169	ن ئ ے
-1.763136	و ئ </s>
-4.329574	و ئ ئ
-4.062402	و ئ ا
-3.9146	و ئ ب
-3.859752	و ئ ت
-3.798095	و ئ ث
-3.634969	و ئ ج
-4.028544	و ئ د
-2.629736	و ئ ر
-2.901439	و ئ ز
-2.764908	و ئ س
-4.308384	و ئ ش
-4.329574	و ئ ف
-4.931634	و ئ ق
-2.453934	و ئ ل
-2.737397	و ئ م
-2.279581	و ئ ن
-2.693588	و ئ و
-2.031704	و ئ ٹ
-4.250392	و ئ پ
-2.903063	و ئ چ
-3.967846	و ئ ڈ
-5.153482	و ئ ژ
-4.11209	و ئ ک
-4.589211	و ئ گ
-4.268876	و ئ ں
-3.520014	و ئ ہ
-0.1980883	و ئ ی
-0.4963502	و ئ ے
-1.372912	ٹ ئ </s>
-2.071882	ٹ ئ ا
-0.910514	ٹ ئ ر
-0.828844	ٹ ئ م
-0.2206237	ٹ ئ ی
-1.293731	ٹ ئ ے
-1.888425	پ ئ </s>
-3.092545	پ ئ ئ
-3.092545	پ ئ ا
-3.092545	پ ئ ب
-3.092545	پ ئ د
-1.077605	پ ئ ر
-1.730817	پ ئ س
-2.916454	پ ئ ش
-3.092545	پ ئ م
-0.5572511	پ ئ ن
-2.163126	پ ئ و
-2.776771	پ ئ ہ
-0.578662	پ ئ ی
-0.4829508	پ ئ ے
-2.559508	چ ئ </s>
-2.735599	چ ئ ب
-1.058905	چ ئ ر
-2.559508	چ ئ ل
-2.198812	چ ئ م
-2.337659	چ ئ ن
-2.133539	چ ئ و
-2.559508	چ ئ ں
-2.191531	چ ئ ہ
-0.2628424	چ ئ ی
-0.4791217	چ ئ ے
-2.517196	ڈ ئ </s>
-0.4380147	ڈ ئ ر
-1.313076	ڈ ئ ز
-1.587777	ڈ ئ ل
-2.119256	ڈ ئ م
-1.863983	ڈ ئ ن
-0.2816674	ڈ ئ ی
-1.973128	ڈ ئ ے
-1.608526	ڑ ئ </s>
-0.1401787	ڑ ئ ی
-0.6085261	ڑ ئ ے
-0.1760913	ژ ئ ی
-1.787764	ک ئ </s>
-4.475293	ک ئ ئ
-3.776323	ک ئ ا
-3.938506	ک ئ ج
-4.475293	ک ئ ح
-4.475293	ک ئ ر
-4.299202	ک ئ ش
-4.077353	ک ئ ل
-4.159519	ک ئ م
-3.873233	ک ئ ن
-3.822081	ک ئ و
-4.159519	ک ئ چ
-4.475293	ک ئ ھ
-3.931225	ک ئ ہ
-0.2301634	ک ئ ی
-0.4045354	ک ئ ے
-1.885175	گ ئ </s>
-4.700538	گ ئ ئ
-3.97492	گ ئ ا
-4.3631	گ ئ ت
-4.700538	گ ئ ج
-5.016313	گ ئ د
-4.700538	گ ئ ر
-4.840221	گ ئ ش
-5.016313	گ ئ ع
-5.016313	گ ئ ق
-4.3631	گ ئ م
-4.203399	گ ئ و
-5.016313	گ ئ ٹ
-4.840221	گ ئ پ
-4.113223	گ ئ ں
-4.840221	گ ئ ہ
-0.2795694	گ ئ ی
-0.3361537	گ ئ ے
-0.08216589	ں ئ </s>
-1.585215	ھ ئ </s>
-3.600156	ھ ئ ت
-3.600156	ھ ئ ج
-3.202216	ھ ئ ق
-3.056088	ھ ئ م
-3.600156	ھ ئ ن
-2.697066	ھ ئ و
-3.424065	ھ ئ ں
-0.4785959	ھ ئ ی
-0.1959209	ھ ئ ے
-1.936285	ہ ئ </s>
-3.526603	ہ ئ ت
-3.519322	ہ ئ ر
-3.747616	ہ ئ ش
-3.188329	ہ ئ ق
-3.66545	ہ ئ ن
-2.720967	ہ ئ و
-4.06339	ہ ئ گ
-3.218292	ہ ئ ں
-0.6608704	ہ ئ ی
-0.1159804	ہ ئ ے
-2.235501	ی ئ </s>
-4.501497	ی ئ آ
-4.325406	ی ئ ئ
-1.975805	ی ئ ا
-3.422316	ی ئ ب
-1.903802	ی ئ ت
-3.688584	ی ئ ج
-3.422316	ی ئ د
-4.325406	ی ئ ذ
-0.3340915	ی ئ ر
-3.103557	ی ئ ز
-2.308373	ی ئ س
-3.480308	ی ئ ش
-3.96471	ی ئ ع
-3.802527	ی ئ ف
-2.321085	ی ئ ل
-2.293325	ی ئ م
-1.860519	ی ئ ن
-2.318228	ی ئ و
-2.615007	ی ئ ٹ
-4.501497	ی ئ پ
-4.185723	ی ئ چ
-3.761135	ی ئ ڈ
-3.017198	ی ئ ک
-3.246225	ی ئ گ
-1.743343	ی ئ ں
-4.501497	ی ئ ھ
-2.564481	ی ئ ہ
-2.06933	ی ئ ی
-0.3581703	ی ئ ے
-1.331392	ے ئ </s>
-2.09482	ے ئ ا
-1.451368	ے ئ ت
-0.3576277	ے ئ ر
-1.955973	ے ئ م
-1.8907	ے ئ ن
-0.5482777	ے ئ ک
-1.79379	ے ئ ی
-0.8395479	ے ئ ے
-2.454501	<s> ا </s>
-4.475274	<s> ا آ
-4.296177	<s> ا ؤ
-2.798834	<s> ا ئ
-3.870957	<s> ا ا
-1.5234	<s> ا ب
-1.946718	<s> ا ت
-2.559332	<s> ا ث
-2.122053	<s> ا ج
-1.906099	<s> ا ح
-1.990119	<s> ا خ
-1.913688	<s> ا د
-3.010904	<s> ا ذ
-1.838184	<s> ا ر
-2.388247	<s> ا ز
-0.7592966	<s> ا س
-2.31349	<s> ا ش
-2.159245	<s> ا ص
-2.559277	<s> ا ض
-2.557032	<s> ا ط
-2.664873	<s> ا ظ
-1.896304	<s> ا ع
-3.211293	<s> ا غ
-1.830473	<s> ا ف
-2.102937	<s> ا ق
-1.006161	<s> ا ل
-1.458349	<s> ا م
-0.9134321	<s> ا ن
-0.7153865	<s> ا و
-2.217162	<s> ا ٹ
-1.299774	<s> ا پ
-2.151864	<s> ا چ
-3.435254	<s> ا ڈ
-2.933538	<s> ا ڑ
-4.493757	<s> ا ژ
-2.017912	<s> ا ک
-1.719446	<s> ا گ
-4.782378	<s> ا ں
-3.267213	<s> ا ھ
-1.975253	<s> ا ہ
-0.9939812	<s> ا ی
-2.293837	<s> ا ے
-1.092018	آ ا </s>
-1.489959	آ ا ا
-2.012837	آ ا ب
-1.652141	آ ا ت
-2.012837	آ ا ح
-1.535716	آ ا د
-1.34383	آ ا ر
-1.535716	آ ا ز
-2.188928	آ ا س
-1.873154	آ ا ع
-0.3564196	آ ا ل
-2.012837	آ ا م
-1.188928	آ ا ن
-1.376015	آ ا و
-1.25951	آ ا ٹ
-1.64486	آ ا پ
-2.188928	آ ا ک
-2.188928	آ ا ہ
-1.211205	آ ا ی
-0.6809967	ؤ ا </s>
-1.535988	ؤ ا ئ
-2.410546	ؤ ا ب
-1.073107	ؤ ا ج
-1.158118	ؤ ا خ
-1.612376	ؤ ا د
-2.189533	ؤ ا ر
-2.02735	ؤ ا ز
-1.32838	ؤ ا س
-2.72632	ؤ ا ف
-0.4907912	ؤ ا ل
-2.410546	ؤ ا م
-1.319779	ؤ ا ن
-0.9979658	ؤ ا و
-2.189533	ؤ ا پ
-1.948168	ؤ ا چ
-2.12426	ؤ ا گ
-2.12426	ؤ ا ں
-2.550228	ؤ ا ی
-0.2266963	ئ ا </s>
-2.150976	ئ ا ئ
-2.297104	ئ ا ا
-1.916892	ئ ا ب
-0.9168924	ئ ا ت
-2.297104	ئ ا ج
-2.695044	ئ ا خ
-1.71732	ئ ا د
-1.819982	ئ ا ر
-1.954681	ئ ا س
-2.158257	ئ ا ف
-1.051591	ئ ا ل
-1.916892	ئ ا م
-1.653651	ئ ا ن
-1.954681	ئ ا و
-2.297104	ئ ا ک
-2.695044	ئ ا گ
-1.518952	ئ ا ں
-1.634346	ئ ا ی
-2.37927	ئ ا ے
-1.774025	ا ا </s>
-4.316851	ا ا آ
-4.095002	ا ا ؤ
-2.961463	ا ا ئ
-1.331724	ا ا ا
-1.571516	ا ا ب
-2.018726	ا ا ت
-1.900765	ا ا ث
-2.259946	ا ا ج
-1.983739	ا ا ح
-1.931841	ا ا خ
-2.187591	ا ا د
-3.170722	ا ا ذ
-1.950739	ا ا ر
-2.793972	ا ا ز
-0.8564038	ا ا س
-2.579128	ا ا ش
-2.287467	ا ا ص
-2.896345	ا ا ض
-2.869693	ا ا ط
-2.026816	ا ا ظ
-1.887098	ا ا ع
-3.150519	ا ا غ
-2.346814	ا ا ف
-2.305421	ا ا ق
-0.6687184	ا ا ل
-1.506394	ا ا م
-0.990993	ا ا ن
-0.7566649	ا ا و
-2.686762	ا ا ٹ
-1.622831	ا ا پ
-2.480105	ا ا چ
-3.793972	ا ا ڈ
-3.890882	ا ا ڑ
-2.356221	ا ا ک
-1.838284	ا ا گ
-3.752579	ا ا ں
-3.202907	ا ا ھ
-1.629917	ا ا ہ
-1.257919	ا ا ی
-2.219941	ا ا ے
-1.349429	ب ا </s>
-3.202893	ب ا آ
-2.174844	ب ا ؤ
-1.502349	ب ا ئ
-2.693697	ب ا ا
-1.477961	ب ا ب
-0.6831646	ب ا ت
-3.633929	ب ا ث
-2.359017	ب ا ج
-2.280841	ب ا ح
-2.747553	ب ا خ
-1.085642	ب ا د
-2.756628	ب ا ذ
-0.7133986	ب ا ر
-1.601343	ب ا ز
-1.713465	ب ا س
-2.260491	ب ا ش
-3.271046	ب ا ص
-2.950845	ب ا ض
-2.02549	ب ا ط
-4.591731	ب ا ظ
-1.70009	ب ا ع
-2.10094	ب ا غ
-3.659483	ب ا ف
-1.540807	ب ا ق
-1.130833	ب ا ل
-2.110023	ب ا م
-1.014116	ب ا ن
-1.676331	ب ا و
-3.452552	ب ا ٹ
-1.970709	ب ا پ
-3.138866	ب ا چ
-3.117299	ب ا ڈ
-2.9929	ب ا ڑ
-2.323517	ب ا ک
-3.157399	ب ا گ
-2.560547	ب ا ں
-2.69799	ب ا ھ
-1.386727	ب ا ہ
-2.607287	ب ا ی
-4.068852	ب ا ے
-0.3306195	ت ا </s>
-3.48951	ت ا آ
-2.528342	ت ا ؤ
-1.685315	ت ا ئ
-2.827568	ت ا ا
-1.203639	ت ا ب
-2.091835	ت ا ت
-1.779741	ت ا ث
-2.050257	ت ا ج
-2.557763	ت ا ح
-2.23904	ت ا خ
-2.119616	ت ا د
-3.080255	ت ا ذ
-1.176575	ت ا ر
-2.053396	ت ا ز
-2.984291	ت ا س
-3.125011	ت ا ش
-4.204193	ت ا ص
-4.723278	ت ا ض
-3.042431	ت ا ط
-4.482946	ت ا ظ
-3.07854	ت ا ع
-4.593644	ت ا غ
-3.71579	ت ا ف
-2.729746	ت ا ق
-1.796489	ت ا ل
-2.317702	ت ا م
-0.695941	ت ا ن
-2.027835	ت ا و
-4.607885	ت ا ٹ
-3.405578	ت ا پ
-3.593644	ت ا چ
-4.528704	ت ا ڈ
-3.738653	ت ا ڑ
-3.660125	ت ا ژ
-1.642323	ت ا ک
-3.889107	ت ا گ
-2.806252	ت ا ں
-3.490613	ت ا ھ
-1.444346	ت ا ہ
-1.7077	ت ا ی
-3.692309	ت ا ے
-1.683883	ث ا </s>
-3.007741	ث ا ئ
-3.969264	ث ا ا
-0.4030351	ث ا ب
-1.797206	ث ا ت
-1.434906	ث ا ث
-3.852839	ث ا ج
-2.53991	ث ا خ
-4.506052	ث ا د
-1.043878	ث ا ر
-3.852839	ث ا س
-3.693138	ث ا ش
-4.190278	ث ا ص
-4.190278	ث ا ض
-4.190278	ث ا ع
-3.602962	ث ا غ
-2.472628	ث ا ف
-1.652658	ث ا ق
-0.4935096	ث ا ل
-2.857692	ث ا م
-1.063964	ث ا ن
-3.23888	ث ا و
-3.969264	ث ا ژ
-3.32996	ث ا ک
-4.108111	ث ا ں
-3.7279	ث ا ہ
-3.660954	ث ا ی
-1.088175	ج ا </s>
-4.05618	ج ا آ
-1.966317	ج ا ؤ
-0.6226425	ج ا ئ
-3.58426	ج ا ا
-1.579714	ج ا ب
-0.7083483	ج ا ت
-3.984824	ج ا ث
-1.952091	ج ا ج
-3.790128	ج ا ح
-4.776339	ج ا خ
-1.985043	ج ا د
-3.169555	ج ا ذ
-1.153763	ج ا ر
-1.653693	ج ا ز
-1.565937	ج ا س
-3.563819	ج ا ش
-4.980459	ج ا ص
-4.461946	ج ا ط
-2.65824	ج ا ع
-4.701705	ج ا غ
-4.04094	ج ا ف
-5.281489	ج ا ق
-2.017286	ج ا ل
-1.510343	ج ا م
-0.7287602	ج ا ن
-1.913165	ج ا و
-3.510637	ج ا ٹ
-1.815631	ج ا پ
-2.719673	ج ا چ
-5.281489	ج ا ڈ
-3.318647	ج ا ڑ
-2.337797	ج ا ک
-2.106906	ج ا گ
-2.296602	ج ا ں
-3.092842	ج ا ھ
-1.767101	ج ا ہ
-2.333468	ج ا ی
-2.332978	ج ا ے
-2.03475	ح ا </s>
-3.876944	ح ا ؤ
-2.208972	ح ا ئ
-4.067758	ح ا ا
-1.183334	ح ا ب
-1.517235	ح ا ت
-3.362839	ح ا ث
-1.755785	ح ا ج
-2.876944	ح ا ح
-4.299707	ح ا خ
-1.095364	ح ا د
-2.137987	ح ا ذ
-1.879946	ح ا ر
-3.337032	ح ا ز
-2.369988	ح ا س
-2.124981	ح ا ش
-0.7653601	ح ا ص
-1.415745	ح ا ض
-2.230867	ح ا ط
-1.616925	ح ا ظ
-4.326036	ح ا ع
-1.205092	ح ا ف
-1.995115	ح ا ق
-0.5045881	ح ا ل
-1.383191	ح ا م
-1.226722	ح ا ن
-1.86056	ح ا و
-4.488763	ح ا ٹ
-4.685058	ح ا پ
-4.488763	ح ا چ
-5.053035	ح ا ڈ
-1.83284	ح ا ک
-5.053035	ح ا گ
-3.075311	ح ا ں
-4.627066	ح ا ھ
-3.831186	ح ا ہ
-3.595658	ح ا ی
-4.913352	ح ا ے
-2.285944	خ ا </s>
-3.953064	خ ا ؤ
-2.104435	خ ا ئ
-4.44598	خ ا ا
-1.186147	خ ا ب
-1.186704	خ ا ت
-4.038494	خ ا ج
-4.9231	خ ا ح
-3.701252	خ ا خ
-2.041526	خ ا د
-3.868743	خ ا ذ
-0.8381552	خ ا ر
-3.105756	خ ا ز
-2.695214	خ ا س
-2.825034	خ ا ش
-0.9063179	خ ا ص
-3.820438	خ ا ض
-1.362556	خ ا ط
-4.497132	خ ا ظ
-4.078002	خ ا ع
-4.321041	خ ا غ
-2.901911	خ ا ف
-3.587308	خ ا ق
-0.8085008	خ ا ل
-1.276501	خ ا م
-0.5956668	خ ا ن
-1.587175	خ ا و
-4.057799	خ ا پ
-5.099192	خ ا ڈ
-1.50502	خ ا ک
-4.497132	خ ا گ
-2.074912	خ ا ں
-3.44118	خ ا ہ
-3.580678	خ ا ی
-0.7391406	د ا </s>
-4.291178	د ا آ
-2.244005	د ا ؤ
-1.338984	د ا ئ
-3.277675	د ا ا
-2.137122	د ا ب
-1.612037	د ا ت
-4.227509	د ا ث
-3.447716	د ا ج
-2.810641	د ا ح
-1.478528	د ا خ
-1.090875	د ا د
-3.875326	د ا ذ
-0.5793527	د ا ر
-1.334517	د ا ز
-2.007401	د ا س
-1.879824	د ا ش
-3.845655	د ا ص
-3.946682	د ا ض
-4.291178	د ا ط
-4.724833	د ا ظ
-2.153374	د ا ع
-2.312853	د ا غ
-2.450511	د ا ف
-2.35337	د ا ق
-1.120306	د ا ل
-1.494165	د ا م
-1.031697	د ا ن
-1.741271	د ا و
-4.237493	د ا ٹ
-3.26458	د ا پ
-4.115087	د ا چ
-4.757018	د ا ڈ
-2.524608	د ا ڑ
-2.019764	د ا ک
-2.938995	د ا گ
-2.315021	د ا ں
-3.926479	د ا ھ
-2.470078	د ا ہ
-1.650383	د ا ی
-3.375417	د ا ے
-0.5384899	ذ ا </s>
-3.46533	ذ ا آ
-2.919265	ذ ا ؤ
-1.504445	ذ ا ئ
-2.291111	ذ ا ا
-1.009356	ذ ا ب
-0.6066377	ذ ا ت
-2.948092	ذ ا ج
-3.08746	ذ ا ح
-3.509534	ذ ا خ
-2.535088	ذ ا د
-3.655662	ذ ا ذ
-1.342111	ذ ا ر
-3.509534	ذ ا ز
-3.634472	ذ ا س
-2.892234	ذ ا ش
-2.95237	ذ ا ص
-4.053602	ذ ا ض
-4.655662	ذ ا ط
-4.257722	ذ ا ظ
-3.266496	ذ ا ع
-3.726243	ذ ا غ
-1.545577	ذ ا ف
-1.302034	ذ ا ق
-1.863971	ذ ا ل
-2.550152	ذ ا م
-1.592892	ذ ا ن
-2.798329	ذ ا و
-3.541718	ذ ا پ
-4.655662	ذ ا چ
-0.9754623	ذ ا ک
-4.655662	ذ ا گ
-2.728805	ذ ا ں
-2.565757	ذ ا ھ
-1.407811	ذ ا ہ
-3.070201	ذ ا ی
-0.7845318	ر ا </s>
-4.042231	ر ا آ
-2.280238	ر ا ؤ
-1.084166	ر ا ئ
-3.029944	ر ا ا
-1.447647	ر ا ب
-1.130226	ر ا ت
-2.449524	ر ا ث
-1.635173	ر ا ج
-2.201035	ر ا ح
-2.73576	ر ا خ
-1.252032	ر ا د
-4.125206	ر ا ذ
-1.368377	ر ا ر
-1.839861	ر ا ز
-1.335069	ر ا س
-2.179115	ر ا ش
-2.225731	ر ا ص
-1.816293	ر ا ض
-2.578923	ر ا ط
-4.251671	ر ا ظ
-1.951958	ر ا ع
-2.299404	ر ا غ
-1.809103	ر ا ف
-1.958884	ر ا ق
-1.784845	ر ا ل
-1.207689	ر ا م
-0.8441219	ر ا ن
-1.905676	ر ا و
-2.900986	ر ا ٹ
-2.287418	ر ا پ
-1.723515	ر ا چ
-2.80364	ر ا ڈ
-3.387762	ر ا ڑ
-5.257831	ر ا ژ
-1.724986	ر ا ک
-2.552578	ر ا گ
-2.313701	ر ا ں
-2.709003	ر ا ھ
-1.183752	ر ا ہ
-1.868336	ر ا ی
-3.037723	ر ا ے
-0.957159	ز ا </s>
-4.113644	ز ا آ
-2.756914	ز ا ؤ
-0.9722111	ز ا ئ
-3.324212	ز ا ا
-2.172552	ز ا ب
-1.683977	ز ا ت
-4.915277	ز ا ث
-1.710433	ز ا ج
-1.643048	ز ا ح
-3.32794	ز ا خ
-0.7532802	ز ا د
-4.392398	ز ا ذ
-0.5321918	ز ا ر
-1.792515	ز ا ز
-2.733433	ز ا س
-3.132327	ز ا ش
-3.84833	ز ا ص
-3.84833	ز ا ض
-3.790338	ز ا ط
-4.915277	ز ا ظ
-2.386789	ز ا ع
-3.302493	ز ا غ
-3.358974	ز ا ف
-2.063814	ز ا ق
-1.825019	ز ا ل
-1.201087	ز ا م
-1.30052	ز ا ن
-2.006792	ز ا و
-3.64421	ز ا ٹ
-3.313217	ز ا پ
-4.137125	ز ا چ
-4.438156	ز ا ڈ
-4.915277	ز ا ڑ
-1.449597	ز ا ک
-3.684828	ز ا گ
-1.728603	ز ا ں
-3.216307	ز ا ھ
-1.981621	ز ا ہ
-2.53326	ز ا ی
-3.243179	ز ا ے
-0.9238883	س ا </s>
-4.035801	س ا آ
-2.96087	س ا ؤ
-0.9924487	س ا ئ
-3.263327	س ا ا
-1.583755	س ا ب
-0.6617336	س ا ت
-5.621262	س ا ث
-2.07738	س ا ج
-2.378099	س ا ح
-2.372798	س ا خ
-1.808048	س ا د
-4.718172	س ا ذ
-1.241793	س ا ر
-1.669244	س ا ز
-1.660482	س ا س
-3.808348	س ا ش
-4.667019	س ا ص
-4.309508	س ا ض
-2.721441	س ا ط
-4.7462	س ا ظ
-2.735335	س ا ع
-3.19638	س ا غ
-1.791508	س ا ف
-2.74998	س ا ق
-0.9543692	س ا ل
-1.075732	س ا م
-0.8323793	س ا ن
-2.36756	س ا و
-2.499209	س ا ٹ
-3.691843	س ا پ
-3.73196	س ا چ
-3.422604	س ا ڈ
-2.403383	س ا ڑ
-5.44517	س ا ژ
-2.160364	س ا ک
-2.954743	س ا گ
-2.193532	س ا ں
-3.873073	س ا ھ
-2.604228	س ا ہ
-2.199987	س ا ی
-3.811702	س ا ے
-1.279258	ش ا </s>
-4.691909	ش ا آ
-3.088818	ش ا ؤ
-1.231201	ش ا ئ
-1.658679	ش ا ا
-1.951546	ش ا ب
-1.757919	ش ا ت
-3.610649	ش ا ج
-3.876514	ش ا ح
-2.094042	ش ا خ
-1.007335	ش ا د
-2.791739	ش ا ذ
-1.264767	ش ا ر
-2.736635	ش ا ز
-3.113086	ش ا س
-2.9627	ش ا ش
-5.228697	ش ا ص
-2.564525	ش ا ط
-1.138403	ش ا ع
-2.804632	ش ا غ
-1.647658	ش ا ف
-2.704301	ش ا ق
-2.514367	ش ا ل
-0.8213653	ش ا م
-0.8531794	ش ا ن
-1.706318	ش ا و
-2.751575	ش ا ٹ
-2.116762	ش ا پ
-4.250973	ش ا چ
-4.626637	ش ا ڈ
-4.488334	ش ا ڑ
-2.060347	ش ا ک
-2.072602	ش ا گ
-1.958251	ش ا ں
-2.164988	ش ا ھ
-0.8365099	ش ا ہ
-1.185865	ش ا ی
-3.961525	ش ا ے
-1.514226	ص ا </s>
-4.445611	ص ا ؤ
-1.808121	ص ا ئ
-3.591739	ص ا ا
-1.456479	ص ا ب
-3.265403	ص ا ت
-3.583139	ص ا ج
-0.3377712	ص ا ح
-4.144581	ص ا خ
-1.168591	ص ا د
-1.101022	ص ا ر
-4.290709	ص ا ز
-4.249316	ص ا س
-4.290709	ص ا ش
-2.412762	ص ا ص
-4.813588	ص ا ض
-4.387619	ص ا ط
-2.940461	ص ا ع
-3.445611	ص ا غ
-0.9029277	ص ا ف
-4.144581	ص ا ق
-1.221374	ص ا ل
-2.360779	ص ا م
-1.054751	ص ا ن
-1.613102	ص ا و
-4.591739	ص ا ٹ
-4.445611	ص ا پ
-4.989679	ص ا چ
-3.398614	ص ا ک
-2.763079	ص ا ں
-3.261325	ص ا ھ
-3.859345	ص ا ہ
-3.204349	ص ا ی
-4.452892	ص ا ے
-0.6300784	ض ا </s>
-3.996979	ض ا آ
-2.458461	ض ا ؤ
-0.9651662	ض ا ئ
-2.798933	ض ا ا
-1.418976	ض ا ب
-1.585172	ض ا ت
-3.432707	ض ا ج
-1.007924	ض ا ح
-2.720772	ض ا خ
-1.573005	ض ا د
-4.048131	ض ا ذ
-2.536247	ض ا ر
-4.334417	ض ا ز
-3.210858	ض ا س
-3.747101	ض ا ش
-3.695948	ض ا ص
-3.805093	ض ا ض
-4.048131	ض ا ط
-4.334417	ض ا ظ
-2.147764	ض ا ع
-4.252251	ض ا غ
-0.6221079	ض ا ف
-3.360156	ض ا ق
-2.269076	ض ا ل
-1.123916	ض ا م
-0.9960625	ض ا ن
-2.313731	ض ا و
-4.650191	ض ا ٹ
-3.488823	ض ا پ
-4.113404	ض ا چ
-4.4741	ض ا ڈ
-1.888263	ض ا ک
-2.567405	ض ا گ
-3.288463	ض ا ں
-3.383019	ض ا ھ
-2.703248	ض ا ہ
-2.364634	ض ا ی
-3.317752	ض ا ے
-1.039612	ط ا </s>
-3.733857	ط ا آ
-2.778379	ط ا ؤ
-1.874981	ط ا ئ
-2.942905	ط ا ا
-0.5063465	ط ا ب
-2.813039	ط ا ت
-4.178794	ط ا ج
-3.793443	ط ا ح
-4.625952	ط ا خ
-4.370679	ط ا د
-5.023892	ط ا ذ
-1.416384	ط ا ر
-4.847801	ط ا ز
-2.631195	ط ا س
-3.745138	ط ا ش
-5.023892	ط ا ص
-2.25157	ط ا ط
-1.479018	ط ا ع
-2.221803	ط ا غ
-1.756017	ط ا ف
-1.069843	ط ا ق
-0.6312127	ط ا ل
-2.551867	ط ا م
-0.9092644	ط ا ن
-2.827992	ط ا و
-4.370679	ط ا پ
-2.526271	ط ا ک
-4.487105	ط ا گ
-3.118096	ط ا ں
-2.588526	ط ا ھ
-1.650153	ط ا ہ
-3.329287	ط ا ی
-4.847801	ط ا ے
-2.228336	ظ ا </s>
-4.721794	ظ ا ؤ
-2.304322	ظ ا ئ
-3.190315	ظ ا ب
-1.804289	ظ ا ت
-4.022824	ظ ا ح
-0.9923053	ظ ا ر
-4.40602	ظ ا س
-4.40602	ظ ا ع
-4.545703	ظ ا غ
-3.165492	ظ ا ف
-4.177726	ظ ا ق
-1.096791	ظ ا ل
-0.3810527	ظ ا م
-2.640807	ظ ا ن
-4.177726	ظ ا و
-4.545703	ظ ا پ
-4.323854	ظ ا ک
-4.185007	ظ ا ں
-2.113268	ظ ا ھ
-0.439342	ظ ا ہ
-3.531462	ظ ا ی
-1.182915	ع ا </s>
-2.246637	ع ا ؤ
-1.403648	ع ا ئ
-3.565428	ع ا ا
-2.074838	ع ا ب
-1.104075	ع ا ت
-3.940096	ع ا ث
-2.271022	ع ا ج
-4.17149	ع ا ح
-5.125733	ع ا خ
-1.437224	ع ا د
-2.304001	ع ا ذ
-1.255017	ع ا ر
-2.853891	ع ا ز
-3.854666	ع ا س
-1.063565	ع ا ش
-2.066169	ع ا ص
-4.125733	ع ا ض
-2.764005	ع ا ط
-4.372405	ع ا ظ
-2.684299	ع ا ع
-4.98605	ع ا غ
-1.453974	ع ا ف
-2.244158	ع ا ق
-0.5412131	ع ا ل
-0.7159856	ع ا م
-2.00802	ع ا ن
-1.411515	ع ا و
-3.886851	ع ا پ
-4.98605	ع ا چ
-2.681168	ع ا ک
-3.063778	ع ا گ
-4.204914	ع ا ں
-3.462975	ع ا ھ
-1.707266	ع ا ہ
-2.213334	ع ا ی
-3.745522	ع ا ے
-1.646719	غ ا </s>
-4.652328	غ ا ؤ
-1.329593	غ ا ئ
-3.874177	غ ا ا
-2.256129	غ ا ب
-1.798023	غ ا ت
-2.218559	غ ا ث
-3.953359	غ ا ج
-4.336555	غ ا ح
-3.254389	غ ا خ
-2.741171	غ ا د
-3.674605	غ ا ذ
-1.255606	غ ا ر
-0.7981136	غ ا ز
-3.114509	غ ا س
-3.10826	غ ا ش
-1.922759	غ ا ص
-3.397056	غ ا ض
-3.80723	غ ا ط
-3.777267	غ ا ظ
-4.254388	غ ا ع
-4.336555	غ ا غ
-1.721125	غ ا ف
-4.336555	غ ا ق
-0.8938709	غ ا ل
-0.8322585	غ ا م
-0.4828305	غ ا ن
-1.476962	غ ا و
-3.409291	غ ا ٹ
-4.336555	غ ا پ
-4.050269	غ ا ڑ
-3.698086	غ ا ک
-2.20131	غ ا ں
-4.336555	غ ا ھ
-4.050269	غ ا ہ
-2.107021	غ ا ی
-4.652328	غ ا ے
-1.352914	ف ا </s>
-2.143602	ف ا ؤ
-0.7489393	ف ا ئ
-3.371974	ف ا ا
-3.099234	ف ا ب
-1.052746	ف ا ت
-4.271169	ف ا ث
-2.688133	ف ا ج
-2.70213	ف ا ح
-2.514207	ف ا خ
-1.226601	ف ا د
-1.922447	ف ا ذ
-0.8024212	ف ا ر
-3.261961	ف ا ز
-1.766116	ف ا س
-2.391582	ف ا ش
-1.732093	ف ا ص
-2.020053	ف ا ض
-1.599798	ف ا ط
-0.9462844	ف ا ظ
-1.243616	ف ا ع
-3.493018	ف ا غ
-2.006014	ف ا ف
-1.084576	ف ا ق
-1.742712	ف ا ل
-2.352465	ف ا م
-1.323281	ف ا ن
-2.358113	ف ا و
-2.563599	ف ا ٹ
-4.074874	ف ا پ
-4.572199	ف ا چ
-4.718327	ف ا ڈ
-2.077647	ف ا ک
-4.019357	ف ا گ
-3.028131	ف ا ں
-3.631968	ف ا ھ
-2.005173	ف ا ہ
-2.01849	ف ا ی
-3.530807	ف ا ے
-1.517569	ق ا </s>
-4.709947	ق ا آ
-2.850534	ق ا ؤ
-0.7951698	ق ا ئ
-3.593521	ق ا ا
-0.7897909	ق ا ب
-0.8759708	ق ا ت
-4.709947	ق ا ث
-4.016285	ق ا ج
-4.43382	ق ا ح
-4.93096	ق ا خ
-1.300994	ق ا د
-3.979562	ق ا ذ
-1.257084	ق ا ر
-2.610246	ق ا ز
-1.934874	ق ا س
-3.141223	ق ا ش
-1.615848	ق ا ص
-1.545036	ق ا ض
-2.700808	ق ا ط
-3.414225	ق ا ظ
-1.452036	ق ا ع
-4.848794	ق ا غ
-1.585158	ق ا ف
-2.658462	ق ا ق
-1.266662	ق ا ل
-0.9494438	ق ا م
-1.033721	ق ا ن
-2.743624	ق ا و
-4.93096	ق ا ٹ
-4.003695	ق ا پ
-4.371672	ق ا چ
-3.072093	ق ا ک
-4.371672	ق ا گ
-3.335576	ق ا ں
-3.209307	ق ا ھ
-2.108273	ق ا ہ
-2.592076	ق ا ی
-4.085366	ق ا ے
-0.7872431	ل ا </s>
-3.710995	ل ا آ
-2.41421	ل ا ؤ
-1.242085	ل ا ئ
-2.697846	ل ا ا
-1.684988	ل ا ب
-1.193229	ل ا ت
-2.86759	ل ا ث
-2.043742	ل ا ج
-1.540334	ل ا ح
-2.722467	ل ا خ
-1.708115	ل ا د
-3.528751	ل ا ذ
-2.201275	ل ا ر
-1.854485	ل ا ز
-1.679909	ل ا س
-1.723492	ل ا ش
-2.411573	ل ا ص
-3.195101	ل ا ض
-2.699983	ل ا ط
-3.475506	ل ا ظ
-1.913967	ل ا ع
-2.454317	ل ا غ
-1.238609	ل ا ف
-1.212459	ل ا ق
-1.701964	ل ا ل
-0.7157577	ل ا م
-1.109967	ل ا ن
-1.490551	ل ا و
-2.645984	ل ا ٹ
-2.600838	ل ا پ
-3.107249	ل ا چ
-3.221655	ل ا ڈ
-2.275272	ل ا ڑ
-5.421958	ل ا ژ
-1.439596	ل ا ک
-1.639801	ل ا گ
-2.345536	ل ا ں
-3.322278	ل ا ھ
-1.899123	ل ا ہ
-1.82201	ل ا ی
-3.338455	ل ا ے
-1.170962	م ا </s>
-4.249056	م ا آ
-2.329629	م ا ؤ
-1.297543	م ا ئ
-3.033859	م ا ا
-2.471484	م ا ب
-1.182183	م ا ت
-3.157506	م ا ث
-2.035272	م ا ج
-2.171324	م ا ح
-2.82855	م ا خ
-1.771491	م ا د
-3.756761	م ا ذ
-0.8036218	م ا ر
-1.633555	م ا ز
-2.273532	م ا س
-2.210409	م ا ش
-4.150989	م ا ص
-2.268537	م ا ض
-4.592638	م ا ط
-4.522057	م ا ظ
-1.44977	م ا ع
-2.228473	م ا غ
-2.845363	م ا ف
-3.057791	م ا ق
-0.9687324	م ا ل
-0.9973105	م ا م
-0.6838614	م ا ن
-2.549045	م ا و
-3.131563	م ا ٹ
-3.560636	م ا پ
-3.3496	م ا چ
-2.745901	م ا ڈ
-3.785661	م ا ڑ
-4.845364	م ا ژ
-1.974405	م ا ک
-3.44017	م ا گ
-1.762597	م ا ں
-3.353265	م ا ھ
-1.644542	م ا ہ
-1.240393	م ا ی
-3.150066	م ا ے
-0.3147381	ن ا </s>
-3.339408	ن ا آ
-2.468659	ن ا ؤ
-1.414973	ن ا ئ
-2.314317	ن ا ا
-1.639266	ن ا ب
-1.467914	ن ا ت
-4.121652	ن ا ث
-2.332056	ن ا ج
-2.461261	ن ا ح
-2.219365	ن ا خ
-2.026602	ن ا د
-4.295283	ن ا ذ
-1.713856	ن ا ر
-1.693923	ن ا ز
-1.722097	ن ا س
-2.51298	ن ا ش
-2.113004	ن ا ص
-3.657895	ن ا ض
-2.709536	ن ا ط
-2.100181	ن ا ظ
-2.917224	ن ا ع
-3.506228	ن ا غ
-1.798846	ن ا ف
-2.144397	ن ا ق
-1.946516	ن ا ل
-0.9649862	ن ا م
-1.27647	ن ا ن
-2.113391	ن ا و
-2.794293	ن ا ٹ
-2.195555	ن ا پ
-2.289434	ن ا چ
-3.441853	ن ا ڈ
-3.895873	ن ا ڑ
-1.568335	ن ا ک
-2.414276	ن ا گ
-2.025691	ن ا ں
-3.146012	ن ا ھ
-1.585008	ن ا ہ
-1.651697	ن ا ی
-3.337781	ن ا ے
-0.9247966	و ا </s>
-4.065681	و ا آ
-2.80794	و ا ؤ
-1.354494	و ا ئ
-2.891325	و ا ا
-1.233215	و ا ب
-1.657252	و ا ت
-3.664044	و ا ث
-1.780219	و ا ج
-2.073169	و ا ح
-2.790064	و ا خ
-1.882374	و ا د
-3.098837	و ا ذ
-1.234527	و ا ر
-1.422186	و ا ز
-1.664634	و ا س
-2.428602	و ا ش
-2.56461	و ا ص
-1.751723	و ا ض
-3.273528	و ا ط
-4.14264	و ا ظ
-2.44102	و ا ع
-3.883446	و ا غ
-2.34875	و ا ف
-1.347548	و ا ق
-0.5431271	و ا ل
-1.288365	و ا م
-1.143439	و ا ن
-2.520025	و ا و
-2.562507	و ا ٹ
-1.723562	و ا پ
-3.348536	و ا چ
-3.28322	و ا ڈ
-3.13648	و ا ڑ
-4.957775	و ا ژ
-2.575278	و ا ک
-3.170551	و ا گ
-2.001158	و ا ں
-2.941857	و ا ھ
-1.446195	و ا ہ
-1.518832	و ا ی
-3.336599	و ا ے
-0.4487637	ٹ ا </s>
-3.849448	ٹ ا آ
-1.737823	ٹ ا ؤ
-0.7142172	ٹ ا ئ
-2.7787	ٹ ا ا
-2.630953	ٹ ا ب
-2.121406	ٹ ا ت
-3.100068	ٹ ا ج
-4.009149	ٹ ا ح
-2.641172	ٹ ا خ
-2.236664	ٹ ا د
-4.662361	ٹ ا ذ
-1.152353	ٹ ا ر
-4.060301	ٹ ا ز
-1.87561	ٹ ا س
-2.95907	ٹ ا ش
-3.817263	ٹ ا ع
-4.060301	ٹ ا غ
-1.681449	ٹ ا ف
-4.662361	ٹ ا ق
-1.063735	ٹ ا ل
-1.873839	ٹ ا م
-0.991142	ٹ ا ن
-1.929565	ٹ ا و
-2.324902	ٹ ا ٹ
-1.422062	ٹ ا پ
-3.137316	ٹ ا چ
-3.350607	ٹ ا ڈ
-3.684638	ٹ ا ڑ
-1.658901	ٹ ا ک
-2.137965	ٹ ا گ
-2.967756	ٹ ا ں
-4.264421	ٹ ا ھ
-2.444877	ٹ ا ہ
-1.845126	ٹ ا ی
-3.458241	ٹ ا ے
-1.469717	پ ا </s>
-4.61398	پ ا آ
-1.905701	پ ا ؤ
-1.210002	پ ا ئ
-3.655735	پ ا ا
-1.634508	پ ا ب
-1.790017	پ ا ت
-4.693161	پ ا ث
-3.139278	پ ا ج
-5.076357	پ ا ح
-3.383531	پ ا خ
-2.324688	پ ا د
-1.051152	پ ا ر
-3.236795	پ ا ز
-0.9852421	پ ا س
-2.261315	پ ا ش
-5.21604	پ ا ص
-4.102097	پ ا غ
-4.51707	پ ا ف
-4.693161	پ ا ق
-1.419211	پ ا ل
-2.385451	پ ا م
-0.8656369	پ ا ن
-2.073964	پ ا و
-2.357904	پ ا ٹ
-2.116935	پ ا پ
-3.130868	پ ا چ
-3.829839	پ ا ڈ
-3.470445	پ ا ڑ
-5.392131	پ ا ژ
-0.385026	پ ا ک
-2.229716	پ ا گ
-2.848684	پ ا ں
-3.70639	پ ا ھ
-2.204329	پ ا ہ
-1.671765	پ ا ی
-3.2018	پ ا ے
-0.9807573	چ ا </s>
-4.498217	چ ا آ
-2.225087	چ ا ؤ
-1.345861	چ ا ئ
-3.147108	چ ا ا
-2.268052	چ ا ب
-2.030856	چ ا ت
-3.273483	چ ا ج
-3.990062	چ ا ح
-3.872676	چ ا خ
-1.931322	چ ا د
-5.15143	چ ا ذ
-0.8439015	چ ا ر
-3.253803	چ ا ز
-1.719262	چ ا س
-2.888978	چ ا ش
-5.15143	چ ا ص
-4.753489	چ ا ع
-3.595127	چ ا غ
-4.338516	چ ا ف
-2.816976	چ ا ق
-1.470958	چ ا ل
-3.294097	چ ا م
-0.9307202	چ ا ن
-2.157773	چ ا و
-2.472002	چ ا ٹ
-2.450726	چ ا پ
-2.309445	چ ا چ
-3.565969	چ ا ڈ
-4.13024	چ ا ڑ
-2.117202	چ ا ک
-3.896157	چ ا گ
-3.294097	چ ا ں
-1.736289	چ ا ھ
-0.3598898	چ ا ہ
-1.80449	چ ا ی
-3.116	چ ا ے
-1.035658	ڈ ا </s>
-4.230862	ڈ ا آ
-1.312957	ڈ ا ؤ
-1.119631	ڈ ا ئ
-3.637316	ڈ ا ا
-3.262499	ڈ ا ب
-3.312804	ڈ ا ت
-3.954736	ڈ ا ج
-4.767649	ڈ ا ح
-3.488896	ڈ ا خ
-4.114437	ڈ ا د
-1.7987	ڈ ا ر
-3.670739	ڈ ا ز
-2.756925	ڈ ا س
-3.922551	ڈ ا ش
-4.451875	ڈ ا ط
-4.767649	ڈ ا ع
-3.637316	ڈ ا ف
-4.165589	ڈ ا ق
-0.4302399	ڈ ا ل
-3.023356	ڈ ا م
-1.375216	ڈ ا ن
-1.961469	ڈ ا و
-1.465968	ڈ ا ٹ
-2.861853	ڈ ا پ
-4.027287	ڈ ا چ
-2.638927	ڈ ا ڈ
-2.450631	ڈ ا ڑ
-0.5372259	ڈ ا ک
-2.944828	ڈ ا گ
-3.060079	ڈ ا ں
-3.989498	ڈ ا ھ
-2.848571	ڈ ا ہ
-2.624635	ڈ ا ی
-3.954736	ڈ ا ے
-0.1125811	ڑ ا </s>
-3.558309	ڑ ا آ
-2.277654	ڑ ا ؤ
-1.007978	ڑ ا ئ
-2.337547	ڑ ا ا
-2.881615	ڑ ا ب
-1.724471	ڑ ا ت
-4.63749	ڑ ا ث
-2.618373	ڑ ا ج
-3.257278	ڑ ا ح
-3.222516	ڑ ا خ
-2.373854	ڑ ا د
-3.576792	ڑ ا ذ
-2.877822	ڑ ا ر
-3.63749	ڑ ا ز
-2.245673	ڑ ا س
-3.523546	ڑ ا ش
-3.576792	ڑ ا ص
-3.897127	ڑ ا ض
-3.897127	ڑ ا ط
-3.792392	ڑ ا ظ
-3.190332	ڑ ا ع
-3.54058	ڑ ا غ
-3.358736	ڑ ا ف
-3.897127	ڑ ا ق
-2.520218	ڑ ا ل
-2.388291	ڑ ا م
-1.452656	ڑ ا ن
-2.620456	ڑ ا و
-3.984277	ڑ ا ٹ
-2.84161	ڑ ا پ
-3.222516	ڑ ا چ
-3.7344	ڑ ا ڈ
-3.859339	ڑ ا ڑ
-2.08665	ڑ ا ک
-2.994037	ڑ ا گ
-2.533686	ڑ ا ں
-3.040893	ڑ ا ھ
-2.011663	ڑ ا ہ
-1.932482	ڑ ا ی
-3.447158	ڑ ا ے
-2.263242	ژ ا </s>
-3.041393	ژ ا ؤ
-2.643453	ژ ا ئ
-1.586548	ژ ا ب
-2.725619	ژ ا خ
-0.06965309	ژ ا د
-2.865301	ژ ا ر
-1.60206	ژ ا ل
-3.041393	ژ ا م
-1.564271	ژ ا ن
-3.041393	ژ ا پ
-1.473191	ژ ا ک
-1.69897	ژ ا ں
-3.041393	ژ ا ہ
-0.1958874	ک ا </s>
-3.458125	ک ا آ
-2.64945	ک ا ؤ
-2.1298	ک ا ئ
-2.423274	ک ا ا
-2.196132	ک ا ب
-2.011328	ک ا ت
-3.848556	ک ا ث
-2.880549	ک ا ج
-2.393182	ک ا ح
-3.081779	ک ا خ
-2.886312	ک ا د
-3.230401	ک ا ذ
-0.9860372	ک ا ر
-3.206717	ک ا ز
-2.39881	ک ا س
-2.183645	ک ا ش
-3.846786	ک ا ص
-4.25095	ک ا ض
-3.795242	ک ا ط
-3.040993	ک ا ظ
-3.240335	ک ا ع
-2.652261	ک ا غ
-1.677444	ک ا ف
-3.343405	ک ا ق
-1.533511	ک ا ل
-1.054415	ک ا م
-1.38904	ک ا ن
-2.308303	ک ا و
-2.284687	ک ا ٹ
-2.409707	ک ا پ
-3.526758	ک ا چ
-3.657938	ک ا ڈ
-3.312926	ک ا ڑ
-2.493664	ک ا ک
-3.237722	ک ا گ
-3.086965	ک ا ں
-4.318644	ک ا ھ
-2.651472	ک ا ہ
-2.329397	ک ا ی
-4.25095	ک ا ے
-0.2561671	گ ا </s>
-3.095715	گ ا آ
-1.687152	گ ا ؤ
-1.393585	گ ا ئ
-1.961164	گ ا ا
-2.767951	گ ا ب
-1.768405	گ ا ت
-2.361029	گ ا ج
-3.454146	گ ا ح
-3.533328	گ ا خ
-2.352728	گ ا د
-4.338753	گ ا ذ
-1.101978	گ ا ر
-3.59839	گ ا ز
-2.672859	گ ا س
-3.564642	گ ا ش
-3.742767	گ ا ص
-4.690936	گ ا ض
-4.690936	گ ا ط
-4.639783	گ ا ظ
-3.476754	گ ا ع
-4.102664	گ ا غ
-2.492278	گ ا ف
-3.616302	گ ا ق
-1.650679	گ ا ل
-1.696124	گ ا م
-1.219332	گ ا ن
-2.143776	گ ا و
-3.556599	گ ا ٹ
-2.743992	گ ا پ
-3.319868	گ ا چ
-3.121269	گ ا ڈ
-1.407069	گ ا ڑ
-2.283545	گ ا ک
-3.22481	گ ا گ
-2.611302	گ ا ں
-3.005194	گ ا ھ
-1.128747	گ ا ہ
-1.658921	گ ا ی
-3.094338	گ ا ے
-1.898811	ں ا </s>
-4.121527	ں ا آ
-3.080134	ں ا ئ
-3.422557	ں ا ا
-1.478074	ں ا ب
-1.969239	ں ا ت
-2.444834	ں ا ج
-2.361859	ں ا ح
-2.393173	ں ا خ
-2.177044	ں ا د
-2.078165	ں ا ر
-3.381164	ں ا ز
-0.6742139	ں ا س
-2.644406	ں ا ش
-2.40972	ں ا ص
-2.235036	ں ا ض
-2.698281	ں ا ط
-3.58474	ں ا ظ
-2.559234	ں ا ع
-3.58474	ں ا غ
-1.94399	ں ا ف
-2.468314	ں ا ق
-1.463039	ں ا ل
-1.410564	ں ا م
-0.7328043	ں ا ن
-0.661833	ں ا و
-2.473167	ں ا ٹ
-1.454074	ں ا پ
-2.422557	ں ا چ
-4.121527	ں ا ڈ
-3.143803	ں ا ڑ
-2.205073	ں ا ک
-1.350307	ں ا گ
-2.361859	ں ا ہ
-1.029509	ں ا ی
-2.52493	ں ا ے
-0.2440323	ھ ا </s>
-3.262414	ھ ا آ
-2.32468	ھ ا ؤ
-0.8765522	ھ ا ئ
-2.14093	ھ ا ا
-2.416298	ھ ا ب
-1.599812	ھ ا ت
-4.891824	ھ ا ث
-2.383833	ھ ا ج
-3.443118	ھ ا ح
-3.526336	ھ ا خ
-2.43213	ھ ا د
-4.400462	ھ ا ذ
-1.128785	ھ ا ر
-3.78802	ھ ا ز
-2.476517	ھ ا س
-3.087003	ھ ا ش
-3.86244	ھ ا ص
-4.937582	ھ ا ض
-4.476851	ھ ا ط
-4.812643	ھ ا ظ
-3.641404	ھ ا ع
-4.360345	ھ ا غ
-3.56141	ھ ا ف
-3.758285	ھ ا ق
-1.757806	ھ ا ل
-2.194507	ھ ا م
-1.1304	ھ ا ن
-2.303328	ھ ا و
-2.568159	ھ ا ٹ
-2.268161	ھ ا پ
-3.309761	ھ ا چ
-3.900598	ھ ا ڈ
-2.170096	ھ ا ڑ
-2.095805	ھ ا ک
-1.940681	ھ ا گ
-2.392962	ھ ا ں
-3.115849	ھ ا ھ
-2.465964	ھ ا ہ
-1.683329	ھ ا ی
-3.226243	ھ ا ے
-0.452568	ہ ا </s>
-3.585747	ہ ا آ
-2.273226	ہ ا ؤ
-1.260571	ہ ا ئ
-2.817499	ہ ا ا
-2.239149	ہ ا ب
-1.178895	ہ ا ت
-4.947475	ہ ا ث
-1.819507	ہ ا ج
-3.804808	ہ ا ح
-3.901718	ہ ا خ
-1.407925	ہ ا د
-3.957235	ہ ا ذ
-1.034816	ہ ا ر
-2.164048	ہ ا ز
-2.63314	ہ ا س
-2.486911	ہ ا ش
-4.00409	ہ ا ص
-3.6369	ہ ا ض
-4.787774	ہ ا ط
-4.998628	ہ ا ظ
-3.919446	ہ ا ع
-4.503778	ہ ا غ
-3.28682	ہ ا ف
-4.069209	ہ ا ق
-2.001624	ہ ا ل
-2.279918	ہ ا م
-1.368251	ہ ا ن
-2.401481	ہ ا و
-2.982117	ہ ا ٹ
-2.760895	ہ ا پ
-3.972299	ہ ا چ
-3.596366	ہ ا ڈ
-1.964651	ہ ا ڑ
-5.284914	ہ ا ژ
-2.037325	ہ ا ک
-2.683182	ہ ا گ
-0.6380224	ہ ا ں
-4.345415	ہ ا ھ
-1.701414	ہ ا ہ
-1.829799	ہ ا ی
-3.170935	ہ ا ے
-0.229003	ی ا </s>
-3.361748	ی ا آ
-3.225337	ی ا ؤ
-2.257603	ی ا ئ
-2.223199	ی ا ا
-1.791028	ی ا ب
-1.411785	ی ا ت
-3.962906	ی ا ث
-2.341721	ی ا ج
-2.8016	ی ا ح
-3.459562	ی ا خ
-1.121004	ی ا د
-3.872166	ی ا ذ
-1.304835	ی ا ر
-2.366423	ی ا ز
-1.451861	ی ا س
-3.089892	ی ا ش
-3.780257	ی ا ص
-2.572528	ی ا ض
-2.766742	ی ا ط
-4.53201	ی ا ظ
-3.106375	ی ا ع
-3.79104	ی ا غ
-2.228714	ی ا ف
-2.736932	ی ا ق
-1.600536	ی ا ل
-1.837108	ی ا م
-1.297372	ی ا ن
-2.56152	ی ا و
-3.90559	ی ا ٹ
-3.006466	ی ا پ
-3.35681	ی ا چ
-4.122207	ی ا ڈ
-4.765139	ی ا ڑ
-5.114474	ی ا ژ
-2.287295	ی ا ک
-2.542902	ی ا گ
-1.370181	ی ا ں
-3.722709	ی ا ھ
-2.023988	ی ا ہ
-2.801724	ی ا ی
-3.506704	ی ا ے
-1.363389	ے ا </s>
-3.876939	ے ا آ
-4.478999	ے ا ؤ
-2.802305	ے ا ئ
-3.15678	ے ا ا
-1.471251	ے ا ب
-1.964451	ے ا ت
-2.994699	ے ا ث
-2.483364	ے ا ج
-2.190079	ے ا ح
-2.154717	ے ا خ
-1.93867	ے ا د
-3.146561	ے ا ذ
-1.929383	ے ا ر
-3.031841	ے ا ز
-0.6168081	ے ا س
-2.609767	ے ا ش
-2.320637	ے ا ص
-3.317631	ے ا ض
-2.615676	ے ا ط
-3.188965	ے ا ظ
-2.220123	ے ا ع
-3.501276	ے ا غ
-1.975208	ے ا ف
-2.272173	ے ا ق
-1.464269	ے ا ل
-1.471465	ے ا م
-0.8208446	ے ا ن
-0.7276046	ے ا و
-2.487773	ے ا ٹ
-1.357932	ے ا پ
-2.382089	ے ا چ
-3.501276	ے ا ڈ
-3.188965	ے ا ڑ
-2.211828	ے ا ک
-1.462175	ے ا گ
-2.700848	ے ا ں
-4.302908	ے ا ھ
-2.144545	ے ا ہ
-1.097252	ے ا ی
-2.422094	ے ا ے
-3.025806	<s> ب </s>
-3.657958	<s> ب آ
-5.14116	<s> ب ؤ
-4.213711	<s> ب ئ
-0.7782964	<s> ب ا
-3.499229	<s> ب ب
-1.732516	<s> ب ت
-4.686903	<s> ب ث
-1.867207	<s> ب ج
-1.899633	<s> ب ح
-2.061187	<s> ب خ
-1.685572	<s> ب د
-2.891116	<s> ب ذ
-1.294315	<s> ب ر
-2.399767	<s> ب ز
-1.892066	<s> ب س
-2.4331	<s> ب ش
-2.826726	<s> ب ص
-3.814195	<s> ب ض
-2.665769	<s> ب ط
-2.997786	<s> ب ظ
-1.336979	<s> ب ع
-2.043343	<s> ب غ
-3.865052	<s> ب ف
-2.4092	<s> ب ق
-1.356843	<s> ب ل
-2.376467	<s> ب م
-1.021674	<s> ب ن
-1.761576	<s> ب و
-2.533994	<s> ب ٹ
-3.533293	<s> ب پ
-1.651824	<s> ب چ
-3.775817	<s> ب ڈ
-1.419661	<s> ب ڑ
-5.718317	<s> ب ژ
-2.263922	<s> ب ک
-2.678993	<s> ب گ
-0.652088	<s> ب ھ
-1.161455	<s> ب ہ
-1.122902	<s> ب ی
-1.650716	<s> ب ے
-1.087635	آ ب </s>
-3.733821	آ ب آ
-0.07937724	آ ب ا
-3.064814	آ ب ت
-2.650637	آ ب ج
-3.989094	آ ب خ
-2.155309	آ ب د
-1.687196	آ ب ر
-2.963788	آ ب ز
-3.064814	آ ب س
-2.437644	آ ب ش
-3.784974	آ ب ص
-2.418551	آ ب ل
-3.784974	آ ب م
-2.683742	آ ب ن
-3.608882	آ ب و
-2.049574	آ ب پ
-3.57412	آ ب ک
-2.813002	آ ب گ
-2.917212	آ ب ھ
-3.156585	آ ب ہ
-1.546614	آ ب ی
-2.895672	آ ب ے
-0.8673744	ؤ ب </s>
-1.066947	ؤ ب ا
-1.845098	ؤ ب د
-1.669007	ؤ ب ر
-1.845098	ؤ ب غ
-1.529324	ؤ ب ل
-0.69897	ؤ ب و
-0.5663444	ؤ ب ڑ
-0.7844002	ؤ ب ھ
-1.845098	ؤ ب ہ
-1.529324	ؤ ب ی
-0.2071637	ئ ب </s>
-1.446472	ئ ب ا
-3.370751	ئ ب ت
-3.914819	ئ ب خ
-3.378032	ئ ب د
-0.6796694	ئ ب ر
-3.914819	ئ ب ز
-3.215849	ئ ب س
-3.914819	ئ ب ش
-3.914819	ئ ب ع
-1.026078	ئ ب ل
-3.914819	ئ ب م
-3.136668	ئ ب ن
-2.89363	ئ ب و
-3.914819	ئ ب ڈ
-3.261606	ئ ب ک
-3.738728	ئ ب ں
-3.516879	ئ ب ھ
-1.787714	ئ ب ہ
-1.762531	ئ ب ی
-2.960577	ئ ب ے
-0.3590913	ا ب </s>
-3.730978	ا ب آ
-3.951086	ا ب ئ
-1.488568	ا ب ا
-4.064595	ا ب ب
-1.323065	ا ب ت
-5.105988	ا ب ث
-3.049628	ا ب ج
-3.336189	ا ب ح
-3.493204	ا ب خ
-2.125206	ا ب د
-4.519722	ا ب ذ
-1.480764	ا ب ر
-3.478329	ا ب ز
-2.152366	ا ب س
-3.499299	ا ب ش
-3.091948	ا ب ص
-2.641243	ا ب ض
-1.720279	ا ب ط
-4.172935	ا ب ظ
-2.129703	ا ب ع
-3.380543	ا ب غ
-4.269845	ا ب ف
-1.11783	ا ب ق
-1.182455	ا ب ل
-3.507041	ا ب م
-1.277006	ا ب ن
-1.187501	ا ب و
-4.105988	ا ب ٹ
-4.087763	ا ب پ
-3.002184	ا ب چ
-4.419607	ا ب ڈ
-3.195211	ا ب ڑ
-2.757683	ا ب ک
-4.112236	ا ب گ
-5.113269	ا ب ں
-1.392797	ا ب ھ
-1.665349	ا ب ہ
-1.130661	ا ب ی
-2.628866	ا ب ے
-0.0588911	ب ب </s>
-1.564669	ب ب ا
-2.278077	ب ب ب
-2.205056	ب ب ت
-3.087943	ب ب ج
-3.129335	ب ب ح
-3.828305	ب ب خ
-2.538271	ب ب د
-1.855178	ب ب ر
-3.129335	ب ب ز
-3.226245	ب ب س
-3.828305	ب ب ش
-3.652214	ب ب ض
-3.291518	ب ب ط
-2.112302	ب ب ع
-2.714362	ب ب غ
-3.291518	ب ب ق
-1.947492	ب ب ل
-2.953244	ب ب م
-2.448094	ب ب ن
-1.733136	ب ب و
-3.652214	ب ب چ
-3.226245	ب ب ڑ
-2.129335	ب ب ک
-2.786913	ب ب ھ
-2.666937	ب ب ہ
-2.002231	ب ب ی
-3.512531	ب ب ے
-0.7294543	ت ب </s>
-4.176371	ت ب آ
-4.829584	ت ب ؤ
-4.130613	ت ب ئ
-0.5681542	ت ب ا
-3.875341	ت ب ب
-1.832634	ت ب ت
-4.653492	ت ب ث
-3.71564	ت ب ج
-2.960352	ت ب ح
-3.539549	ت ب خ
-0.7856321	ت ب د
-3.122013	ت ب ذ
-1.435745	ت ب ر
-3.954522	ت ب ز
-2.281809	ت ب س
-3.227524	ت ب ش
-1.009316	ت ب ص
-3.367186	ت ب ط
-1.82785	ت ب ع
-3.449372	ت ب غ
-4.292797	ت ب ف
-3.390251	ت ب ق
-1.444514	ت ب ل
-3.926494	ت ب م
-2.984486	ت ب ن
-2.184161	ت ب و
-4.829584	ت ب پ
-4.285515	ت ب چ
-4.431643	ت ب ڈ
-4.829584	ت ب ڑ
-3.273281	ت ب ک
-4.829584	ت ب گ
-2.203243	ت ب ھ
-0.8570567	ت ب ہ
-2.037542	ت ب ی
-2.167771	ت ب ے
-3.303061	ث ب </s>
-1.028903	ث ب ا
-0.4564919	ث ب ت
-3.905121	ث ب ث
-3.251909	ث ب ر
-3.905121	ث ب ل
-3.905121	ث ب ن
-0.2580805	ث ب و
-3.12697	ث ب ہ
-2.615086	ث ب ی
-0.1547124	ج ب </s>
-5.0159	ج ب آ
-2.063592	ج ب ا
-4.038177	ج ب ب
-2.892049	ج ب ت
-5.0159	ج ب ج
-4.362688	ج ب ح
-5.0159	ج ب د
-1.535031	ج ب ر
-3.584536	ج ب ز
-4.140839	ج ب س
-5.0159	ج ب ط
-5.0159	ج ب ظ
-3.725866	ج ب ع
-2.296983	ج ب ل
-4.086481	ج ب م
-3.471832	ج ب ن
-1.254235	ج ب و
-4.700126	ج ب پ
-4.839809	ج ب چ
-3.018077	ج ب ڑ
-0.7239101	ج ب ک
-2.790591	ج ب ھ
-2.719235	ج ب ہ
-2.289173	ج ب ی
-3.644832	ج ب ے
-0.2086629	ح ب </s>
-3.511573	ح ب آ
-4.528237	ح ب ئ
-1.31651	ح ب ا
-2.935526	ح ب ب
-0.6871591	ح ب ت
-4.241951	ح ب ث
-3.626527	ح ب ج
-4.241951	ح ب ح
-3.613562	ح ب خ
-3.822822	ح ب د
-3.866287	ح ب ذ
-3.446071	ح ب ر
-1.833711	ح ب ز
-2.556209	ح ب س
-2.300564	ح ب ش
-3.940921	ح ب ص
-3.158269	ح ب ط
-3.889768	ح ب ع
-4.844011	ح ب غ
-4.307224	ح ب ف
-4.66792	ح ب ق
-2.761225	ح ب ل
-3.576839	ح ب م
-3.171913	ح ب ن
-1.353701	ح ب و
-4.528237	ح ب ٹ
-4.528237	ح ب پ
-4.299943	ح ب چ
-4.66792	ح ب ڈ
-2.914592	ح ب ک
-3.16277	ح ب ھ
-1.557891	ح ب ہ
-1.606342	ح ب ی
-3.998913	ح ب ے
-0.8848059	خ ب </s>
-3.902555	خ ب آ
-4.048683	خ ب ئ
-0.5901656	خ ب ا
-3.015259	خ ب ت
-2.562961	خ ب ث
-0.2361837	خ ب ر
-3.425433	خ ب ز
-3.468899	خ ب ص
-2.353201	خ ب ط
-4.446622	خ ب ن
-2.239797	خ ب و
-3.909835	خ ب ھ
-3.124403	خ ب ہ
-1.8012	خ ب ی
-3.242503	خ ب ے
-0.5496174	د ب </s>
-4.29858	د ب آ
-1.375336	د ب ئ
-0.5357891	د ب ا
-3.108248	د ب ب
-2.635822	د ب ت
-3.20167	د ب ج
-3.344338	د ب ح
-1.485667	د ب خ
-2.051836	د ب د
-1.438242	د ب ر
-3.453482	د ب ز
-2.409278	د ب س
-3.152452	د ب ش
-4.29858	د ب ص
-3.754512	د ب ط
-3.59961	د ب ع
-3.257188	د ب غ
-3.453482	د ب ق
-2.019827	د ب ل
-2.730378	د ب م
-1.459417	د ب ن
-1.640092	د ب و
-3.761793	د ب ٹ
-3.184637	د ب چ
-2.760761	د ب ڑ
-2.403711	د ب ک
-3.761793	د ب گ
-1.762022	د ب ھ
-1.944472	د ب ہ
-0.7571882	د ب ی
-1.780066	د ب ے
-0.7914061	ذ ب </s>
-3.882487	ذ ب ئ
-0.4109993	ذ ب ا
-3.742804	ذ ب ب
-2.581457	ذ ب ت
-4.058578	ذ ب ج
-0.972218	ذ ب ح
-3.660638	ذ ب خ
-1.862678	ذ ب ذ
-2.527099	ذ ب ر
-3.882487	ذ ب ز
-3.521791	ذ ب ش
-2.791406	ذ ب ع
-4.058578	ذ ب غ
-3.742804	ذ ب ل
-2.405365	ذ ب ن
-1.566516	ذ ب و
-2.334302	ذ ب ک
-2.803305	ذ ب ھ
-0.7459774	ذ ب ہ
-1.488619	ذ ب ی
-1.142124	ذ ب ے
-0.5257871	ر ب </s>
-4.679253	ر ب آ
-4.995027	ر ب ؤ
-4.679253	ر ب ئ
-0.7180946	ر ب ا
-4.017303	ر ب ب
-1.558467	ر ب ت
-2.924989	ر ب ج
-2.76714	ر ب ح
-3.403963	ر ب خ
-2.385433	ر ب د
-3.739755	ر ب ذ
-1.169796	ر ب ر
-3.143769	ر ب ز
-2.510727	ر ب س
-3.258631	ر ب ش
-3.420996	ر ب ص
-4.149929	ر ب ض
-1.805537	ر ب ط
-4.254664	ر ب ظ
-1.806943	ر ب ع
-3.250734	ر ب غ
-3.881084	ر ب ف
-3.341815	ر ب ق
-1.714563	ر ب ل
-2.955613	ر ب م
-1.647014	ر ب ن
-1.458974	ر ب و
-3.279024	ر ب ٹ
-4.45824	ر ب پ
-2.803297	ر ب چ
-4.091937	ر ب ڈ
-2.512868	ر ب ڑ
-2.027947	ر ب ک
-3.662589	ر ب گ
-1.715474	ر ب ھ
-1.401686	ر ب ہ
-0.6904721	ر ب ی
-1.826824	ر ب ے
-1.214345	ز ب </s>
-0.1639848	ز ب ا
-4.287085	ز ب ب
-2.412024	ز ب ت
-3.441987	ز ب ج
-3.065236	ز ب ح
-2.565549	ز ب د
-4.147402	ز ب ذ
-0.8438218	ز ب ر
-3.508934	ز ب ز
-3.332842	ز ب س
-4.287085	ز ب ش
-4.463176	ز ب ص
-3.196004	ز ب ع
-3.809963	ز ب غ
-4.287085	ز ب ف
-4.065236	ز ب ق
-2.77298	ز ب ل
-3.764206	ز ب م
-2.410098	ز ب ن
-1.833766	ز ب و
-3.130738	ز ب ٹ
-4.147402	ز ب چ
-3.809963	ز ب ڑ
-1.788315	ز ب ک
-3.533757	ز ب گ
-2.389458	ز ب ھ
-2.492364	ز ب ہ
-1.263558	ز ب ی
-3.173141	ز ب ے
-0.1527255	س ب </s>
-4.979548	س ب آ
-3.247155	س ب ئ
-1.498249	س ب ا
-1.20888	س ب ب
-1.289175	س ب ت
-2.997277	س ب ج
-1.636337	س ب ح
-4.979548	س ب خ
-3.140699	س ب د
-2.907666	س ب ر
-1.582217	س ب ز
-2.6293	س ب س
-4.201397	س ب ش
-2.857332	س ب ط
-2.501704	س ب ع
-3.83342	س ب غ
-4.979548	س ب ف
-1.566416	س ب ق
-2.844416	س ب ل
-3.564575	س ب م
-2.872338	س ب ن
-2.42688	س ب و
-4.979548	س ب ٹ
-4.581608	س ب پ
-4.803457	س ب ڈ
-2.115334	س ب ک
-4.326336	س ب گ
-1.646101	س ب ھ
-2.453856	س ب ہ
-1.63066	س ب ی
-3.417255	س ب ے
-0.51678	ش ب </s>
-3.461098	ش ب ؤ
-1.224449	ش ب ا
-3.798537	ش ب ب
-2.896827	ش ب ت
-3.269213	ش ب ث
-4.114311	ش ب ج
-3.938219	ش ب ح
-2.308131	ش ب خ
-3.017401	ش ب د
-2.22782	ش ب ر
-3.336159	ش ب ز
-2.325436	ش ب س
-2.630011	ش ب ع
-2.570243	ش ب ق
-1.746955	ش ب ل
-3.570243	ش ب م
-1.327205	ش ب ن
-0.8531668	ش ب و
-4.114311	ش ب پ
-2.501527	ش ب ک
-3.512251	ش ب گ
-2.182345	ش ب ھ
-0.5732934	ش ب ہ
-0.905735	ش ب ی
-2.336159	ش ب ے
-0.5455924	ص ب </s>
-4.283143	ص ب ئ
-1.046732	ص ب ا
-4.107051	ص ب ب
-2.508626	ص ب ت
-0.4955053	ص ب ح
-3.681083	ص ب خ
-3.885203	ص ب د
-0.7588766	ص ب ر
-4.283143	ص ب ص
-3.62993	ص ب ط
-3.222445	ص ب ع
-2.416856	ص ب غ
-4.283143	ص ب ف
-3.353724	ص ب ن
-1.661447	ص ب و
-3.967369	ص ب چ
-3.203962	ص ب ک
-3.681083	ص ب ھ
-1.510821	ص ب ہ
-1.357573	ص ب ی
-1.595168	ص ب ے
-0.8171217	ض ب </s>
-1.933823	ض ب ا
-2.983594	ض ب ت
-3.17548	ض ب ح
-3.512918	ض ب د
-3.17548	ض ب ر
-0.843715	ض ب ط
-3.828692	ض ب ظ
-3.291905	ض ب ع
-3.828692	ض ب غ
-1.73527	ض ب ن
-0.1787734	ض ب و
-2.953631	ض ب ک
-2.983594	ض ب ھ
-2.714749	ض ب ہ
-2.405446	ض ب ی
-0.8061445	ط ب </s>
-1.292433	ط ب ا
-3.976659	ط ب ب
-2.634422	ط ب ت
-4.292433	ط ب ح
-3.074949	ط ب خ
-1.176989	ط ب ر
-4.116342	ط ب س
-0.9994024	ط ب ع
-3.338191	ط ب غ
-0.5234254	ط ب ق
-1.87746	ط ب ل
-4.116342	ط ب م
-3.213252	ط ب ن
-1.501796	ط ب و
-4.116342	ط ب ک
-3.748365	ط ب ھ
-1.17153	ط ب ہ
-0.7025954	ط ب ی
-1.953977	ط ب ے
-1.405688	ظ ب </s>
-1.405688	ظ ب ئ
-1.665325	ظ ب ا
-1.405688	ظ ب ت
-2.405688	ظ ب ر
-2.089914	ظ ب ط
-1.803628	ظ ب ع
-2.405688	ظ ب ل
-0.1908439	ظ ب و
-2.229597	ظ ب ہ
-0.7573278	ظ ب ی
-1.566591	ع ب </s>
-3.843818	ع ب ئ
-0.5528935	ع ب ا
-4.718879	ع ب ب
-2.303072	ع ب ت
-2.575865	ع ب ث
-0.3817597	ع ب د
-1.580103	ع ب ر
-3.075427	ع ب س
-4.32094	ع ب ش
-4.542788	ع ب غ
-2.905966	ع ب ق
-3.557511	ع ب ل
-3.873781	ع ب ن
-1.198068	ع ب و
-4.542788	ع ب ک
-4.174811	ع ب ھ
-1.055886	ع ب ہ
-1.243136	ع ب ی
-1.488047	ع ب ے
-0.5465676	غ ب </s>
-2.843233	غ ب ئ
-0.3945265	غ ب ا
-3.241173	غ ب ب
-0.6231247	غ ب ت
-1.628389	غ ب ر
-2.542203	غ ب ط
-3.241173	غ ب ل
-2.843233	غ ب م
-1.722659	غ ب ن
-2.241173	غ ب و
-3.065082	غ ب ہ
-1.89875	غ ب ی
-2.28693	غ ب ے
-2.311592	ف ب </s>
-2.311592	ف ب ئ
-0.3868166	ف ب ا
-2.627366	ف ب ب
-2.627366	ف ب ث
-1.673123	ف ب ح
-1.752305	ف ب د
-1.697947	ف ب ذ
-0.9327607	ف ب ر
-1.360194	ف ب ش
-2.451275	ف ب ص
-2.627366	ف ب ض
-1.437034	ف ب ع
-1.697947	ف ب ق
-1.360194	ف ب ل
-1.229426	ف ب م
-1.360194	ف ب ن
-2.229426	ف ب و
-2.627366	ف ب پ
-1.782268	ف ب ک
-1.627366	ف ب ھ
-1.256298	ف ب ہ
-1.530456	ف ب ی
-2.229426	ف ب ے
-1.361616	ق ب </s>
-4.36714	ق ب آ
-0.6937685	ق ب ا
-4.024717	ق ب ب
-2.074441	ق ب ت
-3.04492	ق ب ح
-4.024717	ق ب د
-1.045458	ق ب ر
-4.024717	ق ب س
-3.157625	ق ب ص
-1.136589	ق ب ض
-2.8408	ق ب ط
-4.449306	ق ب ع
-4.449306	ق ب غ
-0.5926227	ق ب ل
-4.36714	ق ب م
-4.36714	ق ب ن
-0.596818	ق ب و
-4.765079	ق ب چ
-4.765079	ق ب ک
-3.66817	ق ب ھ
-1.757332	ق ب ہ
-1.339953	ق ب ی
-2.150182	ق ب ے
-0.4383091	ل ب </s>
-3.568214	ل ب آ
-4.858248	ل ب ؤ
-3.515826	ل ب ئ
-0.5937021	ل ب ا
-4.159278	ل ب ب
-1.195349	ل ب ت
-3.177007	ل ب ث
-3.654128	ل ب ج
-2.377523	ل ب ح
-1.875977	ل ب خ
-1.992552	ل ب د
-3.928829	ل ب ذ
-1.404395	ل ب ر
-3.080097	ل ب ز
-2.757878	ل ب س
-2.511895	ل ب ش
