
\data\
ngram 1=85
ngram 2=4824
ngram 3=64541

\1-grams:
-0.6864743	</s>
-99	<s>	-4.830918
-2.856214	ँ	-4.408674
-1.542578	ं	-0.6178665
-3.94438	ः	-4.139541
-2.167163	अ	-3.278156
-2.232973	आ	-3.338698
-2.345224	इ	-3.798086
-2.53472	ई	-4.401812
-2.341692	उ	-4.031013
-3.576517	ऊ	-4.520166
-4.523092	ऋ	-3.793418
-2.234497	ए	-4.307225
-3.204395	ऐ	-4.771191
-3.039995	ओ	-4.345893
-2.448239	औ	-4.551029
-1.258315	क	-0.674222
-2.291595	ख	-2.519137
-1.917961	ग	-1.923024
-2.986266	घ	-3.815096
-4.995195	ङ	-3.515964
-2.152877	च	-2.49846
-2.674477	छ	-2.806221
-1.838314	ज	-2.589058
-3.003201	झ	-3.413862
-3.609535	ञ	-3.523225
-2.210406	ट	-2.609168
-2.897852	ठ	-2.889096
-2.374361	ड	-1.900219
-3.127736	ढ	-3.251926
-2.667589	ण	-3.054698
-1.543341	त	-1.90028
-2.318904	थ	-2.874761
-1.819726	द	-1.935263
-2.435745	ध	-3.113946
-1.467092	न	-0.6782756
-5.19682	ऩ	-2.576214
-1.707339	प	-1.07784
-2.530522	फ	-2.673839
-1.849057	ब	-1.190753
-2.169015	भ	-2.726531
-1.584425	म	-0.6242118
-1.718524	य	-1.870081
-1.303512	र	-0.8128386
-5.211641	ऱ	-2.138738
-1.663419	ल	-0.6789365
-1.837603	व	-0.3619857
-2.18511	श	-2.108991
-2.547138	ष	-3.381814
-1.490782	स	-1.210352
-1.455679	ह	-2.19455
-2.528826	़	-0.7667069
-1.15808	ा	-0.3342228
-1.523545	ि	-3.642837
-1.457768	ी	-3.358126
-1.956006	ु	-3.648147
-2.251328	ू	-3.831595
-3.145402	ृ	-4.20747
-4.8444	ॅ	-3.287585
-5.29178	ॆ	-2.791423
-1.290048	े	-2.840113
-1.894468	ै	-4.051718
-3.16218	ॉ	-3.958536
-5.186981	ॊ	-2.683266
-1.635604	ो	-99
-2.860137	ौ	-3.37784
-1.496321	्	-0.6284585
-6.438793	॑	-1.88624
-6.134672	॒	-2.326654
-6.426558	॓	-1.72947
-7.053442	॔	-1.095612
-4.446555	क़	-2.967976
-4.469311	ख़	-2.900074
-4.764983	ग़	-3.074652
-3.593119	ज़	-3.257542
-3.075686	ड़	-3.276243
-3.637909	ढ़	-3.606742
-3.633059	फ़	-3.303544
-5.19117	य़	-2.622138
-6.147171	ॠ	-1.920419
-8.283891	ॡ	-0.2009391
-6.650423	ॢ	-1.561622
-4.933256	॥	-3.467255
-3.809733	०	-4.373864
-5.116278	॰	-3.462745

\2-grams:
-6.199478	<s> ँ	-0.2700704
-5.101874	<s> ं	0.1714993
-5.387903	<s> ः	-0.5093622
-1.492361	<s> अ	0.4283609
-1.596051	<s> आ	-0.09913492
-1.734091	<s> इ	-0.3393173
-3.076751	<s> ई	-0.4013762
-1.672489	<s> उ	-0.1294184
-3.148511	<s> ऊ	-0.812248
-3.851563	<s> ऋ	-0.0007901192
-1.939947	<s> ए	-0.9037795
-2.530828	<s> ऐ	0.121798
-2.893826	<s> ओ	-0.9542999
-1.764224	<s> औ	0.05881739
-0.7681764	<s> क	-1.757384
-2.029267	<s> ख	-0.9820557
-1.736624	<s> ग	-0.6017399
-2.445665	<s> घ	-0.91769
-5.256974	<s> ङ	-0.5487007
-1.840107	<s> च	-1.502122
-2.480641	<s> छ	-0.4964869
-1.382054	<s> ज	-0.8920941
-2.943444	<s> झ	-0.4636102
-5.93466	<s> ञ	-0.1655457
-2.393491	<s> ट	-1.379481
-2.917454	<s> ठ	-1.793649
-2.437142	<s> ड	-1.595793
-3.186135	<s> ढ	-1.732786
-5.065939	<s> ण	-0.6184642
-1.576223	<s> त	-0.7111554
-1.953578	<s> थ	-1.84006
-1.492735	<s> द	-1.122161
-2.482087	<s> ध	-1.265253
-1.435915	<s> न	-0.3456678
-6.199478	<s> ऩ	-0.2972435
-1.239607	<s> प	-1.023264
-2.120278	<s> फ	-1.780981
-1.367633	<s> ब	-0.8197179
-1.652148	<s> भ	-1.151346
-1.183739	<s> म	-1.003872
-1.764522	<s> य	-1.795476
-1.563588	<s> र	-1.536484
-5.486828	<s> ऱ	-0.9784545
-1.503809	<s> ल	-2.239984
-1.525563	<s> व	-1.768692
-1.967462	<s> श	-1.307674
-4.311186	<s> ष	-0.5353811
-1.098607	<s> स	-1.374851
-1.031849	<s> ह	-1.230499
-5.486828	<s> ़	-0.6757655
-4.545494	<s> ा	-0.772523
-4.844602	<s> ि	-0.1743383
-5.04475	<s> ी	-0.5516705
-5.771343	<s> ु	-0.4367229
-5.898448	<s> ू	-0.5195867
-6.275199	<s> ृ	-1.018285
-6.836699	<s> ॅ
-4.983576	<s> े	-0.2733754
-5.758569	<s> ै	0.01461613
-6.518237	<s> ॉ	-1.007273
-5.179117	<s> ो	-0.3769456
-6.182445	<s> ौ	-0.7111022
-5.285664	<s> ्	-0.2715925
-6.836699	<s> ॑	-0.08521558
-6.342145	<s> ॒	-0.4690793
-7.597418	<s> ॓
-4.210563	<s> क़	0.0404911
-3.956341	<s> ख़	-0.4484856
-4.25956	<s> ग़	-0.790255
-3.497979	<s> ज़	-0.6764338
-5.258962	<s> ड़	-0.635896
-4.658398	<s> ढ़	-1.465395
-3.28732	<s> फ़	-0.6016197
-5.53672	<s> य़	-0.9393934
-5.493614	<s> ॠ	-0.1070496
-7.597418	<s> ॢ
-4.697051	<s> ॥	0.1350682
-3.361032	<s> ०	-0.185751
-5.154938	<s> ॰	-1.152224
-0.2034496	ँ </s>
-4.609914	ँ ं	-0.07249667
-4.666969	ँ ः	0.2870329
-3.22629	ँ अ	-0.08843553
-2.785223	ँ आ	-0.9786238
-3.327317	ँ इ	-0.4989653
-3.483205	ँ ई	-0.5581905
-3.524597	ँ उ	-0.3382009
-3.608143	ँ ऊ	-0.9770321
-5.126657	ँ ऋ	-0.2810639
-3.019447	ँ ए	-0.7094893
-4.281559	ँ ऐ	-0.1395657
-3.432052	ँ ओ	-0.761421
-3.614774	ँ औ	0.2408812
-1.634456	ँ क	-0.7938
-1.557869	ँ ख	-1.630183
-1.22509	ँ ग	-2.135124
-2.87018	ँ घ	-1.069892
-1.118888	ँ च	-1.817055
-2.71252	ँ छ	-0.9600874
-2.122766	ँ ज	-0.9845151
-2.896208	ँ झ	-0.9510764
-1.933254	ँ ट	-0.5797691
-2.819161	ँ ठ	-1.129194
-2.509657	ँ ड	-0.5814483
-2.31341	ँ ढ	-0.8777138
-3.922537	ँ ण	-0.3671007
-2.096868	ँ त	-0.7670071
-3.189641	ँ थ	-0.7633024
-1.804852	ँ द	-0.928292
-1.552916	ँ ध	-1.244512
-2.975901	ँ न	-0.6190975
-2.234284	ँ प	-0.5381007
-3.237356	ँ फ	-0.3958881
-2.517063	ँ ब	-0.5626588
-2.670291	ँ भ	-0.8068135
-3.071661	ँ म	-0.2904338
-2.58135	ँ य	-0.3528609
-3.218172	ँ र	-0.4885863
-3.091228	ँ ल	-0.8387763
-1.467454	ँ व	-1.341322
-2.944814	ँ श	-1.100643
-4.473445	ँ ष	-0.169655
-1.531768	ँ स	-0.8344135
-1.889868	ँ ह	-0.7277546
-3.804438	ँ ा	-0.4099794
-4.126657	ँ ु	-0.4086449
-4.012714	ँ ू	-0.7406809
-5.427687	ँ े
-5.427687	ँ ै
-5.427687	ँ ॓
-4.666969	ँ क़	-0.0688787
-5.126657	ँ ख़
-4.609914	ँ ग़	-0.1993136
-3.859486	ँ ज़	-0.5580128
-3.498268	ँ ड़	-0.06325483
-3.254501	ँ ढ़	-0.4002504
-4.012714	ँ फ़	-0.4398785
-5.126657	ँ य़	-0.2646942
-4.582589	ँ ॥	0.9799119
-4.473445	ँ ०	-0.5869894
-0.1815846	ं </s>
-5.896216	ं ँ	0.1056014
-4.181408	ं ं	-0.1503495
-5.278917	ं ः	-0.8337321
-3.732714	ं अ	-0.02157366
-3.579348	ं आ	-0.5342214
-3.722614	ं इ	-0.4667056
-3.795354	ं ई	-1.229165
-3.780369	ं उ	-0.6170856
-4.589026	ं ऊ	-0.3955841
-5.838225	ं ऋ	-0.7740648
-3.850894	ं ए	-0.1010884
-4.526471	ं ऐ	-0.3040133
-4.316433	ं ओ	-0.4997081
-4.064621	ं औ	-0.5107622
-1.565533	ं क	-0.7125478
-2.307689	ं ख	-1.215426
-1.203348	ं ग	-1.30705
-2.377064	ं घ	-1.995729
-5.662133	ं ङ	-0.2003525
-1.736735	ं च	-1.687007
-3.295399	ं छ	-0.4664222
-1.986959	ं ज	-1.156737
-3.477679	ं झ	-0.8976306
-5.662133	ं ञ	-0.4319333
-1.854187	ं ट	-0.5742927
-3.098553	ं ठ	-0.9350288
-1.76457	ं ड	-0.6799181
-3.233459	ं ढ	-1.272514
-4.118065	ं ण	-0.7388364
-1.452156	ं त	-1.307756
-2.857767	ं थ	-0.394016
-1.43341	ं द	-1.853965
-1.848291	ं ध	-1.180108
-1.826385	ं न	-1.700779
-6.741314	ं ऩ
-1.980079	ं प	-1.348851
-3.437471	ं फ	-0.771874
-1.990382	ं ब	-1.879696
-2.210424	ं भ	-0.9301331
-3.313018	ं म	-0.3768289
-2.652541	ं य	-0.9883142
-2.807827	ं र	-0.9903587
-6.741314	ं ऱ
-3.351617	ं ल	-0.3778555
-2.073647	ं व	-1.588411
-2.485704	ं श	-0.9591396
-4.604594	ं ष	-0.3903182
-1.616589	ं स	-0.7534747
-2.093863	ं ह	0.2769246
-4.928401	ं ़	-0.7918351
-4.120138	ं ा	-0.8078728
-4.866253	ं ि	-0.3614732
-4.908806	ं ी	-0.3569483
-4.488461	ं ु	-0.9234537
-4.464853	ं ू	-0.7708706
-5.486042	ं ृ	-1.276094
-5.787072	ं ॅ	-0.1433404
-3.716009	ं े	-0.571648
-4.23077	ं ै	-1.002996
-5.980596	ं ॉ	-0.328768
-5.462561	ं ो	-0.1933414
-6.741314	ं ौ
-4.822237	ं ्	-1.103294
-6.741314	ं ॑
-6.042345	ं ॒	-0.5912982
-6.741314	ं ॔
-5.565223	ं क़	-0.4659931
-5.627371	ं ख़	-0.4557933
-5.042345	ं ग़	-0.7301823
-4.13386	ं ज़	-0.3984162
-4.064621	ं ड़	-0.3631952
-4.359298	ं ढ़	-0.3623286
-4.716009	ं फ़	-0.1187235
-6.264194	ं य़	-0.1221242
-4.61421	ं ॥	-0.218472
-4.98544	ं ०	-0.581326
-5.060073	ं ॰	-0.7009701
-0.1119925	ः </s>
-4.339571	ः ँ
-4.339571	ः ं
-3.084298	ः ः	-0.6337882
-3.017351	ः अ	-0.2894204
-3.298178	ः आ	-0.04588452
-3.521797	ः इ
-3.038541	ः ई	-0.4615325
-3.521797	ः उ	-0.1642999
-3.640601	ः ए	-0.09250373
-4.038541	ः ऐ	0.6421392
-3.862449	ः ओ
-1.966659	ः क	-1.435049
-0.8721105	ः ख	-2.142659
-3.260389	ः ग	-0.1995062
-4.038541	ः घ	-0.2300932
-3.640601	ः च	-0.08562064
-3.494473	ः छ	-0.1968966
-3.339571	ः ज	-0.1930436
-3.339571	ः ट	0.04414082
-4.339571	ः ठ
-4.038541	ः ड
-3.436481	ः त	-0.0688336
-4.038541	ः थ
-3.135451	ः द	-0.3951886
-3.862449	ः ध
-2.658329	ः न	-0.6157423
-2.282666	ः प	-0.8451105
-4.038541	ः फ	-0.2677859
-3.163479	ः ब	-0.3923573
-3.862449	ः भ
-3.084298	ः म	-0.3243365
-3.494473	ः य	0.1525326
-2.783268	ः र	-0.01102778
-3.385328	ः ल	-0.1483455
-2.959359	ः व	-0.1576915
-1.800495	ः श	-1.411395
-3.494473	ः ष	-0.678704
-1.500722	ः स	-1.544614
-2.821057	ः ह	-0.2339425
-2.470339	ः ा	-0.3089066
-4.339571	ः ी
-2.892413	ः ु	-0.3240883
-2.821057	ः ू	-0.6970252
-2.390181	ः े	-0.4800621
-2.959359	ः ो	-0.1661663
-3.578852	ः ौ	-0.5969557
-3.862449	ः ्	-0.1665559
-4.339571	ः ढ़
-3.385328	ः ॥	-0.1635815
-3.862449	ः ०	0.02300866
-4.038541	ः ॰	-0.2163108
-2.820064	अ </s>
-2.768814	अ ँ	-1.013547
-1.19482	अ ं	-1.344994
-5.037549	अ ः	-0.4705542
-4.736518	अ अ	-1.078516
-4.639608	अ आ	-0.2732624
-3.607527	अ इ	-0.9752877
-3.782276	अ ई	-0.358053
-3.197651	अ उ	-2.059144
-4.21364	अ ऊ	-1.706197
-4.8157	अ ए	-0.1086479
-4.970602	अ ओ	0.3874163
-5.8157	अ औ
-1.662495	अ क	-1.721986
-1.894612	अ ख	-2.528922
-1.302989	अ ग	-2.345136
-3.191934	अ घ	-1.633158
-4.426534	अ ङ	-1.575471
-1.365581	अ च	-2.727976
-3.091834	अ छ	-1.746899
-1.994842	अ ज	-1.370867
-4.49348	अ झ	-0.5073847
-5.271632	अ ञ	-1.012746
-2.41318	अ ट	-1.774829
-3.293908	अ ठ	-1.42633
-2.605247	अ ड	-1.500704
-4.611579	अ ढ	-0.09724492
-3.019819	अ ण	-1.26753
-1.682592	अ त	-1.30668
-2.328349	अ थ	-1.679354
-1.938732	अ द	-1.530913
-1.180774	अ ध	-2.284028
-0.9434267	अ न	-1.240126
-5.298956	अ ऩ	-0.458874
-0.6527873	अ प	-2.434909
-2.035346	अ फ	-2.466858
-1.132891	अ ब	-2.58169
-1.295478	अ भ	-2.06373
-1.420496	अ म	-1.663239
-2.529243	अ य	-1.690699
-1.448167	अ र	-1.759733
-6.11673	अ ऱ
-1.326437	अ ल	-1.8178
-1.566073	अ व	-1.780627
-2.162342	अ श	-1.085048
-3.533531	अ ष	-2.289961
-1.378877	अ स	-1.354721
-1.991021	अ ह	-1.730643
-4.585251	अ ़	-0.4342479
-4.409159	अ ा	-0.08767831
-4.611579	अ ि	-0.5827025
-4.970602	अ ी	-0.2762526
-5.417759	अ ु	-0.09314726
-4.639608	अ ॅ	-0.5704617
-4.736518	अ े	-0.6084053
-5.162487	अ ै	-0.3722026
-5.8157	अ ॉ
-4.400726	अ ो	-0.4602565
-5.11673	अ ौ	-0.9220509
-4.940639	अ ्	-0.5328034
-5.298956	अ ॒	-0.05574157
-4.473277	अ क़	-0.6557655
-3.725795	अ ख़	-1.393653
-4.8157	अ ग़	-1.257412
-3.599534	अ ज़	-0.5132938
-3.408309	अ ड़	-0.9717804
-4.970602	अ ढ़	-0.559908
-3.028239	अ फ़	-1.987121
-5.8157	अ ०	0.1267946
-0.9985012	आ </s>
-2.029774	आ ँ	-1.392494
-1.535101	आ ं	-1.358956
-5.009529	आ ः	0.3132103
-3.647801	आ अ	-0.222641
-3.045313	आ आ	-1.402778
-2.14518	आ इ	-0.8772408
-1.458024	आ ई	-0.5868278
-2.497403	आ उ	-1.888184
-3.138169	आ ऊ	-1.505388
-1.799698	आ ए	-1.293634
-4.231378	आ ऐ	-1.502817
-2.720508	आ ओ	-1.815741
-4.846802	आ औ	0.5637099
-1.641073	आ क	-1.821015
-1.907626	आ ख	-2.666173
-1.475157	आ ग	-2.096261
-3.453227	आ घ	-1.416707
-6.050922	आ ङ
-2.558301	आ च	-2.201608
-3.812876	आ छ	-0.5797569
-1.141227	आ ज	-2.19417
-5.050922	आ झ	-0.9261209
-2.772168	आ ट	-1.456063
-2.332919	आ ठ	-2.111879
-2.357019	आ ड	-1.667422
-4.175861	आ ढ	-0.8605115
-3.616353	आ ण	-0.6512928
-1.187373	आ त	-2.463373
-3.812876	आ थ	-0.1848538
-1.327729	आ द	-2.432041
-1.5849	आ ध	-2.2859
-1.404724	आ न	-1.464769
-5.290204	आ ऩ	0.4691269
-0.6890261	आ प	-2.664379
-1.91417	आ फ	-2.056901
-2.302579	आ ब	-1.464482
-2.149409	आ भ	-1.939007
-1.617392	आ म	-1.904941
-1.208881	आ य	-1.418492
-1.316979	आ र	-1.773661
-4.971741	आ ऱ	-0.218457
-1.741398	आ ल	-1.581203
-1.52395	आ व	-1.463318
-1.730693	आ श	-2.572537
-3.77446	आ ष	-1.319936
-1.590746	आ स	-1.932941
-2.309455	आ ह	-1.939334
-4.573801	आ ़	-0.7908909
-4.48272	आ ा	-0.1810701
-5.351952	आ ि	-0.093142
-5.573801	आ ी	-0.6008469
-6.050922	आ ु
-3.679854	आ ॅ	-1.150214
-4.013495	आ े	-0.8406891
-4.708499	आ ै	-1.335667
-6.050922	आ ॉ
-4.846802	आ ो	-1.193343
-5.233148	आ ्	-0.4548656
-6.050922	आ ॑
-4.79565	आ ॓	-0.3983498
-5.573801	आ क़	-0.05756011
-3.558161	आ ख़	-2.125703
-4.820473	आ ग़	-1.165097
-2.951241	आ ज़	-2.775662
-3.361613	आ ड़	-1.572326
-4.749892	आ ढ़	-0.7308627
-3.1387	आ फ़	-1.193355
-4.904794	आ य़	-0.4214631
-5.351952	आ ॢ	-0.7257632
-5.290204	आ ॥	0.4343049
-5.290204	आ ०	-0.1890494
-2.301883	इ </s>
-3.8214	इ ँ	-0.6031801
-1.17712	इ ं	-1.7662
-4.06944	इ अ	-0.4472753
-3.426788	इ आ	-1.534273
-4.16782	इ इ	-0.7220417
-4.984429	इ ई	0.4309931
-5.120898	इ उ
-5.938672	इ ऊ
-2.282478	इ ए	-0.6907592
-4.734552	इ ऐ	-0.7122195
-3.771354	इ ओ	-0.9164826
-5.938672	इ औ
-1.70761	इ क	-1.763833
-3.404646	इ ख	-1.2757
-2.950113	इ ग	-1.706888
-5.035582	इ घ	-0.533559
-5.239702	इ ङ	-0.6634265
-2.096625	इ च	-2.326415
-4.637642	इ छ	-0.3365926
-1.907546	इ ज	-1.874941
-4.897279	इ झ	-0.06918049
-5.177953	इ ञ	-0.3516806
-1.585872	इ ट	-1.615195
-3.463001	इ ठ	-1.127541
-2.113765	इ ड	-1.249979
-5.938672	इ ढ
-2.756828	इ ण	-2.631298
-1.194434	इ त	-2.047701
-3.586489	इ थ	-0.9403653
-3.337699	इ द	-0.6949325
-2.242141	इ ध	-2.73263
-0.8648105	इ न	-2.135436
-4.792544	इ ऩ	-0.502119
-2.276954	इ प	-1.815578
-2.553781	इ फ	-0.7459077
-2.310999	इ ब	-2.042902
-4.683399	इ भ	-0.411702
-1.782729	इ म	-1.798369
-1.872234	इ य	-2.416059
-2.175768	इ र	-1.862879
-5.035582	इ ऱ	-0.9431157
-1.363888	इ ल	-1.381323
-2.187393	इ व	-1.514682
-2.120314	इ श	-1.329338
-3.411042	इ ष	-1.683934
-0.2767011	इ स	-2.523745
-3.135215	इ ह	-0.4503394
-5.120898	इ ़	-0.2009039
-5.120898	इ ा	-0.2832161
-4.708223	इ ि	-1.180113
-5.177953	इ ी	-0.6018958
-5.461551	इ ु	-0.1635739
-5.239702	इ े	0.04485512
-4.984429	इ ो	-0.1041327
-4.44731	इ ्	-0.4968311
-5.177953	इ ॒	-0.1107364
-4.540732	इ क़	-0.9646273
-4.683399	इ ख़	-1.179282
-2.998654	इ ज़	-1.863503
-5.461551	इ ड़	-0.08201138
-3.723828	इ फ़	-0.8642701
-5.461551	इ य़	0.00294438
-5.461551	इ ॥	-0.553812
-5.461551	इ ०	0.2443895
-5.938672	इ ॰
-0.07818331	ई </s>
-3.897918	ई ँ	-0.5455315
-1.733398	ई ं	-1.081633
-3.862686	ई ः	-1.248706
-3.22543	ई अ	-0.2811097
-2.402237	ई आ	-1.728347
-3.570199	ई इ	0.004215181
-2.897307	ई ई	-0.5531526
-3.956785	ई उ	0.0434984
-4.988458	ई ऊ	-0.5213255
-2.055625	ई ए	-1.062117
-4.426957	ई ऐ	-0.236101
-2.74271	ई ओ	-1.277321
-3.942997	ई औ	0.2476146
-2.192633	ई क	-0.472387
-3.652267	ई ख	-0.5792465
-3.037369	ई ग	-0.9382005
-3.715753	ई घ	-1.378176
-2.860997	ई च	-1.095017
-4.115708	ई छ	-0.5802577
-2.361787	ई ज	-0.9375118
-3.904078	ई झ	-1.469417
-1.93633	ई ट	-1.124312
-3.929632	ई ठ	-0.8138839
-2.325603	ई ड	-0.8222886
-4.846087	ई ढ	-0.6371436
-4.169393	ई ण	-1.493139
-3.452511	ई त	-0.2816403
-4.000988	ई थ	-0.6110728
-2.630912	ई द	-1.028679
-3.744855	ई ध	-1.172538
-2.026214	ई न	-1.216675
-2.08322	ई प	-1.515909
-2.921807	ई फ	-1.225192
-2.412117	ई ब	-1.01219
-3.414723	ई भ	-0.501224
-1.69814	ई म	-1.797322
-1.941574	ई य	-1.691964
-2.342126	ई र	-1.404306
-2.312855	ई ल	-0.9699607
-2.459365	ई व	-1.094419
-1.936597	ई श	-1.433966
-3.599957	ई ष	-1.022564
-1.816753	ई स	-0.9961138
-3.354725	ई ह	-0.4734689
-4.846087	ई ़	-0.2937071
-5.448146	ई ा
-5.749177	ई ि
-5.749177	ई ृ
-5.749177	ई े
-4.988458	ई ै	-0.2750256
-5.448146	ई ॉ	-0.2586279
-4.988458	ई ्	-0.01653986
-5.749177	ई ॑
-3.542351	ई ज़	-1.230447
-5.272055	ई ड़
-3.862686	ई फ़	-0.7061843
-5.749177	ई य़
-4.180975	ई ॥	-0.07675397
-3.536989	ई ०	0.4943683
-4.334203	ई ॰	-0.4139417
-2.685724	उ </s>
-2.934881	उ ँ	-1.427983
-2.005437	उ ं	-1.471584
-4.663448	उ ः	-0.6576409
-4.270104	उ अ	0.05205095
-3.98316	उ आ	-0.8214345
-3.964478	उ इ	-1.019698
-3.950975	उ ई	-0.4535645
-3.969074	उ उ	-0.8301071
-5.46508	उ ऊ	-0.1650712
-4.544261	उ ऋ	-1.236844
-4.410723	उ ए	0.1427888
-4.900809	उ ओ	-0.2630996
-5.942202	उ औ
-2.413157	उ क	-1.619744
-2.793599	उ ख	-2.22266
-2.311672	उ ग	-2.185005
-2.996241	उ घ	-2.046828
-4.580474	उ ङ	-0.8902576
-1.846718	उ च	-1.98141
-2.597416	उ छ	-1.913713
-2.121934	उ ज	-1.810613
-4.686929	उ झ	0.02904442
-2.349359	उ ट	-1.256282
-1.392145	उ ठ	-2.142318
-2.037702	उ ड	-1.732229
-4.479804	उ ढ	-0.4932176
-3.186327	उ ण	-1.287122
-1.125708	उ त	-2.856241
-2.802637	उ थ	-1.151271
-1.441759	उ द	-1.90663
-2.109055	उ ध	-2.433231
-0.5010314	उ न	-2.455396
-5.097104	उ ऩ	-0.838097
-1.101619	उ प	-2.761909
-3.05234	उ फ	-1.660683
-2.545131	उ ब	-1.623383
-2.256818	उ भ	-2.459656
-1.556095	उ म	-2.305099
-4.527228	उ य	-0.3850329
-2.037108	उ र	-1.5672
-1.758363	उ ल	-1.63791
-3.311774	उ व	-1.195696
-4.17135	उ श	-0.6834178
-3.142861	उ ष	-2.256354
-0.5074906	उ स	-3.040188
-3.422374	उ ह	-0.5832587
-4.084869	उ ़	-0.7623025
-4.061388	उ ा	-1.246665
-5.641171	उ ि
-5.942202	उ ी
-5.942202	उ ु
-4.796073	उ ू	-0.3308166
-4.900809	उ ॅ	-0.6831379
-4.987959	उ े	-0.2493149
-5.243232	उ ्	-0.2468325
-5.181483	उ क़	-0.490999
-5.942202	उ ग़
-3.609763	उ ज़	-1.151182
-2.428319	उ ड़	-1.387538
-4.45084	उ ढ़	-0.8204244
-3.584267	उ फ़	-1.220412
-5.641171	उ ॠ	-0.1757207
-5.641171	उ ॥	0.504445
-4.641171	उ ०	-0.6400467
-5.46508	उ ॰	-0.5952253
-0.6061858	ऊ </s>
-0.9322094	ऊ ँ	-1.751969
-0.7704671	ऊ ं	-1.038831
-4.707383	ऊ ः
-4.008413	ऊ अ	-0.09250116
-2.874874	ऊ आ	-0.7885264
-3.862285	ऊ इ	-0.5248609
-3.428629	ऊ ई	-0.514502
-2.96702	ऊ उ	-0.7593076
-2.089335	ऊ ऊ	-1.510397
-3.889609	ऊ ए	-0.07480775
-2.84406	ऊ ओ	-0.3575979
-3.804293	ऊ औ	1.073034
-3.094599	ऊ क	-0.3922268
-3.163315	ऊ ख	-0.4084246
-2.561255	ऊ ग	-0.527015
-3.75314	ऊ घ	-0.2049449
-4.008413	ऊ ङ	-0.2559268
-2.531291	ऊ च	-0.5452871
-4.230261	ऊ छ
-2.194165	ऊ ज	-1.286744
-4.707383	ऊ झ
-2.050327	ऊ ट	-1.36289
-2.650478	ऊ ठ	-0.7276683
-2.596793	ऊ ड	-0.6544461
-3.804293	ऊ ढ	0.07862645
-3.230262	ऊ ण	-1.045447
-2.36496	ऊ त	-1.096167
-2.820892	ऊ थ	-1.214378
-1.689515	ऊ द	-1.484916
-2.783103	ऊ ध	-1.12818
-1.974186	ऊ न	-0.6504959
-0.5871709	ऊ प	-2.840454
-3.026142	ऊ फ	-0.5981896
-1.891142	ऊ ब	-1.308559
-3.073914	ऊ भ	-0.9151026
-2.804293	ऊ म	-0.5845311
-3.561255	ऊ य	-0.409918
-1.062059	ऊ र	-2.199055
-4.707383	ऊ ऱ
-2.447311	ऊ ल	-0.7095945
-3.260225	ऊ व	-1.183805
-3.45211	ऊ श	-0.4627165
-2.211838	ऊ ष	-1.953319
-2.025238	ऊ स	-0.402187
-2.555094	ऊ ह	-0.9467485
-3.503263	ऊ ॅ	-1.083954
-3.428629	ऊ ज़	-0.7697597
-3.531291	ऊ ड़	-0.5886567
-3.561255	ऊ फ़	-0.7212839
-4.707383	ऊ ॥
-4.406353	ऊ ०
-1.928366	ऋ </s>
-2.943101	ऋ ँ	-0.3807812
-2.399147	ऋ ं	-1.349844
-3.760875	ऋ अ
-2.614747	ऋ क	-0.7511775
-1.368178	ऋ ग	-1.797013
-1.624154	ऋ च	-1.985138
-2.482121	ऋ ज	-0.9697896
-0.4730729	ऋ ण	-1.419163
-0.6479347	ऋ त	-2.023526
-2.857785	ऋ द	-0.9163918
-3.760875	ऋ ध
-3.760875	ऋ प
-3.459845	ऋ ब	-0.2805207
-3.459845	ऋ भ	-0.2817128
-3.760875	ऋ म
-3.283753	ऋ र	-0.5602682
-3.061905	ऋ श	-0.2192106
-0.4690619	ऋ ष	-2.911623
-3.459845	ऋ स	-0.2838411
-2.298477	ऋ ृ	-1.025506
-3.760875	ऋ ०
-0.3363752	ए </s>
-1.869213	ए ँ	-1.860585
-1.325113	ए ं	-0.9711325
-4.447337	ए ः	-0.9693947
-3.363655	ए अ	-0.03808188
-3.00919	ए आ	-1.559633
-3.566523	ए इ	-0.57129
-3.613234	ए ई	-0.1776829
-3.806359	ए उ	-0.3559511
-5.748367	ए ऊ
-6.049397	ए ऋ
-2.821767	ए ए	-1.288739
-4.368155	ए ऐ	-0.451856
-3.786946	ए ओ	-0.7191181
-4.180165	ए औ	-0.09909797
-0.5131174	ए क	-2.073763
-3.900178	ए ख	-0.7072628
-1.559509	ए ग	-2.762711
-5.049397	ए घ	-0.1963229
-2.444739	ए च	-1.684473
-5.231623	ए छ	-0.1093325
-2.21945	ए ज	-1.545882
-4.873305	ए झ	-1.05078
-4.634423	ए ञ	-1.410298
-2.501745	ए ट	-1.379352
-4.706974	ए ठ	-0.4765702
-2.136219	ए ड	-1.095206
-5.572276	ए ढ
-3.220093	ए ण	-2.349938
-2.881784	ए त	-0.2328461
-3.162342	ए थ	-1.581347
-3.382879	ए द	-0.5335567
-4.935453	ए ध	-0.4851991
-1.857555	ए न	-1.014069
-4.818948	ए ऩ	-0.5845206
-2.676853	ए प	-1.546735
-2.324957	ए फ	-1.494158
-2.847727	ए ब	-0.4967655
-4.405944	ए भ	-0.1334955
-1.731125	ए म	-1.88546
-2.612598	ए य	-1.617742
-2.842571	ए र	-1.183984
-1.942085	ए ल	-1.625305
-1.633889	ए व	-2.225548
-2.36572	ए श	-1.552008
-4.426147	ए ष	-0.6993359
-1.549243	ए स	-1.557426
-2.37006	ए ह	-0.7139759
-4.903269	ए ़	-0.6979771
-5.748367	ए ा
-4.770643	ए ि	-0.1333292
-5.288678	ए ु	-0.1024079
-6.049397	ए ृ
-5.146307	ए ॅ	-0.1319241
-4.008004	ए े	-0.5867033
-4.651457	ए ै	-1.36768
-5.572276	ए ्	-0.1561252
-5.572276	ए ॒	-0.4152069
-5.008004	ए ॓	-0.6707447
-4.970215	ए क़	-0.1191453
-5.008004	ए ख़	-0.1707136
-4.873305	ए ग़	-0.7661266
-4.350427	ए ज़	-0.1092183
-4.3592	ए ड़	-0.7241837
-6.049397	ए ढ़
-3.853497	ए फ़	-0.7016017
-4.493094	ए ॥	-0.009528637
-4.517918	ए ०	-0.2656429
-5.350427	ए ॰	0.342062
-1.71141	ऐ </s>
-3.548032	ऐ ँ	-1.029073
-1.853168	ऐ ं	-0.8873837
-4.778481	ऐ अ	-0.2670853
-4.38054	ऐ आ	-0.08500884
-4.234412	ऐ इ	-0.8396041
-3.535442	ऐ ई	-0.4516825
-4.778481	ऐ उ	-0.2785735
-4.778481	ऐ ऊ	-0.2846628
-4.38054	ऐ ए	0.1751873
-4.318792	ऐ ऐ	0.5719991
-4.318792	ऐ ओ	-0.3554239
-2.219172	ऐ क	-0.9507002
-4.602389	ऐ ख	-0.08095062
-2.833998	ऐ ग	-1.09509
-5.079511	ऐ ङ
-3.240661	ऐ च	-0.9629723
-5.079511	ऐ छ
-2.735118	ऐ ज	-1.166998
-2.903419	ऐ ट	-0.7272567
-3.664537	ऐ ठ	-0.7732465
-2.470984	ऐ ड	-0.7187997
-3.699299	ऐ ण	-1.062676
-1.645101	ऐ त	-2.124485
-4.038118	ऐ थ	-0.3525968
-3.849061	ऐ द	-0.2983006
-2.276053	ऐ न	-0.9021675
-2.900533	ऐ प	-1.260257
-4.125268	ऐ फ	-0.1289354
-2.432127	ऐ ब	-1.446353
-5.079511	ऐ भ
-3.062477	ऐ म	-0.2359962
-2.875391	ऐ य	-1.392619
-2.627724	ऐ र	-0.7247953
-1.900821	ऐ ल	-1.387693
-3.155231	ऐ व	-0.3784689
-1.782845	ऐ श	-1.91033
-4.125268	ऐ ष	-0.08756745
-0.05449969	ऐ स	-3.523415
-3.27333	ऐ ह	-0.9080485
-4.778481	ऐ ़	-0.284246
-3.560997	ऐ े	-1.122354
-5.079511	ऐ ग़
-4.602389	ऐ ज़	-0.4977565
-3.903419	ऐ ड़	-1.085452
-4.778481	ऐ फ़	-0.2672746
-4.778481	ऐ ०	0.1267946
-0.8921699	ओ </s>
-2.799863	ओ ँ	-2.016956
-0.2760141	ओ ं	-1.7898
-5.243908	ओ ः
-3.590696	ओ अ	-0.2965632
-2.921689	ओ आ	-1.480269
-3.284867	ओ इ	-0.4250211
-3.299426	ओ ई	-0.4068686
-4.013459	ओ उ	-0.0033243
-4.544938	ओ ऊ	-0.1343669
-2.356291	ओ ए	-1.079484
-3.738758	ओ ऐ	-1.195596
-3.363095	ओ ओ	-0.9607829
-4.129965	ओ औ	0.6066365
-2.1802	ओ क	-0.8710665
-2.97909	ओ ख	-1.024052
-1.921069	ओ ग	-1.665539
-4.202516	ओ घ	-0.9926948
-3.712429	ओ च	0.03088307
-2.887882	ओ छ	-1.507497
-2.351814	ओ ज	-0.9086766
-2.499615	ओ झ	-1.822163
-2.521274	ओ ट	-1.010921
-3.368847	ओ ठ	-0.9893083
-2.578327	ओ ड	-1.230455
-2.322742	ओ ढ	-0.9879173
-3.553712	ओ ण	-1.318978
-2.639682	ओ त	-1.015242
-3.562667	ओ थ	-0.2447424
-2.860093	ओ द	-0.9487679
-3.988636	ओ ध	-0.410525
-2.365961	ओ न	-0.3909338
-1.996426	ओ प	-1.312803
-3.037082	ओ फ	-0.5722594
-1.675472	ओ ब	-1.698515
-4.164727	ओ भ	-0.2799491
-1.931943	ओ म	-1.19583
-2.66872	ओ य	-0.8131762
-0.808733	ओ र	-1.824037
-4.942878	ओ ऱ	0.09063929
-1.964013	ओ ल	-1.366152
-1.371053	ओ व	-2.093367
-2.718863	ओ श	-1.313666
-3.845968	ओ ष	-1.246182
-1.827434	ओ स	-1.249694
-2.005862	ओ ह	-1.428017
-4.39881	ओ ़	-0.3015741
-5.243908	ओ ॆ
-3.725394	ओ े	-0.2749077
-3.965155	ओ ै	-1.294274
-5.243908	ओ ो
-4.942878	ओ ख़	-0.2001434
-4.243908	ओ ग़	-0.9926628
-3.942878	ओ ज़	-0.4658221
-3.828935	ओ ड़	-0.4435646
-2.746979	ओ ढ़	-0.5830022
-3.335423	ओ फ़	-1.240201
-4.766787	ओ य़	-0.6003067
-4.48319	ओ ०	-0.1890494
-4.48319	ओ ॰	0.2436449
-3.117156	औ </s>
-5.358536	औ ँ	0.2584673
-3.393178	औ ं	-1.103333
-5.534627	औ ः	0.3571731
-5.358536	औ अ	-0.5863031
-5.835658	औ आ
-5.358536	औ इ	-0.165714
-5.835658	औ ई
-4.212409	औ उ	-1.318214
-4.99056	औ ऊ	-0.3167585
-3.93803	औ ए	-1.619518
-2.949167	औ क	-2.227154
-4.721714	औ ख	-0.5861706
-4.659566	औ ग	-0.2488573
-3.455446	औ घ	-1.200577
-3.123008	औ च	-2.142144
-5.074939	औ छ	-0.5233209
-2.914492	औ ज	-1.884565
-5.835658	औ झ
-4.29159	औ ट	-0.3159824
-5.835658	औ ठ
-4.659566	औ ड	-0.3246184
-4.932568	औ ढ	-0.06448331
-3.984399	औ त	-0.73195
-5.358536	औ थ	-0.5979668
-2.422023	औ द	-2.293099
-3.886268	औ ध	-0.8078085
-3.534628	औ न	-1.030387
-2.70629	औ प	-1.862319
-4.631537	औ फ	-0.1652772
-4.932568	औ ब	-0.4088693
-4.580385	औ म	-0.6086966
-5.074939	औ य	0.07568643
-0.007742573	औ र	-3.128946
-3.111382	औ ऱ	-2.34742
-3.192205	औ ल	-1.399485
-4.881415	औ व	-0.4453042
-4.47393	औ श	-0.4130068
-2.901664	औ ष	-2.044408
-2.459811	औ स	-1.747051
-4.881415	औ ह	-0.6783674
-5.358536	औ ़	-0.1498867
-4.99056	औ ा	-0.7796551
-5.835658	औ ु
-5.835658	औ ॅ
-5.017884	औ े	-0.3991752
-4.659566	औ ै	-1.197364
-5.835658	औ ्
-4.689529	औ क़	-1.06503
-4.233598	औ ज़	-1.518118
-5.074939	औ ड़	-0.2810564
-5.835658	औ ढ़
-4.659566	औ फ़	-0.4917116
-1.020105	क </s>
-4.625904	क ँ	-0.5410879
-2.514149	क ं	-1.385955
-4.96488	क ः	-1.421069
-3.9702	क अ	-0.5783246
-4.081589	क आ	-0.9826404
-4.076188	क इ	-0.9902815
-2.331113	क ई	-2.570873
-4.685134	क उ	-0.2365738
-5.534216	क ऊ	-0.6059294
-6.071335	क ऋ	-0.3491992
-3.720227	क ए	-0.7652662
-5.683155	क ऐ	0.5024847
-5.150517	क ओ	-0.6732209
-5.48151	क औ	0.9264204
-3.244182	क क	-0.8579227
-4.895244	क ख	-0.2221121
-3.825549	क ग	-1.40466
-4.818752	क घ	-1.22407
-5.101298	क ङ	-0.1037236
-3.25399	क च	-1.223637
-4.09975	क छ	-1.108767
-3.387588	क ज	-0.7959429
-4.202104	क झ	-2.071883
-6.724548	क ञ	-0.2815405
-2.556065	क ट	-0.5189421
-3.115808	क ठ	-1.46514
-2.642571	क ड	-1.298697
-4.849486	क ढ	-0.6804495
-3.649731	क ण	-1.142526
-1.735	क त	-1.954811
-2.828077	क थ	-1.35687
-2.637975	क द	-1.537596
-4.424605	क ध	-1.029718
-2.422303	क न	-0.8409367
-2.601546	क प	-1.418025
-4.01954	क फ	-0.6418017
-2.703876	क ब	-1.738246
-2.362518	क भ	-2.220651
-2.000973	क म	-1.998112
-3.694961	क य	-1.297336
-1.017676	क र	-2.095293
-5.57842	क ऱ	-0.6878259
-2.001622	क ल	-1.670923
-2.27055	क व	-2.046163
-3.029943	क श	-1.377582
-3.670318	क ष	-1.59596
-2.556832	क स	-1.768146
-1.644961	क ह	-2.260541
-2.724635	क ़	-0.8859513
-0.8475063	क ा	-1.166908
-1.020017	क ि	-2.210172
-0.9676034	क ी	-2.316943
-1.687458	क ु	-1.57784
-2.539261	क ू	-1.7256
-2.30338	क ृ	-2.087662
-4.497948	क ॅ	-1.032889
-5.335382	क ॆ	-0.8526928
-0.7848711	क े	-2.187461
-2.254101	क ै	-1.166946
-2.706243	क ॉ	-1.233376
-4.780065	क ॊ	-0.5056008
-1.058795	क ो	-1.098722
-2.626216	क ौ	-1.978256
-1.172207	क ्	-2.928223
-7.025578	क ॑
-7.025578	क ॒
-7.025578	क ॓
-7.025578	क क़
-6.26486	क ख़	-0.2702836
-6.724548	क ग़	-0.2208641
-5.335382	क ज़	-0.8277472
-2.989828	क ड़	-0.9098208
-5.26215	क ढ़	-0.546454
-4.800269	क फ़	-0.4809599
-6.548457	क य़	-0.4304945
-7.025578	क ॠ
-5.57842	क ॥	-0.6564969
-6.071335	क ०	0.9147182
-0.9164091	ख </s>
-4.042909	ख ँ	-0.6237643
-1.956909	ख ं	-1.555326
-4.515178	ख ः	-0.8323311
-4.630571	ख अ	-0.1876432
-4.594359	ख आ	-0.5385235
-4.134966	ख इ	-0.2960278
-3.684803	ख ई	-0.9704441
-4.612088	ख उ	-0.1932694
-5.515178	ख ऊ
-4.878356	ख ए	-0.2387271
-5.089209	ख ओ	-0.5348874
-5.515178	ख औ	1.150705
-1.637902	ख क	-2.035428
-4.221447	ख ख	-0.6412557
-3.176058	ख ग	-1.235887
-5.691269	ख घ
-4.36905	ख ङ	-0.4148395
-3.048805	ख च	-1.47234
-4.992299	ख छ	-0.3512787
-2.735581	ख ज	-1.608305
-5.231581	ख झ	-0.2106911
-2.514166	ख ट	-1.125498
-5.089209	ख ठ	-0.201624
-1.825869	ख ड	-1.892303
-5.992299	ख ढ
-2.470116	ख ण	-1.70169
-1.214887	ख त	-2.373477
-5.174525	ख थ	-0.7224706
-2.309252	ख द	-1.271317
-3.651855	ख ध	-1.315207
-1.124172	ख न	-1.495439
-2.496616	ख प	-1.590884
-3.512292	ख फ	-1.391317
-1.5435	ख ब	-2.596585
-2.913842	ख भ	-2.192821
-2.663716	ख म	-1.224648
-2.948151	ख य	-1.197827
-1.428509	ख र	-1.654867
-4.206969	ख ऱ	-0.7682601
-2.034117	ख ल	-1.543547
-2.661074	ख व	-1.686692
-3.871725	ख श	-0.7055869
-5.691269	ख ष
-2.843388	ख स	-0.9972413
-4.042909	ख ह	-0.3118995
-1.590364	ख ़	-1.370024
-0.7380289	ख ा	-2.158608
-1.185915	ख ि	-2.302052
-1.447438	ख ी	-1.529119
-1.193752	ख ु	-2.519144
-1.711402	ख ू	-2.29142
-5.515178	ख ृ
-5.992299	ख ॅ
-4.713545	ख ॆ	-0.4327426
-1.1154	ख े	-1.496208
-2.210903	ख ै	-1.691265
-4.878356	ख ॉ	-0.4740906
-4.320201	ख ॊ	-0.4749347
-1.320035	ख ो	-1.804198
-2.738961	ख ौ	-1.802935
-1.238264	ख ्	-2.398711
-5.992299	ख ॑
-4.179386	ख ज़	-1.718248
-2.110743	ख ड़	-1.298834
-4.448231	ख फ़	-1.518276
-5.992299	ख य़
-5.691269	ख ॥	0.504445
-5.992299	ख ०
-0.8242347	ग </s>
-3.851383	ग ँ	-1.53068
-1.936567	ग ं	-2.057055
-4.847417	ग ः	-0.8880898
-2.806384	ग अ	-1.42407
-4.610056	ग आ	-0.1750528
-3.407367	ग इ	-1.056754
-1.620029	ग ई	-0.9385383
-4.374705	ग उ	0.3089721
-4.436512	ग ऊ	-0.5559251
-5.666961	ग ऋ	-0.07776134
-1.702673	ग ए	-1.170685
-4.809628	ग ऐ	0.2432074
-4.580601	ग ओ	-0.8416678
-5.064901	ग औ	0.4932994
-2.808304	ग क	-0.785091
-4.753148	ग ख	-0.4350772
-3.340625	ग ग	-1.19102
-5.064901	ग घ	-0.1343125
-4.421449	ग ङ	-0.5709753
-3.825602	ग च	-1.156779
-4.473836	ग छ	-0.545615
-2.330221	ग ज	-1.407415
-4.625568	ग झ	-0.6418547
-5.365931	ग ञ	-0.3390477
-3.047868	ग ट	-1.2201
-2.141424	ग ठ	-2.21097
-2.37413	ग ड	-1.067004
-2.447953	ग ढ	-1.036634
-2.346317	ग ण	-1.466543
-1.400259	ग त	-1.840812
-3.980325	ग थ	-0.6790924
-2.297374	ग द	-1.187873
-3.167824	ग ध	-0.9819546
-2.036757	ग न	-0.7835965
-6.365931	ग ऩ
-2.646683	ग प	-1.624837
-3.566591	ग फ	-1.645227
-3.084443	ग ब	-0.8717374
-2.270832	ग भ	-2.053357
-2.204354	ग म	-0.9522072
-1.096836	ग य	-2.845253
-1.214139	ग र	-1.477353
-5.520833	ग ऱ	-0.2911553
-1.557545	ग ल	-1.780094
-2.068871	ग व	-2.002123
-3.268674	ग श	-1.197244
-5.365931	ग ष	-0.3687641
-2.679921	ग स	-1.543455
-1.85334	ग ह	-1.038851
-2.342185	ग ़	-1.832216
-0.7831408	ग ा	-0.9172993
-1.628834	ग ि	-2.478795
-1.165565	ग ी	-1.176753
-1.464893	ग ु	-1.969658
-2.184202	ग ू	-1.724538
-2.634907	ग ृ	-2.226146
-5.023509	ग ॅ	-0.7541496
-5.365931	ग ॆ	-0.3611913
-1.154338	ग े	-0.6624894
-2.163225	ग ै	-1.339705
-3.443206	ग ॉ	-1.113179
-5.110659	ग ॊ	-0.318716
-1.292382	ग ो	-0.8823755
-2.356778	ग ौ	-1.622
-1.213505	ग ्	-2.975888
-6.064901	ग ॔	0.4919352
-3.236564	ग ज़	-0.9844345
-2.872334	ग ड़	-0.7239305
-2.912919	ग ढ़	-0.4242835
-4.722478	ग फ़	-1.00186
-5.110659	ग य़	-1.082059
-5.135482	ग ॥	-0.4397879
-1.172081	घ </s>
-3.416813	घ ँ	-1.853361
-1.339685	घ ं	-2.135172
-4.183684	घ अ	-0.3777929
-3.085439	घ ई	-1.396943
-5.297627	घ ओ
-4.996597	घ औ	1.466549
-2.62002	घ क	-2.072294
-4.820506	घ ख
-3.368208	घ ग	-1.252094
-3.512297	घ घ	-0.9378326
-2.43669	घ च	-2.02883
-4.820506	घ छ
-3.358108	घ ज	-1.025681
-0.9164036	घ ट	-1.861722
-3.549439	घ ठ	-1.390263
-2.013648	घ ड	-1.705464
-4.394537	घ ढ	0.1111346
-2.239961	घ ण	-1.963079
-2.806265	घ त	-1.019474
-3.383813	घ द	-0.9922732
-1.555452	घ न	-1.706237
-2.502442	घ प	-1.709361
-5.297627	घ फ
-1.983971	घ ब	-2.342904
-3.792477	घ भ	-0.6125493
-2.305516	घ म	-1.105911
-4.452529	घ य	-0.02182311
-0.5439597	घ र	-2.091833
-3.684843	घ ऱ	-0.9022969
-2.277266	घ ल	-1.358158
-2.251132	घ व	-1.405969
-3.882654	घ श	-0.3939844
-3.664159	घ ष	-0.6634139
-2.486723	घ स	-1.069412
-3.899687	घ ह	-0.8091649
-4.452529	घ ़	-0.2484187
-1.046183	घ ा	-2.010997
-1.758676	घ ि	-1.822693
-2.091341	घ ी	-0.933252
-1.106456	घ ु	-2.502529
-1.366627	घ ू	-2.557892
-2.211267	घ ृ	-2.314514
-4.820506	घ ॅ
-1.659038	घ े	-1.470526
-3.820506	घ ै	-0.6460893
-4.343385	घ ॊ	-0.1687311
-0.9743956	घ ो	-2.374419
-3.428395	घ ौ	-0.862098
-1.791257	घ ्	-1.497634
-2.328677	घ ड़	-1.375349
-5.297627	घ ढ़
-0.8422079	ङ </s>
-2.988336	ङ अ
-3.289366	ङ उ
-1.268177	ङ क	-0.3877639
-2.988336	ङ ख	-0.2861975
-2.471592	ङ ग	-0.04876757
-2.386276	ङ ङ	-0.8395178
-2.988336	ङ छ	-0.2074769
-2.988336	ङ ज	-0.1708688
-3.289366	ङ ड
-3.289366	ङ ण
-1.518514	ङ त	-1.572874
-3.289366	ङ थ
-2.988336	ङ द
-2.988336	ङ ध	-0.2800699
-1.687306	ङ न	-0.4267133
-2.444268	ङ प	-0.2868742
-2.386276	ङ ब	-0.9542127
-2.058917	ङ म	-0.099078
-3.289366	ङ य
-2.812245	ङ र	0.01962003
-2.386276	ङ व	-0.3155888
-2.471592	ङ स	-0.7751884
-2.988336	ङ ़	-0.2376646
-0.8862454	ङ ा	-0.6103795
-1.798004	ङ ि	-0.7889373
-1.093466	ङ ी	-1.135871
-2.988336	ङ ु
-2.335124	ङ ू	-0.4120653
-1.010612	ङ े	-0.806114
-2.528648	ङ ै	-0.02932179
-0.8437617	ङ ो	-1.39598
-3.289366	ङ ौ
-0.6342275	ङ ्	-1.805125
-0.952795	च </s>
-4.089625	च ँ	-0.642046
-1.992778	च ं	-1.702219
-4.46826	च ः	-1.028709
-4.477805	च अ	-0.648734
-3.45892	च आ	-1.579604
-4.238923	च इ	-0.1730671
-3.935118	च ई	-0.4032633
-4.46826	च उ	-0.5172127
-5.313244	च ऊ	-0.3443772
-3.585711	च ए	-0.7383839
-5.653896	च ऐ	0.3262952
-3.812954	च ओ	-1.587922
-5.227928	च औ	1.073034
-1.764277	च क	-1.546362
-3.324838	च ख	-1.176473
-3.724478	च ग	-0.9901867
-4.852264	च घ	-1.064149
-5.28592	च ङ	-0.3392234
-3.249633	च च	-0.6424698
-3.696449	च छ	-0.9327672
-4.196519	च ज	-0.6387824
-5.051836	च झ	-0.5984098
-5.653896	च ञ	-0.5973845
-2.620607	च ट	-1.488195
-5.313244	च ठ	-0.2615837
-2.802231	च ड	-1.271792
-2.371879	च ढ	-1.360017
-3.629959	च ण	-1.280967
-1.876301	च त	-1.994278
-5.370299	च थ	0.07306217
-3.423448	च द	-0.8758474
-4.76929	च ध	-0.5969692
-1.322152	च न	-1.820817
-2.17557	च प	-1.913245
-4.852264	च फ	-0.3515056
-2.934565	च ब	-1.086769
-4.261786	च भ	-0.5954347
-2.014842	च म	-1.36412
-2.149924	च य	-1.352287
-1.476995	च र	-1.277166
-5.653896	च ऱ	-0.1653129
-1.087659	च ल	-2.312705
-2.556061	च व	-1.830739
-3.005211	च श	-2.237236
-4.733078	च ष	-0.9248204
-2.436588	च स	-1.89862
-2.66877	च ह	-1.541154
-4.518234	च ़	-0.5657327
-0.6035993	च ा	-1.618434
-1.095672	च ि	-2.145089
-1.341853	च ी	-1.616693
-1.221751	च ु	-3.023093
-1.998054	च ू	-1.749331
-4.788595	च ॅ	-0.5408717
-4.98489	च ॆ	-0.4449333
-1.276688	च े	-0.8536754
-1.837125	च ै	-1.577254
-3.50059	च ॉ	-1.752645
-5.176775	च ॊ	-0.3859829
-1.638635	च ो	-1.691122
-1.830379	च ौ	-2.487847
-1.061912	च ्	-2.869273
-5.829988	च ॒
-5.432048	च ॔	0
-5.829988	च ख़
-3.395419	च ड़	-1.354034
-2.761245	च ढ़	-0.929485
-5.829988	च फ़
-5.370299	च ॥	0.4343049
-4.311474	च ०	0.5948281
-5.370299	च ॰	-0.119059
-0.4749352	छ </s>
-3.803241	छ ँ	-1.317022
-2.470172	छ ं	-1.455973
-2.785296	छ ः	-1.621164
-5.609422	छ अ
-4.463294	छ आ	-0.2781792
-4.287202	छ इ	-0.6364716
-4.194448	छ ई	-0.2225273
-5.308392	छ उ
-4.791648	छ ऊ	-0.6545792
-4.1323	छ ए	-1.332208
-5.308392	छ ऐ	0.6421392
-4.848703	छ ओ	-0.06036978
-4.791648	छ औ	1.345317
-2.519163	छ क	-1.38606
-5.1323	छ ख	-0.5674191
-3.600821	छ ग	-1.048368
-5.1323	छ घ	-0.5718089
-4.568029	छ ङ	-0.1355869
-5.609422	छ च
-3.664939	छ छ	-0.5517955
-3.645634	छ ज	-1.105059
-2.63399	छ ट	-1.270747
-2.548724	छ ठ	-1.696689
-2.165689	छ ड	-2.012297
-4.405302	छ ण	-0.05331784
-1.573272	छ त	-1.734331
-4.848703	छ थ	-0.3220962
-2.803921	छ द	-1.474123
-4.791648	छ ध	-0.7483398
-2.026677	छ न	-1.726627
-1.859299	छ प	-1.890144
-5.1323	छ फ
-3.157635	छ ब	-1.088132
-4.764323	छ भ	-0.3453282
-3.042395	छ म	-0.8721696
-4.104271	छ य	-0.3969938
-2.601247	छ र	-0.8596848
-1.197869	छ ल	-2.037535
-2.057484	छ व	-2.097564
-4.655179	छ श	-0.2712681
-5.609422	छ ष
-4.147024	छ स	-0.3117728
-1.939176	छ ह	-2.497001
-3.776913	छ ़	-0.7807434
-0.7803687	छ ा	-2.078838
-1.584116	छ ि	-2.100232
-1.30364	छ ी	-1.507061
-1.52531	छ ु	-2.153648
-1.614225	छ ू	-2.255604
-3.885146	छ ृ	-1.414804
-5.308392	छ ॅ	-0.2441761
-3.986172	छ ॆ	-0.9653109
-1.120237	छ े	-1.850154
-3.18291	छ ै	-0.5972879
-4.463294	छ ॉ	-0.1792611
-3.946664	छ ॊ	-1.041587
-0.9058034	छ ो	-2.529286
-3.012824	छ ौ	-1.07585
-2.503571	छ ्	-1.306651
-5.308392	छ ज़	-0.2689451
-2.503231	छ ड़	-1.819942
-1.038761	ज </s>
-4.458807	ज ँ	-1.214048
-2.385524	ज ं	-1.22612
-5.12336	ज ः	-0.6788301
-4.412155	ज अ	-0.24913
-4.674727	ज आ	-0.2546484
-4.107122	ज इ	-0.631528
-3.983181	ज ई	-0.5885857
-4.682151	ज उ	0.006681204
-5.21513	ज ऊ	-0.4947354
-5.404186	ज ऋ	-0.861215
-4.24968	ज ए	-0.0523023
-5.542489	ज ऐ	0.356586
-4.176066	ज ओ	-0.7603514
-5.491337	ज औ	0.7985221
-2.27476	ज क	-1.548745
-3.480377	ज ख	-1.236739
-1.801131	ज ग	-2.409182
-3.580475	ज घ	-2.157632
-5.366398	ज ङ	0.00682199
-4.185508	ज च	-0.7984247
-5.299451	ज छ	-0.5173104
-2.904999	ज ज	-1.616023
-5.542489	ज झ	-0.1909181
-2.66866	ज ट	-1.662315
-4.467855	ज ठ	-1.568749
-2.910538	ज ड	-1.609013
-4.542489	ज ण	-0.1738194
-2.302846	ज त	-1.296984
-4.773481	ज थ	-1.37167
-2.365964	ज द	-1.73373
-2.949896	ज ध	-2.756819
-1.187093	ज न	-1.239501
-5.968458	ज ऩ	-0.6009943
-2.234646	ज प	-1.555874
-3.430219	ज फ	-1.977981
-1.375486	ज ब	-2.628235
-3.547952	ज भ	-1.064194
-1.8151	ज म	-1.772105
-2.080035	ज य	-1.748823
-1.488887	ज र	-2.368253
-4.983181	ज ऱ	-0.3101066
-1.696183	ज ल	-1.278479
-2.049554	ज व	-2.036973
-3.097664	ज श	-1.343873
-5.083851	ज ष	-1.287524
-2.38375	ज स	-0.8974895
-1.734692	ज ह	-1.861851
-1.491926	ज ़	-0.9962378
-0.632175	ज ा	-2.590849
-1.055915	ज ि	-2.654413
-1.049704	ज ी	-1.872456
-1.742253	ज ु	-1.994321
-1.867089	ज ू	-2.216208
-5.627805	ज ृ	-0.4684688
-5.21513	ज ॅ	-0.2064013
-5.366398	ज ॆ	-0.3879759
-1.605034	ज े	-0.7749691
-1.581721	ज ै	-1.644855
-2.961849	ज ॉ	-1.514116
-5.014215	ज ॊ	-0.5734544
-1.164448	ज ो	-1.36846
-3.253012	ज ौ	-1.423536
-1.311086	ज ्	-2.557975
-6.445579	ज ॑
-6.445579	ज क़
-5.030606	ज ख़	-1.358366
-5.684861	ज ग़	-0.6016659
-4.20503	ज ज़	-1.285202
-3.226781	ज ड़	-0.6521747
-4.570518	ज फ़	-1.467171
-5.746609	ज ॥	0.01250976
-5.684861	ज ०	0.05665445
-0.8506353	झ </s>
-3.77556	झ ँ	-0.8709053
-1.834951	झ ं	-1.749242
-4.462937	झ अ	-0.7596098
-5.28071	झ आ
-4.979681	झ इ	-0.2840886
-4.519992	झ ई	-0.1158365
-4.025438	झ उ	-0.3514013
-4.435612	झ ए	0.02530812
-1.65581	झ क	-1.361528
-3.938288	झ ख	-0.5381969
-1.927371	झ ग	-2.176235
-5.28071	झ घ
-4.979681	झ ङ
-3.47453	झ ज	-1.054816
-3.724408	झ झ	-0.6211125
-4.519992	झ ञ	-0.3516806
-1.7545	झ ट	-2.086622
-4.58174	झ ठ	-0.6965498
-2.496093	झ ड	-1.067993
-5.28071	झ ढ
-2.958491	झ ण	-1.273815
-1.446544	झ त	-2.850928
-4.979681	झ थ
-1.994928	झ द	-2.698021
-3.302987	झ ध	-1.874128
-1.330443	झ न	-2.003938
-2.295733	झ प	-1.964761
-2.909642	झ ब	-1.478044
-4.435612	झ भ	-0.1472656
-2.162115	झ म	-1.550259
-3.938288	झ य	-0.5600649
-2.155229	झ र	-0.7939566
-1.87281	झ ल	-1.577047
-3.599469	झ व	-0.5517586
-4.28071	झ श	-0.2983387
-5.28071	झ ष
-1.587335	झ स	-2.237799
-4.201529	झ ह	-0.4311172
-4.134583	झ ़	-0.1684292
-0.8056787	झ ा	-1.682685
-1.796981	झ ि	-1.83728
-1.638345	झ ी	-1.265177
-1.507143	झ ु	-2.240276
-1.439664	झ ू	-2.069165
-4.979681	झ ृ	-0.2777747
-4.519992	झ ॆ	-0.01857749
-0.4876607	झ े	-2.161628
-3.637258	झ ै	-0.3813859
-3.724408	झ ॉ	-0.8481879
-4.519992	झ ॊ	-0.1176583
-1.62538	झ ो	-1.629531
-1.713331	झ ौ	-2.394957
-3.276389	झ ्	-0.3711687
-2.689646	झ ड़	-1.048755
-1.034554	ञ </s>
-3.212041	ञ ं	-0.4665814
-3.771348	ञ ः	-0.3108534
-4.197317	ञ अ
-4.674438	ञ आ
-3.975469	ञ ई	0.005024374
-4.373409	ञ उ	-0.2702205
-4.674438	ञ ओ
-3.294227	ञ क	-0.3890139
-3.91372	ञ घ	-0.5718089
-3.91372	ञ छ	-0.4248716
-3.419166	ञ ज	-0.3088835
-4.197317	ञ ट
-4.373409	ञ ठ	-0.2046146
-3.91372	ञ ड	-0.2198676
-3.419166	ञ ढ	-0.2859348
-4.674438	ञ ण
-1.955937	ञ त	-2.141564
-4.674438	ञ थ
-3.470319	ञ द	-0.805365
-4.373409	ञ ध	-0.2800699
-3.169289	ञ न	-0.6137027
-2.085607	ञ प	-2.035504
-4.674438	ञ फ
-3.91372	ञ ब	-0.5729315
-3.975469	ञ भ	-0.3898922
-3.595257	ञ म	-0.2652283
-3.856665	ञ य	-0.1994012
-3.856665	ञ र	-0.07988748
-4.373409	ञ ल	-0.2230792
-2.674438	ञ व	-1.029388
-3.155925	ञ श	-0.99954
-3.118136	ञ स	-0.7078093
-3.44399	ञ ह	-0.8744813
-0.09201156	ञ ा	-2.391606
-3.212041	ञ ि	-0.3900772
-2.896287	ञ ी	-1.188201
-4.674438	ञ ु
-1.759567	ञ े	-1.528565
-4.373409	ञ ै
-1.391816	ञ ो	-2.189753
-4.674438	ञ ौ
-1.970288	ञ ्	-1.792098
-0.5616708	ट </s>
-3.969684	ट ँ	-0.7343704
-2.699289	ट ं	-1.452675
-4.240979	ट ः	-0.5805023
-3.599271	ट अ	-0.4350168
-3.682552	ट आ	-0.7331108
-3.055203	ट इ	-0.9459647
-3.832938	ट ई	-0.3327565
-4.40139	ट उ	0.2308382
-5.032094	ट ऊ	-0.1724041
-5.596366	ट ऋ	0.01155658
-4.036061	ट ए	0.2977484
-5.255713	ट ऐ	0.5369114
-5.032094	ट ओ	-0.02364264
-4.959544	ट औ	0.6388212
-1.565739	ट क	-1.342245
-3.008655	ट ख	-1.390273
-3.331548	ट ग	-1.082258
-3.266629	ट घ	-1.272273
-3.352502	ट च	-0.5949445
-4.052298	ट छ	-0.8933747
-3.482423	ट ज	-0.7327189
-5.170397	ट झ	-0.04813306
-2.866662	ट ट	-0.95258
-3.592045	ट ठ	-1.248037
-3.083148	ट ड	-1.07647
-5.772458	ट ढ	-0.2718719
-4.119245	ट ण	-0.9137753
-2.066166	ट त	-1.69634
-5.073487	ट थ	-0.1927904
-3.60662	ट द	-1.013056
-4.133968	ट ध	-1.039894
-1.388768	ट न	-1.869791
-2.363201	ट प	-1.747508
-2.882316	ट फ	-1.493919
-2.587908	ट ब	-0.9172372
-3.482423	ट भ	-0.7773519
-1.998671	ट म	-1.515718
-3.265276	ट य	-0.708014
-1.163493	ट र	-0.6578879
-1.89253	ट ल	-1.339494
-2.190565	ट व	-2.030796
-3.673814	ट श	-1.029166
-5.073487	ट ष	-0.1875646
-2.583248	ट स	-1.128346
-2.833938	ट ह	-0.8337125
-4.693276	ट ़	-0.3295926
-1.045079	ट ा	-1.140242
-1.104426	ट ि	-1.812386
-0.963285	ट ी	-1.370467
-2.250339	ट ु	-2.30684
-1.808646	ट ू	-2.009815
-4.517185	ट ृ	-0.4841056
-4.410729	ट ॅ	-0.4926399
-4.186996	ट ॆ	-0.3378284
-1.099985	ट े	-0.9953253
-2.137879	ट ै	-1.692481
-2.38694	ट ॉ	-0.8605093
-4.302635	ट ॊ	-0.6255826
-1.508561	ट ो	-1.874282
-3.051472	ट ौ	-1.545866
-0.9731341	ट ्	-2.463811
-5.772458	ट ॔	0.4919352
-5.596366	ट क़	-0.5372862
-5.032094	ट ख़	-1.075776
-5.772458	ट ज़
-3.994306	ट फ़	-0.691036
-5.032094	ट य़	-1.015807
-5.228389	ट ॥	-0.2267607
-0.7662484	ठ </s>
-3.817849	ठ ँ	-1.112681
-1.89357	ठ ं	-2.290005
-5.085021	ठ ः	0.3571731
-4.386051	ठ अ	-0.1506556
-3.695855	ठ आ	-0.7072393
-4.540953	ठ इ	-0.5382001
-3.670048	ठ ई	-0.4075574
-4.181931	ठ उ	-0.5436795
-4.625333	ठ ए	-0.4429065
-5.386051	ठ ऐ
-5.386051	ठ ओ
-5.386051	ठ औ
-1.149715	ठ क	-1.383059
-3.332973	ठ ख	-1.541316
-2.241788	ठ ग	-1.445744
-3.148005	ठ घ	-1.726504
-4.20996	ठ च	-0.1122271
-5.386051	ठ छ
-2.640196	ठ ज	-1.367701
-5.386051	ठ झ
-3.723293	ठ ट	-0.661429
-3.233763	ठ ठ	-0.8793008
-3.817849	ठ ड	-0.7496053
-5.085021	ठ ढ	-0.2769952
-2.66838	ठ ण	-1.55921
-1.54176	ठ त	-1.879288
-3.179225	ठ द	-1.416767
-3.615199	ठ ध	-1.053775
-1.151939	ठ न	-2.111023
-4.90893	ठ ऩ	-0.1339182
-2.336446	ठ प	-1.352206
-4.043628	ठ फ	-0.5312133
-2.078555	ठ ब	-2.281651
-2.172799	ठ भ	-2.145811
-2.740629	ठ म	-0.9648569
-3.047595	ठ य	-0.9155386
-2.41944	ठ र	-1.364679
-2.313801	ठ ल	-1.330873
-2.314906	ठ व	-1.437191
-2.796102	ठ श	-1.820223
-5.085021	ठ ष
-2.612996	ठ स	-0.7326661
-1.659405	ठ ह	-2.596956
-4.90893	ठ ़	-0.1461158
-0.6650158	ठ ा	-1.782042
-1.281427	ठ ि	-2.129143
-0.855109	ठ ी	-1.469445
-2.221698	ठ ु	-2.040012
-2.431808	ठ ू	-1.342448
-5.386051	ठ ृ
-5.386051	ठ ॆ
-1.014245	ठ े	-1.736531
-3.329146	ठ ै	-0.996877
-5.386051	ठ ॉ
-4.625333	ठ ॊ	-0.1164617
-1.415007	ठ ो	-1.919957
-2.435686	ठ ौ	-2.180567
-1.905182	ठ ्	-1.707769
-4.90893	ठ क़	-0.5509943
-5.386051	ठ ज़
-3.880901	ठ ड़	-1.11751
-5.386051	ठ ढ़
-5.386051	ठ फ़
-4.625333	ठ य़	-0.6010089
-4.90893	ठ ॥	0.188601
-5.085021	ठ ०	0.1267946
-0.8498317	ड </s>
-4.587312	ड ँ	-0.6699587
-2.461908	ड ं	-1.447236
-4.462373	ड ः	-0.7968073
-4.096618	ड अ	-0.5649698
-3.788958	ड आ	-0.678968
-3.7192	ड इ	-0.4062116
-3.664019	ड ई	-0.8905639
-4.587312	ड उ	-0.3151053
-4.763403	ड ऊ	-1.065394
-4.006442	ड ए	0.07452321
-5.43241	ड ऐ	-0.1600974
-4.494558	ड ओ	-0.7204822
-4.763403	ड औ	1.019804
-1.875465	ड क	-1.314458
-3.779198	ड ख	-1.264362
-2.668483	ड ग	-1.822426
-4.705411	ड घ	-0.4642335
-3.435315	ड च	-1.025826
-3.970012	ड छ	-1.110536
-3.435315	ड ज	-0.4794827
-4.705411	ड झ	-1.101595
-3.080872	ड ट	-1.012219
-5.43241	ड ठ	-0.1631846
-3.468622	ड ड	-0.7848619
-4.318467	ड ढ	-0.247682
-3.7192	ड ण	-0.6689855
-2.388393	ड त	-1.720566
-4.654259	ड थ	-0.8357366
-3.708134	ड द	-0.4036598
-3.95049	ड ध	-1.078605
-2.093688	ड न	-1.05685
-3.11714	ड ऩ	-1.362625
-2.526075	ड प	-1.652828
-3.343684	ड फ	-0.5302553
-2.268454	ड ब	-1.808423
-3.788958	ड भ	-0.3428412
-2.232107	ड म	-1.450326
-2.899231	ड य	-1.195138
-1.498181	ड र	-1.661976
-1.723084	ड ल	-1.511924
-2.107374	ड व	-1.289746
-3.398986	ड श	-0.9912005
-4.795588	ड ष	-0.4582282
-2.385265	ड स	-1.29887
-3.256319	ड ह	-0.4107636
-0.4664391	ड ़	-1.236489
-1.036554	ड ा	-0.7700284
-0.9782465	ड ि	-2.188542
-1.217999	ड ी	-0.9642584
-2.301862	ड ु	-2.081048
-2.058212	ड ू	-1.649981
-5.608501	ड ृ
-4.447134	ड ॅ	-0.3279373
-3.970012	ड ॆ	-0.2619146
-1.254653	ड े	-0.7478952
-2.641891	ड ै	-0.8178012
-1.654476	ड ॉ	-0.6036663
-3.656678	ड ॊ	-0.9611308
-1.682288	ड ो	-1.505425
-3.290438	ड ौ	-1.195373
-1.54686	ड ्	-2.070652
-3.716407	ड क़	-1.400221
-4.494558	ड ख़	-0.6514533
-4.177138	ड ग़	-0.9130481
-4.547803	ड ज़	-0.9561918
-5.909532	ड ड़
-5.909532	ड ढ़
-4.296748	ड फ़	-0.2078508
-4.83035	ड य़	-0.3835847
-5.909532	ड ॥
-5.43241	ड ०	0.2443895
-5.608501	ड ॰	0.313785
-1.35109	ढ </s>
-3.025849	ढ ँ	-0.6823576
-1.507725	ढ ं	-2.098417
-4.395464	ढ अ	-0.1192867
-4.395464	ढ आ	-0.3349032
-4.679061	ढ इ	-0.5999326
-3.855153	ढ ई	-0.1780992
-3.90091	ढ उ	-0.5523023
-3.576399	ढ ऊ	-1.144004
-4.855153	ढ ए	-0.01786989
-1.730648	ढ क	-1.428683
-4.311084	ढ ख	-0.1999893
-3.693784	ढ ग	-0.6210325
-4.679061	ढ घ
-5.156183	ढ ङ
-3.576399	ढ च	-1.525816
-4.395464	ढ छ	-0.1199412
-4.338409	ढ ज	-0.02468066
-3.877429	ढ झ	-1.227151
-4.855153	ढ ञ
-4.679061	ढ ट
-5.156183	ढ ठ
-5.156183	ढ ड
-3.741209	ढ ढ	-0.6099576
-4.20194	ढ ण	0.2547612
-1.661471	ढ त	-2.693902
-3.925734	ढ द	-0.7265748
-5.156183	ढ ध
-1.489665	ढ न	-2.068816
-2.501044	ढ ऩ	-1.52567
-3.330108	ढ प	-1.125064
-3.269692	ढ ब	-0.8018496
-5.156183	ढ भ
-3.084301	ढ म	-0.8789188
-3.543399	ढ य	-1.381228
-2.792571	ढ र	-1.086316
-2.048633	ढ ल	-1.363687
-2.67474	ढ व	-1.28015
-5.156183	ढ श
-3.035609	ढ स	-1.251697
-2.289895	ढ ह	-1.649913
-0.2479711	ढ ़	-1.177084
-1.029629	ढ ा	-1.618957
-1.608162	ढ ि	-1.494952
-1.597114	ढ ी	-1.047759
-2.553038	ढ ु	-1.234168
-1.488263	ढ ू	-2.420514
-4.156183	ढ ृ	-0.2656443
-5.156183	ढ ॅ
-1.261866	ढ े	-1.584688
-3.269692	ढ ै	-0.5086073
-4.156183	ढ ॉ	-0.9388341
-4.395464	ढ ॊ	-0.1897009
-1.677616	ढ ो	-1.319337
-3.448612	ढ ौ	-0.9465222
-2.380936	ढ ्	-1.07855
-3.664821	ढ क़	-1.470075
-5.156183	ढ ग़
-5.156183	ढ ज़
-5.156183	ढ ढ़
-5.156183	ढ ॰
-0.2471279	ण </s>
-5.315279	ण ँ
-3.591003	ण ं	-0.7370335
-3.816968	ण ः	-1.162791
-3.574916	ण अ	-0.2467964
-3.482769	ण आ	-0.743849
-4.084829	ण इ	0.2697691
-4.713219	ण ई	0.1034454
-3.926112	ण उ	0.02696157
-4.273886	ण ऊ	-1.322349
-5.616309	ण ऋ
-4.337555	ण ए	-0.3995676
-5.315279	ण ऐ
-4.616309	ण ओ	-0.1074657
-4.85559	ण औ	1.396408
-2.200001	ण क	-0.8777052
-3.247093	ण ख	-1.33507
-2.804734	ण ग	-1.977002
-3.629537	ण घ	-1.336946
-5.315279	ण ङ	-0.1714913
-3.489204	ण च	-0.4922679
-4.025244	ण छ	-0.6980749
-2.946992	ण ज	-0.9153162
-4.574916	ण झ	-0.4890171
-4.771211	ण ट	-0.2362376
-5.315279	ण ठ	-0.1803858
-4.440217	ण ड	-0.1657755
-4.616309	ण ढ	-0.5749362
-4.273886	ण ण	0.03268296
-2.064005	ण त	-1.331622
-3.790234	ण थ	-1.520766
-2.972856	ण द	-0.813459
-2.96503	ण ध	-1.882704
-1.745905	ण न	-1.724222
-5.616309	ण ऩ
-2.27646	ण प	-1.46288
-4.337555	ण फ	-0.5929334
-2.577291	ण ब	-1.216252
-3.024132	ण भ	-1.391049
-2.330976	ण म	-0.6893129
-1.765723	ण य	-0.9755781
-2.85064	ण र	-1.586359
-3.485975	ण ल	-0.7316266
-1.930835	ण व	-1.581346
-3.245241	ण श	-0.528723
-4.85559	ण ष	-0.1215966
-2.411646	ण स	-1.155781
-3.337555	ण ह	-0.5071543
-1.046689	ण ा	-1.872319
-1.379243	ण ि	-1.963351
-1.115304	ण ी	-1.073318
-1.748664	ण ु	-1.904181
-3.586925	ण ू	-0.7622243
-5.315279	ण ॅ	-0.2426092
-4.917338	ण ॆ	-0.4403726
-2.059283	ण े	-1.183464
-3.741247	ण ै	-0.08112961
-4.798535	ण ॉ	-0.7720978
-3.944211	ण ॊ	-1.546158
-1.483217	ण ो	-2.229735
-4.315279	ण ौ	-0.6135537
-1.120556	ण ्	-2.144167
-5.616309	ण क़
-5.616309	ण ज़
-5.616309	ण फ़
-4.771211	ण य़	-0.9709248
-4.502365	ण ॥	-0.355467
-5.616309	ण ॰
-0.729521	त </s>
-4.781511	त ँ	-1.043769
-2.167066	त ं	-2.372912
-2.800833	त ः	-2.000626
-3.935732	त अ	-0.7981181
-4.147266	त आ	-0.6385272
-4.597538	त इ	-0.4436482
-3.502757	त ई	-1.390279
-4.37694	त उ	-0.09481406
-5.536432	त ऊ	-0.4677854
-5.564461	त ऋ	-0.8430921
-4.031282	त ए	-0.326092
-5.661371	त ऐ	0.7707581
-4.727715	त ओ	-0.1150237
-5.564461	त औ	0.5766733
-1.594443	त क	-1.537218
-3.539428	त ख	-1.024119
-3.373943	त ग	-1.563868
-4.654192	त घ	-0.8256905
-5.895454	त ङ	-0.06669259
-2.874442	त च	-1.718236
-5.149487	त छ	-0.07894027
-2.752573	त ज	-1.013328
-4.305984	त झ	-1.567869
-5.979834	त ञ	-0.2738361
-3.190691	त ट	-1.857705
-5.979834	त ठ	-0.601
-3.639493	त ड	-1.540057
-5.979834	त ढ
-4.927639	त ण	-0.3900884
-2.502757	त त	-1.472963
-2.148453	त थ	-2.262168
-3.048234	त द	-0.9236777
-4.5762	त ध	-0.1401392
-1.641947	त न	-1.319914
-2.830141	त प	-1.114753
-3.647131	त फ	-1.242709
-2.108298	त ब	-1.272667
-2.741161	त भ	-1.389234
-2.175437	त म	-1.570535
-2.707491	त य	-1.013837
-1.332056	त र	-1.641709
-5.325579	त ऱ	-1.085942
-2.180407	त ल	-1.860093
-2.409246	त व	-1.162793
-3.528365	त श	-0.6701171
-5.564461	त ष	0.1742142
-2.659169	त स	-0.8262804
-2.55771	त ह	-0.5202284
-4.79607	त ़	-0.4861437
-0.7224654	त ा	-1.016221
-1.140428	त ि	-0.8970096
-1.114502	त ी	-1.942645
-1.680247	त ु	-1.27842
-2.568329	त ू	-1.620585
-2.737135	त ृ	-1.717947
-6.041582	त ॅ	-0.3543332
-5.398129	त ॆ	-0.2815561
-1.00084	त े	-1.577039
-2.349088	त ै	-1.822029
-4.466394	त ॉ	-1.145957
-5.050356	त ॊ	-0.9022218
-1.10566	त ो	-1.819658
-2.439718	त ौ	-2.618456
-0.970095	त ्	-2.920711
-6.041582	त ॑	-0.1152715
-5.979834	त ॒
-4.478101	त क़	-1.187397
-4.791162	त ख़	-1.234385
-5.564461	त ग़	-0.6295538
-3.733659	त ज़	-1.976413
-3.839094	त ड़	-1.057396
-4.428799	त फ़	-1.172035
-6.740552	त य़
-6.740552	त ॠ
-5.398129	त ॥	-0.08186471
-5.309188	त ०	0.08164787
-0.7398447	थ </s>
-5.010746	थ ँ	-0.5171332
-3.774657	थ ं	-0.655361
-4.274792	थ ः	-1.046807
-4.408686	थ अ	-0.2243131
-4.362928	थ आ	-0.4497073
-4.567049	थ इ	-0.225996
-3.659637	थ ई	-0.8141413
-4.73454	थ उ	0.01253968
-5.964989	थ ऊ
-4.686235	थ ए	0.09303963
-5.119891	थ ऐ	-0.08906651
-4.923596	थ ओ	0.3679767
-5.119891	थ औ	0.7353429
-1.932974	थ क	-1.046986
-4.851045	थ ख	-1.005994
-3.059732	थ ग	-1.628764
-5.147215	थ घ	-0.6960644
-5.487867	थ ङ	-0.1240269
-4.292891	थ च	-0.5097348
-4.885807	थ छ	-0.2335012
-3.560155	थ ज	-1.126384
-5.119891	थ झ	-0.9435426
-5.964989	थ ञ
-4.362928	थ ट	-0.4493453
-4.923596	थ ठ	-1.034978
-3.469444	थ ड	-0.8342621
-5.663959	थ ण	-0.2520005
-3.072337	थ त	-0.9105241
-5.147215	थ थ	-0.2144407
-3.885807	थ द	-1.118621
-4.433509	थ ध	-0.7580453
-1.886133	थ न	-1.382196
-2.603638	थ प	-1.453832
-4.473627	थ फ	-0.1539306
-3.719476	थ ब	-0.9118223
-4.025469	थ भ	-0.868148
-2.016136	थ म	-1.655702
-3.122379	थ य	-0.7606839
-2.027772	थ र	-1.35947
-5.964989	थ ऱ
-2.09947	थ ल	-1.719496
-2.019372	थ व	-2.024168
-2.874378	थ श	-1.996923
-5.964989	थ ष
-2.304787	थ स	-1.565618
-3.636609	थ ह	-0.677878
-4.923596	थ ़	-1.026021
-0.4451474	थ ा	-1.519072
-1.120015	थ ि	-2.426406
-0.8772177	थ ी	-1.981844
-2.635387	थ ु	-1.782058
-2.807834	थ ू	-2.192706
-4.760869	थ ॅ	-0.7064872
-5.010746	थ ॆ	0.1553404
-0.9196225	थ े	-0.8823993
-2.879698	थ ै	-1.230422
-3.094585	थ ॉ	-2.070507
-5.010746	थ ॊ	-0.5180197
-1.536125	थ ो	-2.078849
-3.514739	थ ौ	-1.410364
-1.695172	थ ्	-2.3459
-5.964989	थ ॒
-4.03557	थ ड़	-0.6938285
-5.663959	थ ॥	0.504445
-5.964989	थ ०
-5.266018	थ ॰	-0.7082461
-0.827792	द </s>
-4.664826	द ँ	-0.6585778
-2.55253	द ं	-1.638124
-3.765197	द ः	-0.2725217
-4.187705	द अ	-0.250179
-4.346895	द आ	-0.4081965
-4.407262	द इ	-0.1433279
-4.308831	द ई	-0.5555634
-4.594935	द उ	-0.1608698
-5.121744	द ऊ	-0.1888483
-6.464167	द ऋ
-4.216193	द ए	-0.1076388
-4.987045	द ऐ	-0.7403408
-4.959017	द ओ	0.01598728
-5.001769	द औ	0.7835706
-2.128689	द क	-1.372576
-3.256802	द ख	-1.586403
-2.145874	द ग	-2.295824
-3.84299	द घ	-1.670204
-6.464167	द ङ
-3.836801	द च	-0.8549747
-5.121744	द छ	0.04351896
-3.504648	द ज	-0.7074186
-5.561077	द झ	-0.5198857
-5.083955	द ट	-0.3241513
-5.987045	द ठ	-0.06279092
-3.68674	द ड	-1.403383
-4.851383	द ढ	-0.7350176
-3.395239	द ण	-1.631562
-2.369975	द त	-1.404948
-5.703448	द थ	-0.2728006
-2.299695	द द	-1.461319
-4.216193	द ध	-0.4332677
-1.896634	द न	-1.139255
-3.180639	द प	-0.9618555
-2.847481	द फ	-1.906467
-2.275266	द ब	-1.575248
-3.204095	द भ	-0.8508124
-1.819856	द म	-1.4786
-2.35029	द य	-0.8731077
-1.370496	द र	-1.271153
-1.716374	द ल	-1.877458
-2.335509	द व	-1.071892
-2.342508	द श	-1.313016
-4.509924	द ष	-1.324017
-1.954239	द स	-1.268965
-2.696788	द ह	-0.850107
-4.468532	द ़	-0.4378832
-1.000366	द ा	-1.516695
-0.8697818	द ि	-2.067935
-1.13058	द ी	-1.627744
-1.489323	द ु	-2.667189
-1.424804	द ू	-1.870793
-2.284557	द ृ	-2.155649
-5.509924	द ॅ	-0.3229743
-4.810954	द ॆ	-0.1589707
-0.7849696	द े	-0.4668152
-2.692579	द ै	-1.705217
-4.932688	द ॉ	-0.8337486
-5.141947	द ॊ	-0.2549452
-1.290264	द ो	-1.44324
-1.902362	द ौ	-2.803222
-1.078498	द ्	-2.850384
-6.464167	द ॑
-5.765197	द ॒	-0.2110869
-6.163136	द क़
-5.318038	द ख़	-1.172082
-5.619069	द ग़	-0.5261864
-5.509924	द ज़	-0.1490972
-4.057626	द ड़	-0.9188879
-5.509924	द ढ़	-0.9280326
-3.675998	द फ़	-1.835751
-6.464167	द ॠ
-5.987045	द ॢ	-0.5713912
-5.619069	द ॥	0.4703526
-5.987045	द ०	0.02300866
-0.8620782	ध </s>
-3.826962	ध ँ	-1.995523
-2.35344	ध ं	-1.505078
-4.304083	ध ः	-0.5895672
-4.450211	ध अ	-0.08439359
-4.592878	ध आ	-0.08318125
-4.46794	ध इ	-0.6105044
-4.257086	ध ई	-0.0005272627
-4.644031	ध उ	-0.1576291
-5.547121	ध ऊ
-4.505728	ध ए	-0.2312786
-5.547121	ध ऐ
-5.087432	ध ओ	0.179541
-5.030377	ध औ	0.9746133
-1.903372	ध क	-1.31454
-4.015642	ध ख	-1.000503
-3.683798	ध ग	-0.9635355
-4.214683	ध घ	-0.8353636
-4.945061	ध ङ	-0.2855805
-3.97309	ध च	-0.5790521
-4.848151	ध छ	-0.9626536
-3.04333	ध ज	-1.81793
-3.950524	ध ट	-0.712138
-2.534073	ध ड	-1.610335
-5.547121	ध ढ	0.07526937
-4.185393	ध ण	-0.3921543
-1.992935	ध त	-1.905494
-5.848151	ध थ
-3.351221	ध द	-1.270266
-3.523869	ध ध	-1.579105
-1.153326	ध न	-1.190111
-5.848151	ध ऩ
-2.649769	ध प	-1.295924
-5.087432	ध फ
-2.914158	ध ब	-1.418316
-3.501798	ध भ	-1.097392
-2.050261	ध म	-1.230355
-3.018847	ध य	-0.8565638
-1.178221	ध र	-1.792906
-4.194938	ध ऱ	-0.7694595
-2.864074	ध ल	-1.282475
-2.176793	ध व	-1.465905
-3.231151	ध श	-1.433913
-5.547121	ध ष	-0.2009895
-2.999346	ध स	-0.8292621
-3.530087	ध ह	-0.9907842
-4.486423	ध ़	-0.9744353
-0.6732135	ध ा	-2.146295
-0.7548308	ध ि	-2.353728
-1.1194	ध ी	-1.797558
-1.523046	ध ु	-2.526109
-1.852253	ध ू	-2.022942
-2.97078	ध ृ	-2.12772
-5.087432	ध ॆ	-0.1096938
-1.489265	ध े	-0.9561327
-2.726591	ध ै	-1.679741
-5.848151	ध ॊ
-1.683441	ध ो	-1.740387
-2.975995	ध ौ	-1.278211
-0.9863299	ध ्	-3.013805
-5.848151	ध ज़
-2.935929	ध ड़	-0.9014109
-5.848151	ध य़
-5.848151	ध ॢ
-5.547121	ध ॥	0.504445
-0.6670754	न </s>
-4.947569	न ँ	-1.248456
-2.508984	न ं	-1.805488
-3.470448	न ः	-1.35399
-4.031471	न अ	-0.08276451
-3.696886	न आ	-0.6762127
-4.061688	न इ	-0.08694971
-2.59276	न ई	-1.839338
-4.156885	न उ	-0.2851484
-3.138465	न ऊ	-1.986331
-6.33968	न ऋ
-2.664941	न ए	-1.167047
-4.935987	न ऐ	0.4572937
-4.277725	न ओ	-0.229653
-4.977952	न औ	0.7868789
-1.468909	न क	-1.500355
-3.517076	न ख	-1.211009
-2.53554	न ग	-1.731477
-4.096642	न घ	-1.100806
-6.816801	न ङ
-3.161566	न च	-1.139361
-4.371197	न छ	-0.8363969
-2.319761	न ज	-1.164236
-4.261706	न झ	-1.178106
-5.971703	न ञ	-0.7830475
-3.029907	न ट	-0.8649365
-5.100798	न ठ	-1.017324
-3.340694	न ड	-1.259364
-5.418861	न ढ	-0.1591689
-5.385437	न ण	-0.4881556
-1.884652	न त	-1.195744
-4.254508	न थ	-0.09802008
-2.317774	न द	-1.129987
-3.948745	न ध	-0.916139
-2.132566	न न	-1.037438
-2.626441	न प	-1.804783
-3.406361	न फ	-1.481625
-2.945345	न ब	-1.00832
-3.340404	न भ	-0.4665619
-2.104025	न म	-1.561166
-2.331633	न य	-1.355525
-2.301232	न र	-1.225205
-2.32109	न ल	-0.9684517
-2.131964	न व	-0.5335929
-2.75373	न श	-1.72608
-3.366706	न ष	-2.105378
-2.161125	न स	-0.8778789
-1.206622	न ह	-2.213468
-5.084407	न ़	-0.2548496
-0.8593636	न ा	-0.7123656
-1.254303	न ि	-1.265078
-1.181906	न ी	-1.821131
-1.867875	न ु	-2.012178
-2.411284	न ू	-2.139761
-3.572276	न ृ	-2.027788
-5.272733	न ॅ	-0.3685768
-5.225736	न ॆ	-0.2918683
-0.6570392	न े	-1.693984
-2.769137	न ै	-0.9302871
-3.427635	न ॉ	-1.318598
-5.225736	न ॊ	-0.4572894
-1.62705	न ो	-1.143743
-2.448365	न ौ	-2.256607
-1.13788	न ्	-2.736695
-6.816801	न ॑
-4.676922	न क़	-0.9100154
-5.298287	न ख़	-0.752082
-5.737619	न ग़	-0.5086262
-3.232583	न ज़	-2.359464
-4.990726	न ड़	-0.4954438
-6.515771	न ढ़
-4.284047	न फ़	-0.7020585
-6.816801	न य़
-5.225736	न ॥	-0.3453206
-4.93031	न ०	0.1728224
-5.385437	न ॰	-0.3730081
-1.114654	ऩ </s>
-3.087781	ऩ अ
-3.087781	ऩ आ
-2.786752	ऩ ए
-2.270008	ऩ क	-0.05544701
-3.087781	ऩ छ
-2.270008	ऩ ज	-0.3931241
-2.61066	ऩ ड	-0.574941
-3.087781	ऩ त
-3.087781	ऩ द
-2.046389	ऩ फ	-0.909197
-2.61066	ऩ ब	-0.5835503
-3.087781	ऩ य
-2.61066	ऩ र	-0.4138189
-2.61066	ऩ व	-0.5874247
-2.61066	ऩ ह	-0.5339389
-0.7573677	ऩ ा	-1.212525
-2.087781	ऩ ि	-1.136466
-1.656418	ऩ ी	-0.8625183
-1.786751	ऩ ु	-0.9450181
-3.087781	ऩ ू
-0.1874143	ऩ े	-1.81961
-3.087781	ऩ ो
-1.973838	ऩ ्	-0.6255293
-3.087781	ऩ ज़
-1.181234	प </s>
-3.952271	प ँ	-0.5576745
-2.036262	प ं	-0.6531096
-5.234131	प ः	-0.3873749
-4.364366	प अ	-0.4194853
-4.770374	प आ	-0.4690617
-4.271202	प इ	-0.5648711
-4.318875	प ई	-0.3433536
-4.86055	प उ	-0.2974702
-5.254334	प ऊ	-0.4965151
-2.72818	प ए	-1.761481
-5.877584	प ऐ	-0.2494153
-5.622311	प ओ	-0.1644902
-5.497372	प औ	0.6735834
-1.435032	प क	-1.783219
-3.778594	प ख	-1.20896
-3.127384	प ग	-1.474962
-4.805702	प घ	-0.6583902
-4.418191	प ङ	-0.4651811
-2.583823	प च	-2.095322
-3.554951	प छ	-0.825732
-3.065071	प ज	-1.486875
-5.114156	प झ	-0.485105
-4.632071	प ञ	-1.939807
-2.218638	प ट	-1.007292
-3.353577	प ठ	-1.505196
-1.911151	प ड	-1.942505
-2.036738	प ढ	-1.454957
-2.233933	प ण	-0.9588995
-1.450754	प त	-1.891168
-2.971464	प थ	-0.3217003
-2.20366	प द	-1.429004
-3.474807	प ध	-1.324586
-1.022883	प न	-2.283713
-5.877584	प ऩ	-0.6946912
-3.355139	प प	-0.9051403
-4.178614	प फ	-0.4093919
-3.021096	प ब	-1.735863
-3.062139	प भ	-2.177671
-2.675313	प म	-1.738572
-2.019179	प य	-1.485637
-0.765542	प र	-1.289582
-6.576554	प ऱ
-2.072749	प ल	-1.023495
-2.645706	प व	-1.453611
-2.444999	प श	-2.03383
-2.765717	प ष	-2.794636
-1.945292	प स	-1.710599
-1.36006	प ह	-2.389495
-3.883707	प ़	-1.315194
-1.010023	प ा	-1.264279
-1.664124	प ि	-2.271873
-1.553449	प ी	-0.9279187
-1.455411	प ु	-2.533683
-1.403379	प ू	-2.000014
-2.621588	प ृ	-2.839183
-4.459282	प ॅ	-1.07105
-5.622311	प ॆ	-0.23885
-1.72263	प े	-0.7681689
-1.882651	प ै	-1.357532
-2.809621	प ॉ	-2.579095
-5.14519	प ॊ	-0.4685391
-1.734082	प ो	-0.8424628
-2.809027	प ौ	-1.381504
-0.7857099	प ्	-3.165559
-6.576554	प ॑
-6.099432	प ॒	-0.5770577
-5.673464	प क़	-0.1546166
-6.275524	प ख़
-6.576554	प ग़
-5.346105	प ज़	-1.058515
-2.177001	प ड़	-1.227227
-2.35272	प ढ़	-1.452533
-5.673464	प फ़	-0.4070273
-6.576554	प य़
-5.815835	प ॥	0.4343049
-6.099432	प ०	0.2443895
-0.8449264	फ </s>
-2.978857	फ ँ	-2.092672
-1.991146	फ ं	-1.441909
-5.753374	फ ः
-4.3384	फ अ	-0.2654432
-2.857399	फ आ	-2.155957
-4.549254	फ इ	-0.3293062
-3.908276	फ ई	-0.5279641
-4.549254	फ उ	-0.2883649
-5.753374	फ ऊ
-2.918953	फ ए	-1.062521
-5.753374	फ ऐ
-3.749053	फ ओ	-1.289487
-5.054404	फ औ	0.9746133
-2.648205	फ क	-0.8931578
-3.486202	फ ख	-1.471778
-2.405459	फ ग	-2.037757
-5.276253	फ घ	-0.1277046
-5.452344	फ ङ	-0.2257635
-4.02098	फ च	-0.9865764
-5.452344	फ छ	-0.1090276
-2.800581	फ ज	-1.38835
-5.753374	फ झ
-4.9356	फ ञ	-0.7781053
-2.20229	फ ट	-1.177401
-2.719147	फ ड	-1.466706
-5.452344	फ ढ
-3.346834	फ ण	-1.077843
-2.314357	फ त	-1.346888
-5.054404	फ थ	-0.2049334
-3.303125	फ द	-1.026918
-5.452344	फ ध
-2.394108	फ न	-1.436075
-4.992656	फ ऩ	-0.08524143
-3.780246	फ प	-0.4173038
-3.41293	फ फ	-1.252869
-3.210548	फ ब	-1.380229
-5.276253	फ भ
-3.500521	फ म	-1.182837
-3.997499	फ य	-0.458605
-1.413863	फ र	-1.510952
-4.431155	फ ऱ	-0.2139223
-1.381438	फ ल	-1.846513
-2.84275	फ व	-1.331727
-3.975223	फ श	-0.7587521
-3.920865	फ ष	-1.207691
-1.737805	फ स	-1.935616
-2.671307	फ ह	-1.73517
-1.027234	फ ़	-0.9584212
-1.135378	फ ा	-2.04903
-0.6156623	फ ि	-2.462995
-1.196023	फ ी	-1.487007
-1.757256	फ ु	-2.835286
-1.694493	फ ू	-2.194405
-5.753374	फ ृ
-3.855747	फ ॅ	-0.7920033
-5.276253	फ ॆ
-1.402835	फ े	-0.6739724
-1.418478	फ ै	-1.952599
-2.155459	फ ॉ	-2.146148
-4.908276	फ ॊ	-0.2423124
-1.360396	फ ो	-2.186108
-2.370097	फ ौ	-2.055125
-1.164833	फ ्	-2.711742
-5.452344	फ क़
-5.054404	फ ग़	-0.7127994
-4.013011	फ ज़	-1.110523
-3.179343	फ ड़	-1.113804
-5.753374	फ ढ़
-4.992656	फ ०	-0.1890494
-5.054404	फ ॰	-0.6809708
-0.8423583	ब </s>
-3.370753	ब ँ	-2.083272
-1.609702	ब ं	-1.756289
-5.355655	ब ः	-0.1255401
-4.291821	ब अ	-0.3284054
-4.421999	ब आ	-0.5234647
-4.023216	ब इ	-0.3786933
-2.364761	ब ई	-1.43262
-4.471048	ब उ	-0.05870587
-4.957715	ब ऊ	-0.5125244
-4.310984	ब ए	0.1318233
-5.258745	ब ऐ	0.4440636
-4.832776	ब ओ	-0.3070368
-5.480593	ब औ	0.7527646
-1.861767	ब क	-1.553131
-2.91057	ब ख	-2.103517
-2.592414	ब ग	-2.027339
-3.74464	ब घ	-1.393748
-4.162994	ब ङ	-0.7701555
-1.618913	ब च	-2.608657
-3.939292	ब छ	-1.41246
-2.034453	ब ज	-1.839855
-5.112617	ब झ	-0.09016237
-6.434836	ब ञ
-2.737956	ब ट	-0.9548165
-4.439201	ब ठ	-0.6214635
-1.700869	ब ड	-2.414567
-1.825242	ब ढ	-2.112025
-4.151535	ब ण	-0.09555233
-1.58918	ब त	-1.745295
-4.439201	ब थ	-0.6826676
-1.77073	ब द	-1.533419
-2.416343	ब ध	-1.365755
-1.187949	ब न	-1.531009
-3.405858	ब प	-0.8953163
-4.14037	ब फ	-0.739809
-3.088483	ब ब	-1.378515
-4.515758	ब भ	-0.2169288
-2.718165	ब म	-1.27198
-2.567899	ब य	-1.621144
-1.44667	ब र	-1.418251
-1.718966	ब ल	-1.388995
-3.178359	ब व	-1.034302
-3.508493	ब श	-1.091828
-5.355655	ब ष	-0.9292628
-1.533939	ब स	-2.034231
-1.284448	ब ह	-1.56414
-3.692111	ब ़	-1.128025
-0.6830351	ब ा	-0.7782454
-1.360931	ब ि	-1.114138
-1.379607	ब ी	-1.206468
-1.699397	ब ु	-2.425589
-1.885109	ब ू	-1.92272
-3.358924	ब ृ	-1.263421
-4.753595	ब ॅ	-0.1530955
-5.617062	ब ॆ	-0.2984838
-1.413324	ब े	-0.5674777
-1.688622	ब ै	-1.034632
-2.432627	ब ॉ	-1.436223
-5.230716	ब ॊ	-0.1430812
-1.578802	ब ो	-1.201884
-2.894381	ब ौ	-1.03536
-1.267271	ब ्	-3.100899
-6.133806	ब ॒	-0.2800991
-4.843771	ब क़	-0.7983428
-4.471048	ब ख़	-1.653617
-4.542741	ब ग़	-1.142168
-4.112617	ब ज़	-0.7248605
-2.083949	ब ड़	-1.21696
-2.309387	ब ढ़	-1.525281
-4.890768	ब फ़	-0.5721447
-5.617062	ब य़	-0.2358817
-5.735866	ब ॥	0.01250976
-5.674118	ब ०	-0.4104303
-1.586257	भ </s>
-3.869365	भ ँ	-1.70592
-2.484552	भ ं	-1.337069
-4.884429	भ ः	-0.5714584
-4.461665	भ अ	-0.9101904
-5.415908	भ आ	-0.08500884
-2.969681	भ इ	-1.828532
-2.743995	भ ई	-1.191193
-4.175358	भ उ	-0.9805613
-5.073485	भ ऊ	-0.06144331
-6.114878	भ ऋ
-3.997607	भ ए	-1.005835
-5.813848	भ ऐ	-0.2776923
-5.415908	भ ओ	-0.7185767
-6.114878	भ औ
-1.981275	भ क	-2.094354
-4.75315	भ ख	-0.2994761
-1.687408	भ ग	-2.710479
-5.415908	भ घ	-0.2074203
-5.160635	भ ङ	-0.3838849
-3.563428	भ च	-1.498932
-5.297104	भ छ	-0.7663921
-2.861055	भ ज	-1.73218
-2.404591	भ ट	-1.418369
-4.910758	भ ठ	-0.327598
-2.756752	भ ड	-1.931184
-5.211788	भ ढ	0.00915885
-3.406457	भ ण	-1.614526
-2.796814	भ त	-1.382985
-5.637756	भ थ	-0.1676144
-2.708678	भ द	-1.967566
-3.950525	भ ध	-1.583636
-2.931893	भ न	-0.95353
-3.529417	भ प	-1.129886
-4.910758	भ फ	-0.8569646
-4.424682	भ ब	-0.4105347
-3.494742	भ भ	-0.5603822
-3.701578	भ म	-0.3300431
-2.193451	भ य	-1.774518
-1.343445	भ र	-1.739145
-5.211788	भ ऱ	0.02356854
-1.951806	भ ल	-2.256213
-1.578433	भ व	-1.500472
-4.637756	भ श	-0.600117
-3.691632	भ ष	-1.443132
-3.2993	भ स	-1.197612
-4.089572	भ ह	-1.118512
-4.623516	भ ़	-0.9775836
-0.6357907	भ ा	-1.764807
-1.417204	भ ि	-1.590831
-0.3445863	भ ी	-2.39343
-1.986511	भ ु	-2.137456
-1.399434	भ ू	-2.672112
-3.678715	भ ृ	-1.149242
-6.114878	भ ॆ
-1.759216	भ े	-1.662537
-2.447705	भ ै	-1.119528
-4.583399	भ ॉ	-0.8328296
-4.96875	भ ॊ	-0.6154492
-1.825467	भ ो	-1.451468
-2.424948	भ ौ	-1.897508
-1.697556	भ ्	-2.418413
-6.114878	भ ॒
-5.813848	भ क़	-0.2440081
-6.114878	भ ज़
-3.058735	भ ड़	-1.694085
-5.813848	भ ०
-0.8712052	म </s>
-3.872099	म ँ	-1.097019
-1.735727	म ं	-1.479593
-4.492642	म ः	-1.086316
-4.121976	म अ	-0.2494199
-3.776742	म आ	-0.9741656
-4.317451	म इ	-0.1109277
-3.072512	म ई	-1.158181
-4.299794	म उ	-0.1992307
-4.121976	म ऊ	-1.657687
-6.699468	म ऋ
-3.134092	म ए	-1.144139
-5.33774	म ऐ	0.5515696
-3.617042	म ओ	-0.9889761
-5.097408	म औ	0.1854277
-1.984468	म क	-0.5321021
-3.482247	म ख	-1.603271
-2.255376	म ग	-1.958593
-3.861249	म घ	-1.126631
-5.131266	म ङ	-0.4415225
-2.47991	म च	-1.511358
-3.181876	म छ	-1.503487
-2.078583	म ज	-1.641658
-1.966399	म झ	-2.287863
-5.319257	म ञ	-1.393265
-3.109184	म ट	-1.339606
-3.63877	म ठ	-1.236662
-3.269716	म ड	-0.6771597
-4.14924	म ढ	-1.069668
-2.58041	म ण	-1.223736
-1.819999	म त	-1.266611
-3.580873	म थ	-0.5092752
-2.13223	म द	-0.7982018
-2.513077	म ध	-1.36621
-1.517179	म न	-1.218124
-2.758255	म प	-1.848272
-3.969494	म फ	-1.022698
-3.239623	म ब	-0.6433966
-3.650638	म भ	-0.5377187
-2.758155	म म	-1.223334
-1.88395	म य	-1.136633
-1.785797	म र	-1.530457
-1.950141	म ल	-1.921231
-2.816204	म व	-1.178844
-2.656066	म श	-1.221952
-4.451495	म ष	-0.9206941
-2.01259	म स	-1.557892
-1.627516	म ह	-1.492252
-4.983465	म ़	-0.2171452
-0.8565387	म ा	-0.541832
-1.285357	म ि	-1.306385
-1.476931	म ी	-1.108442
-1.284483	म ु	-2.509726
-2.022363	म ू	-1.270732
-2.540925	म ृ	-2.431112
-4.812977	म ॅ	-0.4756497
-4.658075	म ॆ	-0.4850402
-0.5570725	म े	-1.176413
-1.475552	म ै	-1.612921
-2.977493	म ॉ	-0.7424159
-4.967074	म ॊ	-0.7871219
-1.748811	म ो	-0.3875179
-2.075155	म ौ	-2.035513
-1.455609	म ्	-2.869667
-5.881694	म ॑	-0.06443936
-5.93875	म ॒	-0.09814727
-6.699468	म ॓
-6.222347	म ॔	0.1760913
-4.770049	म क़	-1.018813
-4.873393	म ख़	-0.8768514
-5.301528	म ग़	-0.5565535
-3.273608	म ज़	-1.37217
-3.723577	म ड़	-1.143341
-4.785654	म ढ़	-0.4097248
-5.23707	म फ़	-0.43634
-5.93875	म य़	-0.5555631
-5.357045	म ॥	0.2043513
-5.108403	म ०	-0.262063
-5.194318	म ॰	-0.3759233
-0.8472333	य </s>
-4.142123	य ँ	-0.9042739
-2.053806	य ं	-1.890816
-3.593629	य ः	-1.334287
-4.112051	य अ	-0.5746217
-4.520046	य आ	-0.3394818
-4.690308	य इ	-0.1294898
-5.185157	य ई	0.6727284
-4.690308	य उ	-0.08698314
-5.310096	य ऊ	-0.8214985
-6.264338	य ऋ	-0.2844802
-4.504671	य ए	0.05715859
-5.866399	य ऐ	0.6704162
-5.361248	य ओ	-0.04547507
-5.185157	य औ	0.7859836
-1.508875	य क	-2.093983
-4.407006	य ख	-0.8189093
-3.287301	य ग	-1.428542
-4.587645	य घ	-0.9032089
-5.565369	य ङ	-0.9266679
-3.564934	य च	-1.253617
-5.662279	य छ	-0.05448022
-2.729742	य ज	-1.41549
-5.866399	य झ
-5.486187	य ञ	-1.109268
-2.923003	य ट	-1.707304
-5.486187	य ठ	-0.5577434
-3.374757	य ड	-0.8738608
-5.611126	य ढ	-0.2597289
-2.929282	य ण	-1.393027
-1.836179	य त	-1.728104
-2.794222	य थ	-1.67267
-1.777936	य द	-1.712033
-3.157129	य ध	-2.325099
-2.00133	य न	-1.291878
-6.264338	य ऩ	-0.2515131
-2.418528	य प	-1.933217
-3.856948	य फ	-1.153617
-2.803741	य ब	-1.77894
-3.3703	य भ	-1.00141
-1.849883	य म	-1.586125
-2.707373	य य	-0.7128705
-1.863499	य र	-1.096756
-6.565369	य ऱ
-2.326445	य ल	-1.197667
-1.867913	य व	-2.288805
-2.857373	य श	-0.7974354
-4.73286	य ष	-0.9859873
-2.47504	य स	-0.7382607
-1.08341	य ह	-2.190211
-3.930891	य ़	-1.106636
-0.4404968	य ा	-1.289549
-2.354622	य ि	-1.507209
-1.792966	य ी	-1.474534
-1.782015	य ु	-2.665987
-1.667863	य ू	-2.336474
-5.866399	य ृ	-0.09266611
-5.088247	य ॅ	-0.8582237
-4.809494	य ॆ	-0.7063086
-0.9884264	य े	-1.275508
-4.082495	य ै	-0.01406574
-3.499789	य ॉ	-1.333656
-4.766028	य ॊ	-0.8897156
-0.9973407	य ो	-1.120684
-2.937491	य ौ	-1.679026
-3.088392	य ्	-1.269755
-6.264338	य ॑
-6.264338	य ॒
-6.565369	य ॔
-4.366712	य क़	-1.617672
-5.611126	य ख़	-0.6183109
-6.565369	य ग़
-4.461565	य ज़	-1.237714
-5.611126	य ड़	-0.1764748
-4.809494	य फ़	-1.182855
-5.80465	य य़	-0.3395887
-5.102971	य ॥	-0.6864602
-5.80465	य ०	-0.1890494
-6.565369	य ॰
-0.453796	र </s>
-4.269418	र ँ	-0.858292
-2.259544	र ं	-1.322525
-4.420474	र ः	-1.131822
-3.11587	र अ	-0.750663
-3.601438	र आ	-0.8395486
-4.341891	र इ	-0.4965464
-3.979513	र ई	-0.4645808
-3.870802	र उ	-0.2772738
-4.919683	र ऊ	-0.108943
-6.162607	र ऋ	-0.2272695
-3.325915	र ए	0.2300656
-5.618653	र ऐ	0.5108558
-4.341891	र ओ	-0.1144909
-4.778984	र औ	0.7899333
-1.61059	र क	-1.28002
-2.088509	र ख	-1.475335
-2.799338	र ग	-1.674672
-3.601438	र घ	-1.151462
-5.866437	र ङ	-0.9091536
-2.489005	र च	-1.540432
-3.781724	र छ	-1.010645
-2.58446	र ज	-0.7588196
-4.244782	र झ	-0.8892452
-6.135283	र ञ	-0.261045
-3.504564	र ट	-1.148486
-3.957952	र ठ	-1.451939
-3.815731	र ड	-0.4814618
-5.378321	र ढ	-0.6370503
-1.855788	र ण	-0.9260962
-1.401801	र त	-1.8927
-3.022391	र थ	-0.6023517
-2.095523	र द	-1.205651
-2.73339	र ध	-1.891543
-1.608934	र न	-1.829013
-2.45104	र प	-1.417589
-2.562975	र फ	-1.313325
-2.5018	र ब	-1.433432
-2.506806	र भ	-1.095466
-2.013235	र म	-1.928044
-2.463581	र य	-1.297135
-3.17556	र र	-0.762599
-2.743717	र ल	-1.177155
-2.073045	र व	-1.027295
-2.507858	र श	-1.653823
-2.792578	र ष	-2.311117
-2.028388	र स	-1.066114
-1.245449	र ह	-1.404012
-5.09389	र ़	-0.2687574
-1.054188	र ा	-1.505814
-1.394763	र ि	-1.272899
-1.201057	र ी	-1.647604
-1.968257	र ु	-0.747422
-1.769215	र ू	-2.570622
-3.633441	र ृ	-1.315457
-5.378321	र ॅ	-0.3327497
-5.475231	र ॆ	0.008602083
-1.264432	र े	-1.29594
-2.808128	र ै	-0.8613107
-3.164073	र ॉ	-0.5265427
-5.346912	र ॊ	-0.2937882
-1.464427	र ो	-0.5123837
-3.251216	र ौ	-1.127042
-1.037421	र ्	-2.887624
-6.980381	र ॑
-6.50326	र ॒
-6.679351	र ॓
-5.026138	र क़	-0.9340022
-5.056101	र ख़	-0.7600878
-5.658162	र ग़	-0.08823639
-4.507624	र ज़	-0.455524
-5.424078	र ड़	-0.7092215
-6.679351	र ढ़
-3.590506	र फ़	-1.60879
-5.256105	र ॥	-0.1700318
-4.557135	र ०	0.2819576
-5.549017	र ॰	-0.4036831
-0.2364963	ऱ </s>
-3.074085	ऱ ं
-2.170995	ऱ आ	-0.3305528
-1.869965	ऱ इ	-0.9036459
-2.773055	ऱ ए	-0.2737782
-2.313366	ऱ क	-0.3261142
-1.261171	ऱ ख	-0.7660169
-3.074085	ऱ ग
-3.074085	ऱ ज
-2.773055	ऱ झ	-0.212337
-2.773055	ऱ ट	-0.2361807
-1.325897	ऱ ण	-0.8438672
-1.555571	ऱ त	-1.151806
-3.074085	ऱ न
-3.074085	ऱ प
-1.596963	ऱ फ	-1.371364
-3.074085	ऱ ब
-2.256311	ऱ म	-0.3307878
-3.074085	ऱ र
-2.773055	ऱ ल	-0.2845708
-2.596963	ऱ व	-0.1402361
-2.313366	ऱ स	-0.1132714
-2.228987	ऱ ह	-0.09226318
-1.358081	ऱ ा	-0.370623
-2.119842	ऱ ि	-0.2890416
-1.187594	ऱ ी	-1.017825
-1.960141	ऱ ु	-0.2191368
-1.731662	ऱ ू	-0.3654001
-1.712357	ऱ े	-0.06373346
-2.596963	ऱ ै	-0.6005599
-1.626927	ऱ ो	-0.4438201
-1.795331	ऱ ्	-0.4064242
-0.7298266	ल </s>
-4.541293	ल ँ	-1.117584
-2.291341	ल ं	-1.480935
-4.334917	ल ः	-1.339386
-3.915466	ल अ	-0.009550929
-3.856298	ल आ	-0.689718
-4.158076	ल इ	-0.2245054
-3.952088	ल ई	-0.5072926
-4.231308	ल उ	0.41044
-4.717384	ल ऊ	-0.4879028
-5.620474	ल ऋ	-0.863263
-3.562808	ल ए	-0.1640043
-5.205501	ल ऐ	0.6260164
-4.337173	ल ओ	0.0397892
-5.052272	ल औ	0.1890638
-1.870939	ल क	-1.133131
-2.624619	ल ख	-1.520975
-1.274148	ल ग	-1.499793
-3.069146	ल घ	-1.785172
-4.781625	ल ङ	-0.7834094
-2.71565	ल च	-1.398829
-4.096727	ल छ	-0.3932642
-2.940592	ल ज	-1.544126
-2.991983	ल झ	-1.953225
-6.620474	ल ञ
-2.680107	ल ट	-1.01598
-4.304503	ल ठ	-1.2391
-2.253528	ल ड	-1.265867
-4.496622	ल ढ	-0.4540193
-4.113969	ल ण	-1.169354
-1.57622	ल त	-1.589978
-4.182724	ल थ	-0.6414483
-2.947914	ल द	-0.4773688
-3.861562	ल ध	-1.1255
-1.647083	ल न	-1.494284
-2.622215	ल प	-1.243643
-3.205333	ल फ	-0.6894088
-2.070637	ल ब	-0.6459076
-3.030971	ल भ	-0.8286083
-2.101723	ल म	-1.065553
-2.147469	ल य	-0.9584229
-2.448455	ल र	-1.309903
-2.994956	ल ल	-0.724054
-2.238944	ल व	-1.106493
-3.301368	ल श	-0.7363615
-5.088995	ल ष	-0.2130922
-2.467177	ल स	-0.7332034
-2.546426	ल ह	-0.6647446
-4.208854	ल ़	-0.9278842
-0.8686876	ल ा	-1.159511
-0.8928708	ल ि	-1.76003
-1.177936	ल ी	-1.650013
-2.468338	ल ु	-1.608001
-2.103225	ल ू	-2.063089
-5.34172	ल ृ	-1.2431
-4.571256	ल ॅ	-0.6212848
-5.541293	ल ॆ	0.1595592
-0.8223981	ल े	-1.413028
-2.422367	ल ै	-0.811295
-2.089954	ल ॉ	-1.341002
-4.49014	ल ॊ	-0.6489512
-1.171046	ल ो	-1.306919
-2.430787	ल ौ	-1.534277
-1.273683	ल ्	-2.89947
-5.00769	ल क़	-0.6898189
-4.701396	ल ख़	-1.409295
-6.143353	ल ग़
-3.990046	ल ज़	-1.606549
-2.609962	ल ड़	-1.189653
-6.143353	ल ढ़	-0.063134
-3.590279	ल फ़	-1.196979
-6.620474	ल य़
-5.506531	ल ॥	0.1466146
-4.509884	ल ०	-0.5851375
-5.129112	ल ॰	-0.8913607
-1.007781	व </s>
-4.191017	व ँ	-0.642225
-1.867353	व ं	-1.622918
-4.258769	व ः	-1.056929
-4.247633	व अ	0.1804447
-4.5432	व आ	-0.5479137
-3.959151	व इ	-1.035556
-3.803825	व ई	-0.8715904
-4.113851	व उ	-0.3313638
-5.404897	व ऊ	-0.0516495
-5.74732	व ऋ	-0.3231281
-4.774192	व ए	-0.04573452
-5.492047	व ऐ	0.5822735
-5.031316	व ओ	-0.3588337
-4.833506	व औ	0.6232642
-1.862581	व क	-2.066177
-4.582967	व ख	-0.361527
-2.653618	व ग	-2.049775
-3.869948	व घ	-1.058414
-5.628516	व ङ	-0.1579404
-2.622881	व च	-1.528636
-4.487248	व छ	-0.6418263
-1.866106	व ज	-1.99563
-5.601192	व झ	-0.05473859
-5.492047	व ञ	-0.7095848
-2.733387	व ट	-1.044765
-4.675437	व ठ	-0.9922293
-3.221239	व ड	-0.697601
-5.12407	व ढ	0.1362249
-2.748886	व ण	-0.03770018
-1.838685	व त	-1.903999
-3.692707	व थ	-1.039165
-2.952135	व द	-0.3717327
-2.391447	व ध	-1.732624
-1.558824	व न	-1.366675
-2.28161	व प	-2.060713
-3.412866	व फ	-1.773886
-3.61763	व ब	-1.037863
-2.84739	व भ	-1.405929
-2.812014	व म	-1.208204
-2.248568	व य	-0.8255575
-1.19881	व र	-1.092688
-6.44629	व ऱ
-1.903427	व ल	-1.382018
-2.506471	व व	-1.416108
-2.070114	व श	-1.619384
-4.027988	व ष	-1.138461
-1.650257	व स	-2.161981
-1.205626	व ह	-1.653272
-4.420984	व ़	-0.881014
-0.5897801	व ा	-1.239551
-0.765917	व ि	-0.9146261
-1.479679	व ी	-1.928875
-2.619891	व ु	-1.895826
-3.754325	व ू	-0.8461902
-2.272579	व ृ	-2.135121
-5.04835	व ॅ	-0.494502
-5.332346	व ॆ	-0.04834265
-1.239081	व े	-0.8432808
-1.759126	व ै	-1.029444
-3.014765	व ॉ	-1.634663
-5.404897	व ॊ	-0.5367466
-1.536002	व ो	-1.688512
-4.559799	व ौ	-0.5662967
-1.380639	व ्	-2.442463
-5.969168	व ॑
-5.685571	व ॒	-0.07536268
-3.760548	व क़	-1.859342
-6.44629	व ख़
-4.866506	व ग़	-1.555477
-3.809802	व ज़	-1.955887
-3.874581	व ड़	-1.249937
-5.5432	व ढ़	-0.1593101
-4.044889	व फ़	-2.062345
-5.628516	व य़	-0.2741536
-6.44629	व ॢ
-5.74732	व ॥	0.01250976
-4.613781	व ०	0.02805924
-6.44629	व ॰
-0.7335899	श </s>
-4.455331	श ँ	-0.991534
-2.00337	श ं	-1.651526
-3.280558	श ः	-1.499146
-4.112012	श अ	-0.3205352
-3.829271	श आ	-1.235079
-4.843512	श इ	0.2757883
-6.098784	श ई
-4.382781	श उ	-0.8160453
-4.272709	श ऊ	-1.786696
-5.621663	श ऋ	0.01155658
-4.0694	श ए	-0.08212674
-5.253686	श ऐ	0.7609348
-4.700844	श ओ	0.04600164
-5.28101	श औ	1.345317
-1.481857	श क	-1.936491
-2.679324	श ख	-2.074494
-3.01278	श ग	-1.811679
-5.399814	श घ	-0.2170225
-4.98484	श ङ	-1.031403
-3.58291	श च	-1.015345
-4.797754	श छ	-1.31046
-3.034326	श ज	-1.26697
-5.253686	श झ	-0.4511192
-3.648535	श ट	-0.7714171
-4.58027	श ठ	-0.5413301
-4.700844	श ड	-0.3420894
-5.621663	श ढ	-0.2405746
-3.988194	श ण	-0.8403367
-1.855622	श त	-1.10025
-5.253686	श थ	-0.01814535
-2.896023	श द	-1.59087
-4.085947	श ध	-1.231719
-1.215406	श न	-1.451006
-6.098784	श ऩ
-2.711394	श प	-1.314506
-3.513323	श फ	-1.251401
-1.713267	श ब	-2.649764
-2.845446	श भ	-2.244417
-2.468458	श म	-1.183657
-2.535184	श य	-1.157314
-1.529667	श र	-1.97328
-5.253686	श ऱ	-0.3113261
-2.275897	श ल	-1.745682
-2.279635	श व	-1.462306
-3.058973	श श	-0.7588266
-4.797754	श ष	0.06168282
-2.692244	श स	-1.486718
-1.667259	श ह	-2.834852
-5.057391	श ़	-0.2657451
-0.8229153	श ा	-2.307294
-1.068974	श ि	-1.304817
-1.356098	श ी	-1.492368
-1.228298	श ु	-2.770913
-2.344206	श ू	-1.753514
-3.522443	श ृ	-1.788111
-5.144541	श ॅ	-0.1969406
-4.554716	श ॆ	-0.2763612
-1.470742	श े	-1.077201
-2.230786	श ै	-1.809402
-2.889269	श ॉ	-2.066294
-4.894664	श ॊ	-0.2116027
-1.434744	श ो	-1.762902
-2.512534	श ौ	-2.097057
-0.7643824	श ्	-2.713694
-4.542481	श क़	-0.6661394
-4.426686	श ख़	-1.265439
-5.338066	श ग़	-0.234242
-5.195694	श ज़	-0.6059411
-6.098784	श ड़
-4.391214	श फ़	-0.8514381
-6.098784	श य़
-6.098784	श ॠ
-5.797754	श ॥	0.504445
-6.098784	श ०
-5.621663	श ॰	-0.5321548
-0.749126	ष </s>
-5.736756	ष ँ
-3.488783	ष ं	-0.8492185
-3.839129	ष ः	-0.7559798
-3.996394	ष अ	-0.5652689
-4.622813	ष आ	-0.01134503
-5.037786	ष इ	0.1781886
-4.976038	ष ई	-0.2791549
-4.622813	ष उ	-0.6442105
-4.782514	ष ए	-0.4291374
-5.736756	ष ऐ
-4.918983	ष ओ	-0.07987186
-5.037786	ष औ	0.9746133
-1.627684	ष क	-1.20286
-4.833666	ष ख	-0.2622174
-3.094292	ष ग	-1.814036
-4.590629	ष घ	-0.2459177
-5.736756	ष ङ
-3.719723	ष च	-1.081195
-5.435727	ष छ	-0.2730628
-2.191326	ष ज	-2.113024
-5.435727	ष ञ	-0.2813826
-3.923843	ष ट	-0.3438443
-4.657575	ष ठ	-0.196333
-2.802763	ष ड	-1.888336
-5.435727	ष ढ
-1.108	ष ण	-0.6075747
-1.847623	ष त	-1.809514
-2.155832	ष द	-1.308673
-2.52377	ष ध	-1.485272
-3.001957	ष न	-0.5171499
-2.832041	ष प	-1.279668
-4.736756	ष फ	-1.022963
-3.50887	ष ब	-0.8898642
-3.184088	ष भ	-1.547987
-1.649792	ष म	-1.9868
-1.530389	ष य	-2.117262
-2.070239	ष र	-1.839508
-4.622813	ष ऱ	-0.484351
-3.873434	ष ल	-0.6308672
-3.065584	ष व	-1.052657
-3.340557	ष श	-0.9219953
-3.777715	ष ष	-1.508093
-2.41083	ष स	-1.096287
-3.844662	ष ह	-0.8146572
-5.736756	ष ़
-0.8721802	ष ा	-1.996929
-1.123443	ष ि	-1.747553
-1.641308	ष ी	-1.448723
-2.567965	ष ु	-1.574346
-4.274359	ष ू	-0.6710207
-5.736756	ष ॅ
-4.590629	ष ॆ	-0.7789114
-1.198409	ष े	-1.941376
-2.985477	ष ै	-1.641671
-5.259635	ष ॉ	-0.5960065
-5.037786	ष ॊ	-0.1727501
-1.606519	ष ो	-2.233295
-4.168555	ष ौ	-0.6826836
-0.5347344	ष ्	-2.375246
-5.435727	ष ज़	-0.1819126
-3.566495	ष ड़	-1.687682
-4.481484	ष य़	-1.020836
-5.736756	ष ॥
-3.782514	ष ०	-1.767412
-0.9080643	स </s>
-3.557077	स ँ	-0.7505422
-1.337993	स ं	-1.614728
-4.858612	स ः	-0.6890494
-4.353778	स अ	0.1438199
-3.527585	स आ	-1.555252
-4.423894	स इ	-0.2407725
-3.616441	स ई	-0.8579612
-4.516649	स उ	0.1095542
-4.002825	स ऊ	-1.794764
-3.056077	स ए	-0.9663905
-5.537838	स ऐ	0.5446901
-4.268065	स ओ	-0.4085008
-5.617019	स औ	0.6533115
-1.212277	स क	-2.499418
-3.289728	स ख	-1.482167
-3.127154	स ग	-1.693069
-3.836462	स घ	-1.268835
-5.007781	स ङ	-0.7441199
-2.263321	स च	-1.647573
-5.274597	स छ	-0.3508682
-2.698569	स ज	-1.690657
-5.301749	स झ	-0.3193405
-4.99377	स ञ	-1.801504
-3.066139	स ट	-0.9378992
-4.152629	स ठ	-1.413027
-2.887962	स ड	-1.279123
-5.713929	स ढ	0.1975218
-4.819983	स ण	-0.6461669
-2.056714	स त	-1.051753
-4.440928	स थ	-0.3541709
-2.141794	स द	-1.799755
-3.977533	स ध	-0.8760197
-1.915543	स न	-1.163691
-2.234378	स प	-2.400557
-2.404583	स फ	-1.656017
-1.779098	स ब	-2.337102
-2.074443	स भ	-2.381196
-1.248395	स म	-1.327069
-3.707107	स य	0.01567638
-1.442719	स र	-1.466594
-1.799079	स ल	-1.96271
-2.167551	स व	-1.555981
-3.258703	स श	-1.312117
-5.287961	स ष	-0.9628308
-2.07669	स स	-2.018623
-1.90086	स ह	-1.594605
-4.60559	स ़	-0.8480798
-0.9709371	स ा	-0.7793841
-1.502153	स ि	-1.965418
-1.24921	स ी	-0.3547699
-1.568642	स ु	-2.871862
-1.939005	स ू	-1.843346
-3.199935	स ृ	-1.779454
-5.345953	स ॅ	-0.2170681
-5.378137	स ॆ	-0.366506
-0.743916	स े	-1.258799
-2.574969	स ै	-0.6763453
-3.329964	स ॉ	-1.40357
-5.301749	स ॊ	-0.2215746
-1.816797	स ो	-0.1628559
-2.441082	स ौ	-1.644542
-0.9250734	स ्	-2.727934
-6.315989	स ॑
-6.49208	स ॒
-6.79311	स क़
-4.912297	स ख़	-1.081786
-6.79311	स ग़
-4.425755	स ज़	-1.122829
-3.209912	स ड़	-1.46231
-6.032392	स ढ़	-0.07624055
-3.538079	स फ़	-1.525461
-5.948012	स ॢ	-0.4421039
-5.838868	स ॥	-0.1635815
-5.102914	स ०	0.8498338
-4.929788	स ॰	-0.606084
-1.029992	ह </s>
-3.213422	ह ँ	-1.45471
-2.66291	ह ं	-1.556482
-4.983115	ह ः	-0.5937947
-4.359866	ह अ	-0.1735417
-4.58024	ह आ	-0.309499
-4.727843	ह इ	-0.4007117
-4.451636	ह ई	-0.8856614
-4.437278	ह उ	-0.1089406
-5.175001	ह ऊ	-0.8349482
-6.527184	ह ऋ	-0.1060383
-4.64637	ह ए	-0.2329252
-5.749032	ह ऐ	0.4711877
-5.226153	ह ओ	-0.1094064
-5.41324	ह औ	0.3377912
-2.495411	ह क	-1.458109
-4.377964	ह ख	-1.059351
-3.373673	ह ग	-1.430429
-5.828213	ह घ	-0.2155574
-5.624094	ह ङ	-0.3167984
-2.785953	ह च	-2.145742
-5.146972	ह छ	-0.7123899
-2.336726	ह ज	-1.449131
-5.54946	ह झ	-0.5636602
-2.683919	ह ट	-1.175947
-4.121496	ह ठ	-0.7493872
-3.225502	ह ड	-1.516871
-6.01044	ह ढ	-0.1784351
-3.136955	ह ण	-1.248672
-1.612003	ह त	-2.557542
-3.056773	ह थ	-1.300492
-2.660542	ह द	-1.285556
-4.883731	ह ध	-1.099687
-1.862711	ह न	-1.634322
-6.828213	ह ऩ
-3.655319	ह प	-1.023164
-3.178003	ह फ	-1.769874
-2.605029	ह ब	-1.113719
-3.791584	ह भ	-1.163075
-1.433914	ह म	-2.338619
-2.918657	ह य	-1.701551
-1.579777	ह र	-1.160362
-5.925123	ह ऱ	-0.9332363
-1.740524	ह ल	-2.141876
-2.582454	ह व	-1.763872
-3.652992	ह श	-1.515072
-5.204964	ह ष	-1.035207
-2.270394	ह स	-1.684225
-3.746146	ह ह	-0.9063275
-4.763755	ह ़	-0.6475977
-1.031827	ह ा	-1.69904
-1.455237	ह ि	-1.652391
-0.8381184	ह ी	-2.095949
-1.282258	ह ु	-2.969117
-1.869382	ह ू	-2.457291
-3.248887	ह ृ	-1.744716
-4.533747	ह ॅ	-0.8633306
-4.672877	ह ॆ	-0.3641937
-1.39536	ह े	-1.022454
-0.5698134	ह ै	-1.704991
-3.091259	ह ॉ	-1.389346
-4.976955	ह ॊ	-0.7201623
-0.9960169	ह ो	-1.753495
-2.976833	ह ौ	-1.95493
-2.638162	ह ्	-1.938409
-6.527184	ह ॑
-6.828213	ह ॒
-4.446197	ह क़	-1.411422
-6.067495	ह ख़	-0.2702836
-6.828213	ह ग़
-3.766384	ह ज़	-1.653908
-3.67227	ह ड़	-1.295629
-4.088641	ह फ़	-1.477499
-6.01044	ह ॥	0.3832138
-6.828213	ह ०
-0.6782544	़ </s>
-4.43285	़ ँ	-0.5891172
-2.944837	़ ं	-1.157232
-4.43285	़ ः	-0.6990336
-3.868579	़ अ	-0.6497152
-3.698165	़ आ	-0.8819581
-3.746469	़ इ	-0.5380487
-3.178728	़ ई	-0.7612111
-4.22359	़ उ	-0.2282336
-4.43285	़ ऊ	-0.7215259
-5.75507	़ ऋ
-3.428734	़ ए	-0.3005388
-4.937296	़ ऐ	0.6273252
-4.476316	़ ओ	0.2584934
-4.713677	़ औ	0.6735834
-1.296704	़ क	-2.020288
-2.890558	़ ख	-1.290188
-2.415618	़ ग	-1.461191
-3.999195	़ घ	-0.8099409
-5.75507	़ ङ
-3.050919	़ च	-1.146792
-3.21725	़ छ	-1.82667
-2.203376	़ ज	-1.720743
-3.955729	़ झ	-1.139888
-5.75507	़ ञ
-3.507096	़ ट	0.0455302
-4.75507	़ ठ	-0.3292109
-2.344292	़ ड	-1.104835
-3.66871	़ ढ	-0.4985301
-4.198767	़ ण	-0.2862092
-1.241346	़ त	-1.861809
-4.675888	़ थ	-0.3795588
-2.241719	़ द	-1.297588
-3.781942	़ ध	-0.8209499
-1.406979	़ न	-1.528472
-5.75507	़ ऩ
-2.411267	़ प	-1.126139
-2.889374	़ फ	-0.7769234
-1.843539	़ ब	-1.729192
-3.485557	़ भ	-0.5224355
-1.991118	़ म	-1.301819
-2.531314	़ य	-1.398991
-1.374478	़ र	-1.652648
-5.75507	़ ऱ
-1.832396	़ ल	-1.008982
-2.375945	़ व	-1.663168
-3.661648	़ श	-0.2805986
-4.800827	़ ष	-0.8500816
-2.39981	़ स	-0.8554863
-2.520299	़ ह	-0.5380162
-3.874256	़ ़	-0.007839799
-0.7554302	़ ा	-2.231909
-1.290848	़ ि	-1.85308
-0.9756318	़ ी	-1.449941
-1.889196	़ ु	-1.884625
-2.372692	़ ू	-1.255094
-4.307911	़ ृ	-0.5126123
-4.994351	़ ॅ	-0.5314696
-5.45404	़ ॆ
-1.001594	़ े	-1.298975
-2.171984	़ ै	-1.419983
-2.750318	़ ॉ	-1.298896
-5.45404	़ ॊ
-1.458712	़ ो	-2.088607
-2.728536	़ ौ	-1.442001
-1.710843	़ ्	-2.399177
-4.323706	़ क़	-0.806479
-5.45404	़ ख़	-0.229609
-3.755069	़ ज़	-0.9270782
-3.55095	़ ड़	-0.5704031
-4.524621	़ ढ़	-0.1494105
-4.55095	़ फ़	-0.1660711
-5.45404	़ य़	-0.1146505
-5.277948	़ ॥	0.188601
-4.994351	़ ०	0.05665445
-5.75507	़ ॰
-0.4150559	ा </s>
-2.016703	ा ँ	-0.8442767
-1.562938	ा ं	-0.8385131
-4.192325	ा ः	-1.176685
-3.688696	ा अ	-0.2122927
-3.855366	ा आ	-0.1579806
-2.082595	ा इ	-0.5008593
-1.887799	ा ई	-0.961513
-2.818273	ा उ	-0.6911175
-2.987667	ा ऊ	-1.259671
-6.011869	ा ऋ	-0.2707998
-2.015044	ा ए	-0.4470177
-4.009869	ा ऐ	-0.8766212
-2.12079	ा ओ	-1.59214
-4.331324	ा औ	0.09820461
-1.854138	ा क	-0.4837737
-2.601299	ा ख	-0.8156283
-2.011595	ा ग	-0.5015395
-3.489625	ा घ	-0.9573473
-4.921692	ा ङ	-0.4463683
-2.488693	ा च	-1.161128
-3.814058	ा छ	-0.7236357
-1.688501	ा ज	-1.34675
-3.705526	ा झ	-1.076455
-5.385449	ा ञ	-1.047387
-2.496923	ा ट	-0.6746383
-2.788932	ा ठ	-1.567225
-2.519904	ा ड	-0.6691518
-3.347444	ा ढ	-1.260125
-2.453105	ा ण	-0.347976
-1.395903	ा त	-1.514448
-1.920218	ा थ	-1.193405
-1.582569	ा द	-0.6222804
-2.26822	ा ध	-1.062651
-1.122388	ा न	-1.673064
-5.727872	ा ऩ	-0.6428135
-2.01565	ा प	-1.211051
-2.30912	ा फ	-1.828702
-1.999096	ा ब	-0.9356296
-2.728324	ा भ	-0.7305696
-1.519253	ा म	-0.7691011
-1.511009	ा य	-0.005986691
-0.9586449	ा र	-1.493816
-5.546029	ा ऱ	-0.04614913
-1.355371	ा ल	-1.008736
-1.775209	ा व	-0.5775223
-2.293731	ा श	-0.3471465
-2.31825	ा ष	-2.078282
-1.656616	ा स	-0.8724923
-1.649066	ा ह	-0.1896648
-4.052827	ा ़	-1.191945
-4.313568	ा ा	-0.3464463
-4.747414	ा ि	-0.4428933
-4.647246	ा ी	-0.4094268
-5.385449	ा ु	-0.3858894
-5.594333	ा ू	-0.1924084
-6.426842	ा ृ	-0.2494976
-4.156396	ा ॅ	-1.520179
-6.280714	ा ॆ	0.2005227
-4.409809	ा े	-0.2580016
-6.426842	ा ै	-0.5420097
-5.979684	ा ॉ	-0.4043653
-5.148088	ा ो	-0.2490339
-6.308038	ा ौ	-0.2624341
-4.740206	ा ्	-0.3879628
-6.280714	ा ॑	-0.2792868
-5.949721	ा ॒	-0.1068233
-5.594333	ा ॓	-0.2422883
-4.139488	ा क़	-1.821953
-5.046631	ा ख़	-0.6304784
-4.503598	ा ग़	-1.369051
-3.247061	ा ज़	-1.104328
-3.060009	ा ड़	-0.5006754
-3.871264	ा ढ़	-1.154146
-3.367127	ा फ़	-1.595717
-5.186293	ा य़	-0.7292593
-7.125812	ा ॠ
-6.280714	ा ॢ	-0.3105944
-4.787355	ा ॥	-0.1781735
-4.892816	ा ०	0.2893971
-5.068907	ा ॰	-0.5494566
-0.8397415	ि </s>
-4.4101	ि ँ	-0.2332821
-1.523422	ि ं	-0.8336554
-3.782624	ि ः	-1.231317
-3.727729	ि अ	-0.3677528
-3.776721	ि आ	-0.2903147
-4.535038	ि इ	-0.518016
-5.362407	ि ई	0.2174632
-4.106171	ि उ	-0.5191807
-5.012159	ि ऊ	-0.4941334
-5.999629	ि ऋ	-0.1009302
-1.272429	ि ए	-0.9248247
-4.043509	ि ऐ	-0.4345266
-3.681166	ि ओ	-0.9673599
-4.851862	ि औ	0.5989844
-1.037099	ि क	-0.5895982
-1.658593	ि ख	-0.7931342
-2.206853	ि ग	-1.955009
-3.468535	ि घ	-1.416458
-4.897025	ि ङ	-0.4416908
-2.13941	ि च	-1.38611
-2.346612	ि छ	-1.913539
-1.925133	ि ज	-1.048583
-3.947434	ि झ	-0.9737079
-5.584256	ि ञ	-0.105096
-1.970273	ि ट	-0.9854369
-3.055425	ि ठ	-1.468602
-2.613692	ि ड	-0.7573161
-3.955527	ि ढ	-0.900027
-2.584372	ि ण	-1.628453
-1.094603	ि त	-1.523663
-2.898992	ि थ	-0.9143701
-1.907185	ि द	-1.31156
-2.107299	ि ध	-1.520563
-1.17327	ि न	-1.475747
-5.999629	ि ऩ	-0.5673571
-1.875365	ि प	-1.702121
-2.696901	ि फ	-1.058046
-2.505872	ि ब	-1.416143
-2.188697	ि भ	-1.789113
-1.821678	ि म	-1.403811
-0.8434036	ि य	-1.023389
-1.286118	ि र	-1.748268
-5.268986	ि ऱ	-0.3173781
-1.156714	ि ल	-2.070818
-1.63571	ि व	-1.362323
-1.560633	ि श	-1.842974
-1.969471	ि ष	-0.7008572
-1.178224	ि स	-0.8438919
-2.162312	ि ह	-1.383142
-3.310406	ि ़	-2.079612
-4.101383	ि ा	-0.511626
-4.764712	ि ि	-0.4997082
-5.079106	ि ी	0.005078137
-5.915249	ि ु	-0.2123437
-6.760347	ि ू
-5.614219	ि ृ	-0.6727228
-5.999629	ि ॅ	-0.3549341
-5.857257	ि ॆ	-0.6766361
-4.773576	ि े	-0.421196
-5.204045	ि ो	-0.5308085
-6.283226	ि ौ
-3.871606	ि ्	-0.7544445
-5.857257	ि ॑	-0.1055895
-5.806105	ि ॒	-0.02635191
-6.760347	ि ॓
-6.760347	ि ॔
-4.276048	ि क़	-1.387462
-5.192146	ि ख़	-0.6373335
-5.070151	ि ग़	-0.8123049
-3.69965	ि ज़	-0.8307209
-3.381768	ि ड़	-0.723272
-4.419903	ि ढ़	-0.7709655
-3.844948	ि फ़	-1.299516
-3.985101	ि य़	-1.523483
-6.283226	ि ॢ	-0.5713912
-5.806105	ि ॥	0.6622055
-5.328984	ि ०	-0.4246372
-5.646404	ि ॰	0.2695048
-0.1365998	ी </s>
-3.515857	ी ँ	-1.091581
-1.162083	ी ं	-1.378016
-4.224065	ी ः	-0.813853
-3.393156	ी अ	-0.4141401
-2.745715	ी आ	-1.305557
-3.847488	ी इ	-0.1328752
-3.627468	ी ई	-0.1531547
-3.875273	ी उ	0.1658267
-4.800819	ी ऊ	-0.08925736
-6.349004	ी ऋ	0.01155658
-2.407293	ी ए	-0.5367875
-4.595676	ी ऐ	-0.2998589
-3.42249	ी ओ	-1.102145
-4.214402	ी औ	0.1244217
-1.752143	ी क	-0.8702946
-2.554492	ी ख	-0.9779596
-2.845985	ी ग	-1.074108
-3.358813	ी घ	-1.098483
-5.192657	ी ङ	-0.6747595
-2.155619	ी च	-1.286084
-2.608851	ी छ	-1.387362
-2.051382	ी ज	-1.197619
-4.113475	ी झ	-0.6015958
-6.525095	ी ञ	-0.2441335
-2.326081	ी ट	-0.6915369
-3.079102	ी ठ	-1.505429
-2.20241	ी ड	-1.167958
-3.130293	ी ढ	-2.027956
-2.889762	ी ण	-1.815651
-1.710671	ी त	-0.4776301
-3.902881	ी थ	-0.03528559
-2.289327	ी द	-0.8162091
-2.771359	ी ध	-1.62657
-1.672783	ी न	-1.357546
-2.315365	ी प	-1.323941
-2.727101	ी फ	-1.044656
-2.154471	ी ब	-1.136311
-3.283673	ी भ	-0.2971241
-2.021985	ी म	-0.3135526
-1.769171	ी य	-0.9568405
-1.792275	ी र	-1.171232
-5.712182	ी ऱ	-0.6641408
-2.065612	ी ल	-0.6092229
-1.888502	ी व	-0.6915779
-2.640554	ी श	-0.6780879
-3.080504	ी ष	-1.208232
-2.1453	ी स	-0.6830058
-3.110957	ी ह	-0.5503559
-4.111795	ी ़	-1.106175
-5.294646	ी ा	-0.01767734
-5.464397	ी ि	-0.19661
-4.796741	ी ी	-0.1727883
-6.065406	ी ु	-0.3289497
-6.127155	ी ॆ	-0.4403726
-4.718915	ी े	-0.1466025
-6.826125	ी ै
-5.923035	ी ो	-0.003387377
-6.008351	ी ौ	-0.6588095
-4.956893	ी ्	-0.6241267
-6.525095	ी ॑
-5.981027	ी ॒	-0.07268231
-6.826125	ी ॓
-6.826125	ी ॔
-4.489665	ी क़	-1.1851
-4.788698	ी ख़	-0.7913074
-5.923035	ी ग़	-0.09783407
-3.398152	ी ज़	-1.048599
-3.176012	ी ड़	-1.079584
-3.617683	ी ढ़	-1.797418
-3.68311	ी फ़	-1.175632
-5.483702	ी य़	-0.8188045
-6.826125	ी ॢ
-4.867084	ी ॥	-0.1112373
-4.306297	ी ०	0.2324581
-4.843853	ी ॰	-0.1376023
-1.402579	ु </s>
-2.124201	ु ँ	-0.7856762
-1.511347	ु ं	-0.9071727
-2.847448	ु ः	-1.363204
-2.910082	ु अ	-1.439121
-1.428788	ु आ	-1.462621
-3.400516	ु इ	-0.2989632
-1.660116	ु ई	-1.202566
-4.378496	ु उ	-0.8155062
-4.759685	ु ऊ	-0.2310453
-5.327886	ु ऋ	0.6628458
-1.438747	ु ए	-1.960076
-3.924766	ु ऐ	-1.627907
-2.302375	ु ओ	-2.021635
-5.373643	ु औ	1.126544
-1.213562	ु क	-1.891469
-1.521143	ु ख	-1.080081
-1.999833	ु ग	-1.912967
-3.209952	ु घ	-0.9610062
-4.029033	ु ङ	-0.5272532
-2.167868	ु च	-1.678867
-1.214274	ु छ	-1.885099
-1.937251	ु ज	-1.190157
-1.477681	ु झ	-2.691989
-4.521706	ु ञ	-1.808238
-1.883873	ु ट	-1.077029
-3.133094	ु ठ	-0.9065821
-1.925436	ु ड	-1.417194
-3.168319	ु ढ	-0.9552693
-2.094408	ु ण	-1.320751
-1.197742	ु त	-1.926242
-3.239396	ु थ	-0.5611486
-1.391252	ु द	-1.241261
-2.138255	ु ध	-0.6920242
-1.121044	ु न	-1.587801
-5.850765	ु ऩ	-0.1675554
-1.573752	ु प	-1.612835
-2.572469	ु फ	-1.500255
-1.912512	ु ब	-1.656899
-1.912429	ु भ	-1.071542
-1.339523	ु म	-1.239448
-2.112328	ु य	-2.008267
-0.9618481	ु र	-0.8870795
-4.947675	ु ऱ	-0.5182689
-1.165982	ु ल	-0.4351254
-1.756608	ु व	-1.632412
-1.711285	ु श	-1.238132
-1.895334	ु ष	-0.8999159
-1.451103	ु स	-1.521057
-2.163563	ु ह	-1.146652
-3.686412	ु ़	-1.209167
-4.704637	ु ा	-0.06882873
-4.572011	ु ि	-0.3658761
-5.248705	ु ी	0.1423737
-4.508342	ु ु	-0.4220715
-5.510112	ु ू	-0.2478473
-6.026856	ु ृ	-0.2837434
-4.715102	ु ॅ	-0.9733115
-6.327886	ु ॆ
-5.248705	ु े	-0.1115644
-5.850765	ु ो	0.03881299
-6.327886	ु ौ
-3.667021	ु ्	-0.5035017
-6.026856	ु ॒
-3.777658	ु क़	-1.821164
-4.113042	ु ख़	-1.451333
-4.557034	ु ग़	-1.03495
-3.266057	ु ज़	-1.261091
-2.50775	ु ड़	-1.044487
-3.557034	ु ढ़	-0.5676457
-3.626318	ु फ़	-1.565121
-5.482788	ु य़	-0.2266733
-6.327886	ु ॠ
-5.424796	ु ॥	0.1109307
-5.248705	ु ०	-0.1890494
-6.327886	ु ॰
-0.9383344	ू </s>
-1.203673	ू ँ	-0.43823
-1.176555	ू ं	-0.6794755
-4.601201	ू ः	-0.400144
-3.278981	ू अ	-1.025929
-2.530274	ू आ	-1.964185
-3.774886	ू इ	-0.2061174
-3.39109	ू ई	-0.5031942
-4.555443	ू उ	-0.08386791
-4.308289	ू ऊ	-1.294112
-2.791018	ू ए	-0.1676519
-4.617591	ू ऐ	0.379505
-3.196874	ू ओ	-1.122956
-5.187466	ू औ	0.7353429
-1.822005	ू क	-0.8627114
-1.992595	ू ख	-1.749268
-2.320504	ू ग	-1.502994
-4.247234	ू घ	-0.512049
-4.731534	ू ङ	-0.9952904
-1.656956	ू च	-2.170837
-1.713917	ू छ	-1.870788
-1.683753	ू ज	-1.703444
-2.366046	ू झ	-1.565626
-5.078322	ू ञ	-0.9953244
-1.477857	ू ट	-1.236868
-2.168706	ू ठ	-1.648492
-2.273804	ू ड	-1.217573
-2.590869	ू ढ	-1.153279
-2.747007	ू ण	-0.8026966
-1.494066	ू त	-1.375453
-2.904488	ू थ	-0.606896
-1.60963	ू द	-1.45347
-2.462605	ू ध	-1.001372
-1.321525	ू न	-1.886572
-1.177179	ू प	-2.042073
-2.442168	ू फ	-1.373052
-1.615508	ू ब	-1.094531
-3.027813	ू भ	-0.9062779
-1.402584	ू म	-1.596733
-2.889862	ू य	-0.9036895
-0.678358	ू र	-1.656774
-1.214358	ू ल	-1.380257
-2.616423	ू व	-1.449054
-2.839161	ू श	-0.8998719
-2.019938	ू ष	-1.510282
-1.225374	ू स	-1.846228
-1.968631	ू ह	-1.137004
-4.059436	ू ़	-0.6196389
-4.918621	ू ा	-0.07832372
-4.802115	ू ि	-0.2788284
-5.333594	ू ी	-0.0931506
-5.555443	ू ु	-0.1401639
-4.634624	ू ू	-0.4903233
-5.129474	ू ृ	-0.2887698
-4.175232	ू ॅ	-1.147905
-6.032564	ू ॆ
-4.828444	ू े	-0.00106588
-6.032564	ू ै
-3.883345	ू ्	-0.5134308
-4.710345	ू क़	-0.643123
-5.078322	ू ख़	-0.39805
-5.731534	ू ग़	-0.2859533
-3.322447	ू ज़	-0.920364
-3.146074	ू ड़	-0.9362768
-2.922312	ू ढ़	-1.173706
-3.330996	ू फ़	-1.324403
-5.078322	ू ॢ	-0.8880262
-4.918621	ू ॥	0.6118805
-4.570167	ू ०	-0.4686066
-4.652353	ू ॰	-0.7050505
-2.176132	ृ </s>
-3.934382	ृ ँ	-0.6276911
-1.715584	ृ ं	-1.801601
-3.052142	ृ अ	-1.349721
-5.138502	ृ इ
-4.66138	ृ ऋ	-0.4239303
-5.138502	ृ ए
-4.837471	ृ ओ	-0.2861541
-1.718711	ृ क	-2.454414
-3.36765	ृ ख	-1.742853
-2.245851	ृ ग	-1.222247
-4.837471	ृ घ	-0.2452995
-5.138502	ृ ङ
-3.375074	ृ च	-1.423005
-4.439532	ृ छ	-0.5912818
-1.639502	ृ ज	-1.981343
-4.837471	ृ झ	-0.2859862
-5.138502	ृ ञ
-3.536442	ृ ट	-0.6150888
-4.235412	ृ ठ	-0.05919164
-4.293404	ृ ड	-0.1012576
-2.114838	ृ ढ	-1.711296
-1.799647	ृ ण	-1.466377
-0.374049	ृ त	-1.93088
-1.467051	ृ थ	-3.087772
-1.070539	ृ द	-2.274307
-2.467329	ृ ध	-1.889116
-2.800045	ृ न	-1.215549
-1.395934	ृ प	-2.043287
-4.66138	ृ फ	-0.1016457
-4.377783	ृ ब	-0.5904516
-2.27637	ृ भ	-2.271173
-2.945377	ृ म	-0.8259499
-3.390314	ृ य	-0.5034875
-3.240875	ृ र	-1.400617
-3.934382	ृ ल	-0.1474869
-3.257688	ृ व	-0.530762
-1.343039	ृ श	-2.272953
-0.6818927	ृ ष	-2.747279
-2.462723	ृ स	-1.667387
-1.37906	ृ ह	-2.482135
-4.024558	ृ ़	-0.3801611
-3.816282	ृ ा	-0.9858124
-3.96241	ृ ि	-0.3350747
-4.184259	ृ ी	-0.1040868
-4.66138	ृ ू	-0.1620283
-3.558718	ृ ृ	-1.146906
-5.138502	ृ े
-5.138502	ृ ै
-2.525718	ृ ्	-1.53893
-4.837471	ृ ॑	-0.2684873
-4.837471	ृ ॒
-4.837471	ृ ड़
-2.53212	ृ ढ़	-1.648645
-4.377783	ृ ०	1.24259
-1.01985	ॅ </s>
-1.034973	ॅ ं	-0.398455
-3.439806	ॅ इ
-3.439806	ॅ उ
-1.222322	ॅ क	-0.7290825
-2.594708	ॅ ख	-0.5227692
-1.796354	ॅ ग	-0.2691409
-1.558993	ॅ च	-0.8458005
-1.816557	ॅ ज	-1.224258
-1.594708	ॅ ट	-0.1950607
-1.418617	ॅ ड	-0.805591
-2.962685	ॅ ढ	-0.1488262
-2.209357	ॅ ण	-1.221057
-3.439806	ॅ त
-2.209357	ॅ थ	-0.5665718
-2.485564	ॅ द	-0.6255462
-2.209357	ॅ ध	-0.6007018
-1.184534	ॅ न	-0.5459301
-1.457535	ॅ प	-1.020501
-1.382901	ॅ फ	-0.9460355
-2.041866	ॅ ब	-0.6648411
-1.480765	ॅ म	-0.6287542
-1.806338	ॅ य	-1.111236
-0.8238562	ॅ र	-1.459465
-1.11347	ॅ ल	-1.024501
-1.676378	ॅ व	-0.9199358
-2.008442	ॅ श	-1.282856
-2.325863	ॅ ष	-1.028717
-1.462083	ॅ स	-0.8306973
-2.059595	ॅ ह	-0.7436448
-1.336002	ॅ ा	-0.6853063
-3.439806	ॅ ि
-3.439806	ॅ ी
-2.325863	ॅ ु	-0.7814404
-1.4145	ॅ ू	-1.445357
-2.360625	ॅ ॅ	-0.3444234
-3.439806	ॅ ग़
-2.962685	ॅ ड़	-0.07611258
-2.679088	ॅ फ़	-0.5094709
-0.2671497	ॆ </s>
-2.993877	ॆ ँ
-0.9564504	ॆ ं	-0.3194622
-2.516756	ॆ आ
-2.993877	ॆ इ
-2.993877	ॆ उ
-2.993877	ॆ ए
-2.993877	ॆ ऐ
-2.516756	ॆ ओ	-0.5287449
-1.595937	ॆ क	-0.4127819
-1.914696	ॆ ख	-0.1387144
-1.516756	ॆ ग	-0.8847585
-2.233159	ॆ च	-0.2319293
-1.879934	ॆ ज	-0.07183266
-1.789757	ॆ ट	-0.5877168
-2.233159	ॆ ठ
-2.294907	ॆ ड	-0.7119884
-2.516756	ॆ ण	0.1939618
-1.914696	ॆ त	0.1153968
-2.993877	ॆ थ
-1.817786	ॆ द	-0.8051619
-2.148779	ॆ ध	-0.9138266
-1.632149	ॆ न	-0.3307868
-2.692847	ॆ प
-2.090787	ॆ ब	-0.1342338
-2.993877	ॆ भ
-2.148779	ॆ म	-0.4371453
-2.090787	ॆ य	-0.1471415
-1.715123	ॆ र	-0.1417642
-1.402812	ॆ ल	-0.4069733
-2.039634	ॆ व	-0.2880901
-1.488727	ॆ श	-0.2842821
-1.952484	ॆ ष	-0.1704047
-1.738604	ॆ स	0.05440329
-2.516756	ॆ ह
-2.993877	ॆ ़
-2.993877	ॆ ढ़
-0.1943284	े </s>
-3.587645	े ँ	-1.324822
-0.8205417	े ं	-1.503227
-4.655388	े ः	-1.212077
-3.464158	े अ	-0.3557465
-3.490599	े आ	-0.4627644
-3.808302	े इ	-0.5666906
-3.740992	े ई	-0.5265411
-4.11132	े उ	0.1694118
-4.496915	े ऊ	-0.4043102
-6.176071	े ऋ	-0.3587924
-3.781391	े ए	-0.68111
-4.719687	े ऐ	-0.5119132
-4.218598	े ओ	-0.6643265
-4.328264	े औ	0.1699955
-1.632228	े क	-1.361789
-1.784493	े ख	-0.8977849
-1.989059	े ग	-2.344872
-3.717843	े घ	-0.6335853
-5.340632	े ङ	-0.2454861
-2.803765	े च	-1.351494
-3.911418	े छ	-1.368724
-2.106475	े ज	-0.9293988
-4.573889	े झ	-0.5223828
-6.993845	े ञ
-1.996878	े ट	-1.045263
-3.619096	े ठ	-0.9242193
-2.426618	े ड	-1.033991
-3.544829	े ढ	-1.474991
-3.186919	े ण	-1.92813
-1.753792	े त	-1.486087
-3.994279	े थ	0.1463206
-2.315955	े द	-1.464998
-3.309089	े ध	-0.7079564
-1.847502	े न	-1.275975
-2.617706	े प	-0.8278689
-3.343731	े फ	-0.8152032
-2.507939	े ब	-1.109234
-4.059346	े भ	-0.2952119
-2.296066	े म	-0.6634669
-2.56448	े य	-1.277119
-1.724301	े र	-1.645847
-6.148746	े ऱ	-0.6405663
-1.911081	े ल	-0.9917686
-2.05527	े व	-0.34726
-1.620408	े श	-1.477706
-2.490422	े ष	-0.6852081
-2.122295	े स	-0.8209827
-2.212305	े ह	-0.5640182
-3.679977	े ़	-1.772795
-4.449777	े ा	-0.6045455
-5.40278	े ि	-0.6870271
-5.613633	े ी	-0.3342445
-6.233126	े ु	-0.09253792
-6.692814	े ू	-0.2815225
-6.692814	े ृ	-0.2833113
-5.738572	े ॅ	-0.6225209
-4.258245	े े	-0.104113
-5.148746	े ै	0.3914098
-6.233126	े ो	-0.006903641
-4.072679	े ्	-1.363372
-6.294875	े ॑	-0.3553877
-6.090755	े ॒	-0.03956988
-5.261451	े क़	-0.6023653
-5.016121	े ख़	-0.4214289
-5.230417	े ग़	-0.7651793
-3.561838	े ज़	-1.504509
-3.411327	े ड़	-0.719552
-4.038157	े ढ़	-1.379679
-4.4688	े फ़	-0.0801357
-6.148746	े य़	-0.07494115
-4.925659	े ॥	-0.09544313
-5.321747	े ०	0.7638087
-5.253482	े ॰	-0.371779
-0.2764951	ै </s>
-3.119913	ै ँ	-1.365053
-0.5788887	ै ं	-0.8891926
-3.654626	ै ः	-1.302108
-3.294605	ै अ	-0.3108699
-3.320128	ै आ	-0.6283613
-3.249547	ै इ	-0.8328279
-4.556917	ै ई	0.3028712
-3.411702	ै उ	-0.7118762
-4.958062	ै ऊ	-0.3398522
-4.898064	ै ऋ	-0.8619004
-3.646701	ै ए	-0.772099
-4.031491	ै ऐ	-0.5041269
-4.491798	ै ओ	-0.6186284
-3.496219	ै औ	-0.3005185
-1.940256	ै क	-0.9000483
-3.870912	ै ख	-0.7485191
-2.637454	ै ग	-1.708563
-4.031491	ै घ	-0.909906
-5.310245	ै ङ	-0.9644564
-2.462826	ै च	-1.494403
-4.569882	ै छ	0.2763886
-2.378999	ै ज	-1.215065
-5.088396	ै झ	-0.372877
-2.462415	ै ट	-0.8966136
-1.863694	ै ठ	-2.052297
-2.712367	ै ड	-0.8762541
-5.009214	ै ढ	0.1405627
-3.114114	ै ण	-1.392483
-2.326581	ै त	-1.405591
-2.980508	ै थ	-0.5785782
-2.004965	ै द	-1.657688
-2.802613	ै ध	-1.545467
-1.648771	ै न	-1.205881
-6.389426	ै ऩ
-2.624577	ै प	-1.062306
-2.942268	ै फ	-1.201677
-2.760016	ै ब	-0.4987305
-3.435666	ै भ	-0.08258379
-2.297267	ै म	-1.047185
-1.913667	ै य	-1.709006
-1.811498	ै र	-1.612478
-5.067206	ै ऱ	-0.9513848
-1.891916	ै ल	-1.034888
-2.559094	ै व	-0.6713758
-2.523375	ै श	-1.682522
-3.527891	ै ष	-1.308344
-1.1948	ै स	-1.392955
-3.106577	ै ह	-0.2020752
-4.000259	ै ़	-1.242512
-4.798361	ै ा	-0.7424527
-5.628707	ै ि	-0.5954622
-6.389426	ै ी
-5.912304	ै ू	-0.5721299
-5.571652	ै ॅ	-0.3638404
-4.726668	ै े	-0.07988888
-4.317544	ै ै	-0.5507039
-4.29952	ै ्	-1.123578
-6.088396	ै ॑	-0.1435485
-6.389426	ै ॒
-5.486336	ै क़	-0.03243002
-5.486336	ै ख़	-0.3398961
-4.958062	ै ग़	-0.2897991
-3.821224	ै ज़	-1.138275
-4.649063	ै ड़	-1.207852
-5.310245	ै ढ़	-0.4657943
-4.136573	ै फ़	-1.085683
-5.628707	ै य़	-0.1847907
-6.389426	ै ॠ
-4.237137	ै ॥	-0.2588657
-5.213335	ै ०	0.3527145
-5.628707	ै ॰	-0.286451
-1.210783	ॉ </s>
-2.888731	ॉ ँ	-0.5002351
-1.858802	ॉ ं	-0.4223099
-3.577659	ॉ अ	-0.6093662
-3.945636	ॉ आ	-0.2240976
-2.260193	ॉ इ	-1.222149
-3.799508	ॉ ई	0.579545
-3.088304	ॉ उ	-0.4635243
-4.007784	ॉ ऊ	-0.2486501
-3.315547	ॉ ए	0.04902244
-4.644606	ॉ ओ	-0.1090465
-5.121727	ॉ औ
-1.070884	ॉ क	-1.901114
-4.644606	ॉ ख	-0.1413008
-0.6582673	ॉ ग	-2.549749
-4.644606	ॉ घ	-0.13837
-4.361009	ॉ ङ	-0.2416314
-2.611182	ॉ च	-0.7692762
-1.920057	ॉ ज	-1.686401
-5.121727	ॉ झ
-1.414668	ॉ ट	-1.229684
-5.121727	ॉ ठ
-1.440395	ॉ ड	-1.113429
-2.789289	ॉ ण	-1.997193
-3.565425	ॉ त	-0.3447023
-3.121727	ॉ थ	-0.524405
-3.365852	ॉ द	-0.6504778
-3.397451	ॉ ध	-0.7815454
-1.266996	ॉ न	-1.739485
-1.338395	ॉ प	-2.061754
-1.624107	ॉ फ	-2.275449
-1.770704	ॉ ब	-1.884686
-4.303954	ॉ भ	0.09437908
-1.319364	ॉ म	-1.631184
-1.56194	ॉ य	-1.162787
-1.04074	ॉ र	-1.424349
-4.820697	ॉ ऱ
-0.7887437	ॉ ल	-2.110754
-2.076796	ॉ व	-1.588195
-2.600589	ॉ श	-0.8053661
-1.476501	ॉ स	-1.041317
-3.577659	ॉ ह	-0.5792947
-3.842974	ॉ ़	-0.5599931
-4.820697	ॉ ा
-4.644606	ॉ ि	-0.5722487
-4.422757	ॉ ी	-0.7760966
-4.218637	ॉ ॅ	-0.2515028
-5.121727	ॉ े
-4.644606	ॉ ॉ	-0.6020338
-4.218637	ॉ ्	-0.2898701
-4.361009	ॉ क़	-0.3141482
-3.917607	ॉ ग़	-0.8541747
-3.945636	ॉ ज़	-0.9815686
-5.121727	ॉ ड़
-2.928603	ॉ फ़	-1.133991
-4.820697	ॉ य़	-0.2397191
-3.126092	ॉ ०	-1.586989
-2.816376	ॉ ॰	-1.707495
-0.4966314	ॊ </s>
-3.097604	ॊ ँ
-0.7492995	ॊ ं	-0.6302246
-3.097604	ॊ अ
-2.143362	ॊ इ	-0.28028
-1.50654	ॊ ई	-0.506859
-1.553536	ॊ क	-0.6086977
-2.796574	ॊ ख	-0.2697155
-1.129121	ॊ ग	-0.6933939
-3.097604	ॊ ङ
-2.398634	ॊ च	-0.2066052
-1.983661	ॊ ज	-0.142384
-3.097604	ॊ झ
-1.349416	ॊ ट	-0.4617252
-1.18379	ॊ ड	-0.4753209
-1.983661	ॊ त	-1.011649
-2.796574	ॊ द	-0.252812
-2.194514	ॊ ध	-0.4935157
-1.775385	ॊ न	-0.4431861
-2.056212	ॊ प	-0.5025844
-3.097604	ॊ फ
-1.983661	ॊ म	-0.37085
-2.398634	ॊ य	-0.3789196
-1.842332	ॊ र	0.04774311
-0.9332515	ॊ ल	-1.015228
-2.279831	ॊ व	-0.2752349
-2.252506	ॊ श	-0.1291603
-2.252506	ॊ ष	-0.1373062
-2.097604	ॊ स	-0.3546466
-2.279831	ॊ ह	-0.0645957
-3.097604	ॊ ़
-3.097604	ॊ क़
-1.951476	ॊ ड़	-0.2885489
-0.4205008	ो </s>
-3.424794	ो ँ	-1.314435
-0.6398444	ो ं	-1.226442
-4.713791	ो ः	-0.6890494
-3.775551	ो अ	-0.3223113
-3.670566	ो आ	-0.5771248
-3.098184	ो इ	-0.4259597
-1.588408	ो ई	-1.659918
-4.116811	ो उ	-0.110449
-3.962548	ो ऊ	-1.874278
-5.887571	ो ऋ	0.0602333
-3.157629	ो ए	0.002835751
-4.773228	ो ऐ	-0.4472361
-4.266273	ो ओ	-0.3103712
-4.576407	ो औ	0.1581115
-1.695894	ो क	-1.618164
-2.729997	ो ख	-1.31062
-1.180918	ो ग	-2.395179
-4.402777	ो घ	-0.3499638
-4.40774	ो ङ	-0.4334644
-1.916089	ो च	-1.735735
-4.063958	ो छ	-1.098496
-1.770262	ो ज	-1.000346
-3.266453	ो झ	-1.323637
-6.64829	ो ञ
-1.755138	ो ट	-1.215977
-3.395194	ो ठ	-1.373503
-1.792613	ो ड	-0.8433709
-4.056113	ो ढ	-0.9078088
-3.165702	ो ण	-1.299967
-1.399853	ो त	-1.99702
-3.594827	ो थ	-0.5500519
-2.371483	ो द	-1.111895
-2.039197	ो ध	-1.547862
-1.4381	ो न	-1.752841
-2.100404	ो प	-1.470591
-2.876776	ो फ	-1.355174
-2.356189	ो ब	-1.323659
-3.082442	ो भ	-0.4409
-2.264636	ो म	-1.411273
-2.674469	ो य	-0.9086226
-1.610652	ो र	-1.809439
-1.612656	ो ल	-0.9385729
-2.632595	ो व	-1.007512
-2.075697	ो श	-1.056498
-2.17888	ो ष	-1.129801
-1.830652	ो स	-1.474067
-2.00217	ो ह	-0.6640215
-3.782593	ो ़	-1.805498
-5.393017	ो ा	-0.2727982
-5.156928	ो ि	-0.7012496
-5.830516	ो ी	0.1613982
-5.887571	ो ॅ	-0.5584531
-6.64829	ो ॆ
-4.246889	ो े	-0.1900873
-5.41784	ो ै	-0.2114596
-6.34726	ो ॉ
-5.887571	ो ो	-0.06135392
-4.907927	ो ्	-0.330374
-5.949319	ो ॑	-0.05843007
-5.887571	ो ॒	-0.4152069
-6.64829	ो ॓
-5.7452	ो क़	-0.1004011
-5.233316	ो ख़	-0.3529003
-5.116811	ो ग़	-0.7186225
-3.560863	ो ज़	-0.7865292
-2.194161	ो ड़	-1.047638
-4.340794	ो ढ़	-1.181515
-3.92813	ो फ़	-1.487634
-6.34726	ो य़	-0.2397191
-5.949319	ो ॢ	-0.7257632
-5.233316	ो ॥	-0.1692293
-5.369536	ो ०	-0.5548981
-4.483937	ो ॰	-1.718702
-1.307348	ौ </s>
-3.879689	ौ ँ	0.02585465
-1.384343	ौ ं	-0.289377
-5.423757	ौ ः
-4.309813	ौ अ	-0.3603716
-3.185711	ौ आ	-1.173873
-4.423757	ौ इ	-0.005053848
-4.025817	ौ ई	-0.01270437
-4.193308	ौ उ	-0.2863922
-4.423757	ौ ऊ	-0.2415057
-3.193308	ौ ए	-1.03764
-4.605983	ौ ऐ	-0.4548719
-3.494338	ौ ओ	-1.468742
-5.122727	ौ औ
-0.9881514	ौ क	-1.704796
-2.404641	ौ ख	-1.556373
-2.113488	ौ ग	-1.628056
-3.604213	ौ घ	-0.3596635
-3.780304	ौ ङ	-0.684788
-2.351139	ौ च	-1.552699
-2.798445	ौ छ	-1.410483
-1.195511	ौ ज	-1.540714
-4.277629	ौ झ	-0.2960737
-1.322663	ौ ट	-2.248825
-3.976599	ौ ठ	-0.5926015
-1.570728	ौ ड	-1.665021
-3.149599	ौ ढ	-1.036224
-2.852048	ौ ण	-1.348994
-1.070399	ौ त	-1.755054
-1.920375	ौ थ	-1.368102
-1.523171	ौ द	-2.012808
-1.727226	ौ ध	-1.573653
-1.009201	ौ न	-1.515959
-5.423757	ौ ऩ
-2.084504	ौ प	-1.493844
-2.388327	ौ फ	-0.8323606
-2.113276	ौ ब	-1.546533
-2.406723	ौ भ	-2.832673
-2.134837	ौ म	-1.306484
-3.867454	ौ य	-0.2241983
-0.6192971	ौ र	-1.949403
-1.31553	ौ ल	-1.455931
-2.203649	ौ व	-1.022583
-1.935206	ौ श	-1.74081
-2.873528	ौ ष	-1.401236
-1.470191	ौ स	-1.724367
-1.830914	ौ ह	-1.172957
-3.660329	ौ ़	-0.8048247
-5.423757	ौ ा
-5.423757	ौ ि
-5.423757	ौ ी
-5.423757	ौ ू
