
\data\
ngram 1=153
ngram 2=6958
ngram 3=58689

\1-grams:
-0.6280846	</s>
-99	<s>	-4.891737
-2.339724	آ	-3.108506
-6.295546	آح	-2.565583
-5.497259	آھ	-2.648383
-4.411687	آہ	-3.262323
-3.37033	ؤ	-3.386809
-7.073697	ؤح	-1.566325
-7.499665	ؤھ	-1.231327
-5.907365	ؤہ	-2.670859
-2.058684	ئ	-3.202103
-5.350104	ئح	-2.779434
-6.155055	ئھ	-1.969409
-4.996783	ئہ	-3.034504
-0.9919133	ا	0
-2.965787	اح	-4.088114
-4.042844	اھ	-4.062829
-2.595693	اہ	-3.669784
-1.708797	ب	-1.665948
-3.627781	بح	-4.149757
-2.492138	بھ	-4.205707
-2.879656	بہ	-3.728939
-1.543455	ت	-2.682705
-3.220374	تح	-4.147005
-2.503292	تھ	-4.025253
-3.16386	تہ	-4.393739
-2.898921	ث	-3.713915
-7.277817	ثح	-1.407831
-6.584676	ثھ	-1.777154
-4.740921	ثہ	-3.460484
-1.928209	ج	-2.368274
-4.904169	جح	-3.605769
-3.062893	جھ	-4.082845
-3.114053	جہ	-4.088671
-2.273347	خ	-3.44915
-7.675757	خح	-1.032047
-6.737905	خھ	-1.580162
-4.855446	خہ	-3.287776
-1.707442	د	-2.071193
-5.001968	دح	-2.757185
-3.28592	دھ	-3.954364
-2.889589	دہ	-3.994826
-2.886309	ذ	-3.180054
-6.754938	ذح	-2.305553
-5.023994	ذھ	-3.073799
-3.709537	ذہ	-4.058607
-1.300589	ر	-1.245401
-3.063017	رح	-3.855043
-4.080279	رھ	-3.51743
-2.615493	رہ	-3.569656
-2.243483	ز	-2.580136
-5.15353	زح	-2.693923
-5.187676	زھ	-2.862702
-3.663679	زہ	-3.687019
-1.525055	س	-99
-4.617141	سح	-3.640629
-5.573094	سھ	-2.306523
-3.853741	سہ	-3.942849
-2.162108	ش	-3.32902
-4.985708	شح	-3.003458
-5.019659	شھ	-3.174815
-3.298305	شہ	-4.070651
-2.340209	ص	-3.422682
-3.520643	صح	-4.341195
-6.109516	صھ	-2.770057
-3.773002	صہ	-3.95104
-2.662014	ض	-3.791871
-4.058197	ضح	-3.770415
-6.157243	ضھ	-1.999363
-4.268536	ضہ	-4.108733
-2.472489	ط	-3.920435
-4.255333	طح	-3.833845
-5.779047	طھ	-2.194299
-4.027299	طہ	-3.863594
-2.816966	ظ	-3.847196
-7.131689	ظح	-1.316123
-5.684531	ظھ	-2.950536
-3.895992	ظہ	-4.588995
-1.981146	ع	-3.140445
-6.851848	عح	-1.615033
-5.597179	عھ	-2.543059
-3.444381	عہ	-4.235915
-2.766302	غ	-3.707026
-7.550818	غح	-1.356396
-7.30778	غھ	-1.011786
-4.89833	غہ	-3.877413
-2.092985	ف	-3.00476
-4.221598	فح	-3.189582
-5.331365	فھ	-3.290383
-3.644395	فہ	-3.991908
-2.09173	ق	-3.18394
-5.364356	قح	-2.92232
-5.723934	قھ	-2.519523
-3.603685	قہ	-3.726518
-1.516738	ل	-1.588502
-3.551426	لح	-4.118438
-4.620506	لھ	-3.673882
-2.637064	لہ	-3.415473
-1.412716	م	-1.384124
-3.058571	مح	-4.073297
-4.498942	مھ	-3.755193
-3.027558	مہ	-3.725837
-1.424857	ن	-1.768025
-4.224047	نح	-4.080141
-3.934553	نھ	-3.754795
-2.392014	نہ	-3.655948
-1.304196	و	-1.317537
-3.740325	وح	-3.645529
-4.359087	وھ	-4.103876
-2.714788	وہ	-3.664005
-2.381676	ٹ	-3.357237
-6.627833	ٹح	-1.549004
-3.278779	ٹھ	-4.035674
-4.466018	ٹہ	-3.20696
-1.932397	پ	-3.348534
-6.830658	پح	-1.644406
-3.206779	پھ	-4.597836
-3.082006	پہ	-4.312655
-2.438972	چ	-3.213395
-6.556281	چح	-1.557803
-2.89486	چھ	-4.14418
-3.688031	چہ	-3.776042
-2.705528	ڈ	-3.451747
-6.862844	ڈح	-1.54548
-4.087168	ڈھ	-4.238348
-4.895199	ڈہ	-3.137987
-2.780371	ڑ	-3.437247
-6.514389	ڑح	-1.73279
-3.34868	ڑھ	-4.429951
-4.69545	ڑہ	-3.427084
-4.382026	ژ	-2.925466
-7.111485	ژھ	-1.184303
-6.729632	ژہ	-1.589208
-1.3201	ک	-2.690588
-5.686752	کح	-2.086591
-2.673661	کھ	-4.12473
-2.260328	کہ	-3.693689
-2.051299	گ	-3.023168
-7.374727	گح	-0.9948585
-3.399908	گھ	-4.035105
-3.739402	گہ	-3.830386
-1.681386	ں	-2.860549
-5.588804	ںح	-2.34556
-6.249788	ںھ	-1.979164
-4.684605	ںہ	-3.185509
-1.096899	ی	-1.188
-3.568304	یح	-3.692342
-4.560257	یھ	-2.999093
-2.458008	یہ	-3.6845
-1.374461	ے	-1.967549
-4.851197	ےح	-3.416655
-6.09218	ےھ	-2.37589
-4.223433	ےہ	-3.918468

\2-grams:
-1.753662	<s> آ	-0.6874962
-5.876435	<s> آح	0.942264
-4.88233	<s> آھ	0.4327521
-3.791758	<s> آہ	-0.08266759
-4.76892	<s> ؤ	-0.5037527
-7.825825	<s> ؤھ
-6.922735	<s> ؤہ	0.1725212
-3.781442	<s> ئ	-0.4252415
-6.679697	<s> ئح	0.2388821
-6.047673	<s> ئھ	-1.276462
-6.192356	<s> ئہ	1.050725
-0.8828713	<s> ا	-1.467401
-2.795784	<s> اح	-2.168215
-4.14558	<s> اھ	-1.509067
-2.857963	<s> اہ	-2.423581
-1.424425	<s> ب	-1.966035
-3.167708	<s> بح	-0.9348745
-1.921242	<s> بھ	0.4846535
-2.428512	<s> بہ	-0.4275703
-1.518561	<s> ت	-0.6585035
-2.824654	<s> تح	-2.690026
-2.019948	<s> تھ	-0.651422
-3.261751	<s> تہ	-0.01713061
-3.021338	<s> ث	-0.8422978
-6.838185	<s> ثح	0.07927021
-7.348703	<s> ثھ
-6.281757	<s> ثہ	0.5205296
-1.477834	<s> ج	-0.7991033
-5.338686	<s> جح	0.5440284
-3.198275	<s> جھ	-1.194303
-2.930435	<s> جہ	-0.2277353
-1.889517	<s> خ	-1.240186
-7.394032	<s> خح
-7.223765	<s> خھ	0.4759547
-6.483402	<s> خہ	1.174272
-1.531484	<s> د	-1.529499
-5.568146	<s> دح	-0.9048148
-3.072372	<s> دھ	-0.8913515
-3.122998	<s> دہ	-0.2671452
-2.604604	<s> ذ	-2.135016
-6.595376	<s> ذح	-0.3923574
-4.97702	<s> ذھ	-0.5543427
-3.498916	<s> ذہ	-0.9627392
-1.759363	<s> ر	-0.9490693
-3.195427	<s> رح	-0.5058208
-3.71426	<s> رھ	-0.5416415
-2.235283	<s> رہ	-1.376778
-2.191622	<s> ز	-1.488905
-4.673536	<s> زح	-2.197933
-5.147306	<s> زھ	-1.727056
-3.987227	<s> زہ	-0.5496933
-1.292987	<s> س	-0.6797605
-4.315145	<s> سح	-1.243219
-5.263532	<s> سھ	0.4295782
-3.445143	<s> سہ	0.117584
-1.959599	<s> ش	-0.9524848
-5.374038	<s> شح	0.9457905
-4.624701	<s> شھ	-0.05478525
-2.910625	<s> شہ	-0.4160595
-2.090738	<s> ص	-0.7882736
-2.945789	<s> صح	-0.5265143
-5.608341	<s> صھ	-0.256633
-3.390825	<s> صہ	-0.175416
-2.46904	<s> ض	-1.559103
-5.389662	<s> ضح	-0.23141
-6.126855	<s> ضہ	0.9325593
-2.156097	<s> ط	-1.667914
-4.829313	<s> طح	0.6762071
-5.848101	<s> طھ	-0.8741047
-4.673536	<s> طہ	-0.6237348
-3.139296	<s> ظ	-1.02563
-7.223765	<s> ظح	0.04529887
-5.46789	<s> ظھ	-1.246044
-4.044141	<s> ظہ	-0.7150578
-1.750343	<s> ع	-1.135439
-6.784432	<s> عح	-0.2481246
-5.374038	<s> عھ	-1.31207
-3.600515	<s> عہ	-0.7374713
-2.488445	<s> غ	-0.992342
-6.980727	<s> غح	0.5135094
-7.223765	<s> غھ	0.07146911
-6.746644	<s> غہ	1.033807
-1.927009	<s> ف	-0.6026294
-4.571035	<s> فح	-0.8918567
-4.92985	<s> فھ	-0.2293675
-3.678798	<s> فہ	-0.5281682
-1.936891	<s> ق	-1.86568
-4.782463	<s> قح	-0.4597658
-6.348703	<s> قھ	-0.03911954
-4.442009	<s> قہ	-0.7707165
-1.634881	<s> ل	-1.428207
-3.857295	<s> لح	-0.9464327
-4.57007	<s> لھ	-0.821979
-3.314744	<s> لہ	-0.1396425
-1.07397	<s> م	-0.7260675
-2.459867	<s> مح	-0.216157
-4.765883	<s> مھ	0.2736835
-3.018384	<s> مہ	-0.6067402
-1.530353	<s> ن	-1.336366
-4.556078	<s> نح	-0.6089442
-4.024353	<s> نھ	-0.1365528
-1.947819	<s> نہ	-0.6926501
-1.370147	<s> و	-0.3726039
-3.629483	<s> وح	0.292732
-3.941086	<s> وھ	-0.8576417
-2.185395	<s> وہ	-0.4088504
-2.580255	<s> ٹ	-0.7458825
-6.570552	<s> ٹح	-0.461238
-3.294078	<s> ٹھ	-0.7923546
-4.593082	<s> ٹہ	-0.9150456
-1.509442	<s> پ	-0.3543949
-6.223765	<s> پح	0.7976973
-2.594544	<s> پھ	0.1868191
-2.467793	<s> پہ	-0.3493533
-2.050638	<s> چ	-0.6496506
-6.595376	<s> چح	0.1772623
-2.795047	<s> چھ	-0.848933
-3.573652	<s> چہ	-0.1417286
-2.470256	<s> ڈ	-0.9329772
-6.547071	<s> ڈح	-0.3550235
-3.515089	<s> ڈھ	-0.6006076
-5.099913	<s> ڈہ	-0.5505404
-4.298582	<s> ڑ	-0.5673594
-7.394032	<s> ڑح	-0.1881433
-6.307311	<s> ڑھ	0.965682
-6.903736	<s> ڑہ	0.2637468
-4.861565	<s> ژ	-0.7062101
-6.903736	<s> ژہ	0.0454454
-0.8212811	<s> ک	-0.6638923
-5.725454	<s> کح	-0.5722816
-2.659001	<s> کھ	-0.3863544
-1.73183	<s> کہ	0.0987668
-1.788005	<s> گ	-0.9355366
-6.825825	<s> گح	0.3308768
-2.817501	<s> گھ	0.06021142
-3.764485	<s> گہ	-1.467795
-3.833669	<s> ں	0.6275353
-6.825825	<s> ںح	-0.3883384
-7.825825	<s> ںھ
-6.281757	<s> ںہ	-0.2806163
-1.613834	<s> ی	-1.633604
-4.258093	<s> یح	-2.114364
-4.513013	<s> یھ	-1.153966
-1.995951	<s> یہ	-1.488827
-1.563637	<s> ے	-1.110371
-5.61631	<s> ےح	0.08140129
-6.649734	<s> ےھ	-0.9011862
-4.671705	<s> ےہ	-1.210302
-1.649168	آ </s>
-3.660876	آ آ	-0.9633463
-5.192105	آ آہ	-0.4861437
-2.29183	آ ؤ	-1.703064
-5.192105	آ ؤح	-0.3924616
-6.114194	آ ؤھ
-4.716254	آ ؤہ	-0.5612749
-1.055958	آ ئ	-2.054914
-5.211104	آ ئح	0.4607309
-4.910074	آ ئھ	-0.2887074
-4.733983	آ ئہ	0.7894406
-3.63132	آ ا	-0.5356508
-5.637073	آ اح	-0.5800439
-5.682402	آ اہ	-0.1213541
-1.426986	آ ب	-2.807754
-4.343342	آ بھ	-0.5513636
-4.570126	آ بہ	-1.366757
-1.383444	آ ت	-2.80775
-4.350766	آ تھ	-0.8775837
-5.269096	آ تہ	-0.1802893
-2.622133	آ ث	-2.91057
-1.267134	آ ج	-2.709993
-5.512134	آ جہ	-0.101599
-1.465171	آ خ	-2.772584
-1.705835	آ د	-2.774406
-2.39794	آ دھ	-2.30096
-4.667036	آ دہ	-0.5344257
-3.158026	آ ذ	-1.976883
-1.59011	آ ر	-2.137034
-6.114194	آ رح
-3.27787	آ رھ	-2.033425
-2.205066	آ رہ	-2.484869
-1.562281	آ ز	-3.310598
-6.114194	آ زہ
-1.515787	آ س	-2.582969
-6.114194	آ سھ
-5.682402	آ سہ	-0.1712995
-2.391889	آ ش	-1.869
-2.308558	آ ص	-2.517788
-5.637073	آ صح	-0.6019081
-6.114194	آ صہ
-4.3818	آ ض	-0.8576586
-6.114194	آ ضح
-5.159952	آ ط	-0.3620522
-5.637073	آ ظ	-0.1258932
-6.114194	آ ظہ
-3.781756	آ ع	-0.9434979
-2.005798	آ غ	-3.407927
-5.682402	آ غہ	1.521
-1.661917	آ ف	-2.383652
-6.114194	آ فھ
-5.126554	آ فہ	-0.6173372
-2.582205	آ ق	-2.227448
-5.211104	آ قہ	0.1114455
-1.999416	آ ل	-2.062416
-5.682402	آ لح
-4.523129	آ لھ	-0.7957886
-1.852123	آ لہ	-1.938818
-1.433967	آ م	-2.773227
-5.192105	آ مہ	-0.2043203
-1.017854	آ ن	-2.482873
-2.485397	آ نح	-3.00885
-5.269096	آ نھ	0.5891826
-3.582715	آ نہ	0.3229146
-1.721163	آ و	-2.365767
-5.159952	آ وہ	-0.2942114
-2.685897	آ ٹ	-1.80879
-5.637073	آ ٹح	-0.04849999
-2.186208	آ ٹھ	-2.063161
-4.667036	آ ٹہ	-0.4716305
-0.57203	آ پ	-2.890841
-5.682402	آ پح
-5.211104	آ پھ	0.3022689
-3.700894	آ پہ	-1.248226
-2.888885	آ چ	-2.034171
-4.582715	آ چھ	-0.9593503
-4.59568	آ چہ	-1.504768
-2.891738	آ ڈ	-1.865909
-2.864751	آ ڑ	-1.840587
-4.064976	آ ڑھ	-0.7150404
-5.637073	آ ڑہ	0.1460926
-4.59568	آ ژ	-0.7780888
-2.191054	آ ک	-1.293447
-3.77375	آ کھ	-0.4121843
-4.442096	آ کہ	-0.1041096
-1.435585	آ گ	-2.377294
-4.373831	آ گھ	-1.715282
-3.282964	آ گہ	-2.520188
-2.928652	آ ں	-0.3674091
-5.512134	آ ںح	0.01484534
-5.126554	آ ںہ	-1.042888
-1.306964	آ ی	-2.786098
-6.114194	آ یح
-5.126554	آ یھ	-0.8803976
-3.274716	آ یہ	-1.567489
-3.003604	آ ے	-0.534928
-5.682402	آ ےہ	-0.1599151
-2.178977	آح </s>
-0.3338789	آح ا	-1.533552
-0.7640036	آح ب	-0.8610597
-1.275887	آح ت	-0.1878248
-1.747185	آح د
-0.7810369	آح ر	-1.085591
-1.747185	آح س	-0.2243122
-1.747185	آح ق	-0.1956788
-1.701856	آح م	-0.5931477
-1.191337	آح ک	-1.032128
-1.468157	آھ </s>
-1.880337	آھ ا	-0.4058217
-2.527726	آھ ب	-0.1304777
-1.971879	آھ ت	-0.918714
-2.959518	آھ ر
-0.5186093	آھ س	-2.342746
-2.11442	آھ م	-0.8052747
-0.7090984	آھ ن	-1.959941
-2.005276	آھ و	-0.8545984
-2.357458	آھ ٹ	0.1213494
-0.3889754	آھ ی	-1.949211
-2.056428	آھ ے	0.7164169
-0.8436821	آہ </s>
-3.610547	آہ ئ	-0.0003134012
-2.222795	آہ ا	-0.9834267
-4.042339	آہ اہ
-4.042339	آہ ب
-3.565218	آہ ت	0.02960624
-4.042339	آہ تہ
-3.565218	آہ د	-0.1269248
-3.197241	آہ ر	-0.07777378
-0.3211884	آہ س	-3.688023
-3.610547	آہ ع	-0.1744793
-3.565218	آہ ل
-3.610547	آہ لہ	0.8699129
-2.216264	آہ م	-1.562626
-0.597514	آہ ن	-2.557803
-1.444644	آہ و	-1.581744
-1.620735	آہ ٹ	-2.051087
-3.565218	آہ پ	-0.5435778
-4.042339	آہ ک
-1.303559	آہ ی	-1.732439
-2.662128	آہ ے	0.2727194
-0.5584045	ؤ </s>
-3.703445	ؤ آ	-1.044623
-3.384687	ؤ ؤ	-1.101933
-3.320229	ؤ ئ	-0.05352372
-2.091103	ؤ ا	-1.229806
-5.083657	ؤ اہ
-3.058351	ؤ ب	-0.5375792
-3.761437	ؤ بھ	-0.643055
-4.651864	ؤ بہ
-2.612365	ؤ ت	-0.6487904
-5.083657	ؤ تح
-2.420899	ؤ تھ	-1.728479
-4.651864	ؤ تہ	-0.1409829
-2.076336	ؤ ث	-2.676686
-2.896136	ؤ ج	-0.939189
-5.083657	ؤ جھ
-4.606535	ؤ جہ	-0.2345807
-2.585346	ؤ خ	-1.38216
-1.601212	ؤ د	-1.219957
-4.606535	ؤ دح	-0.5972816
-4.161568	ؤ دہ	0.1634665
-2.69805	ؤ ذ	-1.706606
-1.72477	ؤ ر	-1.641792
-4.180567	ؤ رہ	-0.729967
-1.795855	ؤ ز	-1.629856
-5.083657	ؤ زہ
-1.432767	ؤ س	-2.074507
-4.651864	ؤ سہ
-3.393461	ؤ ش	-0.691237
-4.042264	ؤ ص	-0.5107042
-4.651864	ؤ ض	-0.2298891
-5.083657	ؤ ضہ
-2.966385	ؤ ط	-1.959942
-4.651864	ؤ طح	-0.2360081
-3.741234	ؤ ع	-0.9142301
-4.606535	ؤ غ	-0.4711903
-2.18548	ؤ ف	-1.849377
-4.096017	ؤ فہ	-0.6173372
-2.165102	ؤ ق	-1.788922
-1.702	ؤ ل	-1.700304
-3.515455	ؤ لہ	-0.4737883
-1.510089	ؤ م	-2.075307
-4.651864	ؤ مح	-0.2029968
-4.481596	ؤ مہ	0.1621278
-0.8343115	ؤ ن	-2.201744
-3.668683	ؤ نہ	-0.3468046
-2.282253	ؤ و	-1.385904
-4.004476	ؤ وہ	-0.1171643
-1.501821	ؤ ٹ	-1.48829
-3.226324	ؤ پ	-0.5424843
-5.083657	ؤ پھ
-2.946936	ؤ چ	-1.321624
-2.173032	ؤ ڈ	-0.7816708
-4.606535	ؤ ڈھ	-0.4726565
-4.004476	ؤ ڑ	-0.588893
-4.096017	ؤ ژ	-0.6055058
-2.412484	ؤ ک	-0.5914098
-5.083657	ؤ کھ
-3.804903	ؤ کہ	-0.6336486
-2.472996	ؤ گ	-1.196196
-4.096017	ؤ گھ	-1.077499
-0.49267	ؤ ں	-0.945714
-4.651864	ؤ ںہ
-2.219146	ؤ ی	-0.7812584
-3.804903	ؤ یہ	-0.4656952
-2.721929	ؤ ے	-0.008021832
-0.9542425	ؤح ا	-0.1395865
-0.2552725	ؤح د	-0.8839158
-0.5092745	ؤح ض	-0.3939516
-0.157092	ؤھ م	-0.4555116
-0.60206	ؤھ و	-0.5024159
-0.1410485	ؤہ </s>
-1.950608	ؤہ ا	0.06186422
-2.552668	ؤہ ت
-1.565029	ؤہ د	-1.061451
-2.552668	ؤہ ز
-2.552668	ؤہ س
-0.8624721	ؤہ م	-1.092031
-1.552668	ؤہ و	-0.1133795
-2.552668	ؤہ ی
-1.210245	ؤہ ے	0.3089316
-2.017941	ئ </s>
-5.918107	ئ آ	-0.1240611
-6.395228	ئ ؤ
-4.132777	ئ ئ	-0.3314888
-3.408457	ئ ا	-0.6930982
-6.395228	ئ اہ
-2.186841	ئ ب	-1.956714
-6.395228	ئ بح
-5.407589	ئ بھ	-0.02012706
-3.962259	ئ بہ	-1.554361
-2.82317	ئ ت	-1.428647
-4.782444	ئ تھ	-0.002835691
-4.365845	ئ تہ	-0.6830246
-3.831748	ئ ث	-2.649721
-2.403383	ئ ج	-2.454278
-5.440986	ئ جھ	-0.04831398
-5.918107	ئ جہ	-0.2345807
-3.370332	ئ خ	-1.736386
-1.810829	ئ د	-1.079185
-4.980255	ئ دح	-1.231629
-4.46581	ئ دھ	-1.831571
-2.245886	ئ دہ	-2.285276
-3.999029	ئ ذ	-1.191339
-5.473139	ئ ذھ	0.04632068
-6.395228	ئ ذہ
-1.518295	ئ ر	-1.890216
-5.052806	ئ رح	-0.2724417
-5.191109	ئ رھ	-0.6556073
-2.873306	ئ رہ	-1.919974
-2.038056	ئ ز	-1.422079
-5.094199	ئ زح	-0.4354733
-5.094199	ئ زھ	-0.6192345
-2.593276	ئ زہ	-2.031176
-2.415953	ئ س	-1.667574
-4.851161	ئ سہ	-1.326911
-2.03545	ئ ش	-2.554037
-5.407589	ئ شھ	-1.085268
-2.782339	ئ شہ	-2.303323
-3.628816	ئ ص	-2.012407
-6.395228	ئ صہ
-2.862602	ئ ض	-2.61578
-4.503134	ئ ضہ	-0.2474357
-2.92043	ئ ط	-2.42113
-6.395228	ئ طہ
-5.281285	ئ ظ	-1.023368
-2.032444	ئ ع	-2.77216
-5.492138	ئ عھ	-0.7675681
-5.191109	ئ عہ	-0.47473
-5.16478	ئ غ	-0.4178351
-2.688681	ئ ف	-1.907317
-4.193831	ئ فہ	-1.730732
-2.363336	ئ ق	-2.478658
-5.793169	ئ قھ	0.193274
-3.235962	ئ قہ	-1.289241
-1.475575	ئ ل	-2.814487
-5.918107	ئ لح	-0.5610086
-5.073009	ئ لھ	-0.6836042
-2.024993	ئ لہ	-1.462144
-1.770761	ئ م	-2.359454
-5.918107	ئ مح
-5.55013	ئ مھ	0.04398787
-2.660669	ئ مہ	-2.641503
-1.549306	ئ ن	-2.508604
-5.793169	ئ نھ	-0.5713335
-3.305323	ئ نہ	-1.977068
-2.40569	ئ و	-1.288646
-5.793169	ئ وھ	-0.4956338
-5.353836	ئ وہ	-0.1156566
-2.000199	ئ ٹ	-1.256523
-5.963436	ئ ٹھ	-0.1937817
-2.926586	ئ ٹہ	-1.777529
-2.864005	ئ پ	-1.751517
-3.418879	ئ چ	-1.710001
-5.793169	ئ چھ	0.1953197
-5.316047	ئ چہ	-0.5981603
-3.245702	ئ ڈ	-0.9333709
-6.395228	ئ ڈہ
-5.073009	ئ ڑ	-0.5854516
-5.407589	ئ ژ	-0.05641211
-2.819002	ئ ک	-1.318798
-5.353836	ئ کھ	0.07167226
-3.502578	ئ کہ	-1.86337
-3.794256	ئ گ	-0.8642612
-3.265217	ئ ں	0.03331196
-0.3778621	ئ ی	-2.684637
-5.073009	ئ یح	-0.3856221
-5.473139	ئ یھ	-0.2705558
-3.195748	ئ یہ	0.3188584
-0.4587776	ئ ے	-0.815774
-4.357802	ئ ےح	-0.5859123
-5.793169	ئ ےھ	-0.01173086
-3.255035	ئ ےہ	-1.427017
-0.01703334	ئح </s>
-3.10517	ئح ئ
-2.503109	ئح ا	-0.5555868
-3.10517	ئح ب
-1.690196	ئح ت	-1.259353
-3.10517	ئح تہ
-2.673377	ئح س	-0.1943492
-3.10517	ئح ض
-3.10517	ئح ظہ
-3.10517	ئح ع
-2.18308	ئح م	-0.4555116
-3.10517	ئح ی
-0.5157002	ئھ </s>
-0.7569619	ئھ ا	-1.444528
-1.823909	ئھ ت	-0.4300493
-2.30103	ئھ ج
-0.4202164	ئھ م	-1.788675
-1	ئھ ن	-1.091639
-1.823909	ئھ ی	-0.1370741
-0.03641604	ئہ </s>
-1.995786	ئہ ا	-0.4156342
-3.458184	ئہ ت
-2.470545	ئہ ج	-1.079148
-3.026392	ئہ رہ	-0.2345178
-3.458184	ئہ س
-2.856124	ئہ ل	-0.5011019
-1.428801	ئہ م	-1.935608
-3.458184	ئہ مہ
-1.733909	ئہ ن	-1.389343
-2.856124	ئہ و	-0.5601857
-3.026392	ئہ وہ	-0.2357172
-2.856124	ئہ ں	1.798807
-2.416792	ئہ ی	-0.03481379
-0.6886081	ا </s>
-3.872157	ا آ	-0.6949855
-6.420602	ا آھ	-0.3754249
-6.014837	ا آہ	-1.356959
-2.491639	ا ؤ	-1.709269
-6.558905	ا ؤح	-0.8177235
-6.616897	ا ؤھ	0.9907612
-5.019515	ا ؤہ	-0.5588182
-1.372571	ا ئ	-1.828851
-4.366826	ا ئح	0.2073578
-5.484271	ا ئھ	-0.5148356
-4.920415	ا ئہ	0.3217022
-2.800476	ا ا	-1.248222
-4.700067	ا اح	-0.7046186
-5.87093	ا اھ	-0.911944
-4.313392	ا اہ	-1.76298
-1.539868	ا ب	-1.111597
-4.887964	ا بح	0.4141717
-2.905608	ا بھ	-0.9290118
-3.181439	ا بہ	-1.062018
-1.394339	ا ت	-1.377734
-3.269232	ا تح	-1.96083
-2.120358	ا تھ	-1.154101
-3.523225	ا تہ	-0.2275991
-2.722502	ا ث	-1.270281
-6.558905	ا ثھ	5.960464e-08
-4.294382	ا ثہ	-1.028106
-2.139505	ا ج	-0.4866548
-4.981988	ا جح	-1.270344
-4.676665	ا جھ	-1.094675
-3.495056	ا جہ	-1.344266
-2.287964	ا خ	-0.7678595
-7.461995	ا خح
-5.721632	ا خہ	0.1026332
-1.621178	ا د	-0.6899154
-5.479723	ا دح	-0.4904287
-3.237773	ا دھ	-1.787455
-2.435196	ا دہ	-0.8867915
-3.102501	ا ذ	-0.9707627
-6.474355	ا ذح	-0.05864374
-5.479723	ا ذھ	-0.9918355
-4.68894	ا ذہ	0.5685363
-1.204117	ا ر	-1.922739
-3.81159	ا رح	-1.19829
-4.006237	ا رھ	-0.6740091
-2.53229	ا رہ	-0.9648633
-1.98113	ا ز	-0.3900533
-5.069298	ا زح	-1.504827
-4.867602	ا زھ	-1.081938
-3.099211	ا زہ	-1.56461
-1.183266	ا س	-2.272069
-4.043031	ا سح	-1.358374
-6.030631	ا سھ	0.2079148
-4.377776	ا سہ	-0.1992472
-2.247217	ا ش	-1.317829
-6.474355	ا شح	0.931465
-5.027426	ا شھ	-0.8382607
-3.876986	ا شہ	-0.8793843
-2.189258	ا ص	-0.839292
-3.774377	ا صح	-1.041347
-7.030202	ا صھ
-3.985018	ا صہ	-1.630347
-2.532423	ا ض	-0.9981375
-3.101364	ا ضح	-1.75512
-6.558905	ا ضھ	-0.9318513
-4.466798	ا ضہ	-1.125165
-2.618675	ا ط	-0.7613184
-6.474355	ا طح	0.03146283
-5.956845	ا طھ	-0.6877797
-3.960662	ا طہ	-1.700997
-2.767179	ا ظ	-0.5774672
-7.461995	ا ظح
-5.201923	ا ظھ	-1.229759
-3.180825	ا ظہ	-2.562531
-2.000998	ا ع	-1.457195
-6.030631	ا عھ	0.09506452
-4.838746	ا عہ	0.3968482
-2.829851	ا غ	-0.8175075
-4.551371	ا غہ	-0.4043986
-1.846944	ا ف	-1.128011
-4.694097	ا فح	-1.129078
-5.713807	ا فھ	-0.9514967
-3.243827	ا فہ	-2.034368
-1.952227	ا ق	-1.430086
-6.382813	ا قح	-0.2841794
-5.999597	ا قھ	-1.066604
-3.549188	ا قہ	-1.64192
-1.115253	ا ل	-0.914856
-2.777078	ا لح	-1.633458
-4.233594	ا لھ	-0.2930281
-2.772464	ا لہ	-0.5551119
-1.275672	ا م	-1.6944
-4.183699	ا مح	-0.4936433
-5.192482	ا مھ	-0.1650035
-2.796264	ا مہ	-1.187527
-0.9936106	ا ن	-1.255756
-3.590948	ا نح	-1.324742
-3.197744	ا نھ	-1.729314
-2.084317	ا نہ	-0.792438
-1.190948	ا و	-2.083718
-4.93955	ا وح	-0.5795223
-4.849211	ا وھ	-1.215274
-2.948245	ا وہ	-1.192302
-2.902867	ا ٹ	-0.7681608
-6.558905	ا ٹح	-0.7939456
-2.74884	ا ٹھ	-1.64322
-4.827518	ا ٹہ	-1.0929
-1.73805	ا پ	-1.956951
-4.526487	ا پھ	-0.4508181
-4.364738	ا پہ	-1.080825
-2.828012	ا چ	-0.8927007
-6.507752	ا چح	-0.28286
-2.722795	ا چھ	-1.223624
-4.147075	ا چہ	-1.598793
-3.401259	ا ڈ	-0.4421051
-5.150241	ا ڈھ	-1.515507
-4.867602	ا ڈہ	-1.663833
-2.769016	ا ڑ	-0.7744937
-3.645157	ا ڑھ	-1.232368
-4.375991	ا ڑہ	-1.425229
-4.675953	ا ژ	-0.4895146
-7.461995	ا ژھ
-6.539906	ا ژہ	0.003997684
-1.767275	ا ک	-1.143337
-5.905692	ا کح	-0.08171535
-3.076174	ا کھ	-1.641704
-2.792167	ا کہ	-0.4226272
-2.079	ا گ	-1.320734
-4.85454	ا گھ	-0.1430669
-4.345387	ا گہ	-1.7744
-1.887634	ا ں	-0.1823807
-6.030631	ا ںح	0.1385532
-6.539906	ا ںھ	-0.2055976
-4.825507	ا ںہ	-0.6545264
-1.386305	ا ی	-2.028667
-5.115642	ا یح	-0.1405913
-4.647082	ا یھ	-0.7588146
-3.188762	ا یہ	-0.6752315
-2.709478	ا ے	-0.4471867
-6.285903	ا ےح	-0.2858278
-7.030202	ا ےھ
-5.930516	ا ےہ	-0.1546133
-1.033517	اح </s>
-5.056341	اح آ	-0.2262302
-5.488133	اح ؤ
-5.056341	اح ئ
-1.22122	اح ا	-2.320678
-4.500494	اح اہ	0.084854
-0.5357767	اح ب	-2.633815
-5.488133	اح بح
-3.688793	اح بھ	-0.3096559
-1.992866	اح بہ	-3.276131
-0.9283581	اح ت	-3.355325
-3.897069	اح تہ	-1.147588
-2.323483	اح ث	-1.968167
-2.656263	اح ثہ	-0.54413
-3.380923	اح ج	-1.224524
-5.056341	اح جہ
-1.508585	اح د	-1.014956
-4.257684	اح دح	-0.09392646
-3.816035	اح دھ	-1.406154
-2.978931	اح دہ	-1.083115
-3.834921	اح ذ	-0.4037989
-5.011012	اح ذہ	-0.5585663
-2.199884	اح ر	-1.376364
-3.643035	اح رہ	-1.678135
-2.596039	اح ز	-1.750516
-1.181622	اح س	-3.212244
-5.488133	اح سہ
-3.028741	اح ش	-1.487504
-3.412586	اح شہ	-1.922587
-3.091934	اح ص	-2.394327
-2.890438	اح صہ	-0.7167751
-3.05197	اح ض	-1.814402
-3.492498	اح ضہ	-0.3498086
-4.446741	اح ط	-0.2986488
-4.533891	اح طہ	-0.1875904
-3.408952	اح ظ	-1.210674
-5.488133	اح ظھ
-1.725455	اح ظہ	-3.653298
-4.533891	اح ع	-0.1752319
-5.488133	اح غ
-3.187103	اح ف	-1.127584
-4.643035	اح فہ	-0.1575747
-1.813731	اح ق	-2.876291
-2.927032	اح قہ	-1.486141
-1.749511	اح ل	-1.957184
-3.681953	اح لہ	-0.7069181
-0.9018047	اح م	-2.997828
-4.533891	اح مھ	-0.9801037
-4.886073	اح مہ	-0.5807174
-2.379568	اح ن	-1.943941
-5.056341	اح نہ
-1.412732	اح و	-2.620118
-5.488133	اح وہ
-5.488133	اح ٹ
-3.662058	اح پ	-1.489578
-1.492103	اح ک	-2.141958
-5.011012	اح کہ	0.06532145
-1.306004	اح ی	-2.322406
-4.585043	اح یح	-0.4056731
-2.454308	اح یہ	-1.845033
-3.969619	اح ے	1.136697
-5.488133	اح ےہ
-0.8459245	اھ </s>
-3.934061	اھ ؤ	-0.5997866
-1.562993	اھ ئ	-2.216216
-1.564227	اھ ا	-1.038343
-1.947289	اھ اھ	-2.735305
-4.411182	اھ اہ
-1.727235	اھ ب	-2.062646
-4.411182	اھ بح
-3.180733	اھ بھ	-1.098274
-3.369789	اھ بہ	-0.9018705
-1.049643	اھ ت	-1.989718
-3.489093	اھ تہ	-0.09885493
-3.979389	اھ ث	-0.2249346
-3.013242	اھ ج	-1.285806
-4.411182	اھ جھ
-1.423516	اھ د	-1.310854
-2.787933	اھ دھ	-1.173384
-2.114517	اھ دہ	-1.156538
-3.411182	اھ ذ	-0.9253391
-3.979389	اھ ذہ	-0.1925887
-0.8892596	اھ ر	-1.509023
-3.411182	اھ رھ	-0.9072241
-2.293911	اھ رہ	-1.035242
-3.411182	اھ ز	-0.4961091
-2.934061	اھ س	-1.430799
-1.727235	اھ ش	-2.104185
-4.411182	اھ ص
-4.411182	اھ ف
-3.508092	اھ ق	-1.126529
-0.8615656	اھ ل	-2.32228
-2.625852	اھ لح	-1.744578
-2.678788	اھ لھ	-1.658678
-2.381798	اھ لہ	-0.2070198
-1.23625	اھ م	-1.964919
-4.411182	اھ مہ
-1.967137	اھ ن	-1.040536
-1.284726	اھ و	-1.422502
-3.934061	اھ وح	-0.5987051
-2.519087	اھ ٹ	-1.738602
-3.979389	اھ پ
-3.934061	اھ چ	-0.5314546
-3.489093	اھ ڈ	0.03390304
-3.180733	اھ ڑ	-0.4946228
-2.553849	اھ ک	-1.621218
-2.84298	اھ گ	-0.8258682
-0.8488889	اھ ی	-1.940856
-3.934061	اھ یہ	0.2332748
-1.215559	اھ ے	-0.3123422
-0.6342159	اہ </s>
-5.381104	اہ آ	-0.5620974
-4.936136	اہ ؤ	-0.07096901
-1.520906	اہ ئ	-2.743222
-1.866424	اہ ا	-1.799207
-5.858225	اہ اح
-2.035861	اہ اہ	-3.575811
-2.19774	اہ ب	-2.487291
-5.858225	اہ بھ
-4.267161	اہ بہ	-1.421374
-1.179325	اہ ت	-2.895273
-5.858225	اہ تح
-4.314157	اہ تھ	-0.4617361
-4.936136	اہ تہ	-0.175775
-3.487158	اہ ج	-1.276352
-3.563759	اہ جہ	-2.128442
-5.426433	اہ خ
-1.417915	اہ د	-1.58386
-4.654106	اہ دح	-0.254856
-4.224757	اہ دھ	-1.545605
-2.045713	اہ دہ	-2.033705
-4.870586	اہ ذ	0.0861793
-0.9946766	اہ ر	-1.748717
-4.395827	اہ رح	-0.4097312
-4.443252	اہ رھ	-1.322197
-2.02476	اہ رہ	-1.650788
-3.584068	اہ ز	-1.407226
-5.256166	اہ زہ	0.5948008
-3.205979	اہ س	-1.015129
-1.763056	اہ ش	-2.753599
-5.858225	اہ شہ
-5.858225	اہ ص
-5.858225	اہ ض
-4.903983	اہ ع	-0.1349901
-5.858225	اہ غ
-4.579472	اہ ف	-0.6584272
-4.395827	اہ ق	-1.180643
-5.426433	اہ قہ	0.8296056
-1.139533	اہ ل	-2.834467
-2.596725	اہ لح	-3.213687
-5.858225	اہ لھ
-3.270514	اہ لہ	-0.9898647
-0.9555157	اہ م	-3.070866
-4.936136	اہ مح	-0.6090715
-4.110037	اہ مہ	-1.406868
-1.983454	اہ ن	-2.231967
-4.381104	اہ نہ	-0.5710971
-1.234016	اہ و	-2.314566
-5.858225	اہ وح
-5.381104	اہ وھ	-0.5494482
-4.602953	اہ وہ	-0.7692642
-2.378938	اہ ٹ	-1.757626
-5.858225	اہ ٹہ
-4.176984	اہ پ	-0.3660386
-5.858225	اہ پہ
-4.858225	اہ چ	-0.2565902
-5.858225	اہ چہ
-4.058885	اہ ڈ	-1.210851
-4.712098	اہ ڑ	-0.4317278
-5.858225	اہ ڑہ
-2.554166	اہ ک	-1.510389
-5.426433	اہ کہ
-3.034751	اہ گ	-1.525802
-3.801321	اہ گہ	-1.491979
-4.682134	اہ ں	0.6323627
-0.9405047	اہ ی	-2.432145
-5.426433	اہ یھ	-0.2351947
-3.988994	اہ یہ	-1.033897
-1.061818	اہ ے	-0.3726838
-3.816833	اہ ےح	-1.400046
-3.837036	اہ ےہ	-1.167949
-0.6658339	ب </s>
-3.71573	ب آ	-0.9947761
-6.313322	ب آہ	-0.2351359
-5.082356	ب ؤ	-0.08884096
-2.885076	ب ئ	-2.094104
-5.631171	ب ئھ	-0.8956987
-4.989239	ب ئہ	-0.3986652
-0.7435996	ب ا	-1.718225
-3.003017	ب اح	-1.19534
-3.420009	ب اھ	-1.605112
-2.108807	ب اہ	-2.952601
-2.61986	ب ب	-1.573238
-5.790872	ب بح	-0.9870821
-5.46636	ب بھ	-0.2070667
-5.703721	ب بہ	0.2319529
-1.48757	ب ت	-1.929775
-4.736514	ب تح	-0.4410992
-4.214914	ب تھ	-1.770883
-2.768306	ب تہ	-2.04879
-3.920337	ب ث	-1.253935
-5.790872	ب ثہ	0.5874764
-2.058183	ب ج	-2.148671
-3.337044	ب جھ	-1.589191
-5.02911	ب جہ	0.200983
-2.194482	ب خ	-1.460364
-1.576472	ب د	-1.756644
-4.071172	ب دح	-2.29942
-3.059283	ب دھ	-1.578443
-3.487916	ب دہ	-0.7739719
-2.973159	ب ذ	-1.418876
-6.745114	ب ذھ
-5.01272	ب ذہ	-1.267081
-1.1486	ب ر	-1.303218
-3.706891	ب رح	-0.9381878
-4.278246	ب رھ	0.1230356
-3.094127	ب رہ	-0.9239558
-2.396868	ب ز	-1.75032
-6.745114	ب زھ
-4.178088	ب زہ	-0.2711983
-1.97859	ب س	-1.880295
-5.757474	ب سح	0.2338099
-5.46636	ب سھ	-1.09952
-4.900016	ب سہ	-0.7272176
-2.535733	ب ش	-1.978597
-6.745114	ب شح
-5.757474	ب شھ	-0.3337754
-4.206038	ب شہ	-1.618155
-2.254159	ب ص	-2.130775
-4.753888	ب صح	0.1444035
-5.201046	ب صہ	-0.35229
-3.004436	ب ض	-1.927598
-6.143054	ب ضھ	-0.5285162
-2.97729	ب ضہ	-1.052769
-2.404392	ب ط	-2.418516
-4.611575	ب طح	-0.4232402
-6.267992	ب طھ	-0.1322071
-2.78393	ب طہ	-2.398552
-3.168772	ب ظ	-2.07133
-6.313322	ب ظھ	-0.1532238
-5.239964	ب ظہ	-1.633285
-1.475412	ب ع	-1.862035
-6.313322	ب عح	-0.2091829
-4.912605	ب عھ	0.174235
-3.495426	ب عہ	0.1168694
-2.212436	ب غ	-1.968544
-4.592825	ب غہ	-0.09417582
-3.991531	ب ف	-0.5671934
-5.757474	ب فح	-0.3910514
-5.757474	ب فہ	0.02035969
-1.772606	ب ق	-1.664615
-6.313322	ب قح	-0.2331334
-5.631171	ب قھ	-0.2023597
-2.863843	ب قہ	-1.344333
-1.297539	ب ل	-2.265721
-4.540994	ب لح	-1.415564
-4.357724	ب لھ	-1.320865
-2.643883	ب لہ	-2.030332
-2.527235	ب م	-1.351082
-5.213635	ب مح	-0.6258336
-6.745114	ب مھ
-4.781326	ب مہ	-0.8966607
-1.127115	ب ن	-2.336675
-5.598986	ب نح	-0.9612527
-4.881791	ب نھ	-0.7992169
-4.535599	ب نہ	-1.166688
-1.374825	ب و	-1.204124
-3.295944	ب وح	-1.478398
-4.288748	ب وھ	-1.05193
-3.455079	ب وہ	-1.088981
-2.696633	ب ٹ	-0.4457805
-3.302164	ب ٹھ	-0.5379268
-4.448449	ب ٹہ	-1.722933
-3.602725	ب پ	-1.10811
-4.394866	ب پھ	-1.84935
-5.757474	ب پہ	-0.2175451
-1.890025	ب چ	-2.592301
-3.184729	ب چھ	-1.501133
-2.879773	ب چہ	-1.850046
-4.043546	ب ڈ	-1.043208
-6.745114	ب ڈح
-4.191231	ب ڈھ	-1.28883
-6.267992	ب ڈہ
-1.734984	ب ڑ	-1.961785
-5.631171	ب ڑح	-0.09004134
-2.169014	ب ڑھ	-0.4076273
-3.949234	ب ڑہ	-0.403353
-6.313322	ب ژ
-6.143054	ب ژھ	0.23117
-2.29036	ب ک	-1.667198
-6.745114	ب کح
-3.238068	ب کھ	-2.208653
-2.151186	ب کہ	-1.390651
-2.846498	ب گ	-1.985786
-4.217484	ب گھ	-1.431344
-5.514665	ب گہ	-1.219742
-5.073016	ب ں	0.6709784
-6.745114	ب ںہ
-1.012834	ب ی	-1.498223
-3.250681	ب یح	-1.591802
-4.184012	ب یھ	-0.0601753
-2.89674	ب یہ	0.1356578
-1.705311	ب ے	-0.8290148
-3.863159	ب ےح	-1.725125
-5.46636	ب ےھ	-1.110935
-4.634524	ب ےہ	-0.8564098
-0.6610826	بح </s>
-4.394386	بح آ	-0.2317117
-0.7326518	بح ا	-2.584278
-2.718969	بح ب	-1.545616
-4.224119	بح بھ	-0.03729295
-4.826179	بح بہ
-2.739819	بح ت	-1.247017
-0.6661904	بح ث	-2.829162
-3.68005	بح ثہ	1.149929
-3.503959	بح ج	-0.1488482
-2.608695	بح د	-1.094366
-4.224119	بح ذ	-0.1150613
-0.6319417	بح ر	-1.785044
-2.423058	بح رح	-2.388343
-4.224119	بح رھ	-0.02052378
-3.093785	بح رہ	-1.52432
-2.483756	بح س	-1.625651
-3.503959	بح ش	-0.2993669
-4.826179	بح ص
-4.349057	بح صہ	0.5897179
-3.110175	بح ض	-1.002717
-3.838539	بح ظ	-1.000149
-4.826179	بح ظہ
-2.466343	بح ف	-1.552717
-1.342306	بح ق	-2.665353
-4.224119	بح قھ	-0.3065929
-3.871936	بح قہ	0.7730865
-3.570906	بح ل	0.1517242
-4.394386	بح لہ	-0.2325591
-2.183714	بح م	-2.05487
-2.732757	بح ن	-1.870945
-3.622059	بح نہ	-1.001261
-1.533037	بح و	-2.305078
-3.019999	بح وح	-1.665802
-4.826179	بح وھ
-3.503959	بح وہ	-0.6621881
-4.349057	بح ٹ	-0.4430352
-4.349057	بح چ	-0.09103782
-4.394386	بح ڈ	-0.1255337
-4.826179	بح ژ
-2.438789	بح ک	-1.517628
-3.59573	بح گ	-1.250269
-1.41355	بح ی	-1.893971
-4.224119	بح یح	0.5108941
-4.394386	بح یہ	0.5992525
-3.784786	بح ے	1.608724
-2.997518	بھ </s>
-5.058687	بھ آ	-0.0239803
-4.974138	بھ ؤ	-0.2574166
-2.643714	بھ ئ	-2.199056
-0.8460937	بھ ا	-2.944851
-3.765878	بھ اہ	-1.404465
-3.844506	بھ ب	-1.926478
-4.148864	بھ بھ	-2.125888
-2.507848	بھ ت	-1.688161
-3.426483	بھ تہ	-2.082086
-4.974138	بھ ث	-0.4123273
-2.727767	بھ ج	-2.193278
-5.359717	بھ جھ	-0.1679152
-5.007535	بھ خ	-0.7819458
-3.592561	بھ د	-1.283962
-4.053292	بھ ذ	-1.79776
-4.619355	بھ ذہ	-1.318234
-1.313222	بھ ر	-2.369669
-4.047964	بھ رح	-1.902587
-4.221415	بھ رہ	-1.037456
-5.529985	بھ ز	-0.09469739
-3.696959	بھ س	-2.089409
-4.530414	بھ ش	-0.6037531
-5.484656	بھ ف	-0.5728536
-5.529985	بھ ق	-0.1763301
-1.914814	بھ ل	-2.825671
-4.563838	بھ لہ	-0.3089781
-3.055442	بھ م	-2.404266
-2.652573	بھ ن	-1.434617
-5.961777	بھ نہ
-1.653768	بھ و	-2.038981
-1.8467	بھ ٹ	-2.430793
-4.683024	بھ ٹھ	-1.544139
-3.667311	بھ ٹہ	-1.653599
-4.129269	بھ پ	-0.9845554
-5.961777	بھ پھ
-4.530414	بھ چ	-0.6292568
-5.359717	بھ ڈ	0.01065354
-2.587763	بھ ڑ	-1.728287
-5.039688	بھ ڑھ	0.02113104
-5.961777	بھ ڑہ
-2.930369	بھ ک	-1.346371
-4.785686	بھ کھ	0.1836782
-2.224187	بھ گ	-2.630536
-5.484656	بھ ں	1.234423
-0.1326409	بھ ی	-2.403794
-4.757658	بھ یح	0.06918269
-5.961777	بھ یھ
-4.417709	بھ یہ	0.8075984
-3.476056	بھ ے	0.4427456
-0.4746927	بہ </s>
-4.620024	بہ آ	-0.06440312
-4.574266	بہ ؤ	-0.9008693
-4.671176	بہ ئ	-0.2578602
-1.252689	بہ ا	-2.041861
-5.574266	بہ اح
-5.097145	بہ اہ	-0.1126713
-2.462332	بہ ب	-1.529005
-4.729168	بہ بھ	-0.3504862
-4.729168	بہ بہ	-0.4388737
-0.325957	بہ ت	-3.595957
-5.574266	بہ تھ
-4.972206	بہ تہ	-0.147588
-3.875296	بہ ث	-0.8081792
-3.225961	بہ ج	-2.426744
-3.774926	بہ د	-0.7047508
-3.723008	بہ ذ	-1.741279
-5.574266	بہ ذھ
-4.343817	بہ ذہ	-1.211779
-1.883716	بہ ر	-1.558448
-1.810689	بہ رح	-3.67585
-5.574266	بہ رھ
-2.67995	بہ رہ	-2.420026
-3.629784	بہ ز	-1.154921
-4.042788	بہ س	-0.3112755
-2.579949	بہ ش	-2.971143
-5.142474	بہ ص	-0.2242781
-5.574266	بہ صح
-5.574266	بہ ض
-5.142474	بہ ط	-0.1309592
-5.574266	بہ ظ
-5.097145	بہ ع	-0.1275045
-4.972206	بہ ف	-0.09640887
-4.652177	بہ ق	-0.5704947
-2.482599	بہ ل	-2.543142
-2.288484	بہ م	-1.541686
-4.652177	بہ مح	-0.4130774
-5.142474	بہ مہ	0.1129243
-1.476523	بہ ن	-2.289181
-5.142474	بہ نہ
-2.311104	بہ و	-1.642133
-5.574266	بہ وہ
-3.532874	بہ ٹ	-1.249137
-4.574266	بہ ٹھ	-0.5141925
-4.370146	بہ پ	-0.5928611
-5.574266	بہ پہ
-4.652177	بہ چ	0.01339819
-3.605783	بہ ڑ	-1.306805
-2.663642	بہ ک	-1.650591
-3.781875	بہ گ	-1.757651
-3.716934	بہ ں	0.07532609
-1.323212	بہ ی	-2.447199
-4.042788	بہ یہ	-0.7087331
-3.031441	بہ ے	0.1234134
-0.4853992	ت </s>
-4.695611	ت آ	-0.6111665
-6.910455	ت آھ
-4.448057	ت ؤ	-0.8886641
-3.681798	ت ئ	-1.138483
-5.910455	ت ئہ	0.05317974
-0.8428753	ت ا	-2.174093
-3.388663	ت اح	-2.475658
-4.318278	ت اھ	-1.732761
-2.27058	ت اہ	-2.937399
-1.849014	ت ب	-2.426848
-4.758167	ت بح	-1.520075
-3.990854	ت بھ	-1.394471
-2.637639	ت بہ	-1.96929
-2.951032	ت ت	-0.7073878
-5.631701	ت تح	-0.3946292
-5.495481	ت تھ	-0.5581498
-5.31939	ت تہ	-0.0786683
-3.563711	ت ث	-1.448421
-6.910455	ت ثہ
-2.239736	ت ج	-1.908096
-5.922815	ت جح	-1.089622
-2.987107	ت جھ	-3.055594
-4.467975	ت جہ	-1.002368
-2.221591	ت خ	-1.20422
-2.247093	ت د	-1.9538
-5.680006	ت دھ	-0.2861999
-5.132304	ت دہ	-0.04699033
-3.054936	ت ذ	-1.623907
-5.588236	ت ذھ	-0.4827365
-3.352107	ت ذہ	-2.73698
-1.447865	ت ر	-1.734129
-4.477486	ت رح	-0.2435344
-4.548727	ت رھ	-0.8924806
-3.434929	ت رہ	-0.4936485
-3.305473	ت ز	-1.082792
-6.007365	ت زھ	-0.4343419
-5.391941	ت زہ	-0.4702424
-2.505262	ت س	-1.6941
-5.956213	ت سح	-0.3895284
-6.478662	ت سھ	-0.1974133
-5.162267	ت سہ	-0.8194326
-2.304461	ت ش	-2.024865
-6.433334	ت شح	-0.1394431
-5.08438	ت شھ	-1.287434
-3.722652	ت شہ	-1.975359
-2.117112	ت ص	-2.279046
-3.967951	ت صح	-1.833454
-6.433334	ت صھ	-0.5629079
-5.706335	ت صہ	-0.03867102
-3.220791	ت ض	-0.4278817
-4.290319	ت ضح	-0.8233835
-3.519873	ت ط	-1.846823
-6.308395	ت طح	0.07972556
-4.806651	ت طھ	-1.331561
-4.360227	ت طہ	-2.211123
-2.430506	ت ظ	-2.813461
-5.655182	ت ظھ	-0.9735795
-5.257243	ت ظہ	-1.01545
-1.412049	ت ع	-2.316083
-6.433334	ت عھ	-0.3606776
-4.141078	ت عہ	-0.8837327
-3.108708	ت غ	-0.9172843
-2.14161	ت ف	-2.089594
-5.342253	ت فح	-0.7080739
-5.238357	ت فھ	-1.215027
-3.913069	ت فہ	-1.685203
-1.871688	ت ق	-1.810818
-5.922815	ت قح	-0.02692524
-5.796512	ت قھ	-0.5174462
-5.655182	ت قہ	0.6648628
-1.793605	ت ل	-2.425956
-5.956213	ت لح	-0.2121531
-5.186179	ت لھ	-1.009455
-3.925478	ت لہ	-1.019746
-1.562142	ت م	-2.040204
-4.78335	ت مح	-1.012866
-3.108777	ت مھ	-2.363911
-2.314705	ت مہ	-2.292247
-1.706053	ت ن	-2.355335
-5.568032	ت نح	-0.6145465
-4.582076	ت نھ	-0.4089364
-2.989914	ت نہ	-0.8324659
-1.02909	ت و	-1.46735
-3.028443	ت وح	-1.399433
-4.560207	ت وھ	-0.8675194
-3.066288	ت وہ	-0.3282425
-5.139603	ت ٹ	-0.1528947
-3.682825	ت پ	-0.5920575
-5.910455	ت پھ	0.002661536
-5.495481	ت پہ	-1.014886
-5.588236	ت چ	-0.4172359
-5.922815	ت چھ	0.2031208
-5.548727	ت ڈ	-0.1401665
-3.532057	ت ڑ	-0.9894923
-6.910455	ت ڑہ
-6.433334	ت ژ	-0.5945346
-6.910455	ت ژہ
-1.646795	ت ک	-1.480608
-6.478662	ت کح
-5.267002	ت کھ	-0.4884803
-4.505621	ت کہ	-0.6489242
-2.578785	ت گ	-2.428095
-5.988366	ت گھ	0.240354
-6.065357	ت گہ	-0.1593445
-4.720123	ت ں	0.4912491
-1.021841	ت ی	-2.193422
-4.817033	ت یح	-0.8053132
-5.308395	ت یھ	-0.218319
-3.671656	ت یہ	0.2070673
-1.094159	ت ے	-1.119226
-5.495481	ت ےح	-0.8336777
-5.31939	ت ےھ	-1.329058
-3.092229	ت ےہ	-1.521278
-1.145102	تح </s>
-4.388459	تح آ	-0.4397139
-4.801764	تح ئ	-0.2318951
-0.7698283	تح ا	-2.648779
-5.233557	تح اح
-2.140836	تح ب	-1.897784
-3.853346	تح بہ	-1.220629
-1.016626	تح ت	-2.555441
-4.756436	تح تح	-0.5999395
-3.702078	تح تھ	-1.357866
-3.093678	تح تہ	-0.9524016
-4.330467	تح ث	0.1391558
-3.665355	تح ج	-0.5506409
-1.868819	تح د	-1.706187
-4.233557	تح دھ	-0.9435452
-1.197447	تح دہ	-2.509969
-3.299059	تح ذ	-1.763457
-0.5723314	تح ر	-3.04097
-4.801764	تح رہ
-3.364325	تح ز	-0.5295105
-1.837358	تح س	-1.932313
-5.233557	تح سہ
-4.029437	تح ش	-1.541043
-1.611447	تح ص	-3.444189
-4.801764	تح صہ	0.9556955
-3.294038	تح ض	-1.013312
-3.978285	تح ط	-0.8717802
-4.154376	تح ظ	-1.023368
-4.279315	تح ع	-0.9306126
-1.242641	تح ف	-2.837465
-1.955948	تح فہ	-2.456125
-0.8669473	تح ق	-3.16505
-5.233557	تح قح
-4.245917	تح قہ	1.035814
-2.279315	تح ل	-1.441245
-4.756436	تح لہ	0.5039353
-1.944191	تح م	-1.962868
-5.233557	تح مح
-4.279315	تح مہ	-0.6509933
-2.721674	تح ن	-0.8681557
-3.715043	تح نہ	-1.32862
-2.214441	تح و	-1.445234
-4.801764	تح ٹ	-0.0770576
-3.853346	تح پ	-1.370229
-5.233557	تح ڈ
-1.473587	تح ک	-2.539964
-5.233557	تح کہ
-2.312391	تح ی	-1.067535
-4.801764	تح یح	-0.2359129
-3.702078	تح یہ	-0.3426859
-4.388459	تح ے	1.253392
-0.6669558	تھ </s>
-3.986835	تھ آ	-1.413145
-5.348563	تھ ؤ	-0.593797
-4.151283	تھ ئ	-1.141437
-0.4821209	تھ ا	-2.515304
-4.720174	تھ اح	-0.8682173
-5.950624	تھ اھ
-3.449564	تھ اہ	-1.740104
-4.432109	تھ ب	0.001107395
-5.950624	تھ بھ
-4.287866	تھ ت	-0.2883428
-5.105525	تھ تھ	-0.3423826
-5.950624	تھ تہ
-4.118114	تھ ج	-1.087194
-3.446833	تھ د	-1.345676
-5.518831	تھ دہ	0.557631
-3.574046	تھ ذ	-2.318887
-1.719715	تھ ر	-2.120771
-4.83668	تھ رہ	-0.2473038
-4.307171	تھ ز	-0.4500837
-5.518831	تھ زہ	0.5651747
-3.92124	تھ س	-0.7370053
-5.028534	تھ ش	-0.4987507
-5.348563	تھ ع	-0.0872931
-4.67187	تھ ف	-0.1500076
-4.909231	تھ ق	-0.6806104
-2.791658	تھ ل	-1.384934
-4.608201	تھ لہ	-0.2557325
-2.668455	تھ م	-1.526638
-4.962984	تھ مہ	-0.7417181
-2.677159	تھ ن	-1.680726
-5.473502	تھ نہ	-0.399201
-1.543198	تھ و	-2.225795
-4.382421	تھ وہ	-0.03576076
-4.031545	تھ ٹ	-0.7477932
-5.950624	تھ ٹہ
-3.075562	تھ پ	-1.544671
-5.950624	تھ پہ
-5.950624	تھ چ
-4.307171	تھ ڈ	-0.7059838
-5.950624	تھ ڈھ
-3.119394	تھ ڑ	-1.493228
-2.244332	تھ ک	-1.602391
-4.83668	تھ گ	-0.1462874
-5.028534	تھ ں	1.206236
-0.6955221	تھ ی	-2.403881
-5.518831	تھ یح	-0.2142751
-4.503465	تھ یہ	0.3257319
-0.7194571	تھ ے	-1.081817
-4.720174	تھ ےح	-0.8602819
-4.317155	تھ ےہ	-1.596336
-0.1878748	تہ </s>
-5.290099	تہ آ
-4.085979	تہ ئ	-1.202235
-0.7062885	تہ ا	-2.139186
-4.812978	تہ اح	-0.1287266
-3.415038	تہ اہ	-1.179396
-3.105408	تہ ب	-1.074879
-5.290099	تہ بہ
-2.915351	تہ ت	-1.728498
-4.858307	تہ تح	-0.100764
-5.290099	تہ ث
-2.296222	تہ ج	-2.113182
-4.688039	تہ جہ	0.3298039
-2.027885	تہ د	-1.646957
-4.688039	تہ دہ	-0.09946665
-1.357879	تہ ذ	-3.741289
-4.034827	تہ ذہ	-0.9529907
-1.991028	تہ ر	-1.802316
-5.290099	تہ رہ
-2.697922	تہ ز	-2.012126
-2.8939	تہ س	-1.45497
-4.30246	تہ ش	-0.1094921
-4.30246	تہ ع	-0.00624438
-4.858307	تہ ف
-5.290099	تہ فہ
-4.858307	تہ ق
-2.765054	تہ ل	-1.646616
-1.916452	تہ م	-2.026237
-5.290099	تہ مح
-4.858307	تہ مہ	-0.191072
-2.690216	تہ ن	-1.228911
-1.891465	تہ و	-2.109068
-4.858307	تہ ٹ
-4.30246	تہ پ	0.05439755
-4.812978	تہ چ	-0.1024241
-4.812978	تہ ڈ	-0.5004103
-3.75862	تہ ڑ	-1.416
-3.483919	تہ ک	-0.3185721
-4.30246	تہ کہ	0.6375072
-5.290099	تہ گھ
-1.607413	تہ ی	-2.032465
-2.797339	تہ یہ	-1.657426
-1.61533	تہ ے	-1.346668
-4.688039	تہ ےہ	-0.002050307
-0.5098644	ث </s>
-4.023529	ث آ	-0.6438646
-5.123215	ث ؤ	-0.2224525
-4.651917	ث ئ	-0.3651665
-0.7482442	ث ا	-2.36942
-4.513615	ث اہ	-0.6725274
-1.349559	ث ب	-2.831425
-5.555007	ث بھ
-4.475826	ث بہ	-0.9018705
-2.062806	ث ت	-1.662982
-4.632918	ث تھ	-0.6293142
-4.036493	ث تہ	-0.7630119
-4.408879	ث ث	-0.03055735
-4.408879	ث ج	0.05604482
-4.513615	ث خ	0.04142611
-3.668517	ث د	-0.7420189
-5.123215	ث دہ
-0.7304195	ث ر	-1.779422
-4.276254	ث رح	-0.2519067
-3.791579	ث رھ	-1.375787
-2.000639	ث رہ	-2.206458
-4.632918	ث ز	0.00358022
-4.092609	ث س	-0.5585002
-4.107849	ث ش	-0.5118885
-4.651917	ث ص	-0.4496276
-4.513615	ث صح	-0.8570843
-5.123215	ث ض	-0.2284148
-3.183939	ث ع	-1.559823
-4.253977	ث غ	-0.8882687
-3.975224	ث ف	-0.2973312
-4.632918	ث فہ	-0.07993942
-1.695509	ث ق	-3.036449
-5.555007	ث قھ
-2.674766	ث قہ	-1.814554
-1.377125	ث ل	-2.600754
-3.830731	ث لھ	-1.770528
-3.031261	ث لہ	-1.258621
-1.361021	ث م	-2.246253
-5.077886	ث مھ	-0.1225082
-3.183939	ث مہ	-1.974702
-1.620509	ث ن	-2.789558
-5.555007	ث نھ
-4.212584	ث نہ	-1.139564
-1.596157	ث و	-2.25698
-5.077886	ث وھ	-0.5853058
-5.123215	ث وہ	0.4239487
-5.555007	ث ٹ
-4.023529	ث پ	-0.09515521
-4.952947	ث پھ	0.4651571
-5.555007	ث چھ
-4.709909	ث ڑ	-0.1227121
-5.555007	ث ڑھ
-3.297329	ث ک	-0.7529882
-5.123215	ث کہ	0.4312991
-4.952947	ث گ	-0.03480454
-4.567368	ث ں	0.7457581
-1.042576	ث ی	-2.359373
-2.816227	ث یہ	-1.602416
-2.035836	ث ے	-0.7858851
-4.952947	ث ےہ	-0.1171137
-1.255273	ثح ذ
-1.255273	ثح ر
-0.7781513	ثح س	-0.1306342
-0.3331833	ثح ض	-0.3939516
-0.6532125	ثح نہ	0.1651836
-0.9154504	ثھ </s>
-0.4117283	ثھ ا	-1.369215
-1.30103	ثھ ذ	0.07837821
-1.90309	ثھ ل
-0.440692	ثھ م	-1.364583
-1.90309	ثھ ن
-1.90309	ثھ ی
-1.471298	ثھ ے	1.434577
-0.01137584	ثہ </s>
-3.282789	ثہ آ	-0.2262302
-2.158279	ثہ ا	-1.119039
-3.714581	ثہ ب
-3.714581	ثہ تھ
-3.282789	ثہ ر
-3.714581	ثہ س
-2.726942	ثہ ص	-1.046699
-3.714581	ثہ ط
-3.714581	ثہ ل
-2.33437	ثہ م	-0.9884987
-2.714581	ثہ ن	-0.6650671
-2.600638	ثہ و	-0.2440489
-2.792492	ثہ پ	-0.4191893
-3.282789	ثہ ک
-2.726942	ثہ ی	-0.3150948
-2.726942	ثہ ے	0.5799347
-1.115486	ج </s>
-4.270429	ج آ	-0.753396
-5.183279	ج ؤ	-0.488529
-6.525702	ج ؤہ
-2.437991	ج ئ	-2.233236
-6.04858	ج ئھ	-0.09664701
-4.073915	ج ئہ	-1.357214
-0.5531766	ج ا	-2.733191
-4.35544	ج اح	-1.78024
-3.638084	ج اھ	-1.341965
-2.312423	ج اہ	-1.699861
-1.210369	ج ب	-2.964378
-5.571459	ج بح	-0.9829096
-4.000657	ج بھ	-0.7220557
-3.928006	ج بہ	-0.9617637
-1.978087	ج ت	-2.319054
-5.680604	ج تح	-0.2566902
-3.654713	ج تھ	-0.7025641
-2.907758	ج تہ	-2.235039
-4.512865	ج ث	-0.9406016
-4.712788	ج ثہ	-0.2320676
-2.80159	ج ج	-1.87717
-5.183279	ج جھ	-0.8020236
-5.44652	ج جہ	-0.4106719
-5.246948	ج خ	-0.3360857
-1.713544	ج د	-1.424543
-5.110728	ج دح	-1.292931
-3.63194	ج دھ	-1.618595
-2.815669	ج دہ	-1.56866
-2.340443	ج ذ	-3.004586
-6.093909	ج ذہ	-0.1925887
-1.579957	ج ر	-2.111196
-3.467655	ج رح	-1.981492
-4.628075	ج رھ	-1.381534
-3.223587	ج رہ	-1.90251
-1.997338	ج ز	-1.803518
-6.525702	ج زح
-5.321582	ج زھ	-0.4278382
-3.35691	ج زہ	-1.716438
-1.14481	ج س	-2.942553
-6.525702	ج سھ
-5.020552	ج سہ	-0.7096881
-3.088268	ج ش	-1.7904
-5.603612	ج شہ	-0.3967329
-3.710124	ج ص	-1.27559
-5.063303	ج صح	-1.240048
-5.411758	ج صہ	0.04564989
-4.872489	ج ض	-0.3680739
-6.093909	ج ط
-5.44652	ج ظ	-0.8330902
-2.324031	ج ع	-2.443334
-6.04858	ج عھ	-0.4665381
-4.385822	ج عہ	-1.378165
-3.288158	ج غ	-2.657698
-3.395046	ج ف	-1.215836
-5.321582	ج فہ	-0.7307325
-5.183279	ج ق	-0.7482028
-5.622612	ج قہ	0.1114455
-1.568799	ج ل	-2.098181
-5.680604	ج لح	0.08372496
-5.078544	ج لھ	-1.116896
-3.529628	ج لہ	-0.7904094
-1.446311	ج م	-2.402983
-4.9575	ج مح	-0.7320265
-4.229036	ج مھ	-0.8190712
-2.027364	ج مہ	-1.035626
-1.171687	ج ن	-2.925943
-5.295253	ج نح	-0.01473062
-3.160027	ج نھ	-1.308344
-2.299024	ج نہ	-1.617131
-0.7916822	ج و	-1.598793
-3.930205	ج وح	-0.5676231
-4.181309	ج وھ	-1.362114
-2.553823	ج وہ	-0.5129404
-2.886913	ج ٹ	-1.697223
-5.295253	ج ٹھ	-0.3624576
-6.093909	ج ٹہ	0.2444423
-3.433332	ج پ	-1.425751
-4.457516	ج پھ	-1.9963
-6.04858	ج پہ	0.1600147
-4.205555	ج چ	-1.707963
-5.44652	ج چھ	-0.7718586
-5.923642	ج چہ	0.4781076
-4.047135	ج ڈ	-1.578866
-2.716883	ج ڑ	-0.5502424
-5.078544	ج ڑھ	-0.9020249
-5.246948	ج ڑہ	-0.7789693
-6.525702	ج ژ
-2.651336	ج ک	-1.380796
-4.902452	ج کھ	-0.6861224
-4.617217	ج کہ	-0.5915601
-2.719997	ج گ	-2.2665
-4.576312	ج گھ	-1.184916
-1.991307	ج گہ	-2.943167
-4.801426	ج ں	0.104089
-1.109046	ج ی	-2.522642
-2.844551	ج یح	-2.606222
-5.183279	ج یھ	0.1436189
-3.392802	ج یہ	0.4777834
-2.031394	ج ے	-0.2604806
-5.163974	ج ےح	-0.700991
-5.538062	ج ےھ	-1.029005
-5.183279	ج ےہ	0.4447201
-0.9635187	جح </s>
-0.1301502	جح ا	-2.359335
-1.842536	جح ت	-1.264719
-3.550106	جح تہ
-3.550106	جح ج
-3.550106	جح جھ
-1.878008	جح د	-1.610776
-3.118314	جح دھ	-0.1769551
-3.550106	جح دہ
-2.595864	جح ر	-0.7333644
-2.948046	جح رھ	0.08322476
-1.282934	جح ش	-2.19838
-3.550106	جح ض
-3.118314	جح ط	-0.2360602
-2.319657	جح ف	-1.142184
-2.044956	جح فہ	-1.045126
-3.550106	جح ق
-2.705008	جح م	-0.8052747
-3.072985	جح ن	-0.09395926
-2.118742	جح و	-0.6362617
-3.118314	جح ک
-3.118314	جح گ	-0.2343009
-1.572382	جح ی	-1.178945
-3.072985	جح یح	-0.05349058
-1.993804	جح ے	0.1024578
-0.6581213	جھ </s>
-4.487947	جھ آ	-0.44288
-2.909595	جھ ئ	-1.766285
-1.076622	جھ ا	-2.41142
-3.527715	جھ اہ	-1.740517
-4.244909	جھ ب	0.0008057356
-5.391037	جھ بھ
-1.088252	جھ ت	-2.698375
-2.803327	جھ ج	-1.621823
-2.940788	جھ جھ	-2.40428
-2.526526	جھ د	-2.234112
-4.788978	جھ دھ	-0.1180424
-4.403398	جھ دہ	-0.2970113
-5.391037	جھ ذ
-2.45352	جھ ر	-1.214333
-4.02931	جھ ز	-0.7810795
-4.913916	جھ زھ	-0.5932957
-4.959245	جھ زہ	0.5651747
-3.446555	جھ س	-1.3676
-5.391037	جھ ع
-1.799528	جھ ل	-2.046107
-4.545939	جھ لہ	0.503252
-2.752548	جھ م	-1.158422
-1.211572	جھ ن	-2.943994
-4.186917	جھ نہ	-0.9235917
-1.103661	جھ و	-2.39262
-1.928789	جھ ٹ	-2.410189
-2.49067	جھ پ	-1.804409
-4.959245	جھ چ
-4.010826	جھ ڈ	-1.359802
-2.071515	جھ ڑ	-0.5566826
-4.959245	جھ ڑھ	-0.09758921
-1.70736	جھ ک	-2.748947
-4.487947	جھ کھ	-0.9385744
-1.876623	جھ گ	-2.2441
-5.391037	جھ گھ
-5.391037	جھ ں
-1.507036	جھ ی	-2.013184
-5.391037	جھ یہ
-0.4465696	جھ ے	-0.661123
-3.993098	جھ ےح	-0.5675035
-4.403398	جھ ےھ	0.03184555
-4.068818	جھ ےہ	0.2481391
-0.2434115	جہ </s>
-5.339877	جہ آ
-4.339877	جہ ئ	-1.037205
-0.4932983	جہ ا	-3.114909
-5.339877	جہ اہ
-4.339877	جہ ب	0.1045838
-5.339877	جہ بھ
-1.799798	جہ ت	-2.412312
-4.908084	جہ تہ	0.2183896
-3.795809	جہ ج	-0.6839262
-1.539641	جہ د	-1.688218
-4.494779	جہ دہ	-0.4159115
-5.339877	جہ ذ
-2.756678	جہ ر	-0.7096903
-4.298484	جہ رہ	-0.053977
-4.260695	جہ ز	-0.591647
-5.339877	جہ زہ
-3.941936	جہ س	-0.1725913
-4.908084	جہ صح	-0.03849602
-4.862755	جہ ض	-0.5857935
-4.352237	جہ ط	-1.047763
-4.417788	جہ ف	-0.5469709
-5.339877	جہ ق
-2.036033	جہ ل	-2.618991
-4.385634	جہ لہ	0.1059953
-2.864205	جہ م	-1.764278
-4.737817	جہ مہ	-0.573377
-1.615683	جہ ن	-2.516974
-5.339877	جہ نھ
-2.323261	جہ و	-1.481692
-4.339877	جہ وھ	-0.9349664
-5.339877	جہ وہ
-3.877479	جہ ٹ	-1.380161
-4.084604	جہ پ	-1.118243
-3.599514	جہ ڑ	-0.4125416
-3.453386	جہ ک	-0.4128013
-4.908084	جہ کہ	-0.2220279
-3.431391	جہ گ	-1.779917
-5.339877	جہ گہ
-4.908084	جہ ں	1.6004
-2.033237	جہ ی	-1.619859
-4.494779	جہ یہ	-0.06775516
-1.974201	جہ ے	-0.9111214
-1.273733	خ </s>
-4.311337	خ آ	-0.4710404
-4.299756	خ ؤ	-1.024315
-4.305508	خ ئ	-0.563318
-0.7805287	خ ا	-2.803767
-5.748776	خ اح
-6.180569	خ اھ
-4.231179	خ اہ	-0.526273
-1.433289	خ ب	-3.27494
-5.25848	خ بھ	0.4750239
-4.55732	خ بہ	-1.444519
-0.9491352	خ ت	-2.519387
-5.25848	خ تھ	-0.503283
-2.426374	خ تہ	-2.065994
-4.216781	خ ث	-1.584989
-3.868815	خ ج	-0.9252846
-6.180569	خ جہ
-4.749206	خ خ	-0.9854167
-1.274315	خ د	-2.241785
-5.034441	خ دہ	-0.3823779
-2.482643	خ ذ	-1.261457
-4.818841	خ ذھ	-1.366782
-3.533186	خ ذہ	-2.243314
-1.153505	خ ر	-2.149085
-5.101388	خ رح	-0.5769014
-4.517811	خ رھ	-1.434473
-3.46041	خ رہ	-0.9496869
-2.357944	خ ز	-1.615659
-6.180569	خ زہ
-2.538699	خ س	-1.825647
-6.180569	خ سھ
-5.335471	خ سہ	-0.6736982
-1.985472	خ ش	-1.619734
-5.578509	خ شح	0.9086707
-5.578509	خ شہ	0.05440091
-1.235524	خ ص	-2.544496
-5.25848	خ صح	-0.3010148
-4.879539	خ صہ	0.981058
-2.930149	خ ض	-1.570335
-5.578509	خ ضہ	1.612516
-1.444827	خ ط	-2.948182
-5.748776	خ طھ
-2.958113	خ طہ	-1.898499
-4.464566	خ ظ	-0.574217
-6.180569	خ ظہ
-3.990237	خ ع	-1.158944
-5.748776	خ غ	-0.1862544
-2.158099	خ ف	-1.952108
-4.567785	خ ق	-1.107959
-5.748776	خ قہ	0.8296056
-1.009103	خ ل	-2.661281
-4.976449	خ لھ	-0.3101387
-2.411192	خ لہ	-2.589104
-1.880343	خ م	-2.533446
-5.19293	خ مح	-0.462732
-5.748776	خ مھ	-0.2310957
-5.004478	خ مہ	-0.8270847
-2.342224	خ ن	-1.723116
-3.758965	خ نہ	-2.132829
-0.7307221	خ و	-2.319048
-5.703448	خ وح	-0.5962357
-5.748776	خ وھ	-0.2092756
-4.184934	خ وہ	-0.2930686
-3.466239	خ ٹ	-1.575622
-4.589505	خ پ	-1.409536
-3.415646	خ چ	-2.040989
-5.748776	خ چھ	-0.003087297
-5.101388	خ چہ	-0.5981603
-5.703448	خ ڈ
-5.004478	خ ڑ	-0.009685993
-5.748776	خ ژ
-4.193798	خ ک	-0.4813489
-5.578509	خ کہ	0.6297061
-4.388177	خ گ	-1.704749
-5.19293	خ ں	1.204341
-1.145921	خ ی	-2.728399
-4.85835	خ یح	-0.7736498
-6.180569	خ یھ
-4.066626	خ یہ	-0.9438828
-3.06696	خ ے	-0.08145559
-0.4712975	خح ا	-0.2298601
-0.4712975	خح ت
-0.90309	خح د
-0.90309	خح و
-0.1332113	خھ ا	-0.8137082
-1.724276	خھ ر
-1.724276	خھ ص
-0.7700334	خھ م	-0.9021847
-1.724276	خھ ن
-1.724276	خھ و
-0.009394699	خہ </s>
-2.753911	خہ ئ	-0.8989027
-2.136611	خہ ا	-0.623296
-3.599009	خہ ب
-3.121888	خہ ت	0.02960624
-2.695919	خہ ج	-0.336969
-3.167217	خہ د
-3.121888	خہ ر	-0.3811819
-3.599009	خہ ق
-3.167217	خہ ل	-0.1674184
-2.753911	خہ م	-0.4489918
-2.67692	خہ ن	-0.5360062
-2.996949	خہ و	-0.5024159
-2.996949	خہ ک	-0.08458075
-3.599009	خہ گ
-3.167217	خہ ے	1.434577
-0.5729303	د </s>
-3.508674	د آ	-0.6308508
-5.792226	د آہ	-0.8277779
-4.108979	د ؤ	-0.4665934
-6.746469	د ؤہ
-2.823018	د ئ	-2.200971
-4.410009	د ئہ	-1.243884
-0.8780172	د ا	-1.95161
-3.689564	د اح	-0.9218404
-4.822189	د اھ	-0.3087914
-3.346795	د اہ	-1.609507
-2.16049	د ب	-1.782065
-5.632525	د بح	-0.5438119
-3.915239	د بھ	-0.4914467
-4.101047	د بہ	-0.5853941
-1.87394	د ت	-1.864592
-4.920394	د تح	-1.029243
-4.161008	د تھ	0.6309876
-4.075296	د تہ	-0.466379
-2.724825	د ث	-1.800787
-5.758829	د ثھ	0.1830196
-3.498986	د ثہ	-1.067416
-2.949964	د ج	-0.9548377
-6.746469	د جح
-4.822189	د جھ	-1.078596
-4.773341	د جہ	-0.393925
-2.967161	د خ	-0.8938862
-2.07665	د د	-1.298409
-5.404046	د دح	-0.4331516
-4.547812	د دھ	-1.192647
-4.29622	د دہ	-0.2013642
-4.619364	د ذ	-0.4041524
-5.746469	د ذہ	0.1319428
-1.185862	د ر	-1.12675
-3.341635	د رح	-2.260304
-4.081827	د رھ	-1.25233
-2.874604	د رہ	-1.065785
-3.772879	د ز	-0.8545498
-6.746469	د زح
-5.542349	د زھ	-0.9416596
-5.030466	د زہ	-0.1183677
-1.888293	د س	-1.556133
-5.758829	د سح	-0.8270406
-5.600341	د سھ	-0.6778497
-3.948509	د سہ	-1.431006
-2.14194	د ش	-2.23497
-5.667288	د شھ	-1.108487
-3.42653	د شہ	-1.553543
-3.712242	د ص	-1.004333
-5.022193	د صح	-0.761968
-5.901371	د صہ	0.7745107
-4.20489	د ض	-1.465216
-4.434715	د ط	-0.7591208
-6.269348	د طہ	0.2103496
-3.892771	د ظ	-2.30898
-5.792226	د ظہ	-0.9052941
-1.871205	د ع	-2.126667
-6.746469	د عح
-5.404046	د عھ	0.1401356
-4.430499	د عہ	-0.1618109
-3.590526	د غ	-0.5638965
-6.144409	د غہ	1.719407
-2.168943	د ف	-1.830943
-6.269348	د فھ	-0.1265622
-5.022193	د فہ	-0.2850654
-2.629828	د ق	-1.44649
-5.843379	د قھ	-0.04199639
-3.309353	د قہ	-1.885047
-1.555144	د ل	-2.083587
-5.315105	د لح	-0.8125955
-4.926925	د لھ	-1.378415
-2.914855	د لہ	-1.672155
-1.718585	د م	-1.473261
-4.39236	د مح	-0.5168371
-5.255107	د مھ	-0.6814929
-2.965648	د مہ	-1.805213
-1.455738	د ن	-2.191275
-6.746469	د نح
-6.144409	د نھ	-0.1765268
-3.915239	د نہ	-1.049193
-0.9600731	د و	-1.842497
-4.021374	د وح	-0.825437
-4.594181	د وھ	-0.4661872
-3.212951	د وہ	-0.09213614
-4.329828	د ٹ	-0.3436455
-5.632525	د ٹھ	-0.4017893
-3.511193	د پ	-0.0654583
-5.093256	د پھ	0.1158397
-4.729435	د پہ	-0.7076912
-4.148774	د چ	-0.6776959
-5.133685	د چھ	-0.01508754
-5.824379	د چہ	-0.6150278
-4.616135	د ڈ	0.09089512
-5.843379	د ڈھ	0.1929397
-6.746469	د ڈہ
-3.799525	د ڑ	-1.227237
-6.746469	د ڑھ
-5.758829	د ڑہ	-0.02866158
-5.467715	د ژ	-0.8596036
-2.351265	د ک	-0.941972
-6.269348	د کح	-0.5573591
-2.28277	د کھ	-1.59933
-4.109981	د کہ	-0.2667863
-1.763736	د گ	-2.386449
-4.787427	د گھ	-0.9508235
-5.824379	د گہ	0.4053413
-4.616135	د ں	0.3297993
-0.6871141	د ی	-2.083847
-5.038898	د یح	-0.3126603
-4.576207	د یھ	-0.336344
-2.678283	د یہ	-0.2955208
-1.653941	د ے	-0.7429101
-5.792226	د ےح	-0.3254079
-6.314676	د ےھ
-5.178267	د ےہ	-0.03069341
-0.4754382	دح </s>
-0.7329153	دح ا	-1.541516
-2.549157	دح اہ	-0.9482951
-2.498004	دح ب	-0.2398161
-3.020454	دح بہ	-0.05877176
-1.483764	دح ت	-0.6750656
-2.173493	دح ج	-0.1787521
-1.960885	دح د	-0.5773572
-2.549157	دح ذ	-0.3288372
-1.652906	دح ر	-0.4477796
-2.306118	دح ز	-1.160401
-1.358825	دح س	-1.640928
-2.975125	دح ش	-0.5788864
-2.975125	دح ص	-0.06838995
-2.276155	دح صہ	-0.0123421
-1.242732	دح ض	-1.997233
-2.005089	دح ف	-1.784692
-1.920768	دح ق	-1.124072
-1.652906	دح ل	-1.535225
-1.334975	دح م	-1.122493
-2.020883	دح ن	-1.384676
-1.201827	دح و	-1.022194
-3.452247	دح وہ
-3.020454	دح ڑ	-0.2006629
-1.362341	دح ک	-1.331996
-3.452247	دح گ
-1.358825	دح ی	-1.065567
-1.498004	دح یہ	-1.118908
-2.975125	دح ے	1.528255
-0.6952403	دھ </s>
-4.736248	دھ آ
-4.180401	دھ ؤ	-0.005086571
-4.322943	دھ ئ	-0.213123
-0.8952246	دھ ا	-1.799231
-4.56598	دھ اح	-0.03711609
-4.736248	دھ اھ	-0.2088057
-3.912768	دھ اہ	-1.210682
-2.714722	دھ ب	-1.422565
-2.972141	دھ بہ	-2.021346
-2.20331	دھ ت	-2.330834
-5.168041	دھ تہ
-2.425315	دھ ج	-1.789978
-4.736248	دھ خ	-0.2123534
-3.623972	دھ د	-0.1841992
-4.736248	دھ دھ	-0.174909
-4.690919	دھ ذ	-0.02635092
-0.8520492	دھ ر	-1.508257
-4.245951	دھ رح	-0.02337467
-3.736677	دھ رھ	-0.8509179
-3.867011	دھ رہ	-0.8784268
-4.021913	دھ ز	-1.116794
-3.676679	دھ س	-0.2783638
-5.168041	دھ سہ
-2.194913	دھ ش	-2.219794
-4.690919	دھ ع
-4.736248	دھ ف
-4.322943	دھ ق	-0.8314889
-2.19399	دھ ل	-1.791097
-4.021913	دھ لہ	-0.07009602
-0.9558263	دھ م	-2.896115
-4.736248	دھ مہ	0.1129243
-1.279693	دھ ن	-2.045557
-4.736248	دھ نھ	-0.2327473
-5.168041	دھ نہ
-0.9314026	دھ و	-2.291085
-4.180401	دھ وہ	2.645515e-05
-3.845821	دھ ٹ	-0.903703
-3.397189	دھ پ	-0.9066574
-2.421406	دھ چ	-2.715876
-5.168041	دھ ڈ
-1.691499	دھ ڑ	-0.7203062
-4.264951	دھ ڑہ	-0.6657454
-1.800871	دھ ک	-1.760921
-4.021913	دھ کہ	-0.5087098
-4.213798	دھ گ	0.07192617
-5.168041	دھ گھ
-5.168041	دھ گہ
-4.322943	دھ ں	0.9333928
-0.8814494	دھ ی	-2.006835
-2.932512	دھ یہ	-1.046735
-1.308242	دھ ے	-0.853807
-4.736248	دھ ےح
-3.787829	دھ ےہ	-0.4153435
-0.07613462	دہ </s>
-4.56433	دہ آ	-1.019426
-4.117172	دہ ئ	-1.219398
-1.708205	دہ ا	-1.682102
-4.132966	دہ اہ	-0.6797608
-3.930861	دہ ب	-0.7106684
-5.56433	دہ بہ
-3.399977	دہ ت	-0.8184601
-5.56433	دہ تح
-4.56433	دہ تھ	-0.2432382
-4.610087	دہ ث	-0.6675998
-4.285576	دہ ج	-0.2318683
-4.450387	دہ خ	-0.5958418
-3.530906	دہ د	-0.7271596
-5.132537	دہ دہ	0.557631
-5.56433	دہ ذ
-1.982835	دہ ر	-1.642527
-5.56433	دہ رح
-4.642241	دہ رہ	0.1137732
-4.202602	دہ ز	-1.279621
-3.984546	دہ س	-0.5712968
-1.135531	دہ ش	-3.448694
-5.132537	دہ ص
-5.56433	دہ صح
-3.591202	دہ ض	-1.142865
-5.56433	دہ ط
-5.132537	دہ ظ	-0.1833734
-4.719232	دہ ع	-0.307377
-4.719232	دہ غ	0.1201649
-4.485148	دہ ف	-0.4324968
-3.460526	دہ ق	-2.032202
-1.758286	دہ ل	-2.469944
-4.96227	دہ لہ	1.06832
-2.506284	دہ م	-1.240263
-4.96227	دہ مہ	0.2468136
-2.349221	دہ ن	-2.206959
-2.203547	دہ و	-1.89988
-4.96227	دہ وہ	-0.222011
-4.36021	دہ ٹ	-1.195434
-4.485148	دہ پ	-0.2876228
-5.56433	دہ پہ
-4.56433	دہ چ	-0.2383366
-5.087209	دہ چھ	-0.1415934
-4.642241	دہ ڈ	0.1596715
-4.66124	دہ ڑ	0.07214325
-3.064643	دہ ک	-0.8053513
-4.96227	دہ کھ
-4.719232	دہ کہ	0.02779297
-4.66124	دہ گ	-0.08561206
-5.132537	دہ گھ	-0.1829784
-1.723346	دہ ی	-1.807081
-5.56433	دہ یہ
-2.369261	دہ ے	-0.5641865
-1.208345	ذ </s>
-3.518412	ذ آ	-1.202008
-5.090508	ذ ؤ	-0.59943
-4.06248	ذ ئ	-0.3085907
-4.2666	ذ ئہ	-0.2276468
-0.6298612	ذ ا	-1.993638
-3.698398	ذ اح	-0.7207529
-3.18024	ذ اھ	-1.463346
-2.018872	ذ اہ	-2.13437
-1.355336	ذ ب	-2.175105
-2.18024	ذ بح	-2.600755
-4.011327	ذ بھ	-0.1347975
-1.953999	ذ بہ	-2.852243
-2.233981	ذ ت	-1.95887
-5.56763	ذ تح
-4.205902	ذ تھ	-0.7218795
-3.914417	ذ تہ	-0.8162661
-5.135837	ذ ث	-0.1466914
-4.391539	ذ ج	-0.1200756
-5.135837	ذ جح	-0.1860756
-4.965569	ذ جہ	0.1305479
-2.026675	ذ خ	-2.331396
-4.57999	ذ خہ	0.5788656
-3.189232	ذ د	-1.099936
-5.090508	ذ دھ	-0.5429327
-3.514551	ذ دہ	-1.263191
-4.120471	ذ ذ	-0.6147369
-5.135837	ذ ذہ	-0.1925887
-0.696489	ذ ر	-2.301481
-4.526237	ذ رح	-0.1173416
-4.187418	ذ رھ	-0.8763193
-2.391249	ذ رہ	-2.365039
-4.049116	ذ ز	-0.7045867
-3.987846	ذ س	-0.5415424
-1.894424	ذ ش	-2.599974
-4.526237	ذ شہ	-0.9225872
-4.613387	ذ ص	-0.9231641
-4.645541	ذ ط	-0.8010471
-4.722532	ذ ظ	-0.6327091
-3.563308	ذ ع	-0.6187797
-4.488449	ذ عہ	-0.3582244
-4.645541	ذ غ	-0.4990655
-2.060179	ذ ف	-1.911051
-4.66454	ذ فہ	-0.4297025
-3.366233	ذ ق	-0.9528571
-5.56763	ذ قہ
-1.682495	ذ ل	-2.099943
-5.56763	ذ لح
-4.965569	ذ لھ	0.09227237
-3.415341	ذ لہ	-1.022149
-1.660702	ذ م	-1.965382
-5.090508	ذ مح	-0.5677791
-4.421502	ذ مھ	-0.828565
-1.2805	ذ مہ	-3.347862
-2.163652	ذ ن	-1.498408
-3.374505	ذ نہ	-0.9381183
-1.436364	ذ و	-2.047504
-4.645541	ذ وح	0.1108048
-4.488449	ذ وھ	-1.062427
-3.66454	ذ وہ	-0.3212261
-5.090508	ذ ٹ	-0.4430352
-3.382938	ذ پ	-1.366745
-4.722532	ذ پھ	-0.8886479
-5.090508	ذ پہ	-0.5489457
-4.722532	ذ چ	-0.2290864
-4.965569	ذ ڈ	0.008355558
-5.135837	ذ ڑ	-0.1488881
-0.9175749	ذ ک	-2.863996
-4.57999	ذ کھ	-0.4663435
-5.090508	ذ کہ	-0.5870143
-4.225207	ذ گ	-0.6664454
-5.090508	ذ ں	1.234423
-0.9052119	ذ ی	-2.053121
-4.57999	ذ یح	-0.3833975
-3.675535	ذ یہ	-0.1288893
-3.209695	ذ ے	0.3377392
-1.153815	ذح ا	-0.2283573
-0.6097468	ذح ج	-1.141458
-1.324082	ذح د	-0.1361572
-1.755875	ذح ر
-1.755875	ذح س
-1.755875	ذح ق
-1.324082	ذح قہ	0.8296056
-0.5006024	ذح م	-1.264374
-1.324082	ذح ک	-0.1834449
-0.7682353	ذح ی	-0.022523
-2.284108	ذھ </s>
-1.578978	ذھ ا	-1.673975
-0.1257458	ذھ ب	-2.392744
-2.430236	ذھ بھ	-0.3536491
-2.151483	ذھ بہ	-1.123719
-2.998444	ذھ ت	-0.06407167
-2.199787	ذھ د	-0.6495586
-2.953115	ذھ ر	-0.3811819
-2.068509	ذھ ل	-1.17896
-2.388844	ذھ م	-0.8095567
-0.7627834	ذھ ن	-2.433786
-2.998444	ذھ و	-0.2293612
-1.898757	ذھ ی	-1.280396
-2.828176	ذھ ے	1.632984
-1.020923	ذہ </s>
-1.598251	ذہ ا	-2.437531
-0.27763	ذہ ب	-2.950746
-3.51393	ذہ بہ	-0.9559886
-4.744379	ذہ ت
-3.443349	ذہ ر	-0.9886806
-4.744379	ذہ رہ
-4.744379	ذہ ق
-3.142319	ذہ ل	-0.8364245
-3.346439	ذہ م	-1.226801
-0.491138	ذہ ن	-3.319865
-4.267258	ذہ نہ	-0.399201
-2.785338	ذہ و	-1.007967
-4.744379	ذہ ٹ
-4.744379	ذہ پ
-4.744379	ذہ ک
-1.602303	ذہ ی	-1.915756
-3.382651	ذہ ے	0.3275713
-0.3994001	ر </s>
-2.252463	ر آ	-1.115571
-6.153321	ر آح	-0.7709007
-6.165682	ر آھ	-0.02411559
-5.244836	ر آہ	-1.101972
-3.950288	ر ؤ	-1.167587
-6.007193	ر ؤہ	0.3766659
-3.097064	ر ئ	-1.381743
-7.153321	ر ئھ
-4.209332	ر ئہ	-1.791649
-1.084027	ر ا	-0.4523501
-3.253282	ر اح	-1.545524
-3.759395	ر اھ	-1.871017
-2.234238	ر اہ	-2.265291
-1.884919	ر ب	-1.35364
-4.638773	ر بح	-0.7289573
-3.573881	ر بھ	-0.4610596
-3.261227	ر بہ	-0.6347075
-1.324654	ر ت	-1.441429
-3.214551	ر تح	-2.357249
-3.578133	ر تھ	-0.5058663
-4.2629	ر تہ	-0.0122087
-3.277508	ر ث	-0.6538721
-5.810899	ر ثھ	-1.148834
-4.260115	ر ثہ	-0.5384763
-2.128056	ر ج	-1.339021
-3.721636	ر جح	-1.755908
-4.26966	ر جھ	0.3691251
-2.737847	ر جہ	-1.401433
-2.493881	ر خ	-1.222688
-3.853161	ر خہ	-0.3824232
-1.630913	ر د	-1.208224
-5.353981	ر دح	-0.772956
-4.050888	ر دھ	-0.3077383
-2.783846	ر دہ	-0.09408307
-4.17927	ر ذ	-0.5963123
-7.153321	ر ذھ
-5.162095	ر ذہ	1.348545
-2.654349	ر ر	-1.155299
-4.57929	ر رح	-1.805534
-4.17105	ر رھ	-1.976124
-2.806792	ر رہ	-1.525565
-2.31934	ر ز	-1.234935
-5.429045	ر زح	-0.1973355
-5.016601	ر زھ	-1.113174
-4.218823	ر زہ	-0.6330254
-1.728802	ر س	-1.825137
-5.874568	ر سح	-0.9153599
-6.250231	ر سھ	-1.191195
-3.688534	ر سہ	-0.6705984
-2.28211	ر ش	-1.608455
-5.088863	ر شح	-0.6013949
-5.648171	ر شھ	-0.7210909
-4.408247	ر شہ	-0.1632204
-2.951624	ر ص	-1.594689
-4.447457	ر صح	-0.4348108
-6.250231	ر صھ	-0.9005084
-3.236762	ر صہ	-0.8401608
-2.120775	ر ض	-1.619446
-6.6762	ر ضح
-6.231232	ر ضھ	0.63065
-4.059549	ر ضہ	-0.2700148
-2.754184	ر ط	-1.226465
-6.231232	ر طح	-0.5689099
-4.994959	ر طہ	-0.5903549
-4.453484	ر ظ	-1.026011
-5.203931	ر ظہ	-2.053103
-2.653071	ر ع	-1.620834
-6.07414	ر عھ	-0.7749493
-4.077774	ر عہ	-0.1535213
-2.992463	ر غ	-0.838099
-5.295989	ر غہ	-0.03117573
-1.72513	ر ف	-2.317008
-4.994959	ر فح	-0.788842
-5.58512	ر فھ	-0.7673357
-3.650758	ر فہ	-1.213456
-2.200722	ر ق	-1.524473
-6.231232	ر قح	0.09035212
-5.831102	ر قھ	-0.9117019
-3.348364	ر قہ	-1.275198
-2.315884	ر ل	-1.568864
-4.642776	ر لح	-1.633373
-5.791594	ر لھ	-0.3132489
-5.022987	ر لہ	0.3830303
-1.625985	ر م	-0.8690743
-3.853596	ر مح	-0.7368394
-5.551261	ر مھ	-0.7435515
-3.333909	ر مہ	-1.706299
-1.493423	ر ن	-1.758793
-5.540537	ر نح	-1.562178
-5.706163	ر نھ	-0.4750491
-2.936918	ر نہ	-1.866389
-1.213551	ر و	-1.537825
-2.911526	ر وح	-1.573406
-4.707717	ر وھ	-1.001234
-2.948442	ر وہ	-0.6558042
-2.153378	ر ٹ	-1.354437
-6.6762	ر ٹح	-0.1257885
-4.241631	ر ٹھ	-0.7856373
-5.382469	ر ٹہ	-0.509544
-2.304547	ر پ	-1.060984
-3.954115	ر پھ	-0.1060951
-4.377347	ر پہ	0.9002873
-2.600483	ر چ	-1.130349
-6.165682	ر چح	-1.041093
-4.123532	ر چھ	-0.2673049
-3.070249	ر چہ	-1.852882
-2.519126	ر ڈ	-0.9615128
-6.551261	ر ڈح
-5.530072	ر ڈھ	-0.4573762
-5.463125	ر ڈہ	-1.233016
-4.426594	ر ڑ	-0.372601
-5.852291	ر ڑھ	-0.5057558
-3.69408	ر ژ	-2.106201
-1.695848	ر ک	-0.07614183
-5.6762	ر کح	-0.5475648
-1.977158	ر کھ	-1.606385
-3.041286	ر کہ	-0.3359175
-2.447945	ر گ	-0.5580034
-4.303288	ر گھ	-0.6013845
-4.436483	ر گہ	-0.8407756
-4.33974	ر ں	0.1886729
-0.942311	ر ی	-1.044055
-3.182649	ر یح	-1.640093
-5.042731	ر یھ	-0.7050656
-2.47353	ر یہ	-0.5073907
-1.47696	ر ے	-0.7732399
-5.077774	ر ےح	-0.7697818
-7.153321	ر ےھ
-4.57583	ر ےہ	-0.603653
-0.2522666	رح </s>
-4.112185	رح آ	-0.6662037
-1.428759	رح ا	-1.953358
-4.959146	رح اہ	-0.1213541
-2.618617	رح ب	-1.335686
-4.913817	رح بھ	-0.0223195
-4.349546	رح بہ	-0.864082
-2.386188	رح ت	-1.387749
-4.959146	رح تھ	-0.2234677
-3.899577	رح تہ	-1.050678
-2.442526	رح ج	-1.534155
-5.390939	رح جھ
-5.390939	رح جہ
-4.403299	رح خ	0.01070486
-1.429091	رح د	-2.101444
-4.913817	رح دح	-0.1229669
-5.390939	رح دہ
-4.403299	رح ذ	-1.086927
-2.788879	رح ر	-1.70016
-4.913817	رح رہ
-3.834636	رح ز	-1.345883
-2.604897	رح س	-1.88123
-4.390939	رح ش	-0.4683025
-3.584759	رح ص	-0.9723625
-3.642751	رح صہ	-0.5640969
-2.499959	رح ض	-2.676581
-4.788878	رح ط	-0.04031392
-5.390939	رح ع
-4.403299	رح غ	0.02845775
-3.533606	رح ف	-1.545696
-1.846375	رح ق	-2.441824
-1.858822	رح ل	-2.141911
-1.990401	رح لہ	-2.294715
-0.6717731	رح م	-2.923038
-4.959146	رح مح
-3.451419	رح مھ	-1.5503
-1.404929	رح مہ	-3.151398
-3.404167	رح ن	-0.4392218
-4.913817	رح نہ	0.1644528
-1.669375	رح و	-2.283628
-4.403299	رح وھ	0.07655197
-4.436696	رح وہ	-0.2942114
-4.959146	رح ٹ
-4.311758	رح پ	0.003931627
-4.913817	رح پھ	-0.1279624
-4.788878	رح پہ	-0.2996408
-4.959146	رح چ	-0.196102
-5.390939	رح ڈ
-2.288505	رح ک	-1.663002
-4.959146	رح کھ	-0.1996859
-4.214848	رح کہ	-0.6035126
-4.46885	رح گ	-0.3348597
-1.540599	رح ی	-1.948368
-5.390939	رح یھ
-4.16049	رح یہ	-0.4199377
-3.737726	رح ے	1.154658
-0.7159116	رھ </s>
-3.095169	رھ ئ	-1.038533
-0.6144062	رھ ا	-1.629944
-4.373923	رھ اح
-2.487432	رھ اھ	-1.840122
-3.11865	رھ اہ	-1.122253
-1.850176	رھ ب	-1.350188
-3.942131	رھ بہ	-0.05877176
-1.145779	رھ ت	-2.442084
-3.11865	رھ ج	-1.069222
-2.975983	رھ د	-0.5056399
-3.771863	رھ ذ	0.07837821
-3.771863	رھ ذہ	0.00581833
-2.868773	رھ ر	-0.6936115
-3.386283	رھ ز	-0.07749627
-3.11865	رھ س	-0.6883122
-3.896802	رھ ش	-0.5332752
-3.259979	رھ ط	-0.7233273
-4.373923	رھ طہ
-3.942131	رھ ق
-4.373923	رھ قھ
-3.942131	رھ قہ	0.8296056
-3.294742	رھ ل	-1.012985
-1.412027	رھ م	-2.186392
-4.373923	رھ مح
-3.896802	رھ مہ	-0.2530533
-1.498283	رھ ن	-1.754721
-3.771863	رھ نہ	0.1651836
-1.298741	رھ و	-1.70604
-4.373923	رھ وھ
-3.942131	رھ ڈ
-3.528825	رھ ک	-0.4048303
-3.386283	رھ گ	-0.6202978
-4.373923	رھ ں
-0.7643285	رھ ی	-1.723447
-3.771863	رھ یہ	0.7976595
-0.761457	رھ ے	-1.134981
-3.451834	رھ ےھ	-0.6772793
-3.942131	رھ ےہ	0.109509
-0.4831193	رہ </s>
-4.60798	رہ آ	-0.3956341
-3.282127	رہ ئ	-1.286551
-0.7534384	رہ ا	-2.365691
-4.476701	رہ اھ	-0.9750384
-2.0692	رہ اہ	-2.872856
-2.444153	رہ ب	-1.954953
-4.884187	رہ بھ	-0.374502
-1.286491	رہ ت	-2.720403
-4.391271	رہ تھ	-1.128157
-3.834108	رہ ج	-1.038642
-4.85079	رہ خ	0.04883303
-3.874641	رہ د	-0.9036869
-5.406637	رہ دہ	-0.2333559
-4.993331	رہ ذ	-0.08764693
-5.406637	رہ ذہ	-0.1925887
-2.761789	رہ ر	-1.311685
-4.884187	رہ رح	-0.699737
-4.884187	رہ رہ	-0.01590867
-3.279721	رہ ز	-1.493983
-5.406637	رہ زہ	0.5651747
-3.665243	رہ س	-0.4231352
-5.406637	رہ سہ
-4.130859	رہ ش	-1.148134
-5.838429	رہ شہ
-4.85079	رہ ص	-0.3539142
-4.884187	رہ ض	-0.8535369
-4.559676	رہ ط	-1.235792
-4.935339	رہ ع	-0.4955417
-5.838429	رہ عہ
-3.981097	رہ ف	-0.7027522
-4.376031	رہ ق	-0.7611796
-4.692301	رہ قہ	-1.175202
-2.993331	رہ ل	-1.492424
-4.692301	رہ لہ	-0.07009602
-1.992154	رہ م	-2.080977
-5.361308	رہ مح	-0.002154902
-4.724486	رہ مہ	-0.7971214
-1.284813	رہ ن	-2.562169
-3.076501	رہ نہ	-2.559069
-1.744552	رہ و	-1.917729
-4.85079	رہ وہ	-0.5931992
-3.373046	رہ ٹ	-1.486289
-4.537399	رہ ٹہ	-0.8416946
-4.236369	رہ پ	-0.6456408
-5.838429	رہ پہ
-4.993331	رہ چ	-0.4331505
-5.406637	رہ چھ	-0.162997
-5.838429	رہ چہ
-4.012354	رہ ڈ	-1.565844
-5.406637	رہ ڈہ	-0.2077178
-4.884187	رہ ڑ	-0.7447255
-3.674076	رہ ک	-0.5356569
-5.406637	رہ کھ
-4.838429	رہ کہ	-0.6356791
-3.595391	رہ گ	-0.6614227
-5.236369	رہ ں	1.234423
-0.8539153	رہ ی	-2.667055
-4.347067	رہ یہ	0.7890628
-0.6945965	رہ ے	-1.596727
-4.51621	رہ ےح	-0.7472039
-2.698865	رہ ےہ	-2.47887
-0.5561573	ز </s>
-3.581023	ز آ	-0.6665649
-4.103223	ز ؤ	-0.6816694
-2.547675	ز ئ	-1.623554
-5.222794	ز ئھ	-0.132333
-4.763275	ز ئہ	-0.3678256
-0.8331432	ز ا	-1.820062
-2.461315	ز اح	-2.299414
-4.034342	ز اھ	-1.413226
-2.801346	ز اہ	-1.458583
-1.449965	ز ب	-2.288775
-4.511463	ز بح	-0.07286686
-3.824827	ز بھ	-0.9389753
-3.938591	ز بہ	-1.106367
-1.726732	ز ت	-1.827248
-4.909403	ز تح	-0.422863
-4.291355	ز تھ	-1.363285
-4.733312	ز تہ	-0.09368607
-4.678954	ز ث	-0.7013096
-3.210868	ز ج	-0.7661964
-5.006313	ز جھ	-0.492963
-5.131252	ز جہ	0.1887582
-1.983601	ز خ	-2.254476
-5.778641	ز خھ	-0.1552592
-5.778641	ز خہ	1.433508
-1.797519	ز د	-1.366903
-5.210433	ز دح	-0.4579804
-4.16511	ز دھ	-1.492701
-2.561293	ز دہ	-2.202112
-4.79546	ز ذ	-0.2630078
-6.210433	ز ذہ
-1.41257	ز ر	-1.816357
-4.642231	ز رح	-0.8430508
-5.09649	ز رھ	-0.3527392
-3.46147	ز رہ	-0.3304681
-2.677933	ز ز	-0.7047756
-5.307343	ز زہ	0.4303783
-2.938359	ز س	-0.9014453
-5.064305	ز سہ	-0.9466996
-1.807072	ز ش	-2.227344
-4.312806	ز شہ	-0.4707634
-4.210433	ز ص	-1.090163
-4.979984	ز صح	-0.1343319
-6.210433	ز صہ
-4.335372	ز ض	-0.4491817
-5.778641	ز ضح	-0.2120086
-4.439581	ز ط	-0.5390293
-5.778641	ز ظ
-4.909403	ز ظہ	-1.263903
-2.513029	ز ع	-1.307347
-5.288344	ز عھ	0.1449842
-2.74401	ز عہ	-2.707619
-3.985124	ز غ	-0.3252093
-5.288344	ز غہ	1.203756
-3.204395	ز ف	-1.204451
-5.608373	ز فح	0.0756815
-5.778641	ز فہ	-0.1832284
-2.578685	ز ق	-1.614351
-4.830222	ز قھ	-0.9696939
-4.275935	ز قہ	-0.6673205
-1.649953	ز ل	-2.172823
-5.09649	ز لھ	-0.7855886
-2.751493	ز لہ	-1.062391
-1.184992	ز م	-1.78197
-4.384358	ز مح	-0.8602505
-5.034342	ز مھ	0.002685696
-3.185537	ز مہ	-2.00326
-1.222521	ز ن	-2.084144
-5.733312	ز نھ	0.1257098
-2.944908	ز نہ	-0.5860134
-1.383659	ز و	-1.53253
-5.733312	ز وح
-5.222794	ز وھ	0.07655197
-3.001723	ز وہ	-1.254021
-3.047272	ز ٹ	-1.245484
-6.210433	ز ٹھ
-2.734472	ز پ	-1.387149
-5.778641	ز پھ	0.2667501
-4.763275	ز پہ	-0.2532548
-3.534655	ز چ	-0.9641647
-5.064305	ز چھ	-0.678585
-4.323942	ز چہ	-1.376312
-3.554335	ز ڈ	-0.4871275
-5.222794	ز ڈھ	-0.9613212
-6.210433	ز ڈہ
-5.608373	ز ڑ	-0.1206371
-5.365335	ز ڑہ	-0.6145929
-5.733312	ز ژ	-0.1423052
-1.981058	ز ک	-0.6520076
-4.666365	ز کھ	-1.144591
-4.63065	ز کہ	-0.31442
-2.287915	ز گ	-2.067985
-5.733312	ز گھ	0.1633409
-5.778641	ز گہ	0.2480507
-4.228162	ز ں	0.4285933
-0.7245683	ز ی	-2.672277
-5.16904	ز یح	0.5710278
-4.979984	ز یھ	-0.6847578
-2.416713	ز یہ	-0.09391499
-1.95955	ز ے	-0.7180557
-6.210433	ز ےح
-5.25619	ز ےہ	-0.6086511
-1.187738	زح </s>
-1.31941	زح ا	-1.222954
-2.869889	زح ت
-3.301681	زح تہ
-1.158666	زح د	-1.08324
-1.979462	زح ر	-0.04779127
-2.869889	زح ز	-0.2203918
-2.046408	زح زح	-1.24961
-2.022927	زح س	-0.9230151
-2.301681	زح ش	-0.9868165
-3.301681	زح ص
-2.097561	زح ض	-1.015494
-2.869889	زح ف
-2.022927	زح ق	-1.097235
-1.215321	زح ل	-1.552475
-0.1968525	زح م	-1.82406
-2.379592	زح ن	-0.04106014
-2.82456	زح و	-0.1235809
-1.367182	زح ک	-1.870849
-2.869889	زح کہ	0.4312991
-1.854523	زح ی	-1.044478
-3.301681	زح یہ
-0.3433617	زھ </s>
-1.410308	زھ ا	-0.7759824
-1.624188	زھ ب	-1.490204
-1.852668	زھ ت	-1.259353
-3.267641	زھ تہ
-1.222318	زھ د	-0.9464591
-2.280001	زھ دہ	-0.2970113
-0.5072185	زھ ر	-2.268155
-2.18846	زھ رہ	-0.9408203
-1.869701	زھ ق	-1.334419
-1.699439	زھ م	-0.9734825
-2.313398	زھ ن	-0.1635827
-1.762491	زھ و	-0.8798375
-3.267641	زھ ک
-2.835849	زھ گ	-0.18098
-1.665581	زھ ی	-0.5109805
-2.153698	زھ ے	0.6298373
-0.07470401	زہ </s>
-2.489276	زہ ا	-0.6242889
-2.354144	زہ ب	-1.419204
-3.004977	زہ ت	-0.9143491
-4.313185	زہ تھ	-0.5042837
-3.887216	زہ تہ	-0.4997705
-4.313185	زہ ج	-0.1308273
-4.358514	زہ جہ	-0.06785916
-4.313185	زہ خ	-0.5127381
-1.995818	زہ د	-1.546241
-3.868217	زہ دہ	0.7111101
-4.790306	زہ ذ
-1.007118	زہ ر	-1.467587
-2.15082	زہ رہ	-2.158027
-3.868217	زہ ز	0.0006879717
-3.868217	زہ س	-0.1039707
-4.313185	زہ ش	-0.1196591
-4.790306	زہ ص
-4.358514	زہ ض
-3.836064	زہ ف	-0.9514132
-3.447884	زہ ق	-1.281174
-3.836064	زہ ل	-0.330963
-3.167057	زہ م	-0.6544806
-4.790306	زہ مہ
-2.208243	زہ ن	-1.679725
-4.790306	زہ نہ
-2.13613	زہ و	-0.7232577
-4.358514	زہ ٹ	-0.2010672
-4.313185	زہ پھ	-0.5699717
-4.790306	زہ چہ
-4.188246	زہ ڈ	0.0781495
-3.748914	زہ ک	-0.4954326
-4.358514	زہ کہ	-0.2210367
-4.790306	زہ ں
-2.139028	زہ ی	-0.9591665
-1.982095	زہ ے	0.01610267
-4.790306	زہ ےہ
-0.6662179	س </s>
-4.590398	س آ	-0.6960068
-4.305605	س ؤ	-1.09115
-5.887462	س ؤہ	-1.015064
-2.464514	س ئ	-2.459673
-6.928854	س ئھ
-5.17298	س ئہ	-0.6613024
-1.009651	س ا	-2.299824
-3.384662	س اح	-1.976363
-4.879636	س اھ	-0.4084913
-3.611209	س اہ	-1.698088
-1.670272	س ب	-2.692511
-3.284613	س بح	-2.57324
-3.294478	س بھ	-1.353617
-4.106033	س بہ	-1.016891
-1.15327	س ت	-2.009916
-2.835503	س تح	-2.742076
-3.764799	س تھ	-1.758762
-2.472747	س تہ	-2.346694
-5.627824	س ث	-0.3708627
-2.429896	س ج	-1.824773
-4.454638	س جھ	-0.8247693
-5.397376	س جہ	-1.061355
-2.526146	س خ	-2.347609
-5.673582	س خھ	-0.7006058
-3.682356	س خہ	-1.539584
-2.709794	س د	-0.9723661
-6.451733	س دح	-0.1142225
-3.75918	س دھ	-2.050789
-4.104078	س دہ	-1.443033
-5.974612	س ذ	-0.6132717
-1.403429	س ر	-1.808874
-2.971439	س رح	-2.368612
-5.196461	س رھ	-0.7193396
-3.743879	س رہ	-1.602025
-2.533336	س ز	-1.844407
-6.497062	س زح	0.2022757
-6.025764	س زہ	-0.3751713
-2.638508	س س	-1.580991
-6.497062	س سھ
-4.755668	س سہ	-1.9467
-4.545039	س ش	-0.9783124
-6.928854	س شھ
-6.326795	س شہ	0.1189187
-5.548643	س ص	0.1951796
-6.928854	س صح
-6.928854	س صہ
-6.497062	س ض
-2.505674	س ط	-2.178489
-2.796595	س طح	-0.8388178
-5.928854	س طھ	-0.2009893
-3.395973	س طہ	-1.787695
-5.567127	س ظ	-0.07581231
-5.928854	س ظح	-0.7588461
-6.451733	س ظہ	-0.4926047
-2.365373	س ع	-2.262252
-6.928854	س عح
-5.782726	س عھ	-0.8418961
-5.188492	س عہ	-0.9833449
-5.065532	س غ	-0.4970903
-2.222837	س ف	-2.244056
-5.849673	س فح	0.2574499
-5.530914	س فھ	-1.275186
-3.408895	س فہ	-2.385996
-3.17161	س ق	-1.417761
-5.275642	س قہ	-0.5970699
-1.189462	س ل	-3.098164
-3.000561	س لح	-2.919609
-5.423705	س لھ	-1.104723
-2.664769	س لہ	-1.699794
-1.543561	س م	-2.56206
-5.256757	س مح	-0.5119037
-4.928854	س مھ	-0.3152575
-3.937629	س مہ	-1.028511
-1.572871	س ن	-2.361267
-5.928854	س نح	-0.1477607
-5.031228	س نھ	-1.521603
-3.138851	س نہ	-0.7229874
-1.376324	س و	-1.960262
-5.423705	س وح	-0.6035767
-5.053793	س وھ	-1.3255
-3.760357	س وہ	-0.2925279
-1.776658	س ٹ	-1.205127
-3.641277	س ٹھ	-2.226548
-4.698406	س ٹہ	-1.272803
-2.108193	س پ	-2.212859
-5.724734	س پھ	-0.6879441
-3.941635	س پہ	-2.444543
-2.659645	س چ	-2.431592
-6.497062	س چح	0.07470742
-5.724734	س چھ	-0.449585
-5.941215	س چہ	-0.5749417
-3.690808	س ڈ	-0.6598452
-2.966769	س ڑ	-0.9570975
-6.025764	س ڑھ	-0.3427255
-6.928854	س ژ
-1.40221	س ک	-2.258893
-5.941215	س کح	-0.5786383
-3.013402	س کھ	-1.364809
-3.908493	س کہ	-1.531002
-3.287976	س گ	-1.318987
-5.048041	س گھ	-1.01343
-6.451733	س گہ	-0.1372707
-4.776566	س ں	0.186772
-1.038002	س ی	-2.23508
-3.120576	س یح	-1.915368
-5.548643	س یھ	-0.07182005
-3.654928	س یہ	0.4409897
-0.7346463	س ے	-0.5946717
-4.27952	س ےح	-0.556635
-5.698406	س ےھ	-0.1440804
-3.765395	س ےہ	-1.065987
-1.191598	سح </s>
-0.4423932	سح ا	-2.445688
-2.606571	سح ب	-1.378942
-1.991922	سح ت	-1.649217
-3.83702	سح ج
-2.93393	سح د	0.04409505
-3.359899	سح دہ	0.1916534
-0.3418921	سح ر	-1.606786
-3.405227	سح رح	-0.2300292
-2.914931	سح رہ	0.09063265
-3.23496	سح س	-0.0835399
-3.359899	سح ص	-0.5959411
-3.83702	سح صہ
-3.83702	سح ض
-1.377627	سح ق	-2.291076
-2.83702	سح قہ	0.02429533
-3.83702	سح ل
-2.660929	سح لہ	-0.09812474
-2.795627	سح م	-0.1269524
-2.422047	سح ن	-1.181343
-1.34009	سح و	-1.699904
-3.83702	سح چ
-3.23496	سح ک	-0.5923187
-2.43908	سح ی	-0.1573942
-3.23496	سح یح	-0.05349058
-3.405227	سح ے
-1.678405	سھ </s>
-0.7181717	سھ ا	-1.048264
-2.280465	سھ ب	-0.5156259
-2.882524	سھ بھ
-2.450732	سھ ت	-0.2203143
-2.450732	سھ ج	-0.2014486
-2.405403	سھ د
-1.259275	سھ ر	-0.4340913
-2.450732	سھ رہ	-0.0629594
-2.882524	سھ ف
-0.745804	سھ ل	-2.32609
-2.882524	سھ لھ
-2.280465	سھ لہ	1.06832
-0.4709048	سھ م	-0.907157
-1.706433	سھ ن	-0.4627502
-1.134336	سھ و	-0.9036744
-2.882524	سھ ڑ
-1.069611	سھ ی	-0.9343055
-2.280465	سھ ے	1.632984
-0.3868656	سہ </s>
-3.678241	سہ ئ	-0.4375207
-0.8361541	سہ ا	-1.978318
-3.454202	سہ اہ	-1.136689
-3.678241	سہ ب	-0.2145959
-2.129039	سہ ت	-1.557382
-4.123209	سہ تہ	-0.147588
-3.068851	سہ ج	-0.7386842
-4.60033	سہ جہ
-3.678241	سہ د	0.03694459
-1.530292	سہ ر	-2.224952
-2.252025	سہ رہ	-2.175182
-3.99827	سہ ز	0.03129629
-3.153172	سہ س	-0.4181123
-4.60033	سہ ص
-4.168538	سہ ع	-0.1744793
-3.99827	سہ ف	0.0899051
-4.60033	سہ فہ
-4.60033	سہ ق
-1.540767	سہ ل	-1.812954
-3.220119	سہ لہ	-0.2919447
-1.62215	سہ م	-2.02766
-1.634658	سہ ن	-1.746289
-3.99827	سہ نہ	0.1651836
-0.7471798	سہ و	-2.575961
-4.168538	سہ وہ	-0.2331896
-3.345058	سہ پ	-0.3109864
-4.168538	سہ پہ	-0.225109
-4.168538	سہ ڑ
-4.60033	سہ ڑہ
-3.612691	سہ ک	-0.04109794
-4.60033	سہ کھ
-3.153172	سہ گ	-1.301368
-0.8583125	سہ ی	-1.957596
-4.60033	سہ یہ
-2.641289	سہ ے	0.1515573
-3.60033	سہ ےہ	-0.6958013
-0.8342301	ش </s>
-3.93387	ش آ	-1.430306
-5.013051	ش ؤ	-0.2406152
-2.646874	ش ئ	-1.542022
-4.786655	ش ئہ	-0.4239415
-0.8340923	ش ا	-2.283543
-4.668555	ش اح	-1.031701
-2.927066	ش اھ	-2.159123
-1.598606	ش اہ	-2.642034
-2.015757	ش ب	-2.013858
-5.814683	ش بح	-0.4951382
-4.056276	ش بھ	-1.143776
-2.449695	ش بہ	-1.96989
-1.284326	ش ت	-1.97276
-3.70074	ش تھ	-1.962357
-1.81493	ش تہ	-2.579484
-5.689745	ش ث	-0.09166063
-2.724778	ش ج	-1.929498
-1.528901	ش خ	-3.106391
-6.291805	ش خھ
-1.687093	ش د	-1.532649
-5.145677	ش دح	-0.1642947
-4.472261	ش دھ	-1.551619
-2.322575	ش دہ	-2.034076
-4.061356	ش ذ	-1.761135
-6.291805	ش ذہ
-0.9277831	ش ر	-2.62363
-2.478157	ش رح	-2.404074
-3.955345	ش رھ	-1.429499
-2.489031	ش رہ	-1.863279
-3.79765	ش ز	-0.8366215
-6.291805	ش زھ
-5.388715	ش زہ	-0.90168
-2.701409	ش س	-1.897903
-1.620289	ش ش	-2.90001
-5.304165	ش شہ	0.1267197
-4.930077	ش ص	-0.6358879
-5.814683	ش ض
-3.724778	ش ط	-0.9147584
-4.829407	ش طح	0.2331778
-5.814683	ش طھ	-0.5983796
-5.291805	ش طہ	-0.228983
-5.814683	ش ظ	-0.5587215
-1.641905	ش ع	-2.487993
-5.814683	ش عہ	0.1536589
-2.711336	ش غ	-2.633656
-5.860012	ش غہ	1.521
-2.097873	ش ف	-2.26837
-6.291805	ش فھ
-4.013051	ش فہ	-0.8709706
-2.072456	ش ق	-2.066137
-6.291805	ش قح
-6.291805	ش قھ
-4.689745	ش قہ	-0.286073
-2.310575	ش ل	-2.103877
-5.814683	ش لح	-0.497208
-4.773291	ش لہ	-0.4254836
-1.292213	ش م	-2.649617
-5.304165	ش مھ	0.1854143
-2.938081	ش مہ	-1.985171
-1.141107	ش ن	-2.161962
-5.860012	ش نح
-5.689745	ش نھ	-0.1931783
-3.565893	ش نہ	-0.1920056
-1.446961	ش و	-1.976699
-5.814683	ش وح	-0.4549484
-3.73671	ش وھ	-2.507885
-2.558607	ش وہ	-0.8898129
-3.022525	ش ٹ	-1.372902
-5.177861	ش ٹھ	-0.2655341
-2.683279	ش پ	-1.257633
-6.291805	ش پہ
-4.990775	ش چ	-0.1184635
-4.567529	ش ڈ	-0.5555888
-4.452956	ش ڑ	-0.661328
-1.12879	ش ک	-2.226438
-5.145677	ش کھ	-1.146069
-4.969585	ش کہ	-0.02316916
-2.526732	ش گ	-1.555985
-5.689745	ش گھ	-0.548956
-5.304165	ش گہ	-0.6065916
-4.428482	ش ں	0.3664254
-1.02732	ش ی	-1.998488
-4.410991	ش یح	-0.830254
-5.250412	ش یھ	0.0001446605
-3.286195	ش یہ	-1.085336
-2.316373	ش ے	-0.2473755
-5.388715	ش ےہ	-0.7920215
-1.451757	شح </s>
-0.05214975	شح ا	-2.582958
-3.46879	شح اح
-3.46879	شح ب
-3.46879	شح ذ
-2.86673	شح ر	0.07626694
-1.46879	شح ص	-1.927378
-2.16776	شح ض	-1.229977
-3.46879	شح ط
-2.46879	شح م	0.1950812
-3.46879	شح مہ
-2.546701	شح ن	-0.5818018
-1.856006	شح نہ	-1.42039
-2.238341	شح و	-0.4162595
-3.036998	شح ک	-0.1834449
-2.16776	شح ی	-0.7941175
-1.903569	شھ </s>
-0.8621761	شھ ا	-1.427066
-2.037108	شھ ب	-1.328539
-3.003255	شھ ت	-0.1926852
-0.642656	شھ د	-1.094822
-3.435048	شھ دھ
-3.435048	شھ دہ
-0.6038179	شھ ر	-1.518753
-3.003255	شھ رح	-0.2353757
-3.435048	شھ رھ
-2.512959	شھ رہ	-0.380204
-1.878745	شھ ز	-1.49923
-2.435048	شھ ل	-0.9404345
-2.531958	شھ م	-0.8564272
-2.531958	شھ ن	-0.900632
-0.7334797	شھ و	-1.545643
-3.003255	شھ ٹ	-0.2194216
-0.8254532	شھ ی	-1.689083
-0.5189561	شہ </s>
-5.155624	شہ ئ
-1.234302	شہ ا	-2.71781
-5.155624	شہ اھ
-4.233535	شہ اہ	-0.4385987
-1.704145	شہ ب	-2.595921
-4.252534	شہ بہ	-0.2344117
-2.927738	شہ ت	-1.093095
-4.723832	شہ ج
-4.723832	شہ خ
-1.491924	شہ د	-1.533152
-3.979533	شہ دہ	-0.009740114
-0.4606948	شہ ر	-1.805714
-3.979533	شہ رح	-0.5320771
-2.115418	شہ رہ	-1.849349
-1.450445	شہ ز	-2.589847
-2.768235	شہ س	-1.8043
-3.900352	شہ ش	-1.210739
-4.723832	شہ ص	-0.1920566
-4.723832	شہ ط	-0.2137844
-4.723832	شہ ع
-5.155624	شہ غ
-4.553565	شہ ف	-0.233114
-3.211142	شہ ل	-1.63325
-4.041681	شہ م	0.0279699
-1.926711	شہ ن	-2.197373
-0.9851574	شہ و	-3.848225
-3.813202	شہ پ	-0.6712096
-3.038353	شہ ک	-1.528012
-4.155624	شہ گ	-0.4139245
-1.115576	شہ ی	-2.793263
-3.377473	شہ ے	0.7411407
-1.015904	ص </s>
-4.238648	ص آ	-0.4139403
-4.751982	ص آح	-1.298144
-5.681917	ص آھ	-0.2347921
-4.771287	ص ؤ	-0.7569186
-4.999766	ص ئ	0.5864143
-4.622348	ص ئہ	-0.4105775
-1.090536	ص ا	-2.19869
-1.160772	ص اح	-3.538304
-4.084326	ص اھ	-1.7505
-4.682346	ص اہ	-0.414252
-1.717075	ص ب	-2.619314
-2.025113	ص بح	-3.020507
-5.11371	ص بھ	0.6464669
-3.040725	ص بہ	-2.552824
-2.366998	ص ت	-1.90401
-5.636589	ص تح	-0.09845567
-5.12607	ص تھ	0.0620615
-4.81268	ص تہ	-0.846558
-4.232896	ص ج	-0.2819362
-6.11371	ص جح
-6.11371	ص جھ
-3.679141	ص خ	-0.6679891
-1.029663	ص د	-1.611511
-4.281201	ص دح	-1.084697
-5.21062	ص دھ	-0.1159543
-3.814857	ص دہ	-0.9999738
-5.268612	ص ذ	-0.8753415
-6.11371	ص ذہ
-0.9319233	ص ر	-2.469305
-3.825908	ص رح	-0.9164492
-3.674377	ص رھ	-1.652067
-2.184393	ص رہ	-2.123862
-5.681917	ص ز
-4.131439	ص س	-0.7536992
-6.11371	ص سح
-5.21062	ص ش	-0.0444673
-3.046639	ص ص	-1.788473
-5.21062	ص صح	-0.01186354
-5.51165	ص صھ	-0.01908894
-5.159467	ص صہ	0.8490396
-5.159467	ص ض	-0.9417882
-2.093059	ص ط	-2.017857
-6.11371	ص طح
-5.636589	ص طہ	-0.600953
-5.12607	ص ظ	-0.02434798
-3.050376	ص ع	-1.923884
-4.636589	ص عہ	-0.7356428
-2.212415	ص غ	-3.779079
-1.571632	ص ف	-2.357243
-1.959408	ص فح	-1.586805
-4.500926	ص فھ	-1.127146
-3.245065	ص فہ	-2.576772
-4.227219	ص ق	-0.451339
-6.11371	ص قح
-0.7764083	ص ل	-3.019285
-2.387309	ص لح	-3.07678
-4.666552	ص لھ	-1.026965
-1.659093	ص لہ	-2.2407
-2.395707	ص م	-1.782314
-5.681917	ص مح	-0.2298642
-5.12607	ص مھ	-1.070828
-3.458571	ص مہ	-1.563572
-1.792049	ص ن	-2.550791
-5.681917	ص نح
-5.072317	ص نہ	0.2135886
-0.804949	ص و	-3.095985
-4.441612	ص وح	-1.174454
-5.636589	ص وھ	-0.4956338
-4.666552	ص وہ	-0.2695715
-5.636589	ص ٹ
-4.51165	ص پ	-1.03665
-6.11371	ص پھ
-6.11371	ص چ
-6.11371	ص چھ
-5.636589	ص ڈ
-4.967582	ص ڑ	-0.4020703
-5.12607	ص ڑہ	-0.8022276
-3.289584	ص ک	-1.225153
-5.11371	ص کہ	-0.3484953
-5.12607	ص گ	0.05776873
-5.636589	ص ں	1.234423
-1.239727	ص ی	-2.043973
-2.464472	ص یح	-1.701041
-5.19162	ص یھ	-0.2715625
-3.196204	ص یہ	-1.673922
-1.854164	ص ے	-0.8736062
-4.967582	ص ےح	-0.7025231
-5.159467	ص ےہ	-0.2693013
-2.061149	صح </s>
-4.088207	صح آ	-0.6404403
-0.4370813	صح ا	-3.255703
-2.312129	صح اح	-2.578988
-4.933305	صح اہ
-1.697524	صح ب	-2.476378
-4.933305	صح بھ
-2.317355	صح بہ	-2.43969
-0.9028673	صح ت	-3.159312
-3.140913	صح تہ	-0.9164304
-4.456184	صح ج	-0.5674263
-3.456184	صح د	-1.213273
-1.546806	صح ر	-2.343302
-4.331245	صح رہ	0.1354476
-4.456184	صح س	-0.5603268
-4.501513	صح ص	-0.2345894
-4.331245	صح ض	0.1217
-4.933305	صح ع
-2.163928	صح ف	-1.69345
-4.933305	صح فح
-2.399279	صح فہ	-2.061525
-4.456184	صح ق	-0.5423077
-4.331245	صح ل	-0.02941619
-4.501513	صح م	-0.1382671
-3.757214	صح مہ	-0.8551134
-1.97858	صح ن	-2.101596
-3.34224	صح و	-0.3947314
-4.501513	صح وہ	0.4239487
-4.501513	صح ک
-1.75032	صح ی	-1.877013
-0.397568	صح یح	-1.934637
-3.854124	صح یھ	-0.303569
-3.945665	صح یہ	-0.2553899
-3.787177	صح ے	-0.6459951
-3.310056	صح ےح	-1.622942
-0.9341242	صھ </s>
-0.763428	صھ ا	-1.571562
-1.933696	صھ ب	-0.1496483
-1.377848	صھ ت	-0.918714
-1.888367	صھ ر	0.07847361
-1.888367	صھ فہ	-0.1286725
-1.377848	صھ م	-0.9929094
-1.933696	صھ و	-0.2172588
-0.3085831	صھ ی	-1.699072
-1.064458	صھ یح	-0.7736498
-0.02886413	صہ </s>
-4.203912	صہ آ
-3.726791	صہ ئ	-0.9958127
-3.218635	صہ ا	-0.4304776
-2.63964	صہ ب	-1.487479
-3.693393	صہ ت	-0.07758036
-4.681033	صہ تہ
-4.078973	صہ ج	-0.5697738
-4.681033	صہ د
-4.24924	صہ ذ
-3.681033	صہ ر	-0.1809799
-4.24924	صہ رہ	-0.0629594
-3.681033	صہ س	-0.9553017
-4.681033	صہ ص
-4.681033	صہ ط
-4.203912	صہ ع	-0.58716
-4.681033	صہ غ
-3.63964	صہ م	0.04625082
-3.758944	صہ ن	0.119174
-3.047565	صہ و	-1.004835
-3.693393	صہ پ	0.1042634
-4.681033	صہ چ
-4.078973	صہ ک	-0.04317363
-4.681033	صہ کہ
-1.234807	صہ ی	-2.447479
-3.534905	صہ ے	0.1449238
-0.7181585	ض </s>
-3.862484	ض آ	-0.6918975
-5.791903	ض آح
-5.314781	ض آھ	-0.5974017
-4.645774	ض ؤ	-0.6242474
-4.314781	ض ئ	-0.5272955
-4.2356	ض ئہ	-0.4736292
-0.8867383	ض ا	-1.681641
-1.848952	ض اح	-2.412502
-4.223701	ض اھ	-0.949868
-3.556374	ض اہ	-0.5562253
-1.664053	ض ب	-2.55586
-4.75051	ض بح	-0.5854019
-4.645774	ض بھ	-1.079347
-4.376929	ض بہ	-0.9747026
-2.703412	ض ت	-1.55415
-4.247834	ض تہ	-0.1686698
-4.158434	ض ج	-0.7625395
-3.260424	ض خ	-1.317643
-2.235841	ض د	-1.700954
-5.36011	ض دھ
-4.712721	ض دہ	0.4379571
-0.5126166	ض ر	-2.376647
-5.189843	ض رح	-0.0857022
-4.561453	ض رھ	-0.7361761
-2.781179	ض رہ	-2.489345
-4.804263	ض ز	-0.06404946
-4.44948	ض س	-0.5615672
-4.83766	ض ش	-0.2684762
-5.36011	ض شہ	-0.05153887
-4.888813	ض ص	-0.5220606
-4.469683	ض ض	-0.7298505
-4.791903	ض ضہ	0.6087987
-2.417337	ض ط	-2.439684
-4.83766	ض ظ	-0.9542315
-1.756953	ض ع	-2.313449
-5.791903	ض عح
-4.615811	ض عھ	-0.8718593
-3.872824	ض عہ	-0.819518
-3.774869	ض غ	-0.7841873
-4.084332	ض غہ	0.04107928
-4.2356	ض ف	-0.4913105
-4.888813	ض ق	-0.1710887
-1.373916	ض ل	-2.75464
-4.490872	ض لح	-1.015822
-4.393962	ض لھ	-0.4004895
-3.080095	ض لہ	-0.7210728
-1.434597	ض م	-2.654352
-3.645774	ض مح	-2.046091
-5.791903	ض مھ
-3.612926	ض مہ	-1.350679
-3.316231	ض ن	-1.227967
-4.888813	ض نہ	0.4704061
-1.079741	ض و	-2.09275
-4.83766	ض وح	-0.6523002
-4.869813	ض وھ	-0.6134927
-4.490872	ض وہ	-0.6276149
-5.189843	ض پ	-0.03249024
-5.791903	ض چ
-5.791903	ض ڈ
-4.615811	ض ڑ	-1.520313
-3.488706	ض ک	-0.559545
-3.922671	ض کہ	-1.20768
-2.720389	ض گ	-2.381279
-5.314781	ض ں	1.234423
-0.9015541	ض ی	-2.396084
-2.789737	ض یح	-2.072448
-5.36011	ض یھ
-3.03148	ض یہ	-1.114916
-2.074898	ض ے	-0.6506834
-4.946805	ض ےح	-0.2919338
-5.36011	ض ےہ	-0.2004573
-0.04887682	ضح </s>
-1.971091	ضح ا	-1.376228
-3.918851	ضح اھ	-0.5900499
-3.408333	ضح اہ	-1.084777
-3.918851	ضح بھ	-0.0223195
-3.249845	ضح ت	-0.4874595
-4.395973	ضح تح
-3.1407	ضح تہ	-0.8242816
-4.395973	ضح ث
-4.395973	ضح ج
-4.395973	ضح جہ
-4.395973	ضح خہ
-4.395973	ضح ر
-3.550874	ضح رہ	-0.2441442
-4.395973	ضح س
-3.793913	ضح ض	-0.5958667
-3.550874	ضح ط	-0.8527735
-3.96418	ضح ع	-0.1948427
-3.96418	ضح ف	-0.1528063
-4.395973	ضح قہ
-3.96418	ضح ل
-3.316791	ضح م	-0.9939281
-3.96418	ضح مہ	0.1129243
-3.408333	ضح ن	-0.5365422
-3.96418	ضح نہ	0.07077488
-2.783189	ضح و	-0.3887779
-3.395972	ضح وہ	-0.2238875
-4.395973	ضح پ
-2.446583	ضح ک	-0.5037056
-1.515731	ضح کہ	-2.213432
-1.26822	ضح ی	-2.124159
-3.96418	ضح یح	0.312487
-3.96418	ضح یہ	0.5992525
-2.980999	ضح ے	0.2392957
-1.298853	ضھ </s>
-0.8074914	ضھ ا	-1.391822
-0.1085214	ضھ م	-1.459059
-2.298853	ضھ ی
-2.298853	ضھ ے
-0.009828744	ضہ </s>
-3.583426	ضہ ئ	-0.03348805
-2.328153	ضہ ا	-1.156299
-4.185485	ضہ ب
-3.340387	ضہ ت	-0.004472613
-3.708364	ضہ ج	-0.5674263
-4.185485	ضہ د
-3.263396	ضہ ر	-0.4093689
-3.753693	ضہ ز	-0.1671107
-4.185485	ضہ س
-4.185485	ضہ ل
-1.897684	ضہ م	-2.512668
-3.753693	ضہ ن	-0.09174374
-3.071542	ضہ و	-0.1582313
-4.185485	ضہ پ
-3.106304	ضہ ی	-0.3876773
-2.906732	ضہ ے	0.3696294
-1.026007	ط </s>
-4.425123	ط آ	-0.5160216
-5.549633	ط ؤ
-5.549633	ط ؤہ	0.3209507
-3.573185	ط ئ	-0.8478568
-3.881055	ط ئہ	-0.8825899
-0.6675876	ط ا	-2.54647
-4.449946	ط اح	-0.1664652
-3.245029	ط اھ	-2.673851
-2.306656	ط اہ	-2.404005
-1.418431	ط ب	-2.655732
-5.981425	ط بح
-5.136327	ط بھ	-0.4634674
-2.559986	ط بہ	-3.006797
-3.116321	ط ت	-2.093623
-4.993786	ط تھ	-0.9171119
-5.059336	ط تہ	0.3664694
-4.805334	ط ج	-1.032156
-5.981425	ط جہ
-3.808239	ط خ	-1.775504
-4.583485	ط د	-0.8252029
-0.769835	ط ر	-1.932456
-0.8768119	ط رح	-1.546919
-3.851092	ط رھ	-1.736528
-2.080458	ط رہ	-2.177845
-4.777305	ط ز	-0.2769534
-3.077793	ط س	-1.188979
-3.401642	ط ش	-2.39284
-4.680395	ط شہ	-1.165625
-5.981425	ط ص
-5.549633	ط صح	-0.01398547
-4.291229	ط ط	-1.051918
-1.895849	ط ع	-2.688558
-5.981425	ط عح
-4.902244	ط عھ	-0.3140426
-3.175245	ط عہ	-1.356369
-3.206179	ط غ	-1.748188
-1.919182	ط ف	-2.107491
-5.981425	ط فح
-4.940032	ط فھ	-0.9842921
-3.447399	ط فہ	-1.879644
-2.505609	ط ق	-2.086779
-5.549633	ط قھ	0.05938473
-3.601214	ط قہ	-1.316329
-1.119807	ط ل	-2.969595
-2.624444	ط لح	-3.093138
-5.549633	ط لھ
-3.608513	ط لہ	-0.6646788
-2.074606	ط م	-2.10499
-4.124093	ط مح	-1.851114
-5.981425	ط مھ
-2.272835	ط مہ	-2.346235
-1.575345	ط ن	-2.438953
-4.835297	ط نھ	-0.5221878
-4.057146	ط نہ	-1.184859
-0.9609895	ط و	-2.593753
-4.902244	ط وح	-0.277802
-5.981425	ط وھ
-4.504304	ط وہ	0.2224308
-4.566452	ط پ	-0.2253801
-5.981425	ط پہ
-5.981425	ط ڈ
-4.291229	ط ک	-0.698366
-5.549633	ط کہ
-3.686959	ط گ	-1.596351
-5.549633	ط ں	1.6004
-1.300619	ط ی	-1.869936
-4.777305	ط یح	0.09092152
-4.639003	ط یھ	-0.3281622
-2.908074	ط یہ	-1.601472
-1.686871	ط ے	-0.7278824
-5.981425	ط ےھ
-4.835297	ط ےہ	-0.604072
-0.1013145	طح </s>
-0.8803687	طح ا	-2.606833
-3.767057	طح اھ	-0.2240722
-3.767057	طح اہ	-0.2301349
-4.19885	طح ب
-3.21121	طح ت	-0.2259293
-3.767057	طح س	-0.2243122
-2.943577	طح ط	-1.17363
-3.244607	طح ن	-0.1565011
-1.799176	طح و	-1.608627
-3.27676	طح پ	-0.4191893
-4.19885	طح ک
-1.24509	طح ی	-2.461526
-4.19885	طح یح
-1.634386	طھ </s>
-0.7672933	طھ ا	-1.222304
-2.675778	طھ ت
-0.4086066	طھ ر	-1.046103
-1.596597	طھ رھ	-1.096792
-1.561835	طھ رہ	-0.9730051
-2.675778	طھ ط
-1.721536	طھ م	-0.5625299
-2.073718	طھ ن	0.1066633
-0.959775	طھ و	-0.8861671
-0.6629411	طھ ی	-2.003021
-2.675778	طھ ے
-0.07264232	طہ </s>
-3.581576	طہ آ	-0.4418834
-3.504585	طہ ئ	-0.5491396
-1.291223	طہ ا	-2.013672
-3.994881	طہ ت	-0.1687641
-4.426674	طہ تح
-4.426674	طہ ج
-1.147463	طہ ر	-1.685261
-4.426674	طہ رھ
-1.883848	طہ رہ	-2.194774
-3.581576	طہ ز	-0.8737556
-4.426674	طہ س
-4.426674	طہ ط
-4.426674	طہ طہ
-4.426674	طہ فہ
-3.949553	طہ ق	-0.5616564
-3.011701	طہ م	-1.062609
-3.084251	طہ ن	-1.335741
-2.594165	طہ و	-1.23289
-1.895195	طہ ی	-2.137482
-4.426674	طہ یہ
-3.824614	طہ ے	1.068599
-0.7252746	ظ </s>
-4.118456	ظ آ	-0.9167743
-4.714881	ظ آہ	-0.5530511
-5.63697	ظ ؤ
-5.159849	ظ ئ	-0.5886892
-5.63697	ظ ئہ
-0.8158825	ظ ا	-2.717689
-4.63697	ظ اح	-0.6200639
-2.727414	ظ اھ	-2.846813
-1.053488	ظ اہ	-3.422081
-2.937132	ظ ب	-1.45864
-5.159849	ظ بہ	0.03490615
-1.580942	ظ ت	-3.39361
-5.63697	ظ تھ
-4.682727	ظ تہ	-0.4997705
-5.63697	ظ ث
-5.205178	ظ ثہ	-0.2352437
-4.649331	ظ ج	-0.06785745
-5.63697	ظ جھ
-4.649331	ظ خ	-0.05883352
-5.63697	ظ د
-5.205178	ظ دح	-0.2348543
-5.63697	ظ ذہ
-0.6151938	ظ ر	-2.104822
-3.391457	ظ رح	-1.301935
-4.682727	ظ رھ	-0.3473462
-2.648411	ظ رہ	-1.498668
-4.73388	ظ ز	-0.1933191
-5.63697	ظ زہ
-4.358216	ظ س	-0.233016
-5.159849	ظ ش	-0.1196591
-5.63697	ظ ص
-5.63697	ظ صح
-5.63697	ظ ض
-4.649331	ظ ط	0.05098951
-4.714881	ظ ظ	-0.003714442
-3.9294	ظ ع	-1.008146
-5.63697	ظ عہ
-4.595577	ظ غ	-0.6162729
-1.89811	ظ ف	-3.271056
-5.205178	ظ فہ
-4.43285	ظ ق	-0.7495285
-5.159849	ظ قہ	0.463628
-1.428233	ظ ل	-2.686635
-4.714881	ظ لھ	-0.1150797
-2.753877	ظ لہ	-0.9494151
-0.9419878	ظ م	-2.675928
-4.221997	ظ مھ	-0.6651976
-2.798751	ظ مہ	-2.345268
-2.396171	ظ ن	-2.052036
-4.057187	ظ نہ	-1.388206
-1.556344	ظ و	-2.402751
-5.63697	ظ وھ
-4.73388	ظ وہ	0.3225676
-5.159849	ظ پ	-0.5521711
-4.791872	ظ ڈ	-0.8970029
-5.03491	ظ ڑ	0.04317695
-3.767738	ظ ک	-0.6216807
-4.714881	ظ کہ	-0.07713413
-5.205178	ظ گ
-5.03491	ظ ں	1.798807
-1.0224	ظ ی	-3.09993
-5.03491	ظ یہ	0.7976595
-3.151249	ظ ے	-0.09466159
-0.3203351	ظح </s>
-0.9299353	ظح د	-0.1361572
-1.361728	ظح ر
-0.9299353	ظح س	-0.2352344
-0.7596679	ظح و	-0.03763097
-1.361728	ظح ی
-2.773055	ظھ </s>
-0.662465	ظھ ا	-1.614888
-1.818812	ظھ ب	-0.9556453
-0.3212683	ظھ ر	-0.9453994
-1.785415	ظھ رھ	0.09102585
-1.411327	ظھ رہ	-1.207088
-1.659111	ظھ م	-0.8821074
-0.7602175	ظھ و	-1.048758
-1.430632	ظھ ی	-1.347716
-0.6521263	ظہ </s>
-0.301018	ظہ ا	-3.450937
-1.954832	ظہ ب	-2.559244
-4.557976	ظہ ت
-0.9008246	ظہ ر	-1.613166
-3.327527	ظہ رح	-1.229369
-2.644162	ظہ رہ	-1.26716
-3.039462	ظہ م	-1.084812
-0.9722899	ظہ و	-2.713086
-4.557976	ظہ وہ
-3.570337	ظہ ک	-1.004352
-1.52576	ظہ ی	-2.589633
-4.080855	ظہ ے	-0.6018871
-1.042926	ع </s>
-4.586277	ع آ	-0.793568
-5.485129	ع ؤ	-0.4621464
-4.372398	ع ئ	-0.7344747
-5.518526	ع ئہ	0.09457242
-0.8786191	ع ا	-2.197022
-5.150549	ع اح	-0.6133612
-4.329754	ع اھ	-1.808455
-2.577235	ع اہ	-2.874122
-1.49267	ع ب	-3.13517
-5.217496	ع بھ	-0.1380969
-2.508226	ع بہ	-2.02677
-1.335038	ع ت	-2.003784
-6.472768	ع تح
-4.954255	ع تھ	-0.6877241
-3.773798	ع تہ	-1.065812
-2.071058	ع ث	-2.258669
-6.040976	ع ثھ	-0.04056258
-4.765198	ع ثہ	-0.1200938
-2.101257	ع ج	-2.187639
-6.472768	ع جح
-5.485129	ع جہ	-0.3979202
-5.326641	ع خ	-0.1322811
-1.127736	ع د	-1.469433
-4.274111	ع دح	-1.149555
-4.393587	ع دھ	-1.702116
-2.240968	ع دہ	-0.6575632
-2.286603	ع ذ	-2.90931
-6.040976	ع ذہ	-0.1925887
-1.300128	ع ر	-2.011549
-5.485129	ع رح	-0.02916753
-4.680377	ع رھ	-1.319353
-2.940907	ع رہ	-1.850885
-1.8423	ع ز	-2.392241
-5.995647	ع زھ	-0.5932957
-4.372398	ع زہ	-0.9308872
-2.643207	ع س	-2.003335
-6.472768	ع سہ
-2.262932	ع ش	-2.776652
-4.8393	ع شہ	-1.486859
-2.15596	ع ص	-2.665928
-5.569678	ع صہ	-0.1015155
-1.989238	ع ض	-2.337641
-6.472768	ع ضح
-4.299582	ع ضھ	-0.9911813
-4.194015	ع ضہ	0.01796126
-2.096977	ع ط	-2.341197
-6.472768	ع طھ
-5.358825	ع طہ	-0.0005037189
-1.740737	ع ظ	-3.504755
-5.485129	ع ظھ	-0.5151442
-4.740375	ع ظہ	-1.55748
-5.01037	ع ع	-0.1214454
-5.393587	ع غ	-0.4591581
-2.365796	ع ف	-2.27041
-5.518526	ع فھ	-0.8314881
-5.01037	ع فہ	-0.9890105
-1.763914	ع ق	-2.457531
-4.881704	ع قھ	-1.306593
-4.849519	ع قہ	-0.05690944
-0.6848689	ع ل	-2.91099
-3.995647	ع لح	-2.135709
-4.33289	ع لھ	-1.398015
-3.347287	ع لہ	-0.4727386
-1.102239	ع م	-3.031227
-5.62767	ع مح	-0.2770177
-5.217496	ع مھ	-0.8923686
-3.73717	ع مہ	-1.433805
-1.472026	ع ن	-2.57254
-3.386409	ع نھ	-3.006852
-1.914048	ع نہ	-2.494635
-1.276084	ع و	-2.680767
-4.271371	ع وھ	-1.81112
-3.682483	ع وہ	-1.268943
-5.472768	ع ٹ	-0.5399452
-4.941289	ع پ	-0.5103544
-6.472768	ع پہ
-5.62767	ع چ	-0.0054501
-5.550679	ع چھ	0.03594229
-6.472768	ع ڈ
-5.569678	ع ڑ	0.05597354
-5.995647	ع ژ	-0.1190765
-2.45699	ع ک	-1.671241
-5.485129	ع کھ	-0.4283985
-4.765198	ع کہ	-1.048622
-5.358825	ع گ	0.2304486
-6.040976	ع گھ	-0.1829784
-5.870708	ع ں	1.234423
-1.289792	ع ی	-2.48958
-6.040976	ع یح
-5.62767	ع یھ	-0.3315329
-3.356161	ع یہ	-1.356398
-1.962398	ع ے	-0.835295
-5.485129	ع ےح	-0.5316344
-4.904567	ع ےہ	-0.696588
-0.6532125	عح </s>
-0.69897	عح ا	-0.3639755
-1.22142	عح ث	-0.07548122
-1.653213	عح ج
-1.176091	عح د
-1.653213	عح ر
-1.22142	عح صہ	0.9556955
-0.7311233	عح ض	-0.3939516
-1.22142	عح م	-0.1382671
-1.051152	عح و	-0.5935777
-1.21388	عھ </s>
-0.8081145	عھ ا	-1.848037
-0.3701941	عھ د	-1.095546
-1.954242	عھ دھ	0.0803646
-1.380211	عھ دہ	-0.6976483
-0.5717752	عھ م	-2.11867
-1.626884	عھ ن	-0.9520271
-1.954242	عھ ی	-0.8202448
-0.08381017	عہ </s>
-3.968173	عہ آ	0.006971031
-4.407506	عہ ئ	-0.03348805
-2.905762	عہ ا	-0.8079128
-4.577773	عہ ب
-5.009566	عہ بھ
-4.106476	عہ ت	-0.1030898
-3.833474	عہ ج	-0.6222101
-5.009566	عہ خ
-0.8368751	عہ د	-1.221196
-3.429782	عہ دح	-1.453107
-3.269203	عہ دھ	-1.650341
-1.643703	عہ دہ	-2.158754
-4.532444	عہ ذ	-0.02635092
-4.087476	عہ ر	-0.03798422
-4.164468	عہ ز	-0.5494255
-3.968173	عہ س	-0.1819824
-5.009566	عہ ص
-5.009566	عہ ض
-4.407506	عہ ع	-0.579184
-5.009566	عہ غ
-4.021926	عہ ف	-0.5464035
-5.009566	عہ ق
-4.532444	عہ ل
-2.61863	عہ م	-1.504887
-3.261378	عہ ن	-0.6450042
-5.009566	عہ نہ
-3.429782	عہ و	-0.6934695
-5.009566	عہ ٹھ
-4.577773	عہ پ	-0.1667751
-3.261378	عہ ک	-0.6705394
-5.009566	عہ کھ
-4.532444	عہ کہ	0.524977
-3.968173	عہ ی	-0.004127026
-4.164468	عہ ے	1.20681
-1.099484	غ </s>
-3.971617	غ آ	-1.955192
-4.733378	غ ؤ	-0.5486615
-4.196259	غ ئ	-0.4317181
-5.255828	غ ئہ	0.85849
-0.734359	غ ا	-2.038382
-5.085561	غ اح	-0.5724892
-5.085561	غ اھ	-0.01170645
-4.784531	غ اہ	-0.9003267
-2.145792	غ ب	-1.667129
-5.2105	غ بہ	0.03490615
-2.101259	غ ت	-1.629786
-4.699981	غ تھ	0.1643252
-4.156142	غ تہ	-1.089596
-4.240463	غ ث	-0.6303734
-4.784531	غ ج	-0.0243599
-5.687621	غ خ
-1.916401	غ د	-1.981398
-3.529258	غ دہ	-1.367654
-1.858188	غ ذ	-1.70858
-5.687621	غ ذہ
-0.9649869	غ ر	-2.033136
-4.699981	غ رح	-0.39686
-4.573678	غ رھ	-1.053352
-3.763341	غ رہ	-0.5324746
-1.587181	غ ز	-1.638404
-2.314157	غ زہ	-2.415302
-2.310315	غ س	-2.501664
-5.687621	غ سح
-5.687621	غ سہ
-3.251458	غ ش	-1.563662
-5.687621	غ شھ
-5.255828	غ شہ	-0.07948838
-2.252892	غ ص	-2.682133
-5.255828	غ صھ	-0.1823483
-2.027325	غ صہ	-2.402584
-2.022321	غ ض	-1.374271
-4.30741	غ ضھ	-0.7425396
-4.107837	غ ضہ	0.7079306
-3.335438	غ ط	-0.6927007
-5.687621	غ طہ
-4.289681	غ ظ	-0.5964968
-4.842523	غ ع	-0.03089911
-5.2105	غ غ	-0.09257652
-1.695332	غ ف	-2.612811
-4.325893	غ ق	-0.6696184
-5.687621	غ قہ
-0.9301413	غ ل	-2.509786
-5.255828	غ لھ
-2.67605	غ لہ	-1.604545
-1.325497	غ م	-2.551045
-2.601974	غ مہ	-1.969113
-1.844201	غ ن	-2.033575
-4.573678	غ نھ	-1.11933
-3.038286	غ نہ	-2.377385
-1.252478	غ و	-2.198087
-5.687621	غ وھ
-4.765532	غ وہ	-0.1773943
-3.980051	غ ٹ	-1.286105
-3.90947	غ پ	-1.162271
-4.733378	غ چ	-0.1919662
-4.511529	غ چہ	-0.688337
-4.457172	غ ڑ	-0.1575185
-4.325893	غ ک	-0.3091497
-4.784531	غ کہ	0.2485732
-4.646228	غ گ	-0.5751917
-5.687621	غ ں
-0.584738	غ ی	-2.521427
-5.255828	غ یح	0.312487
-4.131318	غ یہ	-0.7155516
-2.517946	غ ے	-0.5983772
-0.9542425	غح ا
-0.52245	غح ر	-0.2150145
-0.3521825	غح و	-0.0277296
-0.9542425	غح ک
-1.255273	غھ </s>
-0.82348	غھ ا	-0.1365428
-1.255273	غھ ر
-0.3331833	غھ م	-0.4555116
-0.6532125	غھ ن	-0.03189576
-0.007665293	غہ </s>
-3.124631	غہ ئ	-0.2318951
-2.410295	غہ ا	-0.2842931
-2.568784	غہ ب	-1.082656
-2.954363	غہ جھ	-0.01013892
-3.079302	غہ ر	0.07847361
-3.079302	غہ رہ	-0.428937
-3.124631	غہ ز	-0.2092531
-3.556423	غہ ط
-2.602181	غہ م	-0.6258463
-2.556423	غہ و	-0.4012623
-3.556423	غہ ی
-3.124631	غہ ے	1.434577
-0.5942299	ف </s>
-4.331544	ف آ	-0.3117271
-4.707716	ف ؤ	-0.3829616
-3.701963	ف ئ	-1.092942
-5.281747	ف ئہ	-0.01937091
-0.9490645	ف ا	-1.852465
-3.649965	ف اح	-0.8688653
-4.575598	ف اھ	-1.143181
-2.948804	ف اہ	-1.560929
-3.490524	ف ب	-0.7926716
-5.105656	ف بح	-0.4521046
-5.038709	ف بھ	0.06576836
-4.72746	ف بہ	-0.5414957
-1.261489	ف ت	-1.772577
-2.360407	ف تح	-2.508193
-4.436649	ف تھ	-0.6973648
-2.187509	ف تہ	-2.294427
-4.3878	ف ث	-1.068315
-6.360928	ف ثح
-5.156808	ف ثہ	0.3570274
-2.908528	ف ج	-1.359658
-6.360928	ف جھ
-4.929564	ف جہ	-0.563962
-2.593624	ف خ	-1.452489
-5.082175	ف خہ	0.4931086
-2.527781	ف د	-1.473838
-5.929136	ف دح
-6.360928	ف دھ
-5.018506	ف دہ	-0.1967523
-2.691983	ف ذ	-2.134677
-5.406686	ف ذھ	-0.3545949
-4.575598	ف ذہ	-0.4382514
-0.7582368	ف ر	-2.306823
-3.027279	ف رح	-1.603096
-4.497605	ف رھ	-0.7765967
-3.497605	ف رہ	-1.724043
-2.558428	ف ز	-1.467078
-5.281747	ف زہ	-0.3126862
-1.607882	ف س	-1.794141
-4.568536	ف سح	-0.873797
-4.079895	ف سھ	-1.937335
-3.39338	ف سہ	-1.564684
-2.894506	ف ش	-1.334393
-5.2148	ف شہ	-0.3568365
-2.029947	ف ص	-1.806824
-4.605053	ف صح	-1.20343
-5.929136	ف صھ
-3.552042	ف صہ	-1.617108
-1.884343	ف ض	-2.356848
-5.2148	ف ضح	0.6301693
-5.929136	ف ضھ
-4.240354	ف ضہ	-0.4736601
-2.346786	ف ط	-1.259554
-5.406686	ف طح	-0.3182144
-4.980717	ف طہ	-0.5855304
-1.746231	ف ظ	-1.616558
-5.373289	ف ظح	-0.06114293
-5.184837	ف ظھ	-0.8323888
-3.192725	ف ظہ	-1.735074
-1.954013	ف ع	-1.950794
-5.373289	ف عح	-0.5032194
-4.737679	ف عھ	-1.383965
-2.350586	ف عہ	-2.356597
-1.896051	ف غ	-2.773917
-6.360928	ف غھ
-5.758868	ف غہ	1.719407
-3.323502	ف ف	-0.7796309
-6.360928	ف فھ
-5.758868	ف فہ	0.4182997
-1.834021	ف ق	-1.434322
-5.438839	ف قح	-0.6170369
-3.961254	ف قھ	-0.3074825
-2.370013	ف قہ	-1.289106
-1.520013	ف ل	-2.31397
-3.859869	ف لح	-0.8056802
-5.038709	ف لھ	-0.3147562
-3.11443	ف لہ	-0.9682223
-3.187742	ف م	-0.7665029
-4.962988	ف مح	-0.4196845
-5.883807	ف مھ	0.2016
-4.9992	ف مہ	-0.5488831
-1.98662	ف ن	-1.510961
-4.781145	ف نح	-0.9645082
-4.945955	ف نھ	-1.403867
-4.534853	ف نہ	0.01206017
-1.186828	ف و	-1.996869
-4.575598	ف وح	-0.7141581
-4.945955	ف وھ	-1.398219
-4.421409	ف وہ	-0.599261
-2.085456	ف ٹ	-1.764206
-5.929136	ف ٹھ	-0.0683523
-5.929136	ف ٹہ
-4.91377	ف پ	-0.06971264
-6.360928	ف پھ
-5.059898	ف چ	-0.1565902
-4.575598	ف ڈ	-0.5465106
-4.855778	ف ڑ	-0.3378821
-6.360928	ف ڑہ
-4.945955	ف ژ	-0.9904017
-1.878426	ف ک	-1.92505
-6.360928	ف کھ
-5.883807	ف کہ	-0.09348449
-3.491696	ف گ	-1.379873
-5.883807	ف گھ
-5.360928	ف ں	1.192163
-0.9328274	ف ی	-1.936785
-4.769864	ف یح	0.3575774
-3.393848	ف یھ	-1.583202
-2.161173	ف یہ	-0.3615165
-2.338954	ف ے	-0.4310133
-5.929136	ف ےح	-0.2299732
-5.373289	ف ےھ	0.01274918
-5.038709	ف ےہ	-1.260982
-0.2208928	فح </s>
-3.245204	فح آ	-1.072381
-3.801051	فح ئ	-0.2318951
-3.630784	فح ئہ	1.056897
-0.6387828	فح ا	-1.845743
-3.630784	فح اح	-0.01565919
-3.387746	فح ب	-0.3618277
-3.801051	فح بہ	-0.05877176
-2.4133	فح ت	-0.6317613
-3.801051	فح تہ	0.2183896
-3.245204	فح ج	-0.06782071
-2.871116	فح د	-0.8795229
-3.028724	فح ر	-0.1172973
-3.630784	فح ز	-0.07285874
-2.447514	فح س	-1.217229
-1.279567	فح ش	-1.987321
-3.310755	فح شہ	-0.3967329
-2.727694	فح ص	-1.461124
-3.310755	فح صہ	0.638451
-3.387746	فح ض	-0.2578919
-4.232844	فح ط
-3.755723	فح ظ	-0.1301712
-3.801051	فح ع	-0.1355744
-3.310755	فح ف	-0.08615542
-3.056752	فح ق	-1.094891
-2.977571	فح ل	-0.6570542
-2.676541	فح م	-1.325812
-3.329754	فح ن	-0.07038584
-1.803091	فح و	-1.588537
-2.609594	فح پ	-1.188082
-3.002395	فح ک	-0.8858164
-4.232844	فح کہ
-2.664642	فح ی	-0.03897774
-3.801051	فح یہ	0.5992525
-1.132473	فح ے	-1.285945
-1.445864	فھ </s>
-3.127105	فھ آ
-1.051558	فھ ا	-0.9643322
-2.139465	فھ ب	-0.5984866
-3.127105	فھ ت
-2.205016	فھ ج	-0.5417498
-1.746894	فھ د	-0.8763721
-1.394711	فھ ذ	-1.587693
-2.525045	فھ ذہ	0.00581833
-1.263782	فھ ر	-1.199282
-2.139465	فھ ز	-1.06139
-3.127105	فھ س
-2.695312	فھ ف	-0.1085019
-2.525045	فھ ق	0.04287852
-1.53604	فھ ل	-1.41252
-0.707149	فھ م	-1.564232
-2.172862	فھ مہ	-0.6509933
-2.695312	فھ ن
-0.3555173	فھ و	-1.05799
-2.649984	فھ ک	-0.5634179
-3.127105	فھ گ
-1.307561	فھ ی	-1.378627
-2.649984	فھ یھ	-0.5715858
-2.695312	فھ ے	1.434577
-0.1779702	فہ </s>
-4.809627	فہ ؤ
-3.821987	فہ ئ	-0.6172768
-1.840677	فہ ا	-1.767478
-3.695684	فہ ب	-0.1723541
-4.809627	فہ بہ
-3.821987	فہ ت	-0.461509
-3.487408	فہ ج	-1.310642
-2.034381	فہ د	-1.547534
-3.186378	فہ ذ	-1.517415
-3.554354	فہ ذہ	-1.23526
-1.054438	فہ ر	-2.559992
-3.821987	فہ رح	-0.7347553
-3.855385	فہ ز	-0.5842409
-3.855385	فہ س	-0.09690902
-4.809627	فہ ظ
-4.377834	فہ ع
-4.377834	فہ ف
-4.207567	فہ ق	-0.030592
-3.906537	فہ قہ	-0.9410754
-3.110657	فہ ل	-1.38283
-0.9408651	فہ م	-2.455592
-3.768234	فہ مہ	-0.692386
-3.855385	فہ ن	-0.7431527
-1.115549	فہ و	-2.58411
-3.530874	فہ پ	-1.144616
-4.809627	فہ ڈھ
-3.017235	فہ ک	-0.412429
-4.377834	فہ کہ	-0.2210367
-1.553631	فہ ی	-2.233715
-3.633536	فہ ے	0.1399366
-0.7713524	ق </s>
-4.591331	ق آ	-0.7874618
-6.362183	ق ؤ
-4.536108	ق ئ	-0.3459933
-5.000455	ق ئہ	-0.2856388
-0.8181733	ق ا	-2.305271
-5.186092	ق اح	-0.2237127
-4.023726	ق اھ	-1.435748
-2.922693	ق اہ	-2.494616
-1.304304	ق ب	-2.727632
-4.349346	ق بح	-1.700373
-5.039964	ق بھ	-0.08171213
-3.054473	ق بہ	-2.034031
-1.018015	ق ت	-2.372447
-5.362183	ق تح	-0.9999772
-4.699425	ق تھ	-0.9841744
-4.035847	ق تہ	-1.017527
-4.870821	ق ث	-0.3963513
-4.7824	ق ج	0.08004725
-5.459093	ق خ	0.04380289
-1.302124	ق د	-2.020113
-4.244912	ق دح	-1.757745
-5.32079	ق دھ	-0.195641
-3.21792	ق دہ	-1.704061
-2.8968	ق ذ	-1.95456
-5.283002	ق ذہ	-1.035687
-1.051409	ق ر	-2.38954
-5.40794	ق رح	0.3267154
-4.964243	ق رھ	-1.283826
-2.991485	ق رہ	-2.738613
-3.475129	ق ز	-1.407233
-4.362183	ق زح	-1.970857
-1.633837	ق س	-3.009688
-5.93039	ق سھ
-2.750778	ق ش	-1.938297
-6.362183	ق شھ
-3.091271	ق شہ	-2.508882
-1.607712	ق ص	-2.525551
-5.517085	ق صح	-0.6809931
-6.362183	ق صھ
-2.920174	ق صہ	-1.607611
-2.779325	ق ض	-1.585059
-6.362183	ق ضھ
-5.061153	ق ضہ	1.053936
-2.046297	ق ط	-2.29811
-5.374544	ق طح	0.2838456
-5.440094	ق طھ	-0.7513831
-2.701507	ق طہ	-2.367165
-4.389055	ق ظ	-0.63361
-4.680942	ق ظہ	-1.580741
-1.513182	ق ع	-2.896907
-6.362183	ق عح
-5.459093	ق عھ	-0.9268568
-2.131887	ق عہ	-2.292125
-5.374544	ق غ
-2.127311	ق ف	-1.87033
-5.517085	ق فھ	-0.1349741
-3.406015	ق فہ	-2.162697
-2.908101	ق ق	-1.971591
-5.083429	ق قہ	-0.235342
-1.382557	ق ل	-2.801154
-5.885062	ق لح	-0.5141197
-5.061153	ق لھ	-0.9262845
-4.206847	ق لہ	-0.6669928
-2.063985	ق م	-2.007628
-5.158063	ق مح	-0.2170399
-5.93039	ق مھ	0.1079221
-3.423163	ق مہ	-2.02036
-2.600405	ق ن	-1.467797
-6.362183	ق نح
-5.000455	ق نھ	-1.077348
-4.728714	ق نہ	-0.195154
-1.115224	ق و	-2.785956
-5.93039	ق وح	-0.08897083
-5.283002	ق وھ	-0.4621362
-4.183206	ق وہ	-0.3659928
-5.459093	ق ٹ	-0.2773832
-4.50485	ق پ	-0.3649578
-4.654613	ق چ	-1.57701
-5.760123	ق چھ	0.1953197
-4.964243	ق چہ	-0.8991904
-5.760123	ق ڈ	-0.05563432
-5.374544	ق ڑ	-1.090018
-3.683665	ق ک	-1.070711
-6.362183	ق کھ
-5.885062	ق کہ	-0.1273587
-5.000455	ق گ	-0.4490224
-5.93039	ق گھ	0.06966299
-5.24824	ق ں	1.136019
-0.8909633	ق ی	-2.619115
-4.166284	ق یح	-0.8908511
-4.870821	ق یھ	0.4544311
-2.682755	ق یہ	-0.4619472
-1.790428	ق ے	-0.8802629
-6.362183	ق ےھ
-5.131734	ق ےہ	-0.1027785
-1.523465	قح </s>
-1.162248	قح ا	-1.922945
-2.489607	قح ب	-0.01575899
-1.259158	قح بہ	-1.661538
-2.489607	قح ت	0.1343354
-3.091667	قح س
-0.09166696	قح ط	-1.702101
-2.489607	قح ظ	0.05290012
-3.091667	قح ف
-2.169578	قح ق	-0.2751184
-2.169578	قح م	0.01470798
-2.659874	قح و
-2.050274	قح ی	-0.738274
-1.143735	قھ </s>
-2.7348	قھ آ
-0.306665	قھ ا	-1.215037
-1.43377	قھ ر	-0.5078764
-2.303007	قھ رہ	-0.0629594
-0.9286199	قھ م	-1.407335
-2.257679	قھ ن	-0.4577214
-1.190732	قھ و	-0.6272582
-2.7348	قھ وھ
-2.7348	قھ وہ
-0.8003014	قھ ی	-1.711433
-1.655619	قھ یہ	-0.2786085
-1.74716	قھ ے	0.5799347
-0.03903626	قہ </s>
-4.850377	قہ آ
-3.862737	قہ ئ	-1.086537
-1.524861	قہ ا	-1.539137
-3.862737	قہ اح	-0.02543589
-3.850377	قہ اہ	-0.6861907
-3.674285	قہ ب	-0.4288981
-4.373255	قہ ت	0.02960624
-4.850377	قہ ج
-4.373255	قہ جہ	-0.6014659
-4.850377	قہ خ
-3.862737	قہ د	-0.6046056
-4.850377	قہ دھ
-2.051726	قہ ر	-1.319787
-3.862737	قہ ز	0.03909738
-3.896134	قہ س	-0.6215723
-4.850377	قہ ش
-4.850377	قہ ص
-4.850377	قہ ط
-4.248317	قہ ع	-0.09464851
-3.862737	قہ ف	-0.3461359
-3.079525	قہ ق	-1.01013
-4.248317	قہ قھ	-0.06982382
-1.973582	قہ قہ	-1.42216
-4.005279	قہ ل	-0.4132847
-4.850377	قہ لہ
-2.689009	قہ م	-2.184367
-3.808984	قہ ن	-0.04027101
-4.005279	قہ نہ	-0.5962327
-2.302602	قہ و	-1.335601
-2.356222	قہ وہ	-1.769011
-4.373255	قہ پ
-3.435403	قہ ک	-0.8744535
-4.418584	قہ گ
-4.850377	قہ ں
-1.786668	قہ ی	-2.082593
-3.206924	قہ یہ	-0.8178777
-2.295282	قہ ے	-0.8496667
-0.6831446	ل </s>
-3.259382	ل آ	-0.9791534
-5.681899	ل آح	-0.6837506
-4.840261	ل ؤ	-1.167759
-6.335112	ل ؤہ	-0.04502696
-1.629333	ل ئ	-3.250938
-6.937171	ل ئح
-4.64937	ل ئہ	-0.8580915
-0.8349351	ل ا	-1.096922
-2.356794	ل اح	-1.912491
-4.138521	ل اھ	-1.210704
